{"learner":{"attributes":{"best_iteration":"47","best_ntree_limit":"48","best_score":"0.999924"},"feature_names":[],"feature_types":[],"gradient_booster":{"model":{"gbtree_model_param":{"num_trees":"50","size_leaf_vector":"0"},"tree_info":[0,0,0,0,0,0,0,0,0,0,0,0,0,0,0,0,0,0,0,0,0,0,0,0,0,0,0,0,0,0,0,0,0,0,0,0,0,0,0,0,0,0,0,0,0,0,0,0,0,0],"trees":[{"base_weights":[9.6551724E-2,5.4867256E-1,-1.4117647E0,-1E0,8.6315787E-1,8E-1,-1.6774193E0,-1.4285715E0,9.8138615E-2,1.4018692E0,1.6091955E-1,-3.53299E-2,9.8138615E-2,-1.8E0,5.8883168E-2,5.8883168E-2,-1.6363636E0,-0E0,1.5789474E0,6.229508E-1,-8E-1,-1.6425304E-1,-2.857143E-1,-1.5385601E-1,-0E0,-6.666667E-1,8.832475E-2,-0E0,1.6483517E0,-4E-1,1.2E0,7.570693E-2,-1.1111112E0,3.53299E-2,-5.8883168E-2,-3.53299E-2,3.53299E-2,3.53299E-2,-9.0909094E-1,-5.8883168E-2,5.8883168E-2,1.6888889E0,-3.53299E-2,8E-1,-9.4736844E-1,-1.8181819E-1,1.5151515E0,5E-1,-1.4782609E0,-0E0,-9.8138615E-2,1.5228404E-1,2.857143E-1,-3.53299E-2,9.8138615E-2,5.8883168E-2,-1.2941177E0,-8.832475E-2,7.570693E-2,-3.53299E-2,1.625E0,-3.53299E-2,7.570693E-2,3.53299E-2,-1.445314E-1,3.53299E-2,-3.53299E-2,5.8883168E-2,-3.53299E-2,-2.857143E-1,-1.2617822E-1,2.857143E-1,1.5228404E-1,3.53299E-2,-5.8883168E-2,5.8883168E-2,-3.53299E-2],"categories":[],"categories_nodes":[],"categories_segments":[],"categories_sizes":[],"default_left":[false,false,false,false,false,false,false,false,false,false,false,false,false,false,false,false,false,false,false,false,false,false,false,false,false,false,false,false,false,false,false,false,false,false,false,false,false,false,false,false,false,false,false,false,false,false,false,false,false,false,false,false,false,false,false,false,false,false,false,false,false,false,false,false,false,false,false,false,false,false,false,false,false,false,false,false,false],"id":0,"left_children":[1,3,5,7,9,11,13,15,-1,17,19,-1,-1,21,-1,-1,23,25,27,29,31,-1,33,-1,35,37,-1,39,41,43,45,-1,47,-1,-1,-1,-1,-1,49,-1,-1,51,-1,53,55,57,59,61,63,65,-1,-1,67,-1,-1,-1,69,-1,-1,-1,71,-1,-1,-1,-1,-1,-1,-1,-1,73,-1,75,-1,-1,-1,-1,-1],"loss_changes":[5.0215343E1,2.8380623E1,1.1330547E1,1.0634922E1,1.774384E1,1.3777777E0,5.653763E0,4.9004326E0,0E0,6.6404305E0,1.0154815E1,0E0,0E0,8.235588E-1,0E0,0E0,1.4252186E0,3.3333335E0,2.6026611E0,9.481967E0,4.819047E0,0E0,7.2380954E-1,0E0,4E-1,1.1393939E0,0E0,1.3333334E0,2.5645905E0,4.8631577E0,4.6303043E0,0E0,4.731884E0,0E0,0E0,0E0,0E0,0E0,5.050504E-1,0E0,0E0,6.202545E-1,0E0,1.3777777E0,3.5211558E0,3.1948051E0,2.3856068E0,9.857143E-1,2.3620558E0,4E-1,0E0,0E0,7.2380954E-1,0E0,0E0,0E0,1.6806698E-1,0E0,0E0,0E0,5.695801E-1,0E0,0E0,0E0,0E0,0E0,0E0,0E0,0E0,7.2380954E-1,0E0,7.2380954E-1,0E0,0E0,0E0,0E0,0E0],"parents":[2147483647,0,0,1,1,2,2,3,3,4,4,5,5,6,6,7,7,9,9,10,10,13,13,16,16,17,17,18,18,19,19,20,20,22,22,24,24,25,25,27,27,28,28,29,29,30,30,32,32,38,38,41,41,43,43,44,44,45,45,46,46,47,47,48,48,49,49,52,52,56,56,60,60,69,69,71,71],"right_children":[2,4,6,8,10,12,14,16,-1,18,20,-1,-1,22,-1,-1,24,26,28,30,32,-1,34,-1,36,38,-1,40,42,44,46,-1,48,-1,-1,-1,-1,-1,50,-1,-1,52,-1,54,56,58,60,62,64,66,-1,-1,68,-1,-1,-1,70,-1,-1,-1,72,-1,-1,-1,-1,-1,-1,-1,-1,74,-1,76,-1,-1,-1,-1,-1],"split_conditions":[-1.7166138E-2,1E0,-2.7770996E-2,-1.2292224E-4,1.4475146E-3,4.6450414E-2,5.7914075E-2,1.7052412E-1,9.8138615E-2,-5.236074E-2,-5.001068E-3,-3.53299E-2,9.8138615E-2,1.24053955E-2,5.8883168E-2,5.8883168E-2,4.8808027E-2,3.8814712E-1,-5.1727295E-2,1.9967379E-1,4.6450414E-2,-1.6425304E-1,1.3949387E-1,-1.5385601E-1,2.9214466E-1,1.7052412E-1,8.832475E-2,3.8814712E-1,4.0039062E-2,1.7052412E-1,-3.8116455E-2,7.570693E-2,5.9241456E-1,3.53299E-2,-5.8883168E-2,-3.53299E-2,3.53299E-2,3.53299E-2,4.6450414E-2,-5.8883168E-2,5.8883168E-2,5.6549072E-2,-3.53299E-2,1.8182497E-1,2.9214466E-1,1.9967379E-1,3.9245516E-1,4.7524357E-1,8.18175E-1,4.6450414E-2,-9.8138615E-2,1.5228404E-1,1.9967379E-1,-3.53299E-2,9.8138615E-2,5.8883168E-2,5.9241456E-1,-8.832475E-2,7.570693E-2,-3.53299E-2,1.9967379E-1,-3.53299E-2,7.570693E-2,3.53299E-2,-1.445314E-1,3.53299E-2,-3.53299E-2,5.8883168E-2,-3.53299E-2,4.7524357E-1,-1.2617822E-1,2.9214466E-1,1.5228404E-1,3.53299E-2,-5.8883168E-2,5.8883168E-2,-3.53299E-2],"split_indices":[1110,176,1030,2680,2539,26,2589,205,0,2534,420,0,0,285,0,0,2310,40,275,5,190,0,71,0,6,10,0,40,1285,65,374,0,45,0,0,0,0,0,94,0,0,272,0,38,36,62,137,4,209,50,0,0,5,0,0,0,45,0,0,0,33,0,0,0,0,0,0,0,0,4,0,6,0,0,0,0,0],"split_type":[0,0,0,0,0,0,0,0,0,0,0,0,0,0,0,0,0,0,0,0,0,0,0,0,0,0,0,0,0,0,0,0,0,0,0,0,0,0,0,0,0,0,0,0,0,0,0,0,0,0,0,0,0,0,0,0,0,0,0,0,0,0,0,0,0,0,0,0,0,0,0,0,0,0,0,0,0],"sum_hessian":[7.15E1,5.55E1,1.6E1,9E0,4.65E1,1.5E0,1.45E1,7.75E0,1.25E0,2.575E1,2.075E1,2.5E-1,1.25E0,1.4E1,5E-1,5E-1,7.25E0,3E0,2.275E1,1.425E1,6.5E0,1.325E1,7.5E-1,6.75E0,5E-1,2E0,1E0,1E0,2.175E1,5.25E0,9E0,7.5E-1,5.75E0,2.5E-1,5E-1,2.5E-1,2.5E-1,2.5E-1,1.75E0,5E-1,5E-1,2.15E1,2.5E-1,1.5E0,3.75E0,1.75E0,7.25E0,1E0,4.75E0,5E-1,1.25E0,2.075E1,7.5E-1,2.5E-1,1.25E0,5E-1,3.25E0,1E0,7.5E-1,2.5E-1,7E0,2.5E-1,7.5E-1,2.5E-1,4.5E0,2.5E-1,2.5E-1,5E-1,2.5E-1,7.5E-1,2.5E0,7.5E-1,6.25E0,2.5E-1,5E-1,5E-1,2.5E-1],"tree_param":{"num_deleted":"0","num_feature":"3072","num_nodes":"77","size_leaf_vector":"0"}},{"base_weights":[-1.6708298E-2,-1.3204883E0,3.7611693E-1,-1.5020368E0,8.364512E-2,-1.1412679E0,6.208409E-1,-2.620829E-2,-1.6366949E0,-1.4262688E0,7.525784E-2,7.989292E-1,-9.4255286E-1,4.7165075E-1,-5.9362017E-2,-2.5923163E-1,-1.489776E-1,3.5084417E-4,-1.4341265E-1,-1.0717796E0,9.219602E-1,-1.2293672E-1,-1.3342787E-1,-3.281535E-2,7.104831E-2,3.827632E-2,-5.8548134E-2,5.636174E-2,-5.6321E-2,3.2682747E-2,-1.1452564E-1,1.3114434E-1,1.282492E0,6.3543236E-1,-8.235473E-2,6.303828E-1,-1.2563574E0,-2.5661972E-1,1.4215755E0,-3.361384E-2,8.415856E-2,1.1459656E0,-2.1075675E-1,3.5956178E-2,-1.2812768E-1,-9.399278E-2,6.64836E-1,1.61026E0,5.4596794E-1,-3.8058765E-2,1.2560885E0,9.6071884E-2,-8.4946764E-1,-3.8058765E-2,8.984807E-2,1.6808966E0,3.9185167E-4,-9.441577E-2,1.0135455E0,1.5321065E-1,1.3824677E-1,4.7791436E-1,-1.2413823E-1,1.5196195E-1,2.2112285E-1,-5.446934E-2,5.4513272E-2,-3.0764842E-1,1.2794957E-1,8.282899E-2,-7.327355E-2,7.190199E-2,-3.3130225E-2,5.4513272E-2,-3.8058765E-2,-5.1021967E-2,3.2682747E-2],"categories":[],"categories_nodes":[],"categories_segments":[],"categories_sizes":[],"default_left":[false,false,false,false,false,false,false,false,false,false,false,false,false,false,false,false,false,false,false,false,false,false,false,false,false,false,false,false,false,false,false,false,false,false,false,false,false,false,false,false,false,false,false,false,false,false,false,false,false,false,false,false,false,false,false,false,false,false,false,false,false,false,false,false,false,false,false,false,false,false,false,false,false,false,false,false,false],"id":1,"left_children":[1,3,5,7,-1,9,11,13,15,17,-1,19,21,23,-1,25,-1,27,-1,29,31,-1,33,-1,-1,-1,-1,-1,-1,-1,-1,35,37,39,-1,41,43,45,47,-1,-1,49,51,-1,-1,-1,53,55,57,-1,59,-1,61,-1,-1,63,65,-1,67,69,-1,71,-1,-1,73,-1,-1,75,-1,-1,-1,-1,-1,-1,-1,-1,-1],"loss_changes":[4.127784E1,9.103268E0,2.3719845E1,3.4670334E0,0E0,6.304618E0,1.5790518E1,1.1186383E0,6.7650986E-1,2.31349E0,0E0,1.2272116E1,1.9890456E0,8.5871696E-1,0E0,7.759381E-1,0E0,1.2199199E0,0E0,1.6105933E0,1.310099E1,0E0,2.5839543E0,0E0,0E0,0E0,0E0,0E0,0E0,0E0,0E0,1.1658524E1,7.1833153E0,1.0871525E0,0E0,5.53338E0,2.040038E0,3.3022027E0,3.9724426E0,0E0,0E0,1.8819008E0,5.470276E0,0E0,0E0,0E0,1.3048764E0,2.6883163E0,6.1570706E0,0E0,2.307559E0,0E0,3.797914E0,0E0,0E0,9.2884827E-1,1.1396338E0,0E0,3.7358541E0,2.8940377E0,0E0,8.7789667E-1,0E0,0E0,7.1675366E-1,0E0,0E0,6.2414324E-1,0E0,0E0,0E0,0E0,0E0,0E0,0E0,0E0,0E0],"parents":[2147483647,0,0,1,1,2,2,3,3,5,5,6,6,7,7,8,8,9,9,11,11,12,12,13,13,15,15,17,17,19,19,20,20,22,22,31,31,32,32,33,33,35,35,36,36,37,37,38,38,41,41,42,42,46,46,47,47,48,48,50,50,52,52,55,55,56,56,58,58,59,59,61,61,64,64,67,67],"right_children":[2,4,6,8,-1,10,12,14,16,18,-1,20,22,24,-1,26,-1,28,-1,30,32,-1,34,-1,-1,-1,-1,-1,-1,-1,-1,36,38,40,-1,42,44,46,48,-1,-1,50,52,-1,-1,-1,54,56,58,-1,60,-1,62,-1,-1,64,66,-1,68,70,-1,72,-1,-1,74,-1,-1,76,-1,-1,-1,-1,-1,-1,-1,-1,-1],"split_conditions":[-1.7653584E-2,6.8481445E-2,1.0665894E-2,-3.768921E-3,8.364512E-2,2.2558343E-2,1.63875E-2,1.8182497E-1,1E0,2.9122913E-1,7.525784E-2,3.6346436E-2,4.5606998E-1,1.9967379E-1,-5.9362017E-2,1.8182497E-1,-1.489776E-1,1.8182497E-1,-1.4341265E-1,1.8182497E-1,-2.897644E-2,-1.2293672E-1,1.8182497E-1,-3.281535E-2,7.104831E-2,3.827632E-2,-5.8548134E-2,5.636174E-2,-5.6321E-2,3.2682747E-2,-1.1452564E-1,-8.281132E-3,1E0,1.8182497E-1,-8.235473E-2,3.8814712E-1,4.7524357E-1,3.9245516E-1,-1.7870964E-3,-3.361384E-2,8.415856E-2,2.9214466E-1,2.7423138E-2,3.5956178E-2,-1.2812768E-1,-9.399278E-2,1.7052412E-1,2.1770604E-2,-1.0975027E-2,-3.8058765E-2,1.8182497E-1,9.6071884E-2,3.8814712E-1,-3.8058765E-2,8.984807E-2,5.2337646E-2,1.9967379E-1,-9.441577E-2,1.7052412E-1,4.6450414E-2,1.3824677E-1,2.1482404E-1,-1.2413823E-1,1.5196195E-1,2.1482404E-1,-5.446934E-2,5.4513272E-2,1.8182497E-1,1.2794957E-1,8.282899E-2,-7.327355E-2,7.190199E-2,-3.3130225E-2,5.4513272E-2,-3.8058765E-2,-5.1021967E-2,3.2682747E-2],"split_indices":[2788,331,1105,406,0,2378,2827,37,64,202,0,1281,219,5,0,0,0,37,0,49,830,0,42,0,0,0,0,0,0,0,0,2527,97,76,0,188,35,153,2970,0,0,36,265,0,0,0,10,2685,303,0,37,0,85,0,0,339,11,0,10,26,0,3,0,0,3,0,0,34,0,0,0,0,0,0,0,0,0],"split_type":[0,0,0,0,0,0,0,0,0,0,0,0,0,0,0,0,0,0,0,0,0,0,0,0,0,0,0,0,0,0,0,0,0,0,0,0,0,0,0,0,0,0,0,0,0,0,0,0,0,0,0,0,0,0,0,0,0,0,0,0,0,0,0,0,0,0,0,0,0,0,0,0,0,0,0,0,0],"sum_hessian":[7.862623E1,1.7658028E1,6.09682E1,1.6661594E1,9.964334E-1,7.9585533E0,5.3009647E1,1.4930172E0,1.5168577E1,7.211892E0,7.4666095E-1,4.802772E1,4.981927E0,9.954535E-1,4.9756375E-1,7.480268E-1,1.442055E1,9.9806726E-1,6.213825E0,2.4878607E0,4.553986E1,2.7400942E0,2.2418325E0,2.4869896E-1,7.4675447E-1,2.4832135E-1,4.9970543E-1,4.9904114E-1,4.990261E-1,2.4855618E-1,2.2393045E0,1.468735E1,3.0852509E1,1.2467647E0,9.9506783E-1,1.1202308E1,3.485043E0,2.4869213E0,2.8365587E1,2.49399E-1,9.973657E-1,6.720519E0,4.4817886E0,2.49922E-1,3.235121E0,1.2428341E0,1.244087E0,2.2646482E1,5.7191052E0,2.4855618E-1,6.471963E0,1.2459174E0,3.2358708E0,2.4855618E-1,9.9553084E-1,2.1652317E1,9.9416506E-1,9.9531066E-1,4.723795E0,1.7443036E0,4.727659E0,9.967462E-1,2.2391248E0,2.0906649E1,7.4566853E-1,4.9705267E-1,4.9711236E-1,1.2427809E0,3.4810138E0,9.95452E-1,7.488516E-1,7.477386E-1,2.4900757E-1,4.9711236E-1,2.4855618E-1,9.942247E-1,2.4855618E-1],"tree_param":{"num_deleted":"0","num_feature":"3072","num_nodes":"77","size_leaf_vector":"0"}},{"base_weights":[-1.23857595E-1,-6.584505E-1,6.2155414E-1,2.9717165E-1,-1.1107194E0,1.3934458E0,8.203049E-2,1.2793615E0,-4.0041548E-1,-1.2615436E0,5.1380044E-1,-5.928938E-2,1.5174763E0,-1.2096583E-1,3.681599E-1,-5.2712917E-2,1.3397348E-1,3.7237093E-1,-8.562122E-1,-1.3426027E0,7.24871E-2,-6.998326E-2,1.0247174E-1,1.3910563E-1,3.8919863E-1,-1.0687367E0,6.554697E-1,-6.717443E-1,9.791994E-1,2.5170726E-1,-1.1541165E0,-3.6640447E-1,-1.4804723E0,6.5519854E-2,-3.635794E-2,3.0530056E-2,-1.1338178E-1,-4.5574632E-1,8.66943E-1,3.0133829E-2,-8.546567E-2,-6.7623514E-3,1.0254714E-1,-5.185193E-2,7.281715E-2,3.168899E-2,-1.1437663E-1,4.3584102E-1,-9.3357563E-1,-1.927397E-1,-1.3593347E-1,6.807703E-2,-1.0009202E-1,2.7329557E-2,1.171811E0,-3.3034448E-2,3.233839E-2,-5.9973847E-2,8.736233E-2,3.6935307E-2,-1.0493222E-1,-7.052803E-2,5.664693E-2,-8.234855E-1,6.740678E-1,1.9835114E-1,1.289563E-1,-8.49746E-3,-9.010748E-2,8.9504056E-2,-4.696943E-2,9.344226E-2,-8.533484E-2,-3.1217158E-2,3.0359834E-2,5.0559014E-2,-5.5743527E-2],"categories":[],"categories_nodes":[],"categories_segments":[],"categories_sizes":[],"default_left":[false,false,false,false,false,false,false,false,false,false,false,false,false,false,false,false,false,false,false,false,false,false,false,false,false,false,false,false,false,false,false,false,false,false,false,false,false,false,false,false,false,false,false,false,false,false,false,false,false,false,false,false,false,false,false,false,false,false,false,false,false,false,false,false,false,false,false,false,false,false,false,false,false,false,false,false,false],"id":2,"left_children":[1,3,5,7,9,11,13,15,17,19,21,-1,23,-1,25,-1,-1,27,29,31,-1,-1,-1,-1,33,35,37,39,41,43,45,47,49,-1,-1,-1,-1,51,53,-1,-1,55,-1,-1,-1,-1,-1,57,59,61,-1,-1,-1,63,65,-1,-1,-1,-1,-1,-1,-1,-1,67,69,71,-1,73,-1,-1,75,-1,-1,-1,-1,-1,-1],"loss_changes":[3.260695E1,2.0876295E1,1.4153399E1,1.1516164E1,8.605988E0,4.612095E0,9.321011E0,3.9829454E0,3.8948035E0,6.1668663E0,3.8486352E0,0E0,2.650528E-1,0E0,8.346465E0,0E0,0E0,3.4857416E0,2.498211E0,3.396099E0,0E0,0E0,0E0,0E0,8.6575055E-1,1.497582E0,4.167744E0,9.995774E-1,5.8683896E-1,1.559258E0,1.6259766E0,2.6593623E0,1.6118126E0,0E0,0E0,0E0,0E0,3.5508957E0,3.5085897E0,0E0,0E0,3.4195217E-1,0E0,0E0,0E0,0E0,0E0,2.3567538E0,1.6037722E0,1.6459297E0,0E0,0E0,0E0,3.1459484E0,2.550723E0,0E0,0E0,0E0,0E0,0E0,0E0,0E0,0E0,3.8945818E-1,8.365365E-1,4.4953866E0,0E0,3.026701E-1,0E0,0E0,1.0804267E0,0E0,0E0,0E0,0E0,0E0,0E0],"parents":[2147483647,0,0,1,1,2,2,3,3,4,4,5,5,6,6,7,7,8,8,9,9,10,10,12,12,14,14,17,17,18,18,19,19,24,24,25,25,26,26,27,27,28,28,29,29,30,30,31,31,32,32,37,37,38,38,41,41,47,47,48,48,49,49,53,53,54,54,63,63,64,64,65,65,67,67,70,70],"right_children":[2,4,6,8,10,12,14,16,18,20,22,-1,24,-1,26,-1,-1,28,30,32,-1,-1,-1,-1,34,36,38,40,42,44,46,48,50,-1,-1,-1,-1,52,54,-1,-1,56,-1,-1,-1,-1,-1,58,60,62,-1,-1,-1,64,66,-1,-1,-1,-1,-1,-1,-1,-1,68,70,72,-1,74,-1,-1,76,-1,-1,-1,-1,-1,-1],"split_conditions":[-9.945761E-4,-1.0538982E-2,-4.6813965E-2,-3.3035807E-2,4.6119418E-2,-3.9367676E-2,3.0424225E-1,1E0,2.9214466E-1,1.9407272E-3,1.8182497E-1,-5.928938E-2,8.216858E-3,-1.2096583E-1,1.3555214E-4,-5.2712917E-2,1.3397348E-1,1.3949387E-1,3.9245516E-1,-1.1169434E-2,7.24871E-2,-6.998326E-2,1.0247174E-1,1.3910563E-1,-9.489408E-2,5.9241456E-1,-3.353882E-2,1E0,1.834045E-1,4.6450414E-2,1.8182497E-1,4.7524357E-1,-6.843567E-3,6.5519854E-2,-3.635794E-2,3.0530056E-2,-1.1338178E-1,1.834045E-1,1.8182497E-1,3.0133829E-2,-8.546567E-2,1.9967379E-1,1.0254714E-1,-5.185193E-2,7.281715E-2,3.168899E-2,-1.1437663E-1,1.8182497E-1,1.834045E-1,3.8814712E-1,-1.3593347E-1,6.807703E-2,-1.0009202E-1,1.9967379E-1,2.1482404E-1,-3.3034448E-2,3.233839E-2,-5.9973847E-2,8.736233E-2,3.6935307E-2,-1.0493222E-1,-7.052803E-2,5.664693E-2,4.6450414E-2,1.9967379E-1,3.8814712E-1,1.289563E-1,2.9214466E-1,-9.010748E-2,8.9504056E-2,4.6450414E-2,9.344226E-2,-8.533484E-2,-3.1217158E-2,3.0359834E-2,5.0559014E-2,-5.5743527E-2],"split_indices":[2788,2796,1160,2579,2564,325,176,33,6,1174,176,0,260,0,2447,0,0,14,222,750,0,0,0,0,2305,45,923,16,72,161,155,35,495,0,0,0,0,72,56,0,0,20,0,0,0,0,0,123,72,188,0,0,0,126,220,0,0,0,0,0,0,0,0,26,207,188,0,6,0,0,13,0,0,0,0,0,0],"split_type":[0,0,0,0,0,0,0,0,0,0,0,0,0,0,0,0,0,0,0,0,0,0,0,0,0,0,0,0,0,0,0,0,0,0,0,0,0,0,0,0,0,0,0,0,0,0,0,0,0,0,0,0,0,0,0,0,0,0,0,0,0,0,0,0,0,0,0,0,0,0,0,0,0,0,0,0,0],"sum_hessian":[7.979887E1,4.653887E1,3.325999E1,1.5060247E1,3.1478626E1,1.3032202E1,2.0227789E1,5.907963E0,9.152285E0,2.9008818E1,2.4698086E0,4.8847872E-1,1.2543723E1,2.7071931E0,1.7520596E1,4.9374804E-1,5.414215E0,3.4633448E0,5.6889396E0,2.8263748E1,7.450687E-1,7.428585E-1,1.72695E0,1.15591955E1,9.8452735E-1,2.4663012E0,1.5054295E1,1.2336825E0,2.2296622E0,1.2383891E0,4.4505506E0,3.9503732E0,2.4313375E1,7.347365E-1,2.4979082E-1,2.4515535E-1,2.2211456E0,2.222221E0,1.2832073E1,2.4430275E-1,9.8937976E-1,4.97068E-1,1.7325943E0,4.9232227E-1,7.460668E-1,2.4724199E-1,4.2033086E0,1.7320279E0,2.2183452E0,1.24399E0,2.3069386E1,7.41726E-1,1.4804951E0,3.7084804E0,9.123593E0,2.4891822E-1,2.4814978E-1,4.9907327E-1,1.2329546E0,2.4949338E-1,1.9688518E0,7.4533606E-1,4.9865383E-1,1.4835323E0,2.224948E0,2.4698215E0,6.653772E0,4.9126303E-1,9.922693E-1,1.2373188E0,9.876291E-1,1.4735851E0,9.9623644E-1,2.464652E-1,2.4479783E-1,4.8910058E-1,4.9852854E-1],"tree_param":{"num_deleted":"0","num_feature":"3072","num_nodes":"77","size_leaf_vector":"0"}},{"base_weights":[-3.1045472E-2,-8.41391E-1,3.2618797E-1,-1.1473588E0,9.087367E-1,-8.921092E-1,5.4515994E-1,2.6450655E-1,-1.4605926E0,-2.6000404E-1,1.08733565E-1,5.6708485E-2,-1.3105583E0,7.46534E-1,-1.0013952E0,-7.8399205E-1,1.01324834E-1,2.8050056E-2,-1.5038772E0,-4.994718E-2,2.7970523E-2,8.7924165E-1,-7.859186E-2,-2.24254E-1,-1.2533377E-1,1.5862732E-1,1.1202732E0,2.3395093E-1,-1.216179E-1,-9.575237E-2,3.8964793E-2,-4.0506393E-1,-1.3649322E-1,1.694001E-2,9.548111E-2,3.500253E-2,-5.242413E-2,-8.0455416E-1,5.200484E-1,1.4154418E0,3.936176E-1,-5.1210746E-2,7.032636E-2,-6.46298E-2,3.2845918E-2,-2.7797436E-2,2.9470129E-2,2.2790682E-1,-1.2220254E-1,-8.3458436E-1,8.9888495E-1,-6.466293E-2,1.5185109E0,-9.2159766E-1,8.432704E-1,-6.676326E-2,8.56326E-2,4.7385763E-2,-1.09130286E-1,-6.562023E-2,1.0890431E0,-3.4496896E-2,1.5690299E0,2.9821364E-2,-1.0433537E-1,-7.595245E-2,1.1790917E0,-9.253917E-2,1.2246779E0,1.4256194E-1,1.8617984E-2,-2.9395503E-1,1.2558694E-1,3.4074616E-2,-3.8378912E-1,-3.155462E-2,1.2994235E0,3.351276E-2,-3.159932E-2,2.7889289E-2,-5.3308222E-2,-6.2447753E-2,2.7970523E-2,3.6273856E-2,-3.972094E-2,4.202949E-2,1.2936059E-1],"categories":[],"categories_nodes":[],"categories_segments":[],"categories_sizes":[],"default_left":[false,false,false,false,false,false,false,false,false,false,false,false,false,false,false,false,false,false,false,false,false,false,false,false,false,false,false,false,false,false,false,false,false,false,false,false,false,false,false,false,false,false,false,false,false,false,false,false,false,false,false,false,false,false,false,false,false,false,false,false,false,false,false,false,false,false,false,false,false,false,false,false,false,false,false,false,false,false,false,false,false,false,false,false,false,false,false],"id":3,"left_children":[1,3,5,7,9,11,13,15,17,19,-1,21,23,25,27,29,-1,-1,31,-1,-1,33,-1,35,-1,37,39,41,-1,-1,-1,43,-1,45,-1,-1,-1,47,49,51,53,-1,-1,-1,-1,-1,-1,55,-1,57,59,-1,61,63,65,-1,-1,-1,-1,-1,67,-1,69,-1,-1,-1,71,73,75,-1,77,79,-1,-1,81,83,85,-1,-1,-1,-1,-1,-1,-1,-1,-1,-1],"loss_changes":[2.2913652E1,1.40052185E1,1.515845E1,9.694227E0,1.8873513E0,3.551714E0,1.5459814E1,5.219799E0,1.8151932E0,4.8297015E-1,0E0,3.6154876E0,4.0272713E-1,9.132105E0,3.0451555E0,1.4811603E0,0E0,0E0,1.5524292E-1,0E0,0E0,4.0798318E-1,0E0,6.346807E-1,0E0,6.5563765E0,4.963394E0,1.4788406E0,0E0,0E0,0E0,7.7431E-1,0E0,2.6052392E-1,0E0,0E0,0E0,3.4260123E0,7.641494E0,5.077858E0,5.9932976E0,0E0,0E0,0E0,0E0,0E0,0E0,2.7233381E0,0E0,2.5613456E0,4.235649E0,0E0,2.2931747E0,1.2898767E0,5.0721197E0,0E0,0E0,0E0,0E0,0E0,1.7546835E0,0E0,1.1690483E0,0E0,0E0,0E0,2.688343E0,4.2450356E-1,9.102373E-1,0E0,3.3896187E-1,5.165596E-1,0E0,0E0,6.166512E-1,4.613746E-1,4.9489117E-1,0E0,0E0,0E0,0E0,0E0,0E0,0E0,0E0,0E0,0E0],"parents":[2147483647,0,0,1,1,2,2,3,3,4,4,5,5,6,6,7,7,8,8,9,9,11,11,12,12,13,13,14,14,15,15,18,18,21,21,23,23,25,25,26,26,27,27,31,31,33,33,37,37,38,38,39,39,40,40,47,47,49,49,50,50,52,52,53,53,54,54,60,60,62,62,66,66,67,67,68,68,70,70,71,71,74,74,75,75,76,76],"right_children":[2,4,6,8,10,12,14,16,18,20,-1,22,24,26,28,30,-1,-1,32,-1,-1,34,-1,36,-1,38,40,42,-1,-1,-1,44,-1,46,-1,-1,-1,48,50,52,54,-1,-1,-1,-1,-1,-1,56,-1,58,60,-1,62,64,66,-1,-1,-1,-1,-1,68,-1,70,-1,-1,-1,72,74,76,-1,78,80,-1,-1,82,84,86,-1,-1,-1,-1,-1,-1,-1,-1,-1,-1],"split_conditions":[1E0,2.5565954E-2,-1.2557983E-2,-3.6346436E-2,1.834045E-1,-5.0611787E-2,3.3375584E-2,-8.186364E-3,-3.5308838E-2,1.9967379E-1,1.08733565E-1,2.9122913E-1,2.9122913E-1,-3.8874652E-2,1.9967379E-1,1.8182497E-1,1.01324834E-1,2.8050056E-2,1E0,-4.994718E-2,2.7970523E-2,4.6450414E-2,-7.859186E-2,1.8182497E-1,-1.2533377E-1,8.18175E-1,2.8008379E-2,1.8182497E-1,-1.216179E-1,-9.575237E-2,3.8964793E-2,1.8182497E-1,-1.3649322E-1,1.3949387E-1,9.548111E-2,3.500253E-2,-5.242413E-2,1.834045E-1,1.8182497E-1,7.85176E-1,2.9214466E-1,-5.1210746E-2,7.032636E-2,-6.46298E-2,3.2845918E-2,-2.7797436E-2,2.9470129E-2,1.8182497E-1,-1.2220254E-1,1.9967379E-1,-1.3718123E-2,-6.466293E-2,2.0885468E-3,1.8182497E-1,1.8182497E-1,-6.676326E-2,8.56326E-2,4.7385763E-2,-1.09130286E-1,-6.562023E-2,1E0,-3.4496896E-2,7.159424E-2,2.9821364E-2,-1.0433537E-1,-7.595245E-2,2.9122913E-1,1.9967379E-1,1.7052412E-1,1.4256194E-1,1.3949387E-1,1.9967379E-1,1.2558694E-1,3.4074616E-2,1.7091721E-2,1.3949387E-1,1.9967379E-1,3.351276E-2,-3.159932E-2,2.7889289E-2,-5.3308222E-2,-6.2447753E-2,2.7970523E-2,3.6273856E-2,-3.972094E-2,4.202949E-2,1.2936059E-1],"split_indices":[208,2860,785,717,93,2359,2540,2460,266,11,0,30,202,1002,121,42,0,0,15,0,0,201,0,7,0,165,2565,54,0,0,0,8,0,2,0,0,0,151,228,183,215,0,0,0,0,0,0,91,0,11,2608,0,1281,7,54,0,0,0,0,0,107,0,258,0,0,0,164,11,205,0,1,11,0,0,2312,1,254,0,0,0,0,0,0,0,0,0,0],"split_type":[0,0,0,0,0,0,0,0,0,0,0,0,0,0,0,0,0,0,0,0,0,0,0,0,0,0,0,0,0,0,0,0,0,0,0,0,0,0,0,0,0,0,0,0,0,0,0,0,0,0,0,0,0,0,0,0,0,0,0,0,0,0,0,0,0,0,0,0,0,0,0,0,0,0,0,0,0,0,0,0,0,0,0,0,0,0,0],"sum_hessian":[7.720576E1,2.320727E1,5.3998486E1,2.0046955E1,3.1603138E0,7.7584753E0,4.624001E1,3.6682599E0,1.6378696E1,7.249732E-1,2.4353406E0,2.639037E0,5.1194386E0,4.1370525E1,4.8694844E0,1.7277446E0,1.9405152E0,2.3862833E-1,1.6140068E1,4.8660153E-1,2.3837169E-1,1.4500225E0,1.1890144E0,7.4318266E-1,4.376256E0,1.6632063E1,2.473846E1,1.2231148E0,3.6463697E0,1.4802772E0,2.474674E-1,9.787149E-1,1.5161352E1,4.805165E-1,9.6950597E-1,2.4997845E-1,4.9320424E-1,4.203559E0,1.2428504E1,1.6918327E1,7.8201346E0,4.8705405E-1,7.3606074E-1,7.299841E-1,2.4873078E-1,2.378029E-1,2.4271359E-1,1.7282283E0,2.4753306E0,2.4532444E0,9.97526E0,4.952971E-1,1.6423029E1,1.7250019E0,6.095133E0,7.3455596E-1,9.936723E-1,4.786332E-1,1.9746113E0,7.3368055E-1,9.241579E0,2.4985972E-1,1.617317E1,2.4357979E-1,1.4814222E0,7.468186E-1,5.3483143E0,9.8432946E-1,8.25725E0,1.5676743E1,4.9642742E-1,7.269492E-1,4.621365E0,2.4968E-1,7.346495E-1,4.9616352E-1,7.761086E0,2.4932542E-1,2.4710199E-1,2.3810649E-1,4.8884276E-1,4.9627778E-1,2.3837169E-1,2.4982347E-1,2.4634005E-1,1.9448731E0,5.8162127E0],"tree_param":{"num_deleted":"0","num_feature":"3072","num_nodes":"87","size_leaf_vector":"0"}},{"base_weights":[3.4675594E-2,-7.417817E-1,3.9196417E-1,4.00493E-1,-1.1657742E0,1.1463283E0,-7.241418E-2,-6.5735817E-1,1.1055195E0,5.46872E-1,-1.3183694E0,5.3947195E-2,1.3757488E0,5.285071E-1,-7.720673E-1,6.694687E-2,-9.896317E-2,-4.626037E-2,1.23680785E-1,7.5157955E-2,-3.268315E-2,-3.509742E-1,-1.3595782E-1,6.273849E-1,-7.20084E-1,-2.6298456E-2,1.2512065E-1,-9.1515183E-1,7.456158E-1,-1.098847E0,1.587699E-1,9.002408E-2,-8.8573426E-1,-2.9168636E-1,9.022799E-2,2.5961084E-2,-8.476273E-2,2.7655235E-2,-1.0054017E-1,1.2103461E-1,4.2990842E-1,1.7710842E-1,-1.3990198E0,9.164622E-2,-5.6795424E-1,-9.635235E-2,1.8218325E-1,-5.4091442E-2,2.9080605E-2,1.0669591E0,-4.8999436E-2,7.625633E-2,-3.7888095E-1,-2.4876393E-1,-1.2926938E-1,5.6690097E-2,-9.820376E-1,4.5041405E-2,-2.5986124E-2,-1.1769748E-2,1.1490945E-1,-9.988078E-2,3.520779E-1,4.8969276E-2,-7.82371E-2,3.1199409E-2,-5.172658E-2,2.7312415E-2,-1.0664564E-1,5.163034E-2,-5.2839078E-2,6.89982E-1,-5.2004564E-1,-4.6605328E-1,1.0622137E0,1.8115692E-1,-8.137265E-2,3.6025785E-2,-7.284457E-2,1.7313005E-2,1.0466493E-1,4.9639102E-2,-3.6813553E-2],"categories":[],"categories_nodes":[],"categories_segments":[],"categories_sizes":[],"default_left":[false,false,false,false,false,false,false,false,false,false,false,false,false,false,false,false,false,false,false,false,false,false,false,false,false,false,false,false,false,false,false,false,false,false,false,false,false,false,false,false,false,false,false,false,false,false,false,false,false,false,false,false,false,false,false,false,false,false,false,false,false,false,false,false,false,false,false,false,false,false,false,false,false,false,false,false,false,false,false,false,false,false,false],"id":4,"left_children":[1,3,5,7,9,11,13,15,17,19,21,23,25,27,29,-1,-1,-1,-1,-1,-1,31,-1,33,35,-1,-1,37,39,41,43,-1,45,47,-1,-1,-1,-1,-1,-1,49,51,53,-1,55,-1,57,-1,-1,59,61,-1,63,65,-1,-1,67,-1,-1,69,-1,-1,71,-1,-1,-1,-1,-1,-1,-1,-1,73,75,77,79,81,-1,-1,-1,-1,-1,-1,-1],"loss_changes":[2.1931705E1,1.2540489E1,1.9027416E1,6.314874E0,5.5392E0,5.104763E0,1.4876845E1,3.2242725E0,3.071868E0,9.324189E-1,3.1403408E0,2.505765E0,1.5864868E0,6.671E0,5.1347075E0,0E0,0E0,0E0,0E0,0E0,0E0,4.197924E0,0E0,1.4545503E0,8.736309E-1,0E0,0E0,1.1640723E0,2.795332E0,4.9189453E0,3.8535414E0,0E0,1.0246301E0,5.4739153E-1,0E0,0E0,0E0,0E0,0E0,0E0,3.9746323E0,1.5520248E0,3.773346E-1,0E0,2.3555207E0,0E0,3.7869164E-1,0E0,0E0,1.4192533E0,3.9974537E0,0E0,1.6589506E0,5.588014E-1,0E0,0E0,1.2351089E0,0E0,0E0,1.0430038E0,0E0,0E0,2.3669412E0,0E0,0E0,0E0,0E0,0E0,0E0,0E0,0E0,2.7934055E0,8.6271816E-1,9.62052E-1,2.298665E-1,6.2953573E-1,0E0,0E0,0E0,0E0,0E0,0E0,0E0],"parents":[2147483647,0,0,1,1,2,2,3,3,4,4,5,5,6,6,7,7,8,8,9,9,10,10,11,11,12,12,13,13,14,14,21,21,23,23,24,24,27,27,28,28,29,29,30,30,32,32,33,33,40,40,41,41,42,42,44,44,46,46,49,49,50,50,52,52,53,53,56,56,59,59,62,62,71,71,72,72,73,73,74,74,75,75],"right_children":[2,4,6,8,10,12,14,16,18,20,22,24,26,28,30,-1,-1,-1,-1,-1,-1,32,-1,34,36,-1,-1,38,40,42,44,-1,46,48,-1,-1,-1,-1,-1,-1,50,52,54,-1,56,-1,58,-1,-1,60,62,-1,64,66,-1,-1,68,-1,-1,70,-1,-1,72,-1,-1,-1,-1,-1,-1,-1,-1,74,76,78,80,82,-1,-1,-1,-1,-1,-1,-1],"split_conditions":[-3.80617E-2,1.9967379E-1,2.9559318E-2,3.9245516E-1,-6.0418086E-5,-5.4085493E-2,-3.9853323E-2,2.3784637E-3,-5.165053E-2,4.2306416E-2,1E0,1.8182497E-1,8.94165E-3,1E0,-4.864502E-2,6.694687E-2,-9.896317E-2,-4.626037E-2,1.23680785E-1,7.5157955E-2,-3.268315E-2,3.0424225E-1,-1.3595782E-1,1.8182497E-1,1.9967379E-1,-2.6298456E-2,1.2512065E-1,2.9214466E-1,2.019476E-3,2.9122913E-1,1.834045E-1,9.002408E-2,5.2475643E-1,2.9214466E-1,9.022799E-2,2.5961084E-2,-8.476273E-2,2.7655235E-2,-1.0054017E-1,1.2103461E-1,5.9241456E-1,1.834045E-1,-3.463745E-2,9.164622E-2,1.9967379E-1,-9.635235E-2,1.8182497E-1,-5.4091442E-2,2.9080605E-2,1.9967379E-1,3.8814712E-1,7.625633E-2,2.9214466E-1,1.8182497E-1,-1.2926938E-1,5.6690097E-2,1.8182497E-1,4.5041405E-2,-2.5986124E-2,2.9214466E-1,1.1490945E-1,-9.988078E-2,-1.3238187E-2,4.8969276E-2,-7.82371E-2,3.1199409E-2,-5.172658E-2,2.7312415E-2,-1.0664564E-1,5.163034E-2,-5.2839078E-2,3.0424225E-1,1.8182497E-1,1.8182497E-1,3.0424225E-1,2.1482404E-1,-8.137265E-2,3.6025785E-2,-7.284457E-2,1.7313005E-2,1.0466493E-1,4.9639102E-2,-3.6813553E-2],"split_indices":[2706,192,939,222,2637,2999,2446,261,2544,2306,107,28,261,176,665,0,0,0,0,0,0,156,0,176,44,0,0,6,2790,164,72,0,44,6,0,0,0,0,0,0,84,43,260,0,130,0,0,0,0,33,110,0,6,7,0,0,12,0,0,6,0,0,2383,0,0,0,0,0,0,0,0,153,7,28,156,3,0,0,0,0,0,0,0],"split_type":[0,0,0,0,0,0,0,0,0,0,0,0,0,0,0,0,0,0,0,0,0,0,0,0,0,0,0,0,0,0,0,0,0,0,0,0,0,0,0,0,0,0,0,0,0,0,0,0,0,0,0,0,0,0,0,0,0,0,0,0,0,0,0,0,0,0,0,0,0,0,0,0,0,0,0,0,0,0,0,0,0,0,0],"sum_hessian":[7.7008095E1,2.392919E1,5.3078907E1,6.492697E0,1.7436493E1,1.9665142E1,3.3413765E1,2.62366E0,3.8690367E0,1.2150956E0,1.6221397E1,3.6275883E0,1.6037554E1,1.8106762E1,1.5307003E1,4.8983604E-1,2.133824E0,4.7375298E-1,3.3952837E0,9.66539E-1,2.4855661E-1,3.497051E0,1.2724347E1,2.1926389E0,1.4349493E0,2.322871E-1,1.5805266E1,1.946745E0,1.6160015E1,1.1196031E1,4.1109724E0,7.2736096E-1,2.76969E0,7.361479E-1,1.4564911E0,2.3089948E-1,1.2040498E0,2.3732509E-1,1.70942E0,4.30358E0,1.1856436E1,2.2103584E0,8.985672E0,1.667121E0,2.4438515E0,2.3053162E0,4.6437374E-1,4.9446154E-1,2.4168634E-1,4.561181E0,7.295255E0,7.4185264E-1,1.4685056E0,7.353703E-1,8.250302E0,4.8292184E-1,1.9609298E0,2.3336942E-1,2.3100431E-1,9.8244125E-1,3.57874E0,1.4810054E0,5.8142495E0,4.83875E-1,9.8463064E-1,2.4643405E-1,4.8893625E-1,2.3613405E-1,1.7247957E0,4.8874748E-1,4.9369377E-1,4.341129E0,1.4731209E0,9.959543E-1,3.3451743E0,7.3578846E-1,7.373325E-1,2.4990378E-1,7.4605054E-1,7.3767304E-1,2.6075013E0,4.862218E-1,2.4956667E-1],"tree_param":{"num_deleted":"0","num_feature":"3072","num_nodes":"83","size_leaf_vector":"0"}},{"base_weights":[-6.5557696E-2,2.867874E-1,-9.9416727E-1,7.9907435E-1,-1.8404078E-1,7.1578585E-2,-1.1420928E0,-4.0507606E-1,1.0558691E0,-9.044834E-1,2.6254615E-1,-1.2127782E0,4.7620576E-2,-1.1155806E0,8.161984E-2,-9.19924E-2,1.254321E0,2.8127313E-1,-1.14819326E-1,-2.2352648E-1,9.11673E-1,-1.566708E-1,-1.2599225E0,2.7561557E-2,-1.1419838E-1,-1.7164391E-1,1.35151E0,-6.911975E-2,8.2041055E-1,-9.8443526E-1,4.1493675E-1,-2.3015952E-1,1.2531185E0,4.410603E-2,-6.1754793E-2,-7.183215E-1,-1.2275646E-1,5.112724E-2,-6.42809E-2,1.21700935E-1,1.053786E-1,-2.1483103E-2,8.846981E-2,4.448196E-2,-1.2210287E0,7.660693E-1,-6.7414564E-1,7.0422545E-2,-8.952106E-2,-7.854704E-2,1.2146547E-1,-9.88851E-2,1.5148462E-1,3.612282E-2,-2.5534544E-2,3.064579E-2,-3.283449E-2,1.4978999E-2,-1.1927488E-1,-2.561413E-1,9.6529853E-1,-8.599534E-2,3.0312922E-2,-3.565639E-2,2.7679462E-2,-5.3576138E-2,7.2232485E-1,-2.6069384E-2,2.7523458E-2,2.7523458E-2,-4.9161315E-2,-3.1470507E-2,1.1092671E0,9.021287E-2,-2.5275951E-2,1.1059347E-1,2.5380966E-1,-4.451384E-2,5.7903193E-2],"categories":[],"categories_nodes":[],"categories_segments":[],"categories_sizes":[],"default_left":[false,false,false,false,false,false,false,false,false,false,false,false,false,false,false,false,false,false,false,false,false,false,false,false,false,false,false,false,false,false,false,false,false,false,false,false,false,false,false,false,false,false,false,false,false,false,false,false,false,false,false,false,false,false,false,false,false,false,false,false,false,false,false,false,false,false,false,false,false,false,false,false,false,false,false,false,false,false,false],"id":5,"left_children":[1,3,5,7,9,-1,11,13,15,17,19,21,-1,23,-1,-1,25,27,-1,29,31,33,35,-1,-1,37,39,-1,41,43,45,47,49,-1,-1,51,-1,-1,-1,-1,53,55,-1,-1,57,59,61,-1,-1,63,-1,-1,65,-1,-1,-1,-1,67,-1,69,71,-1,-1,-1,-1,-1,73,-1,-1,-1,-1,-1,75,-1,-1,-1,77,-1,-1],"loss_changes":[2.4278053E1,1.3156303E1,6.369673E0,8.472916E0,9.54152E0,0E0,2.9432316E0,6.032274E0,1.0347721E1,5.6605263E0,6.0810013E0,7.3838997E-1,0E0,1.3920021E0,0E0,0E0,3.0450249E0,2.7332633E0,0E0,5.973115E0,3.4747095E0,1.0414284E0,2.575283E-1,0E0,0E0,1.3321967E0,4.829483E-1,0E0,4.652127E-1,2.5592165E0,3.167232E0,3.0024042E0,1.1561594E0,0E0,0E0,2.0970852E0,0E0,0E0,0E0,0E0,2.95357E-1,3.2180637E-1,0E0,0E0,8.289337E-1,1.4100864E0,1.0111101E0,0E0,0E0,3.160577E-1,0E0,0E0,1.5737572E0,0E0,0E0,0E0,0E0,2.2704716E-1,0E0,4.671312E-1,1.3443413E0,0E0,0E0,0E0,0E0,0E0,8.814329E-1,0E0,0E0,0E0,0E0,0E0,2.616229E-1,0E0,0E0,0E0,9.1880906E-1,0E0,0E0],"parents":[2147483647,0,0,1,1,2,2,3,3,4,4,6,6,7,7,8,8,9,9,10,10,11,11,13,13,16,16,17,17,19,19,20,20,21,21,22,22,25,25,26,26,28,28,29,29,30,30,31,31,32,32,35,35,40,40,41,41,44,44,45,45,46,46,49,49,52,52,57,57,59,59,60,60,66,66,72,72,76,76],"right_children":[2,4,6,8,10,-1,12,14,16,18,20,22,-1,24,-1,-1,26,28,-1,30,32,34,36,-1,-1,38,40,-1,42,44,46,48,50,-1,-1,52,-1,-1,-1,-1,54,56,-1,-1,58,60,62,-1,-1,64,-1,-1,66,-1,-1,-1,-1,68,-1,70,72,-1,-1,-1,-1,-1,74,-1,-1,-1,-1,-1,76,-1,-1,-1,78,-1,-1],"split_conditions":[3.0307345E-2,6.100464E-2,1.8182497E-1,7.85176E-1,1.0916953E-3,7.1578585E-2,1.4129639E-2,2.6050296E-2,-2.3083627E-2,1.206982E-2,5.4393E-1,-4.345946E-2,4.7620576E-2,8.18175E-1,8.161984E-2,-9.19924E-2,-1.8200897E-2,1.9967379E-1,-1.14819326E-1,3.0424225E-1,3.8814712E-1,1.834045E-1,2.9122913E-1,2.7561557E-2,-1.1419838E-1,1.8182497E-1,4.0039062E-2,-6.911975E-2,4.8576558E-1,1E0,2.538681E-3,1.7052412E-1,1.7052412E-1,4.410603E-2,-6.1754793E-2,1.9967379E-1,-1.2275646E-1,5.112724E-2,-6.42809E-2,1.21700935E-1,1.8182497E-1,1.1909485E-2,8.846981E-2,4.448196E-2,4.6450414E-2,-2.0682933E-2,7.087709E-1,7.0422545E-2,-8.952106E-2,4.7524357E-1,1.2146547E-1,-9.88851E-2,1.9967379E-1,3.612282E-2,-2.5534544E-2,3.064579E-2,-3.283449E-2,1.3949387E-1,-1.1927488E-1,2.1482404E-1,1.7052412E-1,-8.599534E-2,3.0312922E-2,-3.565639E-2,2.7679462E-2,-5.3576138E-2,1.8182497E-1,-2.6069384E-2,2.7523458E-2,2.7523458E-2,-4.9161315E-2,-3.1470507E-2,2.4503278E-2,9.021287E-2,-2.5275951E-2,1.1059347E-1,2.1482404E-1,-4.451384E-2,5.7903193E-2],"split_indices":[2714,939,179,38,2994,0,511,2618,3041,345,52,318,0,209,0,0,2584,207,0,56,110,99,202,0,0,52,1285,0,32,16,260,65,106,0,0,27,0,0,0,0,7,256,0,0,161,2306,34,0,0,4,0,0,22,0,0,0,0,1,0,23,10,0,0,0,0,0,51,0,0,0,0,0,2314,0,0,0,23,0,0],"split_type":[0,0,0,0,0,0,0,0,0,0,0,0,0,0,0,0,0,0,0,0,0,0,0,0,0,0,0,0,0,0,0,0,0,0,0,0,0,0,0,0,0,0,0,0,0,0,0,0,0,0,0,0,0,0,0,0,0,0,0,0,0,0,0,0,0,0,0,0,0,0,0,0,0,0,0,0,0,0,0],"sum_hessian":[7.233006E1,5.2935684E1,1.939438E1,2.5017788E1,2.7917896E1,1.1300663E0,1.8264313E1,4.295955E0,2.0721832E1,1.0290975E1,1.7626923E1,1.7794804E1,4.6951067E-1,2.9042037E0,1.3917516E0,1.423969E0,1.9297863E1,2.6461058E0,7.644869E0,1.0454294E1,7.1726284E0,9.451504E-1,1.6849653E1,2.3700513E-1,2.6671987E0,1.1824726E0,1.811539E1,7.3812044E-1,1.9079852E0,4.522536E0,5.931758E0,1.7261417E0,5.4464865E0,4.6381202E-1,4.8133832E-1,4.5228558E0,1.2326797E1,4.859007E-1,6.9657195E-1,1.7636448E1,4.789434E-1,4.9410984E-1,1.4138753E0,4.655894E-1,4.0569468E0,4.709843E0,1.2219151E0,7.3904425E-1,9.870974E-1,4.873859E-1,4.9591007E0,2.8985944E0,1.6242615E0,2.4987523E-1,2.2906817E-1,2.4539092E-1,2.4871892E-1,4.6822459E-1,3.588722E0,7.216289E-1,3.988214E0,9.7721815E-1,2.4469697E-1,2.4997874E-1,2.3740716E-1,6.708169E-1,9.5344454E-1,2.3135076E-1,2.368738E-1,2.368738E-1,4.8475507E-1,2.4689466E-1,3.7413194E0,7.255284E-1,2.279161E-1,2.8086104E0,9.32709E-1,2.3501311E-1,6.9769585E-1],"tree_param":{"num_deleted":"0","num_feature":"3072","num_nodes":"79","size_leaf_vector":"0"}},{"base_weights":[5.030363E-2,-9.4829017E-1,3.4751695E-1,-1.2660404E0,-2.0254824E-1,-8.451062E-1,5.3235143E-1,-4.3810308E-1,-1.1754737E-1,8.357988E-2,-5.9955126E-1,-1.192197E0,7.242052E-2,-1.4128453E-1,8.3006644E-1,-6.647508E-2,3.844369E-2,5.458864E-1,-9.8945403E-1,2.293247E-2,-1.1288274E-1,7.383385E-1,-8.915288E-1,-9.6279E-2,9.4726586E-1,-2.4753902E-2,7.197907E-2,3.5612296E-2,-1.0411316E-1,3.898607E-2,1.073177E-1,4.2974073E-2,-1.0227321E0,2.9437178E-1,1.1813364E0,6.3788414E-2,-3.650813E-1,2.4001721E-2,-1.0901366E0,-5.856797E-1,8.7668616E-1,-2.9307548E-2,1.3323401E0,4.3707156E-1,-8.842683E-2,-3.2822654E-1,-1.2983379E0,4.772698E-2,-8.5121024E-1,3.3722922E-2,1.13901645E-1,-7.878174E-1,7.551124E-2,1.2794612E-1,2.793334E-1,6.8748154E-2,-3.8421977E-2,5.3234577E-2,-7.33147E-1,-5.4023206E-2,-1.2265795E-1,1.2528387E-1,-1.04511224E-1,-6.167108E-1,6.734968E-2,2.709293E-2,-9.2035085E-2,7.024401E-2,-3.394627E-1,-8.3071746E-2,2.4178121E-2,2.3344977E-2,-2.8545447E-2,5.6712035E-2,-4.2864222E-2,2.9336927E-2,-7.981901E-2,2.768715E-2,-5.7655877E-1,-7.579646E-2,2.577442E-2],"categories":[],"categories_nodes":[],"categories_segments":[],"categories_sizes":[],"default_left":[false,false,false,false,false,false,false,false,false,false,false,false,false,false,false,false,false,false,false,false,false,false,false,false,false,false,false,false,false,false,false,false,false,false,false,false,false,false,false,false,false,false,false,false,false,false,false,false,false,false,false,false,false,false,false,false,false,false,false,false,false,false,false,false,false,false,false,false,false,false,false,false,false,false,false,false,false,false,false,false,false],"id":6,"left_children":[1,3,5,7,9,11,13,15,-1,-1,17,19,-1,21,23,-1,-1,25,27,-1,-1,29,31,-1,33,-1,-1,-1,-1,35,-1,-1,37,39,41,-1,43,-1,45,47,49,51,53,55,-1,57,59,-1,61,63,-1,65,-1,-1,67,-1,-1,-1,69,71,-1,73,-1,75,-1,-1,-1,-1,77,-1,-1,-1,-1,-1,-1,-1,-1,-1,79,-1,-1],"loss_changes":[2.14378E1,3.6725407E0,1.2692963E1,3.0643463E-2,3.3697581E0,5.5078945E0,9.884273E0,9.6513224E-1,0E0,0E0,2.852931E0,1.1910915E0,0E0,1.1072706E1,8.665747E0,0E0,0E0,6.639557E-1,1.5875254E0,0E0,0E0,2.5567203E0,2.1194382E0,0E0,4.6195164E0,0E0,0E0,0E0,0E0,1.4229516E0,0E0,0E0,1.0389853E0,5.591768E0,4.352268E0,0E0,2.1228395E0,0E0,8.890152E-1,1.8190452E0,2.1715398E0,3.0846813E0,2.1658173E0,9.8053813E-1,0E0,1.6171025E0,6.1918926E-1,0E0,1.4667714E0,1.9488643E0,0E0,1.0028085E0,0E0,0E0,1.3320692E0,0E0,0E0,0E0,8.053367E-1,2.1038885E-1,0E0,9.2255896E-1,0E0,8.9953864E-1,0E0,0E0,0E0,0E0,5.2338773E-1,0E0,0E0,0E0,0E0,0E0,0E0,0E0,0E0,0E0,7.3361313E-1,0E0,0E0],"parents":[2147483647,0,0,1,1,2,2,3,3,4,4,5,5,6,6,7,7,10,10,11,11,13,13,14,14,17,17,18,18,21,21,22,22,24,24,29,29,32,32,33,33,34,34,36,36,38,38,39,39,40,40,41,41,42,42,43,43,45,45,46,46,48,48,49,49,51,51,54,54,58,58,59,59,61,61,63,63,68,68,78,78],"right_children":[2,4,6,8,10,12,14,16,-1,-1,18,20,-1,22,24,-1,-1,26,28,-1,-1,30,32,-1,34,-1,-1,-1,-1,36,-1,-1,38,40,42,-1,44,-1,46,48,50,52,54,56,-1,58,60,-1,62,64,-1,66,-1,-1,68,-1,-1,-1,70,72,-1,74,-1,76,-1,-1,-1,-1,78,-1,-1,-1,-1,-1,-1,-1,-1,-1,80,-1,-1],"split_conditions":[-1.7653584E-2,-6.8616867E-4,-2.456665E-3,-4.2419434E-2,5.9241456E-1,2.6345741E-2,7.0785534E-1,1.9967379E-1,-1.1754737E-1,8.357988E-2,1.9967379E-1,7.0785534E-1,7.242052E-2,7.598772E-3,8.003262E-1,-6.647508E-2,3.844369E-2,1.9967379E-1,1.3949387E-1,2.293247E-2,-1.1288274E-1,-4.4059753E-3,-8.491516E-3,-9.6279E-2,1.8182497E-1,-2.4753902E-2,7.197907E-2,3.5612296E-2,-1.0411316E-1,0E0,1.073177E-1,4.2974073E-2,1.8182497E-1,7.6894118E-3,2.8030396E-2,6.3788414E-2,4.6450414E-2,2.4001721E-2,4.6450414E-2,1E0,3.0424225E-1,3.5877153E-2,3.8808133E-2,1.9967379E-1,-8.842683E-2,4.6450414E-2,2.9214466E-1,4.772698E-2,1.834045E-1,1.8005371E-2,1.13901645E-1,5.2475643E-1,7.551124E-2,1.2794612E-1,3.0424225E-1,6.8748154E-2,-3.8421977E-2,5.3234577E-2,1.8182497E-1,1.8182497E-1,-1.2265795E-1,1.9967379E-1,-1.04511224E-1,2.9122913E-1,6.734968E-2,2.709293E-2,-9.2035085E-2,7.024401E-2,1.7052412E-1,-8.3071746E-2,2.4178121E-2,2.3344977E-2,-2.8545447E-2,5.6712035E-2,-4.2864222E-2,2.9336927E-2,-7.981901E-2,2.768715E-2,2.1482404E-1,-7.579646E-2,2.577442E-2],"split_indices":[2788,839,1228,289,45,3017,225,11,0,0,11,225,0,2602,10,0,0,5,1,0,0,864,320,0,54,0,0,0,0,2318,0,0,236,2668,1114,0,132,0,213,197,153,2325,2861,11,0,206,36,0,72,269,0,24,0,0,89,0,0,0,57,0,0,207,0,21,0,0,0,0,131,0,0,0,0,0,0,0,0,0,3,0,0],"split_type":[0,0,0,0,0,0,0,0,0,0,0,0,0,0,0,0,0,0,0,0,0,0,0,0,0,0,0,0,0,0,0,0,0,0,0,0,0,0,0,0,0,0,0,0,0,0,0,0,0,0,0,0,0,0,0,0,0,0,0,0,0,0,0,0,0,0,0,0,0,0,0,0,0,0,0,0,0,0,0,0,0],"sum_hessian":[7.012055E1,1.558078E1,5.4539772E1,1.0436318E1,5.144461E0,6.8390913E0,4.770068E1,1.3210123E0,9.115306E0,9.658823E-1,4.178579E0,5.894351E0,9.4474024E-1,1.4781103E1,3.291958E1,1.0728831E0,2.4812916E-1,9.59563E-1,3.219016E0,2.1604517E-1,5.678306E0,6.811195E0,7.969908E0,1.4162203E0,3.1503357E1,2.2549434E-1,7.340687E-1,2.499841E-1,2.9690318E0,3.1993208E0,3.6118743E0,4.5739472E-1,7.512513E0,8.909543E0,2.2593813E1,8.963665E-1,2.3029544E0,2.2177981E-1,7.290734E0,3.5454807E0,5.3640623E0,2.5949774E0,1.9998837E1,1.1568778E0,1.1460766E0,2.1176617E0,5.173072E0,4.7903225E-1,3.0664485E0,2.119187E0,3.2448752E0,1.455483E0,1.1394945E0,1.767223E1,2.3266068E0,9.087231E-1,2.4815467E-1,4.9383202E-1,1.6238297E0,4.584806E-1,4.714591E0,9.361416E-1,2.130307E0,1.201068E0,9.181191E-1,2.3534247E-1,1.2201405E0,1.1131909E0,1.213416E0,1.401155E0,2.2267473E-1,2.183204E-1,2.4016018E-1,4.790687E-1,4.570729E-1,2.423702E-1,9.5869786E-1,2.3743315E-1,9.7598284E-1,7.458742E-1,2.3010862E-1],"tree_param":{"num_deleted":"0","num_feature":"3072","num_nodes":"81","size_leaf_vector":"0"}},{"base_weights":[-3.764487E-2,3.1885123E-1,-7.721442E-1,5.5211127E-1,-7.427543E-1,5.702895E-1,-1.0196872E0,-4.0543026E-1,7.121227E-1,1.9317341E-1,-1.036531E0,9.926728E-2,-5.2141166E-1,-1.1637745E0,-7.4835285E-3,7.6834336E-2,-8.092978E-1,3.1486544E-1,1.0635576E0,-5.848158E-2,7.020926E-1,3.7228784E-1,-1.13397226E-1,3.1012703E-2,-7.159167E-2,-1.1172602E-1,-1.2412155E0,5.8662266E-1,-6.641019E-2,2.129937E-1,-1.06663145E-1,-4.816159E-1,5.442792E-1,1.1935934E0,8.119694E-2,-3.7985213E-2,8.007429E-2,-2.4495099E-2,5.5182666E-2,-5.5582974E-2,4.6721137E-1,-1.1923967E-1,-2.833288E-1,-1.7119925E-1,8.233567E-2,-5.9646543E-2,8.469862E-2,-9.771258E-2,2.126602E-1,-1.6886897E-1,7.758891E-1,1.1175417E-1,2.4132851E-1,6.600919E-2,-4.8164442E-1,-3.3800922E-2,2.9927554E-2,6.328846E-2,-2.0528203E-2,6.317683E-2,-7.829365E-2,-3.905382E-2,2.513983E-2,-5.539089E-2,7.1431845E-1,6.3626355E-1,-9.4571835E-1,1.2001625E-1,1.2089624E0,-5.4686423E-2,6.847822E-2,3.796534E-2,-7.897789E-2,8.40101E-2,-2.5219917E-2,-2.1039407E-1,7.843681E-2,2.5945563E-2,-1.0429808E-1,-8.2172316E-1,6.3617057E-1,-1.5699364E-1,1.1766081E-1,-4.6092454E-2,2.4271054E-2,2.3483923E-2,-9.250787E-2,9.322147E-2,-2.4249972E-1,-3.7617948E-2,2.2077926E-2,4.318985E-2,-6.3641526E-2],"categories":[],"categories_nodes":[],"categories_segments":[],"categories_sizes":[],"default_left":[false,false,false,false,false,false,false,false,false,false,false,false,false,false,false,false,false,false,false,false,false,false,false,false,false,false,false,false,false,false,false,false,false,false,false,false,false,false,false,false,false,false,false,false,false,false,false,false,false,false,false,false,false,false,false,false,false,false,false,false,false,false,false,false,false,false,false,false,false,false,false,false,false,false,false,false,false,false,false,false,false,false,false,false,false,false,false,false,false,false,false,false,false],"id":7,"left_children":[1,3,5,7,9,11,13,15,17,19,21,-1,23,25,27,-1,29,31,33,-1,35,37,-1,-1,-1,39,41,43,-1,45,-1,47,49,51,53,55,-1,-1,-1,-1,57,-1,59,61,-1,-1,-1,-1,63,65,67,-1,69,-1,71,-1,-1,-1,-1,-1,-1,-1,-1,-1,73,75,77,79,81,-1,-1,-1,-1,-1,-1,83,-1,-1,-1,85,87,89,-1,-1,-1,-1,-1,-1,91,-1,-1,-1,-1],"loss_changes":[1.996279E1,1.3138632E1,8.855013E0,6.833478E0,2.8634214E0,3.3162436E0,3.1093884E0,4.1823816E0,4.825428E0,1.8389852E0,3.1014853E0,0E0,8.4041053E-1,1.3855629E0,2.0644112E0,0E0,2.5567296E0,3.691966E0,2.3546677E0,0E0,4.0743268E-1,4.8483872E-1,0E0,0E0,0E0,1.007664E0,1.4232845E0,8.412949E-1,0E0,2.2600617E0,0E0,2.2858045E0,2.6156273E0,8.463898E-1,1.6034102E0,3.2364276E-1,0E0,0E0,0E0,0E0,4.6275187E-1,0E0,2.460663E0,3.3089635E-1,0E0,0E0,0E0,0E0,1.7447083E0,3.4219346E0,3.1309052E0,0E0,1.5905193E0,0E0,1.2889342E0,0E0,0E0,0E0,0E0,0E0,0E0,0E0,0E0,0E0,8.385886E-1,7.8629076E-1,1.132874E0,3.2920175E0,1.3593912E0,0E0,0E0,0E0,0E0,0E0,0E0,3.629765E-1,0E0,0E0,0E0,8.805417E-1,1.8193312E0,2.6624283E-1,0E0,0E0,0E0,0E0,0E0,0E0,1.1160417E0,0E0,0E0,0E0,0E0],"parents":[2147483647,0,0,1,1,2,2,3,3,4,4,5,5,6,6,7,7,8,8,9,9,10,10,12,12,13,13,14,14,16,16,17,17,18,18,20,20,21,21,25,25,26,26,27,27,29,29,31,31,32,32,33,33,34,34,35,35,40,40,42,42,43,43,48,48,49,49,50,50,52,52,54,54,64,64,65,65,66,66,67,67,68,68,75,75,79,79,80,80,81,81,88,88],"right_children":[2,4,6,8,10,12,14,16,18,20,22,-1,24,26,28,-1,30,32,34,-1,36,38,-1,-1,-1,40,42,44,-1,46,-1,48,50,52,54,56,-1,-1,-1,-1,58,-1,60,62,-1,-1,-1,-1,64,66,68,-1,70,-1,72,-1,-1,-1,-1,-1,-1,-1,-1,-1,74,76,78,80,82,-1,-1,-1,-1,-1,-1,84,-1,-1,-1,86,88,90,-1,-1,-1,-1,-1,-1,92,-1,-1,-1,-1],"split_conditions":[-2.3834229E-2,3.590373E-2,-3.1280518E-2,1E0,-6.7367554E-3,-3.1170812E-3,3.5095215E-2,-9.665639E-3,-2.5099829E-2,1.8182497E-1,1.8182497E-1,9.926728E-2,1.8182497E-1,1E0,5.2475643E-1,7.6834336E-2,1.9967379E-1,1.8182497E-1,5.9295654E-2,-5.848158E-2,1.834045E-1,1.8182497E-1,-1.13397226E-1,3.1012703E-2,-7.159167E-2,1.834045E-1,-4.2877197E-3,1.9967379E-1,-6.641019E-2,9.5354956E-1,-1.06663145E-1,2.8835164E-2,1E0,2.2947358E-2,1.8182497E-1,4.7524357E-1,8.007429E-2,-2.4495099E-2,5.5182666E-2,-5.5582974E-2,1.8182497E-1,-1.1923967E-1,1.8182497E-1,4.7524357E-1,8.233567E-2,-5.9646543E-2,8.469862E-2,-9.771258E-2,2.1482404E-1,1.8182497E-1,1.8182497E-1,1.1175417E-1,4.0758544E-1,6.600919E-2,2.1482404E-1,-3.3800922E-2,2.9927554E-2,6.328846E-2,-2.0528203E-2,6.317683E-2,-7.829365E-2,-3.905382E-2,2.513983E-2,-5.539089E-2,1.8182497E-1,1.9967379E-1,1.9967379E-1,1.8182497E-1,1.8182497E-1,-5.4686423E-2,6.847822E-2,3.796534E-2,-7.897789E-2,8.40101E-2,-2.5219917E-2,4.9308736E-2,7.843681E-2,2.5945563E-2,-1.0429808E-1,1.834045E-1,4.6450414E-2,4.7524357E-1,1.1766081E-1,-4.6092454E-2,2.4271054E-2,2.3483923E-2,-9.250787E-2,9.322147E-2,1.8182497E-1,-3.7617948E-2,2.2077926E-2,4.318985E-2,-6.3641526E-2],"split_indices":[1110,3057,517,176,425,2622,545,3068,2749,180,0,0,7,175,194,0,118,91,1040,0,102,8,0,0,0,151,326,27,0,220,0,2376,73,2627,28,4,0,0,0,0,0,0,7,4,0,0,0,0,185,29,56,0,231,0,220,0,0,0,0,0,0,0,0,0,18,44,235,18,180,0,0,0,0,0,0,2304,0,0,0,102,213,4,0,0,0,0,0,0,7,0,0,0,0],"split_type":[0,0,0,0,0,0,0,0,0,0,0,0,0,0,0,0,0,0,0,0,0,0,0,0,0,0,0,0,0,0,0,0,0,0,0,0,0,0,0,0,0,0,0,0,0,0,0,0,0,0,0,0,0,0,0,0,0,0,0,0,0,0,0,0,0,0,0,0,0,0,0,0,0,0,0,0,0,0,0,0,0,0,0,0,0,0,0,0,0,0,0,0,0],"sum_hessian":[7.429838E1,5.040145E1,2.3896923E1,4.1715492E1,8.68596E0,3.5175161E0,2.0379406E1,5.753227E0,3.5962265E1,2.156889E0,6.5290704E0,2.3144011E0,1.203115E0,1.770881E1,2.670596E0,1.1061794E0,4.6470475E0,1.7770586E1,1.819168E1,6.9232714E-1,1.4645619E0,8.9962775E-1,5.6294427E0,2.4609768E-1,9.5701736E-1,1.3816462E0,1.6327164E1,1.6031121E0,1.0674839E0,1.4334444E0,3.2136033E0,3.7280757E0,1.404251E1,1.5875239E1,2.316441E0,4.9335435E-1,9.7120756E-1,2.2424622E-1,6.7538154E-1,6.835497E-1,6.9809645E-1,1.4294229E1,2.0329356E0,6.601082E-1,9.4300383E-1,6.975183E-1,7.359261E-1,1.6500291E0,2.0780466E0,3.508967E0,1.0533543E1,1.4458357E1,1.4168823E0,9.1073394E-1,1.4057071E0,2.4952385E-1,2.438305E-1,4.9685365E-1,2.0124279E-1,6.954365E-1,1.3374993E0,4.328112E-1,2.2729702E-1,6.8359053E-1,1.3944561E0,1.8119831E0,1.6969838E0,4.6970973E0,5.8364453E0,4.814763E-1,9.35406E-1,4.2491436E-1,9.8079276E-1,1.1667937E0,2.2766234E-1,4.5302767E-1,1.3589555E0,2.3083435E-1,1.4661494E0,1.4533695E0,3.2437277E0,4.6006238E-1,5.376383E0,2.298873E-1,2.2314034E-1,2.1906903E-1,1.2343005E0,2.059724E0,1.1840036E0,2.4897942E-1,2.1108298E-1,4.588998E-1,7.251038E-1],"tree_param":{"num_deleted":"0","num_feature":"3072","num_nodes":"93","size_leaf_vector":"0"}},{"base_weights":[-1.5099672E-2,2.3002152E-1,-8.355359E-1,-8.589619E-1,4.064633E-1,-1.0141466E0,4.8656747E-1,4.2789947E-2,-9.6686155E-1,8.8718104E-1,7.292244E-2,-1.0440096E-1,-3.326543E-1,7.776356E-2,-3.8809918E-2,-1.1058078E0,1.6279045E-1,1.0824187E0,-5.9907824E-2,9.952184E-2,-1.043721E-1,3.4737924E-1,-7.7932395E-2,-1.1505251E-1,-1.0574538E-1,-2.902172E-2,4.1640867E-2,-1.1784013E-1,1.1629099E0,-6.595382E-1,7.542379E-2,3.723779E-1,-4.9545243E-1,-3.3478388E-1,7.806002E-2,3.2812472E-2,-4.0562224E-2,-5.2461434E-2,3.9555017E-2,-3.910741E-2,1.2004694E0,1.1587435E-1,-8.282248E-2,1.0268757E-1,9.126607E-2,5.1305216E-2,-8.031914E-1,-5.1484585E-2,2.4147015E-2,1.9978328E-2,-2.3626024E-2,3.5342693E-1,1.1296283E-1,-3.555418E-2,4.2546846E-2,8.4725803E-1,-5.226719E-1,7.467188E-1,-4.1437533E-1,-1.3816558E-1,-1.0703514E0,-3.67487E-1,7.039652E-2,-8.229588E-2,9.720972E-2,4.5202747E-1,-1.063761E0,-2.6730102E-2,8.482257E-2,-9.3316264E-2,2.752548E-1,-6.3590115E-1,5.1950806E-1,-1.2115752E0,5.2863937E-2,-5.37048E-2,2.0610044E-2,4.3301623E-2,-5.182019E-2,-4.3814234E-2,7.54469E-2,2.5213098E-2,-1.0764699E-1,-4.916856E-2,6.7796564E-1,-7.8645736E-2,1.6888592E-1,-3.8868643E-2,7.68207E-2,5.631173E-2,-1.1761497E-1,-3.8463533E-2,3.910868E-2,-2.5823219E-2,8.107898E-2,4.179188E-2,-2.4532922E-2,2.8461559E-2,-2.305E-2],"categories":[],"categories_nodes":[],"categories_segments":[],"categories_sizes":[],"default_left":[false,false,false,false,false,false,false,false,false,false,false,false,false,false,false,false,false,false,false,false,false,false,false,false,false,false,false,false,false,false,false,false,false,false,false,false,false,false,false,false,false,false,false,false,false,false,false,false,false,false,false,false,false,false,false,false,false,false,false,false,false,false,false,false,false,false,false,false,false,false,false,false,false,false,false,false,false,false,false,false,false,false,false,false,false,false,false,false,false,false,false,false,false,false,false,false,false,false,false],"id":8,"left_children":[1,3,5,7,9,11,13,-1,15,17,19,-1,21,-1,-1,23,25,27,29,-1,31,33,-1,35,-1,-1,-1,37,39,41,-1,43,45,47,-1,-1,-1,-1,-1,49,51,53,-1,55,-1,57,59,-1,-1,-1,-1,61,-1,-1,-1,63,65,67,69,71,73,75,-1,77,-1,79,81,-1,-1,-1,83,85,87,89,91,-1,-1,-1,-1,-1,-1,-1,-1,-1,93,-1,95,-1,-1,97,-1,-1,-1,-1,-1,-1,-1,-1,-1],"loss_changes":[1.3840116E1,1.0539752E1,4.230959E0,1.5869212E0,7.362299E0,1.2390337E0,1.3203169E0,0E0,1.3535194E0,3.5567312E0,5.430645E0,0E0,1.8807967E0,0E0,0E0,4.7692585E-1,4.1131E-1,1.6547222E0,2.851059E0,0E0,4.8934636E0,1.2472842E0,0E0,4.5188108E-1,0E0,0E0,0E0,7.7645236E-1,7.157612E-1,7.741133E-1,0E0,2.0243487E0,2.447951E0,4.4150776E-1,0E0,0E0,0E0,0E0,0E0,1.4637941E-1,5.050163E-1,5.1718575E-1,0E0,4.9123535E0,0E0,2.2820485E0,1.4888802E0,0E0,0E0,0E0,0E0,1.1251969E0,0E0,0E0,0E0,1.2122998E0,3.5585442E0,9.183074E-1,2.1912065E0,1.5705022E0,1.0830555E0,3.840923E-1,0E0,8.509567E-1,0E0,1.4856019E0,1.1950383E0,0E0,0E0,0E0,1.3364301E0,6.841812E-1,1.1162186E0,9.4989777E-1,5.118957E-1,0E0,0E0,0E0,0E0,0E0,0E0,0E0,0E0,0E0,8.2256484E-1,0E0,3.3075622E-1,0E0,0E0,2.0699269E-1,0E0,0E0,0E0,0E0,0E0,0E0,0E0,0E0,0E0],"parents":[2147483647,0,0,1,1,2,2,3,3,4,4,5,5,6,6,8,8,9,9,10,10,12,12,15,15,16,16,17,17,18,18,20,20,21,21,23,23,27,27,28,28,29,29,31,31,32,32,33,33,39,39,40,40,41,41,43,43,45,45,46,46,51,51,55,55,56,56,57,57,58,58,59,59,60,60,61,61,63,63,65,65,66,66,70,70,71,71,72,72,73,73,74,74,84,84,86,86,89,89],"right_children":[2,4,6,8,10,12,14,-1,16,18,20,-1,22,-1,-1,24,26,28,30,-1,32,34,-1,36,-1,-1,-1,38,40,42,-1,44,46,48,-1,-1,-1,-1,-1,50,52,54,-1,56,-1,58,60,-1,-1,-1,-1,62,-1,-1,-1,64,66,68,70,72,74,76,-1,78,-1,80,82,-1,-1,-1,84,86,88,90,92,-1,-1,-1,-1,-1,-1,-1,-1,-1,94,-1,96,-1,-1,98,-1,-1,-1,-1,-1,-1,-1,-1,-1],"split_conditions":[-1.7166138E-2,-5.843063E-2,2.7190275E-3,1.9967379E-1,-5.8288574E-3,-2.626419E-3,7.821188E-3,4.2789947E-2,8.605957E-2,9.073081E-3,-5.7143357E-2,-1.0440096E-1,2.9122913E-1,7.776356E-2,-3.8809918E-2,1.8182497E-1,1.8182497E-1,1E0,4.0758544E-1,9.952184E-2,-2.9564233E-2,1.9967379E-1,-7.7932395E-2,2.1482404E-1,-1.0574538E-1,-2.902172E-2,4.1640867E-2,1.8182497E-1,6.0754484E-1,1.9967379E-1,7.542379E-2,-2.713489E-3,-1.1505127E-2,1.8182497E-1,7.806002E-2,3.2812472E-2,-4.0562224E-2,-5.2461434E-2,3.9555017E-2,1.8182497E-1,1.8182497E-1,2.9214466E-1,-8.282248E-2,1E0,9.126607E-2,2.9214466E-1,1.9967379E-1,-5.1484585E-2,2.4147015E-2,1.9978328E-2,-2.3626024E-2,1.8182497E-1,1.1296283E-1,-3.555418E-2,4.2546846E-2,1.8182497E-1,2.9122913E-1,1.7052412E-1,1.8182497E-1,2.9214466E-1,4.3777735E-3,4.918137E-3,7.039652E-2,2.9214466E-1,9.720972E-2,1.7052412E-1,4.6450414E-2,-2.6730102E-2,8.482257E-2,-9.3316264E-2,1.9967379E-1,3.0424225E-1,2.9214466E-1,1E0,4.7524357E-1,-5.37048E-2,2.0610044E-2,4.3301623E-2,-5.182019E-2,-4.3814234E-2,7.54469E-2,2.5213098E-2,-1.0764699E-1,-4.916856E-2,1.8182497E-1,-7.8645736E-2,1E0,-3.8868643E-2,7.68207E-2,1.8182497E-1,-1.1761497E-1,-3.8463533E-2,3.910868E-2,-2.5823219E-2,8.107898E-2,4.179188E-2,-2.4532922E-2,2.8461559E-2,-2.305E-2],"split_indices":[1110,2463,2520,130,1143,354,2310,0,257,2824,2682,0,79,0,0,18,8,90,220,0,3059,22,0,3,0,0,0,29,66,191,0,2317,1132,0,0,0,0,0,0,8,186,6,0,197,0,70,168,0,0,0,0,18,0,0,0,133,202,17,52,215,2389,2310,0,6,0,10,50,0,0,0,207,221,36,16,4,0,0,0,0,0,0,0,0,0,54,0,15,0,0,0,0,0,0,0,0,0,0,0,0],"split_type":[0,0,0,0,0,0,0,0,0,0,0,0,0,0,0,0,0,0,0,0,0,0,0,0,0,0,0,0,0,0,0,0,0,0,0,0,0,0,0,0,0,0,0,0,0,0,0,0,0,0,0,0,0,0,0,0,0,0,0,0,0,0,0,0,0,0,0,0,0,0,0,0,0,0,0,0,0,0,0,0,0,0,0,0,0,0,0,0,0,0,0,0,0,0,0,0,0,0,0],"sum_hessian":[6.6864235E1,5.2036854E1,1.4827382E1,6.716284E0,4.532057E1,1.3267876E1,1.5595063E0,2.3986606E-1,6.476418E0,1.7884516E1,2.7436054E1,1.0056339E1,3.2115366E0,1.1286263E0,4.3088004E-1,5.7858686E0,6.90549E-1,1.4709365E1,3.1751516E0,3.179795E0,2.425626E1,1.6000727E0,1.6114638E0,6.796072E-1,5.1062617E0,2.4152492E-1,4.4902408E-1,8.952766E-1,1.3814088E1,2.0852027E0,1.0899487E0,1.0952427E1,1.3303833E1,8.6979806E-1,7.3027474E-1,2.4869592E-1,4.309113E-1,4.5896882E-1,4.3630782E-1,4.1732204E-1,1.3396766E1,7.045738E-1,1.3806291E0,8.598977E0,2.35345E0,5.0913506E0,8.212482E0,6.4728004E-1,2.2251798E-1,1.9749662E-1,2.198254E-1,1.6026385E0,1.1794127E1,2.4998996E-1,4.5458382E-1,3.7633698E0,4.835607E0,1.7999442E0,3.2914064E0,2.7884696E0,5.4240127E0,6.75843E-1,9.267955E-1,9.5058614E-1,2.8127837E0,1.7849169E0,3.0506904E0,2.3398407E-1,1.56596E0,1.4289051E0,1.8625014E0,1.6060764E0,1.1823931E0,4.74833E0,6.756824E-1,4.7405392E-1,2.017891E-1,4.5835721E-1,4.922289E-1,4.6210128E-1,1.3228155E0,2.2763135E-1,2.823059E0,4.8279554E-1,1.3797059E0,1.1393554E0,4.66721E-1,2.4759667E-1,9.3479645E-1,4.566103E-1,4.29172E0,2.4810572E-1,4.2757672E-1,2.3031695E-1,1.1493889E0,2.4229044E-1,2.2443058E-1,2.3990886E-1,2.1670143E-1],"tree_param":{"num_deleted":"0","num_feature":"3072","num_nodes":"99","size_leaf_vector":"0"}},{"base_weights":[-1.6313009E-2,-9.398279E-1,2.2554831E-1,2.834897E-1,-1.1308393E0,6.135887E-1,-9.486534E-2,7.9165876E-2,-5.0185826E-2,-2.0610581E-1,-1.1113766E-1,9.6946275E-1,-1.7207685E-1,1.1498854E-1,-1.0865946E0,-6.7440346E-2,6.711825E-2,1.1326165E0,-7.331274E-2,7.947952E-2,-4.965036E-1,-4.366345E-1,3.7170675E-1,-1.0437701E-1,2.0468308E-2,-1.2097999E-1,1.3067168E0,6.71384E-2,-6.9992054E-1,2.8493595E-1,-1.0223339E0,4.2302465E-1,-9.6889824E-1,-2.6954558E-1,7.5584185E-1,-6.336153E-1,5.3712636E-2,2.8169993E-1,1.1869445E-1,2.4528723E-2,-8.2233116E-2,-4.2955342E-1,6.6177803E-1,1.2100282E-1,-1.09952405E-1,-2.932252E-1,7.980065E-2,1.6299213E-1,-1.1421117E0,-9.477191E-1,4.6262914E-1,-6.2695205E-2,8.8334095E-1,1.7693955E-2,-7.2208025E-2,5.1151864E-2,-2.6936177E-2,-5.7011884E-2,2.0298274E-2,-3.314679E-2,8.041614E-2,-2.7125804E-2,3.6226034E-2,4.046388E-2,-5.946414E-1,3.663374E-2,-2.3243396E-2,-2.3500742E-2,-1.1467754E-1,-5.245216E-2,-9.7287446E-2,-4.39365E-1,8.409148E-1,1.1924071E0,2.8632528E-1,2.0574335E-2,-7.08229E-2,3.4771457E-2,-4.186007E-2,4.1013904E-2,-4.1036077E-2,2.5535641E-2,-6.2408652E-2,-2.5945567E-2,8.979895E-2,-2.8604599E-2,1.1420218E-1,7.3900515E-1,-2.7845043E-1,7.678582E-2,9.840218E-2,4.6950594E-2,-7.042521E-1,-3.0379891E-2,3.697957E-2,2.8818108E-2,-8.563165E-2],"categories":[],"categories_nodes":[],"categories_segments":[],"categories_sizes":[],"default_left":[false,false,false,false,false,false,false,false,false,false,false,false,false,false,false,false,false,false,false,false,false,false,false,false,false,false,false,false,false,false,false,false,false,false,false,false,false,false,false,false,false,false,false,false,false,false,false,false,false,false,false,false,false,false,false,false,false,false,false,false,false,false,false,false,false,false,false,false,false,false,false,false,false,false,false,false,false,false,false,false,false,false,false,false,false,false,false,false,false,false,false,false,false,false,false,false,false],"id":9,"left_children":[1,3,5,7,9,11,13,-1,-1,15,-1,17,19,21,23,-1,-1,25,27,-1,29,31,33,-1,-1,35,37,-1,39,41,43,45,47,49,51,53,-1,55,-1,-1,-1,57,59,61,-1,63,-1,65,67,69,71,-1,73,-1,-1,-1,-1,-1,-1,-1,-1,-1,-1,-1,75,-1,-1,77,-1,79,-1,81,83,85,87,-1,-1,-1,-1,-1,-1,-1,-1,-1,-1,-1,-1,89,91,-1,93,-1,95,-1,-1,-1,-1],"loss_changes":[1.5224746E1,3.6252928E0,6.7808895E0,1.9234905E0,1.2059431E0,7.0416126E0,6.468732E0,0E0,0E0,2.0351603E0,0E0,2.9878063E0,3.4078448E0,3.8530397E0,9.536209E-1,0E0,0E0,3.3935337E0,2.2288694E0,0E0,3.2419062E0,4.407572E0,4.717807E0,0E0,0E0,1.403091E0,1.19989395E-1,0E0,7.952423E-1,1.272521E0,1.2981968E0,1.6542065E0,1.3036647E0,4.2133017E0,2.8177466E0,4.8410988E-1,0E0,4.77297E-1,0E0,0E0,0E0,4.1512302E-1,1.0629174E0,3.2974648E-1,0E0,8.104652E-1,0E0,2.842053E-1,8.5533905E-1,5.306492E-1,1.8460896E0,0E0,1.730813E0,0E0,0E0,0E0,0E0,0E0,0E0,0E0,0E0,0E0,0E0,0E0,5.5216044E-1,0E0,0E0,4.9467847E-1,0E0,5.7284975E-1,0E0,5.810461E-1,9.7519684E-1,1.4989891E0,1.5216109E0,0E0,0E0,0E0,0E0,0E0,0E0,0E0,0E0,0E0,0E0,0E0,0E0,1.758697E-1,1.4146638E0,0E0,3.787582E-1,0E0,9.743166E-1,0E0,0E0,0E0,0E0],"parents":[2147483647,0,0,1,1,2,2,3,3,4,4,5,5,6,6,9,9,11,11,12,12,13,13,14,14,17,17,18,18,20,20,21,21,22,22,25,25,26,26,28,28,29,29,30,30,31,31,32,32,33,33,34,34,35,35,37,37,41,41,42,42,43,43,45,45,47,47,48,48,49,49,50,50,52,52,64,64,67,67,69,69,71,71,72,72,73,73,74,74,87,87,88,88,90,90,92,92],"right_children":[2,4,6,8,10,12,14,-1,-1,16,-1,18,20,22,24,-1,-1,26,28,-1,30,32,34,-1,-1,36,38,-1,40,42,44,46,48,50,52,54,-1,56,-1,-1,-1,58,60,62,-1,64,-1,66,68,70,72,-1,74,-1,-1,-1,-1,-1,-1,-1,-1,-1,-1,-1,76,-1,-1,78,-1,80,-1,82,84,86,88,-1,-1,-1,-1,-1,-1,-1,-1,-1,-1,-1,-1,90,92,-1,94,-1,96,-1,-1,-1,-1],"split_conditions":[-1.7653584E-2,1.9967379E-1,-5.3399205E-3,1.7052412E-1,-1.0839844E-1,-1.8459149E-2,-3.302002E-2,7.9165876E-2,-5.0185826E-2,1.9967379E-1,-1.1113766E-1,2.5238942E-2,3.8814712E-1,7.0785534E-1,4.4813663E-2,-6.7440346E-2,6.711825E-2,1E0,6.0754484E-1,7.947952E-2,1.8182497E-1,-1.0177612E-2,1.9967379E-1,-1.0437701E-1,2.0468308E-2,4.5606998E-1,7.888794E-3,6.71384E-2,2.1482404E-1,4.6450414E-2,2.9214466E-1,5.2475643E-1,2.9214466E-1,-3.4205265E-2,1.7052412E-1,1.9967379E-1,5.3712636E-2,1.8182497E-1,1.1869445E-1,2.4528723E-2,-8.2233116E-2,1.7052412E-1,2.9122913E-1,2.1482404E-1,-1.09952405E-1,1.8182497E-1,7.980065E-2,2.9122913E-1,1.9967379E-1,2.9122913E-1,3.0424225E-1,-6.2695205E-2,2.6751861E-2,1.7693955E-2,-7.2208025E-2,5.1151864E-2,-2.6936177E-2,-5.7011884E-2,2.0298274E-2,-3.314679E-2,8.041614E-2,-2.7125804E-2,3.6226034E-2,4.046388E-2,1.8182497E-1,3.663374E-2,-2.3243396E-2,1.9967379E-1,-1.1467754E-1,1.8182497E-1,-9.7287446E-2,2.1482404E-1,4.8576558E-1,1E0,4.6450414E-2,2.0574335E-2,-7.08229E-2,3.4771457E-2,-4.186007E-2,4.1013904E-2,-4.1036077E-2,2.5535641E-2,-6.2408652E-2,-2.5945567E-2,8.979895E-2,-2.8604599E-2,1.1420218E-1,1.9967379E-1,4.6450414E-2,7.678582E-2,2.9122913E-1,4.6950594E-2,5.2475643E-1,-3.0379891E-2,3.697957E-2,2.8818108E-2,-8.563165E-2],"split_indices":[2788,192,2738,131,297,2901,438,0,0,5,0,2590,110,61,2304,0,0,90,66,0,159,379,62,0,0,219,261,0,3,161,48,24,36,2368,106,27,0,28,0,0,0,10,109,3,0,129,0,19,73,19,156,0,2458,0,0,0,0,0,0,0,0,0,0,0,29,0,0,11,0,37,0,3,32,122,198,0,0,0,0,0,0,0,0,0,0,0,0,207,115,0,19,0,24,0,0,0,0],"split_type":[0,0,0,0,0,0,0,0,0,0,0,0,0,0,0,0,0,0,0,0,0,0,0,0,0,0,0,0,0,0,0,0,0,0,0,0,0,0,0,0,0,0,0,0,0,0,0,0,0,0,0,0,0,0,0,0,0,0,0,0,0,0,0,0,0,0,0,0,0,0,0,0,0,0,0,0,0,0,0,0,0,0,0,0,0,0,0,0,0,0,0,0,0,0,0,0,0],"sum_hessian":[6.621256E1,1.3142786E1,5.3069775E1,1.7096052E0,1.1433182E1,2.3588129E1,2.9481646E1,9.6376103E-1,7.458441E-1,1.7018526E0,9.731329E0,1.6073542E1,7.514588E0,2.5062395E1,4.419251E0,1.2120256E0,4.8982698E-1,1.3824404E1,2.2491372E0,1.3338289E0,6.180759E0,7.7369013E0,1.7325493E1,4.21841E0,2.0084113E-1,1.7230219E0,1.2101382E1,8.7380695E-1,1.3753303E0,2.6703932E0,3.5103655E0,3.0370295E0,4.699872E0,6.602304E0,1.0723189E1,1.0885981E0,6.344237E-1,7.23145E-1,1.1378237E1,2.2441016E-1,1.1509202E0,8.737997E-1,1.7965935E0,6.4625174E-1,2.8641138E0,1.3757921E0,1.6612375E0,6.3159907E-1,4.0682726E0,3.2747202E0,3.3275838E0,4.926477E-1,1.0230542E1,1.8056849E-1,9.080297E-1,4.8838174E-1,2.3476322E-1,6.741074E-1,1.9969231E-1,2.4902263E-1,1.547571E0,2.3546247E-1,4.1078928E-1,2.4504553E-1,1.1307466E0,4.1383162E-1,2.1776743E-1,6.3961613E-1,3.4286566E0,6.7654717E-1,2.598173E0,9.3549705E-1,2.3920867E0,6.08378E0,4.1467624E0,2.015511E-1,9.2919546E-1,3.9748192E-1,2.4213423E-1,2.4397165E-1,4.3257552E-1,2.29073E-1,7.0642406E-1,2.3083436E-1,2.1612525E0,2.4033545E-1,5.8434443E0,2.130571E0,2.0161915E0,1.473619E0,6.5695184E-1,6.090949E-1,1.4070965E0,2.4484064E-1,4.1211122E-1,2.4095441E-1,1.1661421E0],"tree_param":{"num_deleted":"0","num_feature":"3072","num_nodes":"97","size_leaf_vector":"0"}},{"base_weights":[1.2914402E-2,-6.147656E-1,2.938657E-1,9.323987E-2,-8.7887853E-1,-1.8306436E-1,6.8826133E-1,-1.0114312E0,6.042292E-2,2.4260043E-1,-9.0436417E-1,-2.594555E-1,8.42342E-1,-4.675114E-1,-1.1615702E0,-6.4634335E-1,6.422318E-1,3.3246934E-1,-1.0735663E0,5.5955285E-1,-7.755545E-1,-5.5423796E-1,9.575207E-1,4.3034407E-1,-8.5468686E-1,4.1365545E-2,-1.2027508E0,-1.0206668E0,5.7473097E-2,-4.4540402E-1,8.0374163E-1,-2.8409416E-2,5.779674E-2,-1.9294228E-1,-1.0059743E-1,-2.0627437E-2,6.67558E-2,1.5878281E-1,-8.922798E-2,2.2123056E-2,-6.703641E-2,1.0463972E0,-4.3616545E-1,-3.9985556E-2,8.512368E-2,-8.759464E-2,4.3654837E-2,2.0978266E-2,-1.7184505E-2,-1.0915698E-1,-2.4909176E-1,2.6508618E-2,-1.03889495E-1,2.6466873E-2,-6.3602254E-2,1.0420789E0,-1.001858E-1,-4.468573E-2,2.9267682E-2,-2.3710135E-2,3.9717056E-2,1.2013837E0,3.2669306E-1,2.43757E-2,-6.126601E-2,3.4297038E-2,-2.9836869E-2,-4.2687178E-2,2.1191614E-2,-2.814811E-2,1.1324525E0,3.2441363E-1,-4.785233E-1,-1.6559318E-2,1.2520325E0,-6.929743E-2,6.322174E-1,3.8735807E-1,1.08492E-1,-3.257897E-2,5.707963E-2,2.251694E-2,-6.381566E-2,3.0016877E-2,-3.440374E-2,1.3332592E0,3.2893127E-1,-4.320217E-1,8.511028E-2,5.857328E-2,-2.4189046E-1,2.7170533E-1,1.21020444E-1,-5.191284E-2,7.040295E-2,2.2587677E-2,-6.1907835E-2,1.7952017E-2,-4.1586813E-2,5.1870733E-2,-2.8135605E-2],"categories":[],"categories_nodes":[],"categories_segments":[],"categories_sizes":[],"default_left":[false,false,false,false,false,false,false,false,false,false,false,false,false,false,false,false,false,false,false,false,false,false,false,false,false,false,false,false,false,false,false,false,false,false,false,false,false,false,false,false,false,false,false,false,false,false,false,false,false,false,false,false,false,false,false,false,false,false,false,false,false,false,false,false,false,false,false,false,false,false,false,false,false,false,false,false,false,false,false,false,false,false,false,false,false,false,false,false,false,false,false,false,false,false,false,false,false,false,false,false,false],"id":10,"left_children":[1,3,5,-1,7,9,11,13,-1,15,17,19,21,23,25,27,29,31,33,35,37,39,41,43,45,47,49,51,-1,53,55,-1,-1,57,-1,-1,-1,59,-1,-1,-1,61,63,-1,-1,-1,65,-1,-1,-1,67,-1,-1,-1,-1,69,71,-1,-1,-1,-1,73,75,-1,-1,-1,-1,-1,-1,-1,77,79,81,83,85,-1,87,89,-1,-1,-1,-1,-1,-1,-1,91,93,95,-1,-1,97,99,-1,-1,-1,-1,-1,-1,-1,-1,-1],"loss_changes":[1.13971815E1,9.747002E0,8.517944E0,0E0,4.38105E0,6.662202E0,3.815195E0,8.3037376E-1,0E0,5.3832474E0,2.0309625E0,2.2130399E0,3.9764633E0,2.2142937E0,6.6929054E-1,3.0119112E0,2.1408587E0,5.739334E-1,1.9901562E-1,5.2015245E-1,8.184229E-1,5.633493E-1,2.9530373E0,1.5034301E0,5.4143906E-1,1.10105015E-1,7.501793E-2,1.2040019E0,0E0,6.160357E-1,2.085071E0,0E0,0E0,4.477023E-1,0E0,0E0,0E0,3.0297405E-1,0E0,0E0,0E0,1.7538376E0,5.424064E-1,0E0,0E0,0E0,3.2751337E-1,0E0,0E0,0E0,3.0599692E-1,0E0,0E0,0E0,0E0,1.2663889E0,6.0994774E-1,0E0,0E0,0E0,0E0,9.743538E-1,2.1199315E0,0E0,0E0,0E0,0E0,0E0,0E0,0E0,3.3130646E-2,6.68922E-1,5.243611E-1,3.4560376E-1,6.7526436E-1,0E0,1.9346818E0,5.548518E-1,0E0,0E0,0E0,0E0,0E0,0E0,0E0,1.499424E-1,1.5537851E0,4.959838E-1,0E0,0E0,2.4096128E-1,5.0282896E-1,0E0,0E0,0E0,0E0,0E0,0E0,0E0,0E0,0E0],"parents":[2147483647,0,0,1,1,2,2,4,4,5,5,6,6,7,7,9,9,10,10,11,11,12,12,13,13,14,14,15,15,16,16,17,17,18,18,19,19,20,20,21,21,22,22,23,23,24,24,25,25,26,26,27,27,29,29,30,30,33,33,37,37,41,41,42,42,46,46,50,50,55,55,56,56,61,61,62,62,70,70,71,71,72,72,73,73,74,74,76,76,77,77,85,85,86,86,87,87,90,90,91,91],"right_children":[2,4,6,-1,8,10,12,14,-1,16,18,20,22,24,26,28,30,32,34,36,38,40,42,44,46,48,50,52,-1,54,56,-1,-1,58,-1,-1,-1,60,-1,-1,-1,62,64,-1,-1,-1,66,-1,-1,-1,68,-1,-1,-1,-1,70,72,-1,-1,-1,-1,74,76,-1,-1,-1,-1,-1,-1,-1,78,80,82,84,86,-1,88,90,-1,-1,-1,-1,-1,-1,-1,92,94,96,-1,-1,98,100,-1,-1,-1,-1,-1,-1,-1,-1,-1],"split_conditions":[-1.4061799E-2,-1.29776E-2,8.178711E-3,9.323987E-2,-9.198733E-3,-3.9853323E-2,6.3363814E-1,2.9122913E-1,6.042292E-2,3.8814712E-1,1E0,-9.138539E-3,-3.8700104E-3,1.9967379E-1,1.8182497E-1,1.9967379E-1,1.7052412E-1,1.9967379E-1,-3.463745E-2,1.9967379E-1,1.9967379E-1,1.8182497E-1,8.449731E-3,1.9967379E-1,1.9967379E-1,1.8182497E-1,5.742204E-2,1.9967379E-1,5.7473097E-2,2.9122913E-1,9.788513E-3,-2.8409416E-2,5.779674E-2,4.8576558E-1,-1.0059743E-1,-2.0627437E-2,6.67558E-2,1.9967379E-1,-8.922798E-2,2.2123056E-2,-6.703641E-2,-3.7601418E-3,1.9967379E-1,-3.9985556E-2,8.512368E-2,-8.759464E-2,1.8182497E-1,2.0978266E-2,-1.7184505E-2,-1.0915698E-1,1.8182497E-1,2.6508618E-2,-1.03889495E-1,2.6466873E-2,-6.3602254E-2,1E0,1.8182497E-1,-4.468573E-2,2.9267682E-2,-2.3710135E-2,3.9717056E-2,1E0,3.0014717E-3,2.43757E-2,-6.126601E-2,3.4297038E-2,-2.9836869E-2,-4.2687178E-2,2.1191614E-2,-2.814811E-2,4.6450414E-2,1.8182497E-1,1.9967379E-1,1.8182497E-1,4.0328093E-2,-6.929743E-2,1.7052412E-1,-9.7527854E-2,1.08492E-1,-3.257897E-2,5.707963E-2,2.251694E-2,-6.381566E-2,3.0016877E-2,-3.440374E-2,-3.0442176E-2,1.0343861E-2,1.9967379E-1,8.511028E-2,5.857328E-2,1.8182497E-1,1.9967379E-1,1.21020444E-1,-5.191284E-2,7.040295E-2,2.2587677E-2,-6.1907835E-2,1.7952017E-2,-4.1586813E-2,5.1870733E-2,-2.8135605E-2],"split_indices":[2700,1116,780,0,2510,2446,129,202,0,110,15,2321,1280,134,236,11,106,73,260,5,191,28,2683,5,62,0,2306,88,0,21,330,0,0,9,0,0,0,11,0,0,0,2307,11,0,0,0,0,0,0,0,8,0,0,0,0,122,159,0,0,0,0,90,274,0,0,0,0,0,0,0,59,8,27,8,2862,0,226,2305,0,0,0,0,0,0,0,2432,1280,5,0,0,8,5,0,0,0,0,0,0,0,0,0],"split_type":[0,0,0,0,0,0,0,0,0,0,0,0,0,0,0,0,0,0,0,0,0,0,0,0,0,0,0,0,0,0,0,0,0,0,0,0,0,0,0,0,0,0,0,0,0,0,0,0,0,0,0,0,0,0,0,0,0,0,0,0,0,0,0,0,0,0,0,0,0,0,0,0,0,0,0,0,0,0,0,0,0,0,0,0,0,0,0,0,0,0,0,0,0,0,0,0,0,0,0,0,0],"sum_hessian":[6.2604652E1,1.899015E1,4.3614502E1,2.1834848E0,1.6806665E1,1.9984146E1,2.3630356E1,1.5818053E1,9.886122E-1,1.2984934E1,6.9992113E0,3.2089448E0,2.0421412E1,4.311674E0,1.1506379E1,3.835613E0,9.149322E0,7.261657E-1,6.273046E0,1.2079022E0,2.0010424E0,1.2654485E0,1.9155964E1,1.2654992E0,3.0461748E0,3.8071626E-1,1.1125663E1,3.141941E0,6.936719E-1,9.5570177E-1,8.19362E0,2.3975097E-1,4.8641473E-1,7.066302E-1,5.566416E0,2.0190483E-1,1.0059974E0,4.6661502E-1,1.5344274E0,2.1135338E-1,1.0540951E0,1.8241854E1,9.141095E-1,5.335368E-1,7.3196244E-1,2.5527742E0,4.934006E-1,2.0421067E-1,1.765056E-1,1.0466383E1,6.592802E-1,2.3312432E-1,2.9088168E0,2.3295967E-1,7.227421E-1,6.3630486E0,1.8305708E0,4.6444172E-1,2.4218847E-1,2.2026867E-1,2.4634634E-1,1.4458893E1,3.7829614E0,2.236598E-1,6.904497E-1,2.4978387E-1,2.4361673E-1,4.536939E-1,2.0558628E-1,2.3894063E-1,6.124108E0,9.297087E-1,9.0086204E-1,6.0414726E-1,1.3854746E1,4.776532E-1,3.305308E0,1.2728173E0,4.8512907E0,2.4843912E-1,6.8126965E-1,2.1367401E-1,6.87188E-1,3.5432082E-1,2.4982642E-1,1.23258295E1,1.5289156E0,7.1273243E-1,2.5925758E0,8.474779E-1,4.253393E-1,6.9519514E-1,1.1630634E1,4.3051082E-1,1.0984049E0,2.1408325E-1,4.9864918E-1,1.8258764E-1,2.4275167E-1,4.5629406E-1,2.3890105E-1],"tree_param":{"num_deleted":"0","num_feature":"3072","num_nodes":"101","size_leaf_vector":"0"}},{"base_weights":[-3.494144E-2,4.6139377E-1,-3.8727763E-1,-5.249693E-1,6.944152E-1,-5.61444E-1,6.607173E-1,-8.852282E-2,1.5097336E-1,9.175946E-2,9.840227E-1,-7.6244956E-1,2.4906388E-1,-5.431623E-1,9.82646E-1,-5.218308E-2,5.556779E-1,9.407921E-2,-4.100832E-1,1.0780398E0,-3.3516952E-1,-1.5195642E-1,-1.0196083E0,-6.4578617E-1,9.944015E-1,2.085455E-2,-6.8211906E-2,-2.7127828E-2,1.00063086E-1,-1.6443251E-1,6.8271816E-2,-9.013666E-2,1.0023488E-1,8.7804995E-2,1.212656E0,1.8936656E-2,-4.7154862E-2,7.276094E-2,-4.2799965E-1,-5.093023E-1,-1.2110715E0,-9.3551785E-2,2.7774534E-1,-2.6729558E-2,1.00301035E-1,-3.51216E-2,1.9251171E-2,-3.422254E-1,6.397028E-2,-5.0893426E-2,5.37371E-1,-5.5631958E-2,1.2660825E0,-6.938455E-1,4.745078E-1,-9.080177E-1,3.584805E-1,-3.8964656E-1,-1.1268833E-1,-3.8590007E-2,5.4729115E-2,4.9793923E-1,-7.890909E-2,-2.4980184E-2,6.8329416E-2,2.6061434E-2,-3.1558074E-2,-1.7098574E-2,1.3029217E0,2.4278286E-1,-8.704773E-1,-3.2025184E-2,6.518239E-2,1.1396211E-1,-9.009476E-2,8.596714E-2,-5.214705E-2,3.82284E-2,-6.0385212E-2,-2.336854E-2,6.622728E-2,-3.0541616E-2,1.1997865E-1,4.520666E-2,-2.6602786E-2,1.864724E-1,-1.1114885E0,2.6700346E-2,-1.6129913E-2,-2.8087743E-2,2.5128644E-2,5.734118E-2,-3.8112026E-2,-9.486854E-3,-1.08112104E-1,2.4738243E-2,-2.564654E-2],"categories":[],"categories_nodes":[],"categories_segments":[],"categories_sizes":[],"default_left":[false,false,false,false,false,false,false,false,false,false,false,false,false,false,false,false,false,false,false,false,false,false,false,false,false,false,false,false,false,false,false,false,false,false,false,false,false,false,false,false,false,false,false,false,false,false,false,false,false,false,false,false,false,false,false,false,false,false,false,false,false,false,false,false,false,false,false,false,false,false,false,false,false,false,false,false,false,false,false,false,false,false,false,false,false,false,false,false,false,false,false,false,false,false,false,false,false],"id":11,"left_children":[1,3,5,7,9,11,13,-1,15,17,19,21,23,25,27,-1,29,-1,31,33,35,37,39,41,43,-1,-1,-1,-1,45,-1,-1,47,49,51,-1,-1,-1,53,55,57,-1,59,-1,-1,-1,-1,61,-1,-1,63,65,67,69,71,73,75,77,-1,-1,-1,79,-1,-1,-1,-1,-1,-1,81,83,85,-1,-1,87,-1,-1,-1,-1,-1,-1,-1,89,-1,-1,-1,91,93,-1,-1,-1,-1,-1,-1,95,-1,-1,-1],"loss_changes":[1.1798516E1,6.809849E0,7.5631294E0,2.0638235E0,3.9438486E0,5.7826605E0,2.88806E0,0E0,1.325745E0,4.6402745E0,2.2848291E0,4.202179E0,5.694799E0,5.261805E-1,1.3458004E0,0E0,5.4409844E-1,0E0,2.095924E0,1.85495E0,3.1044146E-1,2.8846757E0,1.2740421E0,1.8399298E0,1.1726542E0,0E0,0E0,0E0,0E0,2.1529293E-1,0E0,0E0,1.4617145E0,1.1571226E0,9.428654E-1,0E0,0E0,0E0,2.2452655E0,2.749468E0,2.1297264E-1,0E0,7.701867E-1,0E0,0E0,0E0,0E0,1.9505445E0,0E0,0E0,6.470744E-1,2.6182356E-1,9.1884613E-1,1.2990773E0,7.9933196E-1,6.981964E-1,2.2796037E0,8.799553E-1,0E0,0E0,0E0,5.690919E-1,0E0,0E0,0E0,0E0,0E0,0E0,9.4527054E-1,4.2126384E-1,1.6719465E0,0E0,0E0,1.3349771E-1,0E0,0E0,0E0,0E0,0E0,0E0,0E0,2.2323959E-1,0E0,0E0,0E0,8.303102E-1,5.8688736E-1,0E0,0E0,0E0,0E0,0E0,0E0,1.9966602E-1,0E0,0E0,0E0],"parents":[2147483647,0,0,1,1,2,2,3,3,4,4,5,5,6,6,8,8,9,9,10,10,11,11,12,12,13,13,14,14,16,16,18,18,19,19,20,20,21,21,22,22,23,23,24,24,29,29,32,32,33,33,34,34,38,38,39,39,40,40,42,42,47,47,50,50,51,51,52,52,53,53,54,54,55,55,56,56,57,57,61,61,68,68,69,69,70,70,73,73,81,81,85,85,86,86,93,93],"right_children":[2,4,6,8,10,12,14,-1,16,18,20,22,24,26,28,-1,30,-1,32,34,36,38,40,42,44,-1,-1,-1,-1,46,-1,-1,48,50,52,-1,-1,-1,54,56,58,-1,60,-1,-1,-1,-1,62,-1,-1,64,66,68,70,72,74,76,78,-1,-1,-1,80,-1,-1,-1,-1,-1,-1,82,84,86,-1,-1,88,-1,-1,-1,-1,-1,-1,-1,90,-1,-1,-1,92,94,-1,-1,-1,-1,-1,-1,96,-1,-1,-1],"split_conditions":[-9.437903E-3,9.119018E-3,3.0136108E-2,-9.604473E-3,1E0,1.8600464E-2,2.9122913E-1,-8.852282E-2,7.0785534E-1,-7.2812535E-2,3.26637E-2,-1.6890178E-2,5.9241456E-1,4.7524357E-1,4.8576558E-1,-5.218308E-2,2.1482404E-1,9.407921E-2,3.0424225E-1,1.9967379E-1,4.8576558E-1,2.9122913E-1,2.9122913E-1,1.834045E-1,1.8182497E-1,2.085455E-2,-6.8211906E-2,-2.7127828E-2,1.00063086E-1,1.3949387E-1,6.8271816E-2,-9.013666E-2,4.0758544E-1,4.6450414E-2,1E0,1.8936656E-2,-4.7154862E-2,7.276094E-2,1.1070251E-2,1.3949387E-1,4.6450414E-2,-9.3551785E-2,1.8182497E-1,-2.6729558E-2,1.00301035E-1,-3.51216E-2,1.9251171E-2,1.9967379E-1,6.397028E-2,-5.0893426E-2,2.9214466E-1,2.1482404E-1,3.8482666E-2,1.9967379E-1,7.85176E-1,-7.2213024E-2,2.9122913E-1,1.8182497E-1,-1.1268833E-1,-3.8590007E-2,5.4729115E-2,1.8182497E-1,-7.890909E-2,-2.4980184E-2,6.8329416E-2,2.6061434E-2,-3.1558074E-2,-1.7098574E-2,-2.0682933E-2,1.3949387E-1,1E0,-3.2025184E-2,6.518239E-2,1.3949387E-1,-9.009476E-2,8.596714E-2,-5.214705E-2,3.82284E-2,-6.0385212E-2,-2.336854E-2,6.622728E-2,1.8182497E-1,1.1997865E-1,4.520666E-2,-2.6602786E-2,4.7524357E-1,4.6450414E-2,2.6700346E-2,-1.6129913E-2,-2.8087743E-2,2.5128644E-2,5.734118E-2,-3.8112026E-2,4.8576558E-1,-1.08112104E-1,2.4738243E-2,-2.564654E-2],"split_indices":[2473,2993,1140,2311,225,1238,21,0,225,2371,2759,2667,184,4,9,0,23,0,174,135,9,79,109,47,176,0,0,0,0,1,0,0,199,165,111,0,0,0,256,101,112,0,8,0,0,0,0,191,0,0,187,3,1289,135,183,2307,148,12,0,0,0,56,0,0,0,0,0,0,2306,1,175,0,0,2,0,0,0,0,0,0,0,12,0,0,0,4,161,0,0,0,0,0,0,9,0,0,0],"split_type":[0,0,0,0,0,0,0,0,0,0,0,0,0,0,0,0,0,0,0,0,0,0,0,0,0,0,0,0,0,0,0,0,0,0,0,0,0,0,0,0,0,0,0,0,0,0,0,0,0,0,0,0,0,0,0,0,0,0,0,0,0,0,0,0,0,0,0,0,0,0,0,0,0,0,0,0,0,0,0,0,0,0,0,0,0,0,0,0,0,0,0,0,0,0,0,0,0],"sum_hessian":[6.544578E1,2.7042103E1,3.8403675E1,4.928258E0,2.2113844E1,3.3328995E1,5.0746803E0,2.6056871E0,2.3225708E0,7.605044E0,1.45088005E1,2.6753448E1,6.5755477E0,9.257072E-1,4.148973E0,6.575304E-1,1.6650405E0,2.2052271E0,5.3998165E0,1.371421E1,7.9459023E-1,8.400833E0,1.8352615E1,3.0487697E0,3.5267777E0,2.0340371E-1,7.223035E-1,3.2396063E-1,3.8250124E0,4.423346E-1,1.2227058E0,2.0035062E0,3.3963106E0,1.8389785E0,1.1875232E1,1.9004525E-1,6.04545E-1,1.4149735E0,6.98586E0,6.0057015E0,1.2346913E1,2.0045898E0,1.0441798E0,2.3398198E-1,3.292796E0,2.4999128E-1,1.9234331E-1,2.251496E0,1.1448144E0,6.2869376E-1,1.2102848E0,4.7835425E-1,1.1396877E1,5.5748997E0,1.4109601E0,4.0832353E0,1.9224666E0,1.4151734E0,1.093174E1,2.47953E-1,7.962268E-1,9.3018043E-1,1.3213158E0,2.2655982E-1,9.83725E-1,2.3131785E-1,2.470364E-1,1.7581038E-1,1.1221066E1,8.251022E-1,4.7497973E0,2.4773514E-1,1.1632249E0,4.016505E-1,3.6815846E0,1.1509612E0,7.715054E-1,2.4837454E-1,1.166799E0,2.18448E-1,7.117324E-1,4.659947E-1,1.0755072E1,5.9160954E-1,2.3349269E-1,9.2398244E-1,3.825815E0,2.3386991E-1,1.6778056E-1,2.3874891E-1,2.2724578E-1,4.9944806E-1,4.2453438E-1,4.5497704E-1,3.370838E0,2.2541972E-1,2.2955732E-1],"tree_param":{"num_deleted":"0","num_feature":"3072","num_nodes":"97","size_leaf_vector":"0"}},{"base_weights":[3.41768E-2,-3.066985E-1,6.1734945E-1,-5.1306788E-2,-9.1115475E-1,-3.3786255E-1,7.790327E-1,-4.5239112E-1,3.3624804E-1,3.7195906E-1,-1.0383073E0,-8.661345E-2,7.007585E-1,2.3165672E-1,1.0423472E0,-7.206621E-1,2.130729E-1,-4.884006E-1,8.97065E-1,-1.8594017E-2,5.0247457E-2,4.54214E-2,-9.653968E-2,7.521964E-2,-1.4700952E-2,-5.696599E-1,7.131764E-1,-9.104368E-2,1.2185711E0,-1.830821E-2,-1.099122E0,8.4748065E-1,-5.2170986E-1,-9.770464E-1,6.8395793E-1,-4.955102E-2,1.0792286E0,3.4653347E-2,-3.0000169E-2,3.3681367E-2,-8.092115E-1,-3.3500332E-1,9.178689E-2,-6.433487E-2,5.306486E-2,1.1306133E-1,3.8221243E-1,-6.3223135E-1,6.652762E-1,1.4427549E-2,-1.1509846E0,-1.7362993E-2,8.6452074E-2,2.847179E-2,-7.537651E-1,-9.919694E-2,1.8205648E-2,-2.1890106E-2,7.660616E-2,1.171195E0,-5.170515E-2,5.2576415E-2,-8.512913E-2,-6.003737E-2,3.0093484E-2,6.0191166E-2,-3.5129916E-2,3.661554E-2,-8.417177E-2,-2.2466898E-2,7.4367896E-2,-1.5208042E-1,-1.09016724E-1,1.759765E-2,-7.9993576E-2,2.868013E-2,-2.7045282E-2,3.4574598E-1,1.13103144E-1,3.067642E-2,-3.307236E-2,-2.014268E-2,2.5072694E-2,2.2395905E-2,-3.405034E-2,-4.409353E-2,7.219547E-2],"categories":[],"categories_nodes":[],"categories_segments":[],"categories_sizes":[],"default_left":[false,false,false,false,false,false,false,false,false,false,false,false,false,false,false,false,false,false,false,false,false,false,false,false,false,false,false,false,false,false,false,false,false,false,false,false,false,false,false,false,false,false,false,false,false,false,false,false,false,false,false,false,false,false,false,false,false,false,false,false,false,false,false,false,false,false,false,false,false,false,false,false,false,false,false,false,false,false,false,false,false,false,false,false,false,false,false],"id":12,"left_children":[1,3,5,7,9,11,13,15,17,19,21,-1,23,25,27,29,31,33,35,-1,-1,37,-1,-1,-1,39,41,43,45,47,49,51,53,55,57,-1,59,-1,-1,-1,61,63,-1,-1,-1,-1,65,67,69,-1,71,-1,-1,-1,73,-1,75,-1,-1,77,79,81,-1,-1,-1,-1,-1,-1,-1,-1,-1,83,-1,-1,-1,-1,-1,85,-1,-1,-1,-1,-1,-1,-1,-1,-1],"loss_changes":[1.2683688E1,6.179823E0,3.8953218E0,4.7243032E0,2.331049E0,3.4255896E0,2.7010965E0,2.8101964E0,7.6217723E0,3.2750648E-1,7.082281E-1,0E0,4.232092E-1,3.46098E0,2.807087E0,2.8596425E0,2.7949412E0,4.6411066E0,3.154756E0,0E0,0E0,3.3283395E-1,0E0,0E0,0E0,1.1122053E0,2.189807E0,1.6488339E0,1.1515045E-1,2.4394343E0,6.4785767E-1,6.160195E-1,8.22282E-1,7.917795E-1,6.6404414E-1,0E0,9.8352814E-1,0E0,0E0,0E0,4.6879077E-1,7.055818E-1,0E0,0E0,0E0,0E0,7.9168606E-1,1.4181576E0,6.6324294E-1,0E0,3.8388157E-1,0E0,0E0,0E0,5.596552E-1,0E0,2.6479638E-1,0E0,0E0,3.017826E-1,3.393221E-1,1.5727048E-1,0E0,0E0,0E0,0E0,0E0,0E0,0E0,0E0,0E0,2.5581753E-1,0E0,0E0,0E0,0E0,0E0,1.3385001E0,0E0,0E0,0E0,0E0,0E0,0E0,0E0,0E0,0E0],"parents":[2147483647,0,0,1,1,2,2,3,3,4,4,5,5,6,6,7,7,8,8,9,9,10,10,12,12,13,13,14,14,15,15,16,16,17,17,18,18,21,21,25,25,26,26,27,27,28,28,29,29,30,30,31,31,32,32,33,33,34,34,36,36,40,40,41,41,46,46,47,47,48,48,50,50,54,54,56,56,59,59,60,60,61,61,71,71,77,77],"right_children":[2,4,6,8,10,12,14,16,18,20,22,-1,24,26,28,30,32,34,36,-1,-1,38,-1,-1,-1,40,42,44,46,48,50,52,54,56,58,-1,60,-1,-1,-1,62,64,-1,-1,-1,-1,66,68,70,-1,72,-1,-1,-1,74,-1,76,-1,-1,78,80,82,-1,-1,-1,-1,-1,-1,-1,-1,-1,84,-1,-1,-1,-1,-1,86,-1,-1,-1,-1,-1,-1,-1,-1,-1],"split_conditions":[1.9821167E-2,-3.9172173E-4,-7.794659E-2,2.9122913E-1,-6.9506466E-4,1.834045E-1,1E0,2.9460868E-2,1.9967379E-1,1.7052412E-1,1E0,-8.661345E-2,1.9967379E-1,6.9984747E-3,8.294759E-1,4.6450414E-2,1.8182497E-1,5.4013953E-2,-2.6641846E-2,-1.8594017E-2,5.0247457E-2,1.8182497E-1,-9.653968E-2,7.521964E-2,-1.4700952E-2,1.8182497E-1,1.3949387E-1,1.9967379E-1,4.539968E-2,8.165955E-1,4.8446655E-3,2.9122913E-1,1.7042628E-2,1.0238647E-2,4.6450414E-2,-4.955102E-2,-2.84729E-2,3.4653347E-2,-3.0000169E-2,3.3681367E-2,1.7052412E-1,1E0,9.178689E-2,-6.433487E-2,5.306486E-2,1.1306133E-1,1.3949387E-1,2.9122913E-1,3.8814712E-1,1.4427549E-2,3.9245516E-1,-1.7362993E-2,8.6452074E-2,2.847179E-2,5.142344E-1,-9.919694E-2,4.8576558E-1,-2.1890106E-2,7.660616E-2,4.8576558E-1,1.3949387E-1,1.9967379E-1,-8.512913E-2,-6.003737E-2,3.0093484E-2,6.0191166E-2,-3.5129916E-2,3.661554E-2,-8.417177E-2,-2.2466898E-2,7.4367896E-2,1.8182497E-1,-1.09016724E-1,1.759765E-2,-7.9993576E-2,2.868013E-2,-2.7045282E-2,1.8182497E-1,1.13103144E-1,3.067642E-2,-3.307236E-2,-2.014268E-2,2.5072694E-2,2.2395905E-2,-3.405034E-2,-4.409353E-2,7.219547E-2],"split_indices":[1084,1166,2763,52,3030,93,91,2549,5,17,64,0,20,2590,116,26,76,2890,341,0,0,7,0,0,0,117,14,20,2321,8,264,19,2304,267,132,0,365,0,0,0,17,76,0,0,0,0,71,79,61,0,137,0,0,0,160,0,32,0,0,32,14,5,0,0,0,0,0,0,0,0,0,8,0,0,0,0,0,18,0,0,0,0,0,0,0,0,0],"split_type":[0,0,0,0,0,0,0,0,0,0,0,0,0,0,0,0,0,0,0,0,0,0,0,0,0,0,0,0,0,0,0,0,0,0,0,0,0,0,0,0,0,0,0,0,0,0,0,0,0,0,0,0,0,0,0,0,0,0,0,0,0,0,0,0,0,0,0,0,0,0,0,0,0,0,0,0,0,0,0,0,0,0,0,0,0,0,0],"sum_hessian":[6.185226E1,3.933456E1,2.25177E1,2.8414076E1,1.0920486E1,3.1019526E0,1.9415749E1,1.3881096E1,1.453298E1,8.1102467E-1,1.0109462E1,1.9506258E0,1.1513269E0,6.9168434E0,1.2498904E1,9.833809E0,4.047287E0,5.9350142E0,8.597965E0,1.87495E-1,6.235297E-1,4.9390662E-1,9.615556E0,9.960103E-1,1.5531656E-1,2.527568E0,4.389275E0,1.7469144E0,1.075199E1,3.8105276E0,6.023281E0,2.0896862E0,1.9576005E0,4.3065977E0,1.6284168E0,7.239139E-1,7.8740516E0,2.4990763E-1,2.4399897E-1,3.8948402E-1,2.1380842E0,1.0347948E0,3.3544803E0,8.817638E-1,8.651506E-1,9.521412E0,1.2305782E0,2.047133E0,1.7633948E0,1.5285215E-1,5.870429E0,1.7794056E-1,1.9117457E0,3.3822775E-1,1.6193727E0,3.6434875E0,6.631101E-1,2.0994772E-1,1.4184691E0,7.248973E0,6.250786E-1,4.2561853E-1,1.7124656E0,6.812807E-1,3.535141E-1,9.805863E-1,2.4999197E-1,4.115501E-1,1.6355827E0,2.1338311E-1,1.5500116E0,6.69288E-1,5.201141E0,1.798082E-1,1.4395646E0,3.4048104E-1,3.2262903E-1,1.3347447E0,5.9142284E0,2.4545226E-1,3.7962633E-1,1.9863005E-1,2.2698848E-1,2.1296844E-1,4.5631957E-1,4.5719028E-1,8.775544E-1],"tree_param":{"num_deleted":"0","num_feature":"3072","num_nodes":"87","size_leaf_vector":"0"}},{"base_weights":[9.692239E-2,-6.1257166E-1,2.812837E-1,5.1255685E-1,-8.0017126E-1,-8.2480425E-1,3.9570013E-1,-2.7150545E-2,6.612581E-2,3.3426367E-2,-8.792182E-1,3.404822E-2,-8.655235E-2,-3.4432694E-1,5.260198E-1,-3.503675E-1,-9.974002E-2,2.1059164E-1,-8.179127E-2,8.5186325E-2,7.617561E-1,3.8559425E-1,-7.243281E-1,-6.2803185E-1,7.555621E-1,-4.9755704E-1,7.0941186E-1,8.4748346E-1,-4.8337948E-1,-3.266423E-2,7.279792E-1,-7.758216E-2,2.404501E-2,2.1014014E-2,-7.312126E-2,-2.4647625E-2,8.233137E-2,5.644462E-1,-1.0561516E0,1.0085528E-1,-3.9244747E-1,2.840269E-1,1.0451827E0,1.726258E-2,-5.6665074E-2,-1.551913E-2,8.067861E-2,-2.7653977E-2,3.215001E-2,-2.702668E-2,7.288857E-1,9.542574E-2,-1.07503824E-1,1.2589082E-1,-6.6789645E-1,-3.4892586E-1,7.201155E-1,2.9946685E-1,1.1527101E0,1.21233545E-1,7.407161E-2,-2.4772482E-2,3.1953227E-2,4.1748244E-2,-3.5722032E-2,2.110975E-2,-8.0383725E-2,-6.5594035E-1,3.280442E-1,3.117026E-2,8.918263E-1,5.979694E-1,-3.4090832E-1,1.09130375E-1,1.1791389E0,3.601045E-2,-2.6857344E-2,1.7464887E-2,-7.8782713E-1,-1.5666945E-2,4.300945E-2,3.3246152E-2,-2.8513446E-1,-3.1244528E-2,8.894595E-2,7.5073056E-2,-3.3068463E-2,2.6004894E-2,-5.621516E-2,3.1026348E-2,-2.0565443E-2,3.3583775E-1,1.0894196E-1,1.6098661E-2,-8.1820235E-2,1.4694279E-2,-3.972682E-2,1.7342063E-2,-2.0203225E-2,-3.223847E-2,5.4126766E-2],"categories":[],"categories_nodes":[],"categories_segments":[],"categories_sizes":[],"default_left":[false,false,false,false,false,false,false,false,false,false,false,false,false,false,false,false,false,false,false,false,false,false,false,false,false,false,false,false,false,false,false,false,false,false,false,false,false,false,false,false,false,false,false,false,false,false,false,false,false,false,false,false,false,false,false,false,false,false,false,false,false,false,false,false,false,false,false,false,false,false,false,false,false,false,false,false,false,false,false,false,false,false,false,false,false,false,false,false,false,false,false,false,false,false,false,false,false,false,false,false,false],"id":13,"left_children":[1,3,5,7,9,11,13,-1,-1,-1,15,-1,-1,17,19,21,-1,23,-1,25,27,29,31,33,35,37,39,41,43,-1,45,-1,47,-1,-1,-1,-1,49,51,-1,53,55,57,-1,-1,-1,-1,-1,-1,-1,59,61,-1,63,65,67,69,71,73,75,-1,-1,-1,-1,-1,-1,-1,77,79,81,83,85,87,89,91,-1,-1,-1,93,-1,-1,-1,95,97,-1,-1,-1,-1,-1,-1,-1,99,-1,-1,-1,-1,-1,-1,-1,-1,-1],"loss_changes":[7.720675E0,2.9888535E0,6.20998E0,6.8615395E-1,1.3446808E0,1.2568972E0,4.309546E0,0E0,0E0,0E0,9.9005985E-1,0E0,0E0,2.4591706E0,3.7587557E0,1.6041975E0,0E0,2.487461E0,0E0,5.426011E0,2.955244E0,8.575125E-1,4.2915857E-1,5.916725E-1,8.30775E-1,5.2235727E0,3.8530402E0,2.229023E0,3.587039E-1,0E0,4.7925532E-1,0E0,2.9477042E-1,0E0,0E0,0E0,0E0,7.0115733E-1,1.1284013E0,0E0,4.7789294E-1,2.2559338E0,9.708271E-1,0E0,0E0,0E0,0E0,0E0,0E0,0E0,1.054064E-1,2.6135272E-1,0E0,5.219272E-1,6.4795977E-1,9.709306E-1,5.1950574E-1,8.5746306E-1,2.5725746E-1,3.2427806E-1,0E0,0E0,0E0,0E0,0E0,0E0,0E0,4.7497714E-1,2.3103084E-1,3.212771E-1,4.2144847E-1,9.7865695E-1,5.111126E-1,2.0166235E-1,2.058754E-1,0E0,0E0,0E0,5.2581775E-1,0E0,0E0,0E0,1.9313425E-1,1.06795646E-1,0E0,0E0,0E0,0E0,0E0,0E0,0E0,6.49449E-1,0E0,0E0,0E0,0E0,0E0,0E0,0E0,0E0,0E0],"parents":[2147483647,0,0,1,1,2,2,3,3,4,4,5,5,6,6,10,10,13,13,14,14,15,15,17,17,19,19,20,20,21,21,22,22,23,23,24,24,25,25,26,26,27,27,28,28,30,30,32,32,37,37,38,38,40,40,41,41,42,42,50,50,51,51,53,53,54,54,55,55,56,56,57,57,58,58,59,59,67,67,68,68,69,69,70,70,71,71,72,72,73,73,74,74,78,78,82,82,83,83,91,91],"right_children":[2,4,6,8,10,12,14,-1,-1,-1,16,-1,-1,18,20,22,-1,24,-1,26,28,30,32,34,36,38,40,42,44,-1,46,-1,48,-1,-1,-1,-1,50,52,-1,54,56,58,-1,-1,-1,-1,-1,-1,-1,60,62,-1,64,66,68,70,72,74,76,-1,-1,-1,-1,-1,-1,-1,78,80,82,84,86,88,90,92,-1,-1,-1,94,-1,-1,-1,96,98,-1,-1,-1,-1,-1,-1,-1,100,-1,-1,-1,-1,-1,-1,-1,-1,-1],"split_conditions":[-1.56165715E-2,1.3313293E-2,-1.1332512E-2,4.5606998E-1,1.7052412E-1,1E0,2.0923615E-3,-2.7150545E-2,6.612581E-2,3.3426367E-2,-1.2550354E-2,3.404822E-2,-8.655235E-2,8.7595824E-4,8.165955E-1,2.9122913E-1,-9.974002E-2,1.8182497E-1,-8.179127E-2,-6.4582825E-3,4.272461E-2,3.6636186E-1,6.9575775E-1,1E0,1.8182497E-1,1E0,-2.05277E-3,2.1482404E-1,1.8182497E-1,-3.266423E-2,1.9967379E-1,-7.758216E-2,1.3949387E-1,2.1014014E-2,-7.312126E-2,-2.4647625E-2,8.233137E-2,1E0,1.9967379E-1,1.0085528E-1,1.9967379E-1,-2.9846191E-2,-6.640783E-2,1.726258E-2,-5.6665074E-2,-1.551913E-2,8.067861E-2,-2.7653977E-2,3.215001E-2,-2.702668E-2,1.9967379E-1,1.8182497E-1,-1.07503824E-1,7.0305914E-4,-5.9775542E-2,7.821188E-3,1.8182497E-1,1.8182497E-1,-2.7954102E-2,1.9967379E-1,7.407161E-2,-2.4772482E-2,3.1953227E-2,4.1748244E-2,-3.5722032E-2,2.110975E-2,-8.0383725E-2,1E0,3.8814712E-1,1.7052412E-1,1E0,1.8182497E-1,1.8182497E-1,1.8182497E-1,1.834045E-1,3.601045E-2,-2.6857344E-2,1.7464887E-2,2.9122913E-1,-1.5666945E-2,4.300945E-2,3.3246152E-2,-7.056673E-2,-7.056673E-2,8.894595E-2,7.5073056E-2,-3.3068463E-2,2.6004894E-2,-5.621516E-2,3.1026348E-2,-2.0565443E-2,1.3949387E-1,1.0894196E-1,1.6098661E-2,-8.1820235E-2,1.4694279E-2,-3.972682E-2,1.7342063E-2,-2.0203225E-2,-3.223847E-2,5.4126766E-2],"split_indices":[2490,1003,2835,219,245,64,1233,0,0,0,564,0,0,2362,87,164,0,38,0,394,903,247,148,16,120,197,2586,220,0,0,27,0,25,0,0,0,0,46,135,0,162,427,2379,0,0,0,0,0,0,0,33,29,0,2308,2307,2310,69,159,1286,31,0,0,0,0,0,0,0,64,61,17,144,120,29,0,41,0,0,0,164,0,0,0,2305,2305,0,0,0,0,0,0,0,2,0,0,0,0,0,0,0,0,0],"split_type":[0,0,0,0,0,0,0,0,0,0,0,0,0,0,0,0,0,0,0,0,0,0,0,0,0,0,0,0,0,0,0,0,0,0,0,0,0,0,0,0,0,0,0,0,0,0,0,0,0,0,0,0,0,0,0,0,0,0,0,0,0,0,0,0,0,0,0,0,0,0,0,0,0,0,0,0,0,0,0,0,0,0,0,0,0,0,0,0,0,0,0,0,0,0,0,0,0,0,0,0,0],"sum_hessian":[5.67078E1,1.1217156E1,4.5490646E1,1.3554803E0,9.861676E0,3.6824844E0,4.180816E1,2.3555245E-1,1.1199279E0,3.817659E-1,9.47991E0,2.496663E-1,3.4328182E0,6.0141764E0,3.5793983E1,3.8139577E0,5.6659527E0,3.4044504E0,2.6097257E0,1.2945988E1,2.2847998E1,1.2745364E0,2.5394213E0,1.2809131E0,2.1235373E0,6.8004107E0,6.1455765E0,2.167504E1,1.1729574E0,3.7251568E-1,9.020207E-1,1.9618758E0,5.7754564E-1,2.0444255E-1,1.0764705E0,2.2498561E-1,1.8985518E0,2.3403838E0,4.4600267E0,4.387329E0,1.7582475E0,6.262668E0,1.5412371E1,1.771348E-1,9.9582267E-1,1.6254057E-1,7.3948014E-1,3.296401E-1,2.4790555E-1,2.3509905E-1,2.1052847E0,5.9698987E-1,3.863037E0,7.9853344E-1,9.5971406E-1,2.6362321E0,3.6264362E0,2.4192932E0,1.2993078E1,6.4401746E-1,1.4612672E0,2.2558273E-1,3.7140715E-1,5.4856414E-1,2.4996933E-1,2.0506082E-1,7.546533E-1,1.8350693E0,8.011627E-1,9.59244E-1,2.6671922E0,1.6952803E0,7.240128E-1,4.4761455E-1,1.2545464E1,4.0954995E-1,2.3446754E-1,1.7875418E-1,1.6563152E0,1.6382091E-1,6.373418E-1,3.677919E-1,5.914521E-1,3.7681755E-1,2.2903748E0,1.4463298E0,2.489504E-1,2.3108271E-1,4.929301E-1,2.4612279E-1,2.0149174E-1,1.1933862E0,1.13520775E1,1.6751572E-1,1.4887995E0,1.552567E-1,4.3619543E-1,1.7777292E-1,1.9904463E-1,2.4802217E-1,9.45364E-1],"tree_param":{"num_deleted":"0","num_feature":"3072","num_nodes":"101","size_leaf_vector":"0"}},{"base_weights":[-2.1711575E-2,1.9358501E-1,-7.3276323E-1,-6.109819E-1,3.5220584E-1,7.2311975E-2,-9.3067914E-1,2.1243823E-1,-9.1092473E-1,1.8219672E-1,9.5893675E-1,-1.0263274E0,2.3179299E-1,-4.751793E-2,6.828219E-1,1.11784935E-1,-9.773152E-2,5.37544E-1,-1.06959075E-1,-5.42354E-2,9.030712E-2,-1.00402124E-1,-4.6555436E-1,4.2652354E-2,-2.4547867E-2,-1.2343921E-2,7.0763215E-2,4.3458734E-2,-3.1414337E-2,7.714373E-1,-4.8428467E-1,-4.4104558E-1,5.224916E-1,2.1321664E-2,-2.6455697E-2,-6.7706317E-1,4.392273E-2,-1.7538321E-1,9.632852E-1,-7.271488E-1,3.3244647E-2,2.438323E-1,-7.564423E-1,7.99581E-1,-3.9463666E-1,-7.404604E-2,2.5835004E-2,-6.911528E-2,5.2449927E-2,-2.6399238E-2,1.0226756E0,3.1606827E-2,-8.498442E-2,-4.9618077E-1,4.919408E-1,2.2085321E-1,-1.0099618E0,-6.2107265E-2,9.763904E-1,3.3498336E-2,-6.6028275E-2,-1.5542483E-2,1.0944397E0,1.7746413E-2,-6.312586E-2,-4.49126E-2,7.6566833E-1,-4.760591E-2,6.3719887E-1,-1.2234651E0,-1.9743462E-1,4.1600928E-2,-4.83096E-2,-1.5466783E-2,9.332476E-2,3.297417E-2,-3.832243E-2,6.733275E-2,1.01857826E-1,-6.362652E-2,9.047088E-2,6.845738E-2,-1.4011341E-2,-1.0918699E-1,-1.1671304E-1,5.21365E-2,-6.527779E-2,-2.4406582E-2,2.9159136E-2,-3.0561691E-2,2.1900456E-2,-2.8525272E-2,1.9584067E-2],"categories":[],"categories_nodes":[],"categories_segments":[],"categories_sizes":[],"default_left":[false,false,false,false,false,false,false,false,false,false,false,false,false,false,false,false,false,false,false,false,false,false,false,false,false,false,false,false,false,false,false,false,false,false,false,false,false,false,false,false,false,false,false,false,false,false,false,false,false,false,false,false,false,false,false,false,false,false,false,false,false,false,false,false,false,false,false,false,false,false,false,false,false,false,false,false,false,false,false,false,false,false,false,false,false,false,false,false,false,false,false,false,false],"id":14,"left_children":[1,3,5,7,9,-1,11,13,15,17,19,21,23,-1,25,27,-1,29,31,33,-1,-1,35,-1,-1,-1,-1,-1,-1,37,39,41,43,-1,-1,45,-1,47,49,51,-1,53,55,57,59,-1,-1,-1,-1,-1,61,-1,-1,63,65,67,69,71,73,-1,-1,75,77,-1,-1,-1,79,-1,81,83,85,-1,-1,-1,-1,-1,-1,87,-1,89,-1,-1,-1,91,-1,-1,-1,-1,-1,-1,-1,-1,-1],"loss_changes":[9.144977E0,6.077227E0,5.0231457E0,2.1520784E0,3.8484416E0,0E0,1.6583672E0,1.4009969E0,1.3241692E0,3.3147774E0,5.8965063E-1,2.1305084E-1,3.629423E-1,0E0,3.3010077E-1,5.077009E-1,0E0,3.8124304E0,4.081357E0,1.7668243E-1,0E0,0E0,1.0832195E0,0E0,0E0,0E0,0E0,0E0,0E0,2.3657894E0,9.62305E-1,2.885663E0,2.0454214E0,0E0,0E0,7.813904E-1,0E0,1.8113806E0,1.0710545E0,1.0865016E0,0E0,1.1068884E0,2.40484E0,9.07454E-1,8.9778495E-1,0E0,0E0,0E0,0E0,0E0,7.604246E-1,0E0,0E0,3.9918053E-1,1.4905975E0,1.176845E0,1.0025449E0,7.452294E-1,6.16559E-1,0E0,0E0,4.273267E-1,4.8663902E-1,0E0,0E0,0E0,8.2799435E-1,0E0,3.5995543E-1,4.545269E-1,1.581701E0,0E0,0E0,0E0,0E0,0E0,0E0,2.3283495E-1,0E0,2.4302965E-1,0E0,0E0,0E0,1.8008135E-1,0E0,0E0,0E0,0E0,0E0,0E0,0E0,0E0,0E0],"parents":[2147483647,0,0,1,1,2,2,3,3,4,4,6,6,7,7,8,8,9,9,10,10,11,11,12,12,14,14,15,15,17,17,18,18,19,19,22,22,29,29,30,30,31,31,32,32,35,35,37,37,38,38,39,39,41,41,42,42,43,43,44,44,50,50,53,53,54,54,55,55,56,56,57,57,58,58,61,61,62,62,66,66,68,68,69,69,70,70,77,77,79,79,83,83],"right_children":[2,4,6,8,10,-1,12,14,16,18,20,22,24,-1,26,28,-1,30,32,34,-1,-1,36,-1,-1,-1,-1,-1,-1,38,40,42,44,-1,-1,46,-1,48,50,52,-1,54,56,58,60,-1,-1,-1,-1,-1,62,-1,-1,64,66,68,70,72,74,-1,-1,76,78,-1,-1,-1,80,-1,82,84,86,-1,-1,-1,-1,-1,-1,88,-1,90,-1,-1,-1,92,-1,-1,-1,-1,-1,-1,-1,-1,-1],"split_conditions":[-1.7486572E-2,-2.8516471E-2,-1.711409E-2,1.8182497E-1,-1.0418892E-4,7.2311975E-2,4.6255723E-2,1.834045E-1,2.1482404E-1,3.8814712E-1,1E0,8.31604E-4,2.9214466E-1,-4.751793E-2,1.7052412E-1,2.1482404E-1,-9.773152E-2,1.4484353E-2,2.6978187E-3,4.7524357E-1,9.030712E-2,-1.00402124E-1,1.3949387E-1,4.2652354E-2,-2.4547867E-2,-1.2343921E-2,7.0763215E-2,4.3458734E-2,-3.1414337E-2,3.0424225E-1,1.625061E-3,1.9967379E-1,5.328369E-2,2.1321664E-2,-2.6455697E-2,1.376279E-2,4.392273E-2,1.8182497E-1,3.6346436E-2,2.9214466E-1,3.3244647E-2,2.1482404E-1,4.184723E-3,5.142344E-1,1.8182497E-1,-7.404604E-2,2.5835004E-2,-6.911528E-2,5.2449927E-2,-2.6399238E-2,-2.0675402E-2,3.1606827E-2,-8.498442E-2,2.9214466E-1,1.8182497E-1,1.8182497E-1,1.587785E-2,1.8182497E-1,3.0424225E-1,3.3498336E-2,-6.6028275E-2,4.7524357E-1,4.6450414E-2,1.7746413E-2,-6.312586E-2,-4.49126E-2,1.7237663E-4,-4.760591E-2,4.8576558E-1,3.0424225E-1,1.8182497E-1,4.1600928E-2,-4.83096E-2,-1.5466783E-2,9.332476E-2,3.297417E-2,-3.832243E-2,2.1482404E-1,1.01857826E-1,1.8182497E-1,9.047088E-2,6.845738E-2,-1.4011341E-2,1.8182497E-1,-1.1671304E-1,5.21365E-2,-6.527779E-2,-2.4406582E-2,2.9159136E-2,-3.0561691E-2,2.1900456E-2,-2.8525272E-2,1.9584067E-2],"split_indices":[1110,2604,2904,42,299,0,2823,93,157,188,46,1149,6,0,10,3,0,2709,2609,4,0,0,101,0,0,0,0,0,0,153,260,207,1191,0,0,2304,0,76,1281,36,0,3,545,160,34,0,0,0,0,0,2310,0,0,6,216,54,2313,7,166,0,0,4,190,0,0,0,278,0,9,97,28,0,0,0,0,0,0,3,0,52,0,0,0,8,0,0,0,0,0,0,0,0,0],"split_type":[0,0,0,0,0,0,0,0,0,0,0,0,0,0,0,0,0,0,0,0,0,0,0,0,0,0,0,0,0,0,0,0,0,0,0,0,0,0,0,0,0,0,0,0,0,0,0,0,0,0,0,0,0,0,0,0,0,0,0,0,0,0,0,0,0,0,0,0,0,0,0,0,0,0,0,0,0,0,0,0,0,0,0,0,0,0,0,0,0,0,0,0,0],"sum_hessian":[5.7810513E1,4.4933132E1,1.287738E1,6.9300823E0,3.8003048E1,1.1020149E0,1.1775366E1,1.9282577E0,5.001825E0,3.0700815E1,7.302234E0,1.0988359E1,7.8700584E-1,6.8758565E-1,1.240672E0,8.7174594E-1,4.130079E0,1.3388501E1,1.7312313E1,4.3933034E-1,6.862904E0,8.322622E0,2.6657376E0,5.625026E-1,2.2450326E-1,1.3329953E-1,1.1073725E0,4.5171615E-1,4.2002976E-1,1.1094132E1,2.2943683E0,1.1505163E1,5.80715E0,2.0641488E-1,2.3291546E-1,2.4289691E0,2.3676842E-1,1.8836485E0,9.210484E0,1.9104286E0,3.8393962E-1,3.6992395E0,7.805924E0,4.5581713E0,1.2489789E0,2.198602E0,2.3036711E-1,1.0430743E0,8.405742E-1,2.3269117E-1,8.977793E0,2.4711385E-1,1.6633148E0,6.7779154E-1,3.021448E0,1.634381E0,6.171543E0,8.8650143E-1,3.6716697E0,3.6781147E-1,8.8116735E-1,6.3109624E-1,8.346697E0,1.8098105E-1,4.968105E-1,4.6484432E-1,2.5566037E0,4.742667E-1,1.1601144E0,4.486815E0,1.684728E0,4.3583995E-1,4.5066148E-1,1.6208531E-1,3.5095844E0,3.8282686E-1,2.4826941E-1,5.679501E-1,7.7787466E0,7.8701913E-1,1.7695845E0,1.0110607E0,1.4905362E-1,5.3338647E-1,3.9534285E0,6.4983016E-1,1.0348978E0,2.2381213E-1,3.44138E-1,3.5487545E-1,4.321437E-1,3.3865607E-1,1.9473042E-1],"tree_param":{"num_deleted":"0","num_feature":"3072","num_nodes":"93","size_leaf_vector":"0"}},{"base_weights":[1.7551681E-2,-7.454023E-1,1.8059392E-1,4.8153216E-1,-9.49068E-1,3.9108792E-1,-6.0915506E-1,-2.2397446E-2,6.430675E-2,-1.1624892E0,1.5293674E-1,1.7496954E-1,8.10719E-1,2.77666E-1,-9.462673E-1,-1.08148396E-1,1.8400082E-2,-3.1089354E-1,5.510064E-2,6.706587E-1,-7.0591524E-2,1.0063881E0,-1.2987962E-1,7.6148316E-2,-3.2281294E-1,-3.1568778E-1,-9.1084644E-2,-4.942993E-2,2.4213871E-2,-4.494947E-2,8.158513E-1,4.9100122E-1,-4.4464725E-1,3.389229E-1,1.0065029E-1,5.6748277E-1,-6.31492E-2,-5.9200514E-2,3.749107E-2,3.3581382E-1,-5.3303618E-2,-7.743731E-2,1.0095901E0,-5.8914655E-1,8.832171E-1,5.8657706E-2,-9.3906766E-1,-5.0976023E-2,7.614536E-2,-2.1891503E-2,7.136926E-2,4.3202784E-2,-1.1584526E-2,-4.504658E-1,3.862683E-2,1.0449484E-1,-1.3319872E-1,-8.176726E-1,2.508414E-2,9.872802E-1,-1.7818236E-1,-6.08298E-1,5.203169E-1,-3.8727957E-3,-1.0437965E0,1.9315507E-2,-5.7980414E-2,2.3301744E-1,-4.2969685E-2,1.1750383E-2,-8.213046E-2,2.0271374E-1,9.870649E-2,-3.0919492E-2,1.4341061E-2,3.67788E-2,-8.03769E-2,-3.1068798E-2,6.535571E-1,-3.321942E-2,3.0312655E-2,-1.9987233E-1,-1.02367364E-1,-1.5445496E-2,3.5807177E-2,-3.7120905E-2,5.3426478E-2,-1.9048756E-1,8.4519136E-1,-5.11918E-2,3.1479836E-2,-3.5833597E-2,1.964099E-2,1.3306181E-2,8.4120415E-2],"categories":[],"categories_nodes":[],"categories_segments":[],"categories_sizes":[],"default_left":[false,false,false,false,false,false,false,false,false,false,false,false,false,false,false,false,false,false,false,false,false,false,false,false,false,false,false,false,false,false,false,false,false,false,false,false,false,false,false,false,false,false,false,false,false,false,false,false,false,false,false,false,false,false,false,false,false,false,false,false,false,false,false,false,false,false,false,false,false,false,false,false,false,false,false,false,false,false,false,false,false,false,false,false,false,false,false,false,false,false,false,false,false,false,false],"id":15,"left_children":[1,3,5,7,9,11,13,-1,-1,15,17,19,21,23,25,-1,-1,27,-1,29,31,33,35,-1,37,39,-1,-1,-1,-1,41,43,45,47,-1,49,-1,-1,-1,51,-1,53,55,57,59,61,63,-1,-1,-1,-1,-1,-1,65,-1,-1,67,69,-1,71,73,75,77,79,81,-1,-1,83,-1,-1,-1,85,-1,-1,-1,-1,-1,-1,87,-1,-1,89,-1,-1,-1,-1,-1,91,93,-1,-1,-1,-1,-1,-1],"loss_changes":[7.1422997E0,2.9843402E0,8.088081E0,5.658106E-1,2.2970314E0,3.2946153E0,3.350462E0,0E0,0E0,9.06024E-1,7.062917E-1,3.246976E0,2.4508018E0,1.5480584E0,8.762026E-2,0E0,0E0,4.225164E-1,0E0,1.9229057E0,4.100995E0,5.514202E-1,1.6528352E0,0E0,9.367422E-1,6.445909E-1,0E0,0E0,0E0,0E0,1.5012388E0,3.8521128E0,2.9463081E0,2.020644E0,0E0,5.831069E-1,0E0,0E0,0E0,1.6185835E-1,0E0,6.567548E-1,1.5113659E0,7.699346E-1,8.5736275E-1,2.3791044E0,5.757561E-1,0E0,0E0,0E0,0E0,0E0,0E0,4.0279993E-1,0E0,0E0,3.4609616E-1,3.790239E-1,0E0,3.6330462E-1,1.3867065E-1,1.3686382E0,7.524959E-1,3.357689E-1,2.855177E-1,0E0,0E0,1.8054163E-1,0E0,0E0,0E0,7.6619315E-1,0E0,0E0,0E0,0E0,0E0,0E0,8.486577E-1,0E0,0E0,5.967779E-1,0E0,0E0,0E0,0E0,0E0,2.3262541E-1,1.2820339E-1,0E0,0E0,0E0,0E0,0E0,0E0],"parents":[2147483647,0,0,1,1,2,2,3,3,4,4,5,5,6,6,9,9,10,10,11,11,12,12,13,13,14,14,17,17,19,19,20,20,21,21,22,22,24,24,25,25,30,30,31,31,32,32,33,33,35,35,39,39,41,41,42,42,43,43,44,44,45,45,46,46,53,53,56,56,57,57,59,59,60,60,61,61,62,62,63,63,64,64,67,67,71,71,78,78,81,81,87,87,88,88],"right_children":[2,4,6,8,10,12,14,-1,-1,16,18,20,22,24,26,-1,-1,28,-1,30,32,34,36,-1,38,40,-1,-1,-1,-1,42,44,46,48,-1,50,-1,-1,-1,52,-1,54,56,58,60,62,64,-1,-1,-1,-1,-1,-1,66,-1,-1,68,70,-1,72,74,76,78,80,82,-1,-1,84,-1,-1,-1,86,-1,-1,-1,-1,-1,-1,88,-1,-1,90,-1,-1,-1,-1,-1,92,94,-1,-1,-1,-1,-1,-1],"split_conditions":[1E0,4.6450414E-2,-1.4541626E-2,1.834045E-1,2.056421E-2,4.0399574E-2,-4.9184873E-3,-2.2397446E-2,6.430675E-2,2.3452759E-2,3.8814712E-1,1.8182497E-1,4.3029785E-3,5.142344E-1,1.9967379E-1,-1.08148396E-1,1.8400082E-2,1.3949387E-1,5.510064E-2,-1.53363235E-2,2.1692866E-2,4.6450414E-2,1E0,7.6148316E-2,3.0563354E-2,2.9214466E-1,-9.1084644E-2,-4.942993E-2,2.4213871E-2,-4.494947E-2,3.0424225E-1,5.142344E-1,-5.126953E-2,2.4700165E-4,1.0065029E-1,2.9122913E-1,-6.31492E-2,-5.9200514E-2,3.749107E-2,1.3949387E-1,-5.3303618E-2,3.6636186E-1,1.7333984E-2,1.1085566E-2,6.333659E-3,5.142344E-1,-2.7584728E-2,-5.0976023E-2,7.614536E-2,-2.1891503E-2,7.136926E-2,4.3202784E-2,-1.1584526E-2,2.9122913E-1,3.862683E-2,1.0449484E-1,1.9967379E-1,2.1482404E-1,2.508414E-2,1.7052412E-1,2.0654262E-3,1.3949387E-1,1.9967379E-1,2.1482404E-1,-3.173828E-2,1.9315507E-2,-5.7980414E-2,4.7524357E-1,-4.2969685E-2,1.1750383E-2,-8.213046E-2,1.9967379E-1,9.870649E-2,-3.0919492E-2,1.4341061E-2,3.67788E-2,-8.03769E-2,-3.1068798E-2,1.8182497E-1,-3.321942E-2,3.0312655E-2,4.7524357E-1,-1.02367364E-1,-1.5445496E-2,3.5807177E-2,-3.7120905E-2,5.3426478E-2,1.3949387E-1,5.2475643E-1,-5.11918E-2,3.1479836E-2,-3.5833597E-2,1.964099E-2,1.3306181E-2,8.4120415E-2],"split_indices":[176,115,1110,72,2744,2526,2572,0,0,296,61,28,350,74,207,0,0,2,0,2421,2943,165,175,0,269,195,0,0,0,0,63,74,527,259,0,30,0,0,0,2,0,247,286,2306,260,147,2436,0,0,0,0,0,0,79,0,0,11,178,0,226,2304,152,73,3,266,0,0,35,0,0,0,27,0,0,0,0,0,0,56,0,0,35,0,0,0,0,0,1,212,0,0,0,0,0,0],"split_type":[0,0,0,0,0,0,0,0,0,0,0,0,0,0,0,0,0,0,0,0,0,0,0,0,0,0,0,0,0,0,0,0,0,0,0,0,0,0,0,0,0,0,0,0,0,0,0,0,0,0,0,0,0,0,0,0,0,0,0,0,0,0,0,0,0,0,0,0,0,0,0,0,0,0,0,0,0,0,0,0,0,0,0,0,0,0,0,0,0,0,0,0,0,0,0],"sum_hessian":[5.533471E1,9.114007E0,4.6220703E1,1.1032745E0,8.010733E0,3.6892452E1,9.328253E0,2.6991203E-1,8.3336246E-1,6.665051E0,1.3456813E0,2.5286407E1,1.1606044E1,2.617883E0,6.7103696E0,6.479021E0,1.860302E-1,8.491164E-1,4.9656487E-1,7.803383E0,1.7483025E1,9.549544E0,2.056499E0,1.1058009E0,1.5120821E0,1.3568594E0,5.3535104E0,6.2626207E-1,2.2285432E-1,5.8068854E-1,7.2226944E0,6.8644156E0,1.0618608E1,2.1779213E0,7.3716235E0,9.5195484E-1,1.1045443E0,1.1025317E0,4.0955034E-1,3.6463943E-1,9.9222004E-1,1.3942779E0,5.8284163E0,1.6948273E0,5.169588E0,5.6987824E0,4.9198265E0,7.54208E-1,1.4237133E0,2.0995621E-1,7.419986E-1,2.3877867E-1,1.2586077E-1,8.8086283E-1,5.1341516E-1,5.029623E0,7.987933E-1,1.3936131E0,3.0121428E-1,4.771597E0,3.9799133E-1,2.2011552E0,3.4976273E0,5.9989893E-1,4.319927E0,1.9280829E-1,6.880545E-1,5.593947E-1,2.3939858E-1,1.2749864E-1,1.2661145E0,1.0433931E0,3.7282035E0,2.4592389E-1,1.5206744E-1,4.1422844E-1,1.7869267E0,2.4620037E-1,3.251427E0,2.4908727E-1,3.5081166E-1,8.4732723E-1,3.4726E0,1.618999E-1,3.9749482E-1,3.9166427E-1,6.5172887E-1,6.0272664E-1,2.6487002E0,4.786874E-1,3.6863983E-1,4.0759277E-1,1.9513388E-1,6.757979E-1,1.9729024E0],"tree_param":{"num_deleted":"0","num_feature":"3072","num_nodes":"95","size_leaf_vector":"0"}},{"base_weights":[4.427739E-2,-2.5317404E-1,4.564479E-1,6.126895E-1,-4.4637352E-1,-5.4945383E-2,7.4026906E-1,-4.106069E-1,8.4360063E-1,-5.2513655E-2,-7.595034E-1,-5.270931E-1,4.3996742E-1,-2.5649138E-2,9.0546083E-1,1.2790747E-2,-4.7394875E-2,-6.766766E-2,9.38362E-1,-5.982353E-1,3.2584766E-1,4.3112665E-2,-8.3421826E-1,-9.707553E-1,1.652989E-1,-5.0464902E-2,7.4861467E-1,5.4203695E-1,-4.7952554E-1,1.0562487E0,-1.8327919E-1,1.849555E-2,-2.3905901E-2,2.0964102E-1,9.198757E-2,2.4582672E-1,-9.392564E-1,-1.6171366E-1,8.738719E-1,-1.0420631E0,-1.9199656E-1,1.53524615E-2,-9.5401555E-2,-3.9178446E-1,5.449453E-2,-1.3331169E-1,8.783208E-1,-2.6088458E-2,7.043197E-2,1.2561013E-1,-6.43219E-2,1.132555E-1,1.1491699E0,2.0756489E-1,-4.7026485E-2,4.9288593E-2,-3.1234607E-1,6.9280976E-1,-5.0097596E-2,1.48189645E-2,-8.9985795E-2,6.0778314E-1,-5.391719E-1,-6.0193975E-2,1.0122406E0,-1.7059362E-1,-1.1351829E0,-6.609147E-1,3.288677E-1,1.8895589E-2,-5.1215496E-2,-3.2063678E-2,1.9319998E-2,-4.5911953E-2,8.59981E-2,-2.4430089E-2,3.431511E-2,-4.1457355E-2,4.7711827E-2,-1.414343E-2,1.0456377E-1,3.81553E-2,-1.5792206E-1,1.972856E-2,-5.1591307E-2,-2.3424512E-2,8.390067E-2,-2.0493729E-2,7.08334E-2,2.491168E-1,-7.8658715E-2,-3.5933305E-2,2.97373E-2,4.3438125E-2,9.5125124E-2,-5.247148E-2,3.8377866E-2,-1.3599658E-1,-1.02691576E-1,