{"learner":{"attributes":{"best_iteration":"49","best_ntree_limit":"50","best_score":"0.967837"},"feature_names":[],"feature_types":[],"gradient_booster":{"model":{"gbtree_model_param":{"num_trees":"50","size_leaf_vector":"0"},"tree_info":[0,0,0,0,0,0,0,0,0,0,0,0,0,0,0,0,0,0,0,0,0,0,0,0,0,0,0,0,0,0,0,0,0,0,0,0,0,0,0,0,0,0,0,0,0,0,0,0,0,0],"trees":[{"base_weights":[7.643312E-2,7.3394495E-1,-1.36E0,1.0486486E0,-9.189189E-1,-1.7297298E0,-2.6666668E-1,1.6E0,3.8202247E-1,-0E0,-1.4782609E0,-4.5497835E-4,-5E-1,-1.25E0,6.666667E-1,1.7727273E0,2.5E-1,1.0697675E0,-2.4E-1,-7.692308E-1,2.853807E-4,1.02737045E-4,-4.2028792E-4,1.02737045E-4,-2.2015082E-4,1.02737045E-4,-3.7670252E-4,-2.568426E-4,3.6691802E-4,7.3383606E-5,4.6533838E-4,-1.4009597E-4,2.853807E-4,-2.568426E-4,3.5562823E-4,1.284213E-4,-2.0547409E-4,7.3383606E-5,-3.0821114E-4],"categories":[],"categories_nodes":[],"categories_segments":[],"categories_sizes":[],"default_left":[false,false,false,false,false,false,false,false,false,false,false,false,false,false,false,false,false,false,false,false,false,false,false,false,false,false,false,false,false,false,false,false,false,false,false,false,false,false,false],"id":0,"left_children":[1,3,5,7,9,11,13,15,17,19,21,-1,23,25,27,29,31,33,35,37,-1,-1,-1,-1,-1,-1,-1,-1,-1,-1,-1,-1,-1,-1,-1,-1,-1,-1,-1],"loss_changes":[7.5139206E1,2.9312471E1,9.644684E0,1.6387733E1,4.754406E0,6.2934875E-2,7.7166667E0,5.38636E0,9.775135E0,4.7008543E0,2.3620558E0,0E0,9.857143E-1,2.0166664E0,7.1428566E0,7.594452E-1,3.3459594E0,8.389983E0,5.58E0,1.8197801E0,0E0,0E0,0E0,0E0,0E0,0E0,0E0,0E0,0E0,0E0,0E0,0E0,0E0,0E0,0E0,0E0,0E0,0E0,0E0],"parents":[2147483647,0,0,1,1,2,2,3,3,4,4,5,5,6,6,7,7,8,8,9,9,10,10,12,12,13,13,14,14,15,15,16,16,17,17,18,18,19,19],"right_children":[2,4,6,8,10,12,14,16,18,20,22,-1,24,26,28,30,32,34,36,38,-1,-1,-1,-1,-1,-1,-1,-1,-1,-1,-1,-1,-1,-1,-1,-1,-1,-1,-1],"split_conditions":[-2.3834229E-2,3.590373E-2,1.9530755E-2,1.7250406E-2,-2.1326404E-2,4.020802E-2,3.1313293E-2,2.452665E-6,9.2665887E-1,1.3264962E-2,4.2515588E-1,-4.5497835E-4,3.1313293E-2,5.7798244E-2,7.334113E-2,3.167365E-1,6.145835E-1,3.2654077E-1,7.5897455E-1,7.334113E-2,2.853807E-4,1.02737045E-4,-4.2028792E-4,1.02737045E-4,-2.2015082E-4,1.02737045E-4,-3.7670252E-4,-2.568426E-4,3.6691802E-4,7.3383606E-5,4.6533838E-4,-1.4009597E-4,2.853807E-4,-2.568426E-4,3.5562823E-4,1.284213E-4,-2.0547409E-4,7.3383606E-5,-3.0821114E-4],"split_indices":[1110,3057,2500,2818,2311,2314,62,2338,40,99,16,0,2,19,203,66,35,190,101,37,0,0,0,0,0,0,0,0,0,0,0,0,0,0,0,0,0,0,0],"split_type":[0,0,0,0,0,0,0,0,0,0,0,0,0,0,0,0,0,0,0,0,0,0,0,0,0,0,0,0,0,0,0,0,0,0,0,0,0,0,0],"sum_hessian":[7.75E1,5.35E1,2.4E1,4.525E1,8.25E0,1.75E1,6.5E0,2.4E1,2.125E1,3.5E0,4.75E0,1.65E1,1E0,3E0,3.5E0,2.1E1,3E0,9.75E0,1.15E1,2.25E0,1.25E0,2.5E-1,4.5E0,2.5E-1,7.5E-1,2.5E-1,2.75E0,1E0,2.5E0,7.5E-1,2.025E1,1.75E0,1.25E0,1E0,8.75E0,5E0,6.5E0,7.5E-1,1.5E0],"tree_param":{"num_deleted":"0","num_feature":"3072","num_nodes":"39","size_leaf_vector":"0"}},{"base_weights":[-5.9726583E-3,7.19133E-1,-1.4951638E0,1.0916526E0,-8.083702E-1,-1.6567771E0,7.9984224E-1,4.4599213E-4,6.1934674E-1,7.99866E-1,-1.1217575E0,2.8579187E-1,-1.7251191E0,-1.0272384E-4,2.8532834E-4,1.1302118E0,-1.6663398E-1,-1.0275531E-4,2.8535258E-4,-1.5377001E-1,-1.3747828E0,1.7123218E-4,-1.02713675E-4,-1.7620004E0,1.0273176E-4,4.3655673E-4,7.780311E-5,1.9264474E-4,-1.4268482E-4,-2.2011843E-4,1.02739796E-4,5.395662E-8,-4.0356145E-4,-1.7123531E-4,-4.6939153E-4],"categories":[],"categories_nodes":[],"categories_segments":[],"categories_sizes":[],"default_left":[false,false,false,false,false,false,false,false,false,false,false,false,false,false,false,false,false,false,false,false,false,false,false,false,false,false,false,false,false,false,false,false,false,false,false],"id":1,"left_children":[1,3,5,7,9,11,13,-1,15,17,19,21,23,-1,-1,25,27,-1,-1,29,31,-1,-1,33,-1,-1,-1,-1,-1,-1,-1,-1,-1,-1,-1],"loss_changes":[9.1510216E1,3.331687E1,1.1617733E1,1.3009399E1,6.819266E0,3.977951E0,1.3773382E0,0E0,1.1531555E1,1.377838E0,2.2990847E0,7.236703E-1,2.7033615E0,0E0,0E0,7.6122265E0,4.694659E0,0E0,0E0,1.6085105E0,2.1613512E0,0E0,0E0,5.9433746E-1,0E0,0E0,0E0,0E0,0E0,0E0,0E0,0E0,0E0,0E0,0E0],"parents":[2147483647,0,0,1,1,2,2,3,3,4,4,5,5,6,6,8,8,9,9,10,10,11,11,12,12,15,15,16,16,19,19,20,20,23,23],"right_children":[2,4,6,8,10,12,14,-1,16,18,20,22,24,-1,-1,26,28,-1,-1,30,32,-1,-1,34,-1,-1,-1,-1,-1,-1,-1,-1,-1,-1,-1],"split_conditions":[-2.3834229E-2,2.731479E-2,1.4122094E-2,1.8836098E-2,-1.7078605E-2,1.4005959E-1,3.167365E-1,4.4599213E-4,7.27272E-1,3.1313293E-2,4.2515588E-1,1.6769115E-2,6.256451E-2,-1.0272384E-4,2.8532834E-4,9.123803E-2,1.8223609E-1,-1.0275531E-4,2.8535258E-4,3.1313293E-2,1.6769115E-2,1.7123218E-4,-1.02713675E-4,-8.363487E-3,1.0273176E-4,4.3655673E-4,7.780311E-5,1.9264474E-4,-1.4268482E-4,-2.2011843E-4,1.02739796E-4,5.395662E-8,-4.0356145E-4,-1.7123531E-4,-4.6939153E-4],"split_indices":[1110,2716,2775,2881,2308,64,12,0,40,6,242,0,2309,0,0,2377,121,0,0,62,26,0,0,2393,0,0,0,0,0,0,0,0,0,0,0],"split_type":[0,0,0,0,0,0,0,0,0,0,0,0,0,0,0,0,0,0,0,0,0,0,0,0,0,0,0,0,0,0,0,0,0,0,0],"sum_hessian":[8.274999E1,5.5999996E1,2.6749998E1,4.525E1,1.0749999E1,2.5249998E1,1.4999999E0,1.8E1,2.725E1,1.5E0,9.249999E0,7.4999994E-1,2.4499998E1,2.5E-1,1.2499999E0,1.625E1,1.1E1,2.4999999E-1,1.25E0,2.25E0,6.9999995E0,4.9999994E-1,2.4999997E-1,2.4249998E1,2.5E-1,8.999999E0,7.25E0,3E0,8E0,7.5E-1,1.5E0,9.999999E-1,5.9999995E0,2E0,2.2249998E1],"tree_param":{"num_deleted":"0","num_feature":"3072","num_nodes":"35","size_leaf_vector":"0"}},{"base_weights":[-1.1743347E-2,8.5389936E-1,-1.1994394E0,-1.0473388E0,1.054506E0,3.9986393E-1,-1.4102015E0,4.9994323E-1,-3.9272234E-4,1.3186173E-4,1.3515091E0,-2.8536806E-4,1.199789E0,7.9973704E-1,-1.5440111E0,2.2013369E-4,-1.0273638E-4,-9.3306524E-1,4.2429638E-1,1.603205E0,6.6645736E-1,-1.02725215E-4,3.6685576E-4,-1.02719176E-4,2.852957E-4,1.505812E-4,-1.6514363E0,7.339431E-5,-3.42377E-4,-1.02713806E-4,2.3349823E-4,1.1841737E-4,4.353205E-4,-1.4684335E-4,2.7881903E-4,-2.5679235E-4,2.5685036E-4,-4.5121994E-4,-2.053769E-4],"categories":[],"categories_nodes":[],"categories_segments":[],"categories_sizes":[],"default_left":[false,false,false,false,false,false,false,false,false,false,false,false,false,false,false,false,false,false,false,false,false,false,false,false,false,false,false,false,false,false,false,false,false,false,false,false,false,false,false],"id":2,"left_children":[1,3,5,7,9,11,13,15,-1,17,19,-1,21,23,25,-1,-1,27,29,31,33,-1,-1,-1,-1,35,37,-1,-1,-1,-1,-1,-1,-1,-1,-1,-1,-1,-1],"loss_changes":[8.841443E1,2.007912E1,1.2782764E1,4.6773934E0,1.4248257E1,7.376177E0,1.0771477E1,9.856251E-1,0E0,4.750016E0,5.0526047E0,0E0,1.9422851E0,1.377106E0,5.1011124E0,0E0,0E0,2.208956E0,3.660149E0,1.8627625E0,6.4586077E0,0E0,0E0,0E0,0E0,3.9993382E0,1.1754456E0,0E0,0E0,0E0,0E0,0E0,0E0,0E0,0E0,0E0,0E0,0E0,0E0],"parents":[2147483647,0,0,1,1,2,2,3,3,4,4,5,5,6,6,7,7,9,9,10,10,12,12,13,13,14,14,17,17,18,18,19,19,20,20,25,25,26,26],"right_children":[2,4,6,8,10,12,14,16,-1,18,20,-1,22,24,26,-1,-1,28,30,32,34,-1,-1,-1,-1,36,38,-1,-1,-1,-1,-1,-1,-1,-1,-1,-1,-1,-1],"split_conditions":[-2.2491455E-2,7.5536144E-1,-9.454394E-2,7.27272E-1,-1.1071153E-2,1.3264962E-2,-3.1910647E-2,2.4102546E-1,-3.9272234E-4,3.854165E-1,2.6714668E-2,-2.8536806E-4,1E0,1E0,-7.9904184E-2,2.2013369E-4,-1.0273638E-4,7.9205835E-1,3.1313293E-2,3.167365E-1,1.3264962E-2,-1.02725215E-4,3.6685576E-4,-1.02719176E-4,2.852957E-4,1.6769115E-2,3.262329E-2,7.339431E-5,-3.42377E-4,-1.02713806E-4,2.3349823E-4,1.1841737E-4,4.353205E-4,-1.4684335E-4,2.7881903E-4,-2.5679235E-4,2.5685036E-4,-4.5121994E-4,-2.053769E-4],"split_indices":[592,176,2467,207,2810,199,2764,42,0,185,2761,0,112,112,2832,0,0,83,44,114,77,0,0,0,0,26,266,0,0,0,0,0,0,0,0,0,0,0,0],"split_type":[0,0,0,0,0,0,0,0,0,0,0,0,0,0,0,0,0,0,0,0,0,0,0,0,0,0,0,0,0,0,0,0,0,0,0,0,0,0,0],"sum_hessian":[8.399999E1,4.8749996E1,3.5249996E1,4.2499995E0,4.4499996E1,3.9999998E0,3.1249994E1,1E0,3.2499998E0,1E1,3.4499996E1,1.25E0,2.7499998E0,1.4999999E0,2.9749994E1,7.5E-1,2.5E-1,2.7499998E0,7.2499995E0,2.4249996E1,1.025E1,2.5E-1,2.4999998E0,2.5E-1,1.2499999E0,2E0,2.7749994E1,7.5E-1,1.9999999E0,2.7499998E0,4.5E0,2.2499995E0,2.1999996E1,2.4999998E0,7.75E0,1E0,1E0,2.3749996E1,3.9999995E0],"tree_param":{"num_deleted":"0","num_feature":"3072","num_nodes":"39","size_leaf_vector":"0"}},{"base_weights":[2.3644764E-2,8.310875E-1,-1.1420555E0,-1.2376859E0,1.0479518E0,-1.3789107E0,1.1994472E0,1.7119553E-4,-4.054144E-4,-3.4470478E-1,1.2741721E0,2.567739E-4,-1.4870187E0,-1.0271036E-4,3.6675637E-4,4.615521E-1,-7.9983085E-1,-4.766437E-1,1.4956437E0,2.2008103E-4,-1.5727495E0,-1.711726E-4,2.3346698E-4,1.7113313E-4,-3.7658738E-4,1.7104397E-4,-3.5564599E-4,6.6946384E-5,4.3058852E-4,-4.4288707E-4,-1.7113786E-4],"categories":[],"categories_nodes":[],"categories_segments":[],"categories_sizes":[],"default_left":[false,false,false,false,false,false,false,false,false,false,false,false,false,false,false,false,false,false,false,false,false,false,false,false,false,false,false,false,false,false,false],"id":3,"left_children":[1,3,5,7,9,11,13,-1,-1,15,17,-1,19,-1,-1,21,23,25,27,-1,29,-1,-1,-1,-1,-1,-1,-1,-1,-1,-1],"loss_changes":[8.048359E1,2.395351E1,2.106482E1,4.458825E0,1.5010143E1,9.779728E0,1.9414344E0,0E0,0E0,3.02954E0,1.6223122E1,0E0,7.627121E0,0E0,0E0,2.2460988E0,5.8619776E0,6.36911E0,7.546608E0,0E0,3.0422897E0,0E0,0E0,0E0,0E0,0E0,0E0,0E0,0E0,0E0,0E0],"parents":[2147483647,0,0,1,1,2,2,3,3,4,4,5,5,6,6,9,9,10,10,12,12,15,15,16,16,17,17,18,18,20,20],"right_children":[2,4,6,8,10,12,14,-1,-1,16,18,-1,20,-1,-1,22,24,26,28,-1,30,-1,-1,-1,-1,-1,-1,-1,-1,-1,-1],"split_conditions":[-2.2491455E-2,-1.2832642E-2,2.448508E-2,1.7336465E-1,-2.716266E-2,-4.755976E-2,3.1313293E-2,1.7119553E-4,-4.054144E-4,3.1313293E-2,3.1313293E-2,2.567739E-4,4.2515588E-1,-1.0271036E-4,3.6675637E-4,4.2515588E-1,1.3264962E-2,7.27272E-1,4.2515588E-1,2.2008103E-4,1.6926013E-2,-1.711726E-4,2.3346698E-4,1.7113313E-4,-3.7658738E-4,1.7104397E-4,-3.5564599E-4,6.6946384E-5,4.3058852E-4,-4.4288707E-4,-1.7113786E-4],"split_indices":[592,542,3007,54,3042,2685,119,0,0,161,165,0,16,0,0,16,247,207,228,0,2792,0,0,0,0,0,0,0,0,0,0],"split_type":[0,0,0,0,0,0,0,0,0,0,0,0,0,0,0,0,0,0,0,0,0,0,0,0,0,0,0,0,0,0,0],"sum_hessian":[8.349998E1,4.949999E1,3.399999E1,4.2499995E0,4.524999E1,3.1249989E1,2.7499993E0,5E-1,3.7499995E0,6.249999E0,3.899999E1,9.999999E-1,3.0249989E1,2.5E-1,2.4999993E0,2.2499998E0,3.9999993E0,4.249999E0,3.474999E1,7.499999E-1,2.9499989E1,4.9999994E-1,1.7499999E0,1.2499998E0,2.7499995E0,1.9999994E0,2.25E0,4.749999E0,2.999999E1,2.449999E1,4.9999995E0],"tree_param":{"num_deleted":"0","num_feature":"3072","num_nodes":"31","size_leaf_vector":"0"}},{"base_weights":[-2.9646704E-2,7.931847E-1,-1.1819347E0,-7.497353E-1,1.0633643E0,-1.7457935E0,-3.890931E-2,-1.3037254E0,4.6108878E-1,4.8261767E-4,5.179593E-1,8.8532775E-5,-1.7833431E0,-8.2270473E-1,1.237504E0,1.7123998E-4,-4.1566865E-4,-1.7120922E-4,2.3334633E-4,-9.5623684E-1,8.756523E-1,1.02702106E-4,-1.0267482E-4,-2.8559008E-1,-1.8205754E0,6.6676193E-1,-1.1714766E0,-1.02711136E-4,1.3993541E0,-3.5137104E-4,1.2839939E-4,-1.9754628E-4,2.823079E-4,-1.7118643E-4,1.0273133E-4,-4.774168E-4,-1.2828436E-4,2.5683088E-4,-1.0267425E-4,-3.9407052E-5,-4.1066887E-4,5.8419197E-8,3.9932915E-4],"categories":[],"categories_nodes":[],"categories_segments":[],"categories_sizes":[],"default_left":[false,false,false,false,false,false,false,false,false,false,false,false,false,false,false,false,false,false,false,false,false,false,false,false,false,false,false,false,false,false,false,false,false,false,false,false,false,false,false,false,false,false,false],"id":4,"left_children":[1,3,5,7,9,11,13,15,17,-1,19,21,23,25,27,-1,-1,-1,-1,29,31,-1,-1,33,35,37,39,-1,41,-1,-1,-1,-1,-1,-1,-1,-1,-1,-1,-1,-1,-1,-1],"loss_changes":[8.0818146E1,2.1536291E1,2.2811977E1,5.967408E0,1.8045082E1,1.5571442E0,1.3773795E1,4.644019E0,2.245425E0,0E0,1.507469E1,3.9962178E-1,7.7658844E-1,5.1967096E0,1.950922E0,0E0,0E0,0E0,0E0,4.1318803E0,9.024525E0,0E0,0E0,7.2358453E-1,2.0755768E-1,1.1992872E0,2.9095192E0,0E0,1.0868235E0,0E0,0E0,0E0,0E0,0E0,0E0,0E0,0E0,0E0,0E0,0E0,0E0,0E0,0E0],"parents":[2147483647,0,0,1,1,2,2,3,3,4,4,5,5,6,6,7,7,8,8,10,10,11,11,12,12,13,13,14,14,19,19,20,20,23,23,24,24,25,25,26,26,28,28],"right_children":[2,4,6,8,10,12,14,16,18,-1,20,22,24,26,28,-1,-1,-1,-1,30,32,-1,-1,34,36,38,40,-1,42,-1,-1,-1,-1,-1,-1,-1,-1,-1,-1,-1,-1,-1,-1],"split_conditions":[-2.2491455E-2,1.4205933E-2,2.546329E-2,1.1782615E-2,1.8800482E-2,2.3089382E-1,-7.7359937E-3,1.4005959E-1,1.7336465E-1,4.8261767E-4,1.7336465E-1,1.4005959E-1,-2.634823E-2,1E0,3.167365E-1,1.7123998E-4,-4.1566865E-4,-1.7120922E-4,2.3334633E-4,4.667629E-1,3.1313293E-2,1.02702106E-4,-1.0267482E-4,1.7336465E-1,2.5222778E-2,7.334113E-2,3.1313293E-2,-1.02711136E-4,-7.5201443E-3,-3.5137104E-4,1.2839939E-4,-1.9754628E-4,2.823079E-4,-1.7118643E-4,1.0273133E-4,-4.774168E-4,-1.2828436E-4,2.5683088E-4,-1.0267425E-4,-3.9407052E-5,-4.1066887E-4,5.8419197E-8,3.9932915E-4],"split_indices":[592,1105,3058,2306,3057,86,2994,3,188,0,91,3,2311,175,12,0,0,0,0,225,116,0,0,11,266,4,198,0,2376,0,0,0,0,0,0,0,0,0,0,0,0,0,0],"split_type":[0,0,0,0,0,0,0,0,0,0,0,0,0,0,0,0,0,0,0,0,0,0,0,0,0,0,0,0,0,0,0,0,0,0,0,0,0,0,0,0,0,0,0],"sum_hessian":[8.324996E1,4.874998E1,3.449998E1,6.9999976E0,4.1749985E1,2.2749983E1,1.1749996E1,4.749998E0,2.2499995E0,1.57499895E1,2.5999994E1,4.9999988E-1,2.2249983E1,7.499997E0,4.2499986E0,5E-1,4.249998E0,4.9999997E-1,1.7499995E0,4.7499995E0,2.1249994E1,2.4999997E-1,2.4999991E-1,7.4999994E-1,2.1499985E1,1.2499999E0,6.249997E0,2.5E-1,3.9999986E0,3.7499995E0,9.999999E-1,2.2499998E0,1.8999994E1,4.9999994E-1,2.5E-1,2.0499985E1,9.999997E-1,1E0,2.4999991E-1,2.2499995E0,3.9999979E0,4.999999E-1,3.4999988E0],"tree_param":{"num_deleted":"0","num_feature":"3072","num_nodes":"43","size_leaf_vector":"0"}},{"base_weights":[1.7832724E-2,6.9438124E-1,-1.469971E0,9.603705E-1,-1.3091804E0,2.8522869E-4,-1.6416991E0,1.2081406E0,-4.4497717E-2,-1.8153976E-1,-4.1992948E-4,-3.993133E-1,-4.5610085E-4,1.169927E-1,1.4436623E0,-9.4698006E-1,5.3300744E-1,-2.5674622E-4,2.2015302E-4,-2.8520657E-4,4.0042E-1,2.5658184E-4,-1.4016603E-4,3.9060038E-4,-2.2023919E-4,2.2011966E-4,-3.8513186E-4,-1.4002858E-4,2.4553415E-4,2.5683E-4,-1.7103193E-4],"categories":[],"categories_nodes":[],"categories_segments":[],"categories_sizes":[],"default_left":[false,false,false,false,false,false,false,false,false,false,false,false,false,false,false,false,false,false,false,false,false,false,false,false,false,false,false,false,false,false,false],"id":5,"left_children":[1,3,5,7,9,-1,11,13,15,17,-1,19,-1,21,23,25,27,-1,-1,-1,29,-1,-1,-1,-1,-1,-1,-1,-1,-1,-1],"loss_changes":[8.532101E1,3.230021E1,1.356641E1,1.3000519E1,2.3666296E0,0E0,3.4976425E0,1.0560383E1,6.368114E0,3.193608E0,0E0,2.5772874E0,0E0,5.5135384E0,7.3818054E0,6.019518E0,3.9414823E0,0E0,0E0,0E0,2.2641008E0,0E0,0E0,0E0,0E0,0E0,0E0,0E0,0E0,0E0,0E0],"parents":[2147483647,0,0,1,1,2,2,3,3,4,4,6,6,7,7,8,8,9,9,11,11,13,13,14,14,15,15,16,16,20,20],"right_children":[2,4,6,8,10,-1,12,14,16,18,-1,20,-1,22,24,26,28,-1,-1,-1,30,-1,-1,-1,-1,-1,-1,-1,-1,-1,-1],"split_conditions":[-2.3834229E-2,4.341472E-2,-2.889621E-2,9.397524E-3,5.7798244E-2,2.8522869E-4,7.5536144E-1,6.145835E-1,1.4005959E-1,6.7345923E-1,-4.1992948E-4,3.1313293E-2,-4.5610085E-4,7.27272E-1,5.2304734E-2,3.2654077E-1,9.643555E-3,-2.5674622E-4,2.2015302E-4,-2.8520657E-4,7.334113E-2,2.5658184E-4,-1.4016603E-4,3.9060038E-4,-2.2023919E-4,2.2011966E-4,-3.8513186E-4,-1.4002858E-4,2.4553415E-4,2.5683E-4,-1.7103193E-4],"split_indices":[1110,2342,2663,3068,222,0,205,38,164,118,0,195,0,68,3017,197,256,0,0,0,4,0,0,0,0,0,0,0,0,0,0],"split_type":[0,0,0,0,0,0,0,0,0,0,0,0,0,0,0,0,0,0,0,0,0,0,0,0,0,0,0,0,0,0,0],"sum_hessian":[8.274994E1,5.7249966E1,2.5499973E1,5.099997E1,6.249996E0,1.2499995E0,2.4249975E1,4.074997E1,1.0249997E1,1.7499996E0,4.499996E0,2.7499988E0,2.1499975E1,7.4999967E0,3.3249973E1,3.7499988E0,6.4999986E0,9.9999976E-1,7.499998E-1,1.2499994E0,1.4999993E0,2.999998E0,4.4999986E0,3.2499973E1,7.499998E-1,7.5E-1,2.9999988E0,1.7499996E0,4.749999E0,1E0,4.9999934E-1],"tree_param":{"num_deleted":"0","num_feature":"3072","num_nodes":"31","size_leaf_vector":"0"}},{"base_weights":[-6.0789655E-3,7.1452117E-1,-1.3718754E0,9.9343365E-1,-1.4057018E0,2.5669226E-4,-1.4933424E0,1.6341791E0,4.4965622E-1,8.645062E-4,-4.239116E-4,-1.6607713E0,-3.9938805E-1,1.7567799E0,-2.2277284E-1,-6.66644E-1,8.769646E-1,-1.7100459E-4,1.7130056E-4,-5.706866E-1,-4.5259797E-4,2.8530345E-4,-1.1990038E0,4.6235824E-4,-1.552334E-8,1.7109113E-4,-2.2021495E-4,2.5674625E-4,-2.6566605E-4,-1.9763132E-4,2.8820607E-4,1.0277558E-4,-1.9738084E-4,1.02735255E-4,-3.666433E-4],"categories":[],"categories_nodes":[],"categories_segments":[],"categories_sizes":[],"default_left":[false,false,false,false,false,false,false,false,false,false,false,false,false,false,false,false,false,false,false,false,false,false,false,false,false,false,false,false,false,false,false,false,false,false,false],"id":6,"left_children":[1,3,5,7,9,-1,11,13,15,17,-1,19,21,23,25,27,29,-1,-1,31,-1,-1,33,-1,-1,-1,-1,-1,-1,-1,-1,-1,-1,-1,-1],"loss_changes":[8.193004E1,3.3625374E1,9.773418E0,1.6250786E1,2.3253555E0,0E0,4.4193726E0,5.3999596E0,1.3821489E1,1.3321518E0,0E0,1.6192856E0,7.3697567E0,1.5815659E0,1.840399E0,6.0887637E0,9.13757E0,0E0,0E0,9.796308E-1,0E0,0E0,1.9411182E0,0E0,0E0,0E0,0E0,0E0,0E0,0E0,0E0,0E0,0E0,0E0,0E0],"parents":[2147483647,0,0,1,1,2,2,3,3,4,4,6,6,7,7,8,8,9,9,11,11,12,12,13,13,14,14,15,15,16,16,19,19,22,22],"right_children":[2,4,6,8,10,-1,12,14,16,18,-1,20,22,24,26,28,30,-1,-1,32,-1,-1,34,-1,-1,-1,-1,-1,-1,-1,-1,-1,-1,-1,-1],"split_conditions":[-2.5222778E-2,5.9415042E-2,-2.889621E-2,1.8800482E-2,3.167365E-1,2.5669226E-4,2.4978638E-2,5.2304734E-2,4.667629E-1,2.72728E-1,-4.239116E-4,-2.2716481E-2,1E0,5.0639853E-2,2.72728E-1,-7.525635E-2,7.27272E-1,-1.7100459E-4,1.7130056E-4,3.167365E-1,-4.5259797E-4,2.8530345E-4,5.7798244E-2,4.6235824E-4,-1.552334E-8,1.7109113E-4,-2.2021495E-4,2.5674625E-4,-2.6566605E-4,-1.9763132E-4,2.8820607E-4,1.0277558E-4,-1.9738084E-4,1.02735255E-4,-3.666433E-4],"split_indices":[1110,2802,2663,3057,248,0,317,3017,225,10,0,2678,45,2304,10,263,137,0,0,17,0,0,65,0,0,0,0,0,0,0,0,0,0,0,0],"split_type":[0,0,0,0,0,0,0,0,0,0,0,0,0,0,0,0,0,0,0,0,0,0,0,0,0,0,0,0,0,0,0,0,0,0,0],"sum_hessian":[8.124991E1,5.349995E1,2.774996E1,4.7749958E1,5.749994E0,9.999996E-1,2.674996E1,2.0999971E1,2.6749987E1,9.9999905E-1,4.7499948E0,2.2749962E1,3.9999983E0,1.9749971E1,1.2499995E0,7.2499976E0,1.9499989E1,4.9999917E-1,4.999999E-1,2.499999E0,2.0249964E1,1.2499999E0,2.7499986E0,1.9249971E1,4.9999982E-1,4.9999967E-1,7.499999E-1,9.999998E-1,6.2499976E0,2.2499993E0,1.724999E1,2.4999997E-1,2.249999E0,2.5E-1,2.4999986E0],"tree_param":{"num_deleted":"0","num_feature":"3072","num_nodes":"35","size_leaf_vector":"0"}},{"base_weights":[-4.9821466E-2,6.9917434E-1,-1.4350781E0,9.4283634E-1,-1.5179337E0,7.999026E-1,-1.5712217E0,5.2678823E-1,1.681516E0,1.0278707E-4,-4.2752866E-4,2.567716E-4,2.0635131E-4,-1.6307249E0,1.7113952E-4,1.315485E0,2.0488434E-1,-1.02756174E-4,1.730608E0,1.02706595E-4,-1.0264302E-4,-4.6919982E-4,-7.989306E-1,-2.2025326E-4,4.051198E-4,-9.520786E-5,1.8898051E-4,1.2809077E-4,4.5510303E-4,8.5694664E-5,-3.2655997E-4],"categories":[],"categories_nodes":[],"categories_segments":[],"categories_sizes":[],"default_left":[false,false,false,false,false,false,false,false,false,false,false,false,false,false,false,false,false,false,false,false,false,false,false,false,false,false,false,false,false,false,false],"id":7,"left_children":[1,3,5,7,9,11,13,15,17,-1,-1,-1,19,21,-1,23,25,-1,27,-1,-1,-1,29,-1,-1,-1,-1,-1,-1,-1,-1],"loss_changes":[9.464226E1,3.343946E1,1.0993706E1,1.5709797E1,2.4238853E0,3.9928365E-1,5.147377E0,8.8703165E0,2.6339645E0,0E0,0E0,0E0,3.9951545E-1,3.4333038E0,0E0,7.184311E0,8.446724E0,0E0,7.040787E-2,0E0,0E0,0E0,4.4378595E0,0E0,0E0,0E0,0E0,0E0,0E0,0E0,0E0],"parents":[2147483647,0,0,1,1,2,2,3,3,4,4,5,5,6,6,7,7,8,8,12,12,13,13,15,15,16,16,18,18,22,22],"right_children":[2,4,6,8,10,12,14,16,18,-1,-1,-1,20,22,-1,24,26,-1,28,-1,-1,-1,30,-1,-1,-1,-1,-1,-1,-1,-1],"split_conditions":[-2.3834229E-2,9.962357E-3,-9.252049E-2,-1.3888341E-3,4.2515588E-1,3.167365E-1,4.144059E-2,8.331949E-1,-5.7682466E-2,1.0278707E-4,-4.2752866E-4,2.567716E-4,3.1313293E-2,2.0222211E-2,1.7113952E-4,1E0,-3.3913363E-2,-1.02756174E-4,1.5966251E-2,1.02706595E-4,-1.0264302E-4,-4.6919982E-4,1.4005959E-1,-2.2025326E-4,4.051198E-4,-9.520786E-5,1.8898051E-4,1.2809077E-4,4.5510303E-4,8.5694664E-5,-3.2655997E-4],"split_indices":[1110,2685,2467,2954,242,248,2489,115,2307,0,0,0,2,2875,0,153,3028,0,163,0,0,0,171,0,0,0,0,0,0,0,0],"split_type":[0,0,0,0,0,0,0,0,0,0,0,0,0,0,0,0,0,0,0,0,0,0,0,0,0,0,0,0,0,0,0],"sum_hessian":[8.924987E1,5.824993E1,3.0999939E1,5.299994E1,5.249992E0,1.4999989E0,2.9499939E1,3.4999977E1,1.7999962E1,2.4999994E-1,4.999992E0,9.9999917E-1,4.9999976E-1,2.899994E1,4.9999985E-1,9.249991E0,2.5749985E1,2.4999999E-1,1.7749962E1,2.4999999E-1,2.4999979E-1,2.2499945E1,6.499996E0,7.4999976E-1,8.499991E0,1.2499993E1,1.3249991E1,9.9999833E-1,1.6749964E1,1.9999993E0,4.4999967E0],"tree_param":{"num_deleted":"0","num_feature":"3072","num_nodes":"31","size_leaf_vector":"0"}},{"base_weights":[-6.5236464E-2,7.8811586E-1,-1.2032014E0,-3.6640407E-4,9.386734E-1,-1.5562953E0,9.557408E-1,1.6984211E0,4.9065933E-1,-2.9328896E-4,-1.6892772E0,1.367102E0,-4.991122E-1,2.8427604E-1,4.4868913E-4,8.0262184E-1,-6.204781E-1,-7.999514E-1,2.566952E-4,2.864708E-1,-1.7513222E0,-5.399786E-4,3.9248844E-4,1.0279791E-4,-2.1993372E-4,-1.029041E-4,1.7093668E-4,-3.0826093E-4,2.536145E-4,1.02738224E-4,-2.4560757E-4,1.0265459E-4,-2.85321E-4,1.7131354E-4,-1.02567225E-4,-4.744516E-4,-4.6591133E-5,1.02564896E-4,-1.0273127E-4],"categories":[],"categories_nodes":[],"categories_segments":[],"categories_sizes":[],"default_left":[false,false,false,false,false,false,false,false,false,false,false,false,false,false,false,false,false,false,false,false,false,false,false,false,false,false,false,false,false,false,false,false,false,false,false,false,false,false,false],"id":8,"left_children":[1,3,5,-1,7,9,11,13,15,17,19,21,23,25,-1,27,29,31,-1,33,35,37,-1,-1,-1,-1,-1,-1,-1,-1,-1,-1,-1,-1,-1,-1,-1,-1,-1],"loss_changes":[8.276202E1,1.7594141E1,2.9311634E1,0E0,1.4909096E1,6.569206E0,4.1235375E0,6.526909E-1,1.1070314E1,3.5975096E0,4.087311E0,1.0468979E0,9.8519045E-1,7.2362477E-1,0E0,1.0160992E1,2.8667674E0,1.3764893E0,0E0,7.230542E-1,3.9568176E0,3.9930722E-1,0E0,0E0,0E0,0E0,0E0,0E0,0E0,0E0,0E0,0E0,0E0,0E0,0E0,0E0,0E0,0E0,0E0],"parents":[2147483647,0,0,1,1,2,2,4,4,5,5,6,6,7,7,8,8,9,9,10,10,11,11,12,12,13,13,15,15,16,16,17,17,19,19,20,20,21,21],"right_children":[2,4,6,-1,8,10,12,14,16,18,20,22,24,26,-1,28,30,32,-1,34,36,38,-1,-1,-1,-1,-1,-1,-1,-1,-1,-1,-1,-1,-1,-1,-1,-1,-1],"split_conditions":[-2.6870728E-2,4.4769287E-2,2.0341002E-3,-3.6640407E-4,7.6203737E-3,-5.3322837E-2,3.186035E-2,1.3264962E-2,2.1392822E-2,6.8326354E-1,1.4005959E-1,1.3264962E-2,1.6769115E-2,7.334113E-2,4.4868913E-4,2.4463859E-1,4.2515588E-1,1.6769115E-2,2.566952E-4,1.6769115E-2,5.4130554E-3,7.334113E-2,3.9248844E-4,1.0279791E-4,-2.1993372E-4,-1.029041E-4,1.7093668E-4,-3.0826093E-4,2.536145E-4,1.02738224E-4,-2.4560757E-4,1.0265459E-4,-2.85321E-4,1.7131354E-4,-1.02567225E-4,-4.744516E-4,-4.6591133E-5,1.02564896E-4,-1.0273127E-4],"split_indices":[1110,1282,2710,0,2399,2888,261,160,470,23,64,254,0,18,0,106,242,0,0,0,277,4,0,0,0,0,0,0,0,0,0,0,0,0,0,0,0,0,0],"split_type":[0,0,0,0,0,0,0,0,0,0,0,0,0,0,0,0,0,0,0,0,0,0,0,0,0,0,0,0,0,0,0,0,0,0,0,0,0,0,0],"sum_hessian":[8.324984E1,4.7749924E1,3.5499916E1,2.499995E0,4.524993E1,3.0749924E1,4.749994E0,1.5749957E1,2.9499973E1,2.4999995E0,2.8249924E1,3.7499948E0,9.9999917E-1,7.499979E-1,1.4999959E1,2.3249977E1,6.249997E0,1.4999998E0,9.9999964E-1,7.499986E-1,2.7499926E1,4.9999928E-1,3.2499955E0,2.4999991E-1,7.499992E-1,2.4999934E-1,4.9999857E-1,1.4999999E0,2.1749977E1,1.4999998E0,4.749997E0,2.4999984E-1,1.2499999E0,4.9999934E-1,2.4999931E-1,2.5749926E1,1.7499993E0,2.499993E-1,2.5E-1],"tree_param":{"num_deleted":"0","num_feature":"3072","num_nodes":"39","size_leaf_vector":"0"}},{"base_weights":[-8.688904E-2,6.5891016E-1,-1.5283257E0,1.2526271E0,-5.400697E-1,-1.6537553E0,4.000124E-1,-7.539953E-2,1.5054651E0,6.140823E-1,-1.0756019E0,-1.7540592E0,7.524255E-4,2.5673604E-4,-1.71081E-4,-1.1111583E0,3.5493882E-4,-2.5640137E-4,1.624178E0,-2.8608063E-1,1.248205E0,4.812334E-4,-1.398475E0,-6.652634E-1,-4.6759105E-4,5.0041986E-1,-1.7105011E-4,7.333733E-5,-3.7669545E-4,7.304622E-5,4.4631498E-4,4.65862E-5,-2.2016224E-4,-1.0280262E-4,3.7623264E-4,-1.18343654E-4,2.2006342E-4,-7.335431E-5,-4.4468543E-4,-2.849946E-4,7.350506E-5,-1.02614875E-4,2.2018676E-4],"categories":[],"categories_nodes":[],"categories_segments":[],"categories_sizes":[],"default_left":[false,false,false,false,false,false,false,false,false,false,false,false,false,false,false,false,false,false,false,false,false,false,false,false,false,false,false,false,false,false,false,false,false,false,false,false,false,false,false,false,false,false,false],"id":9,"left_children":[1,3,5,7,9,11,13,15,17,19,21,23,25,-1,-1,27,-1,-1,29,31,33,35,37,39,-1,41,-1,-1,-1,-1,-1,-1,-1,-1,-1,-1,-1,-1,-1,-1,-1,-1,-1],"loss_changes":[8.754612E1,3.893862E1,7.373413E0,1.2285355E1,1.2095079E1,4.3575897E0,2.2638347E0,1.1724271E1,1.068679E1,4.0673733E0,4.5173655E0,5.802307E-1,1.1661174E0,0E0,0E0,2.6530142E0,0E0,0E0,3.9925003E0,1.0898719E0,2.0147462E0,1.974676E0,3.210043E0,1.5858696E0,0E0,9.848186E-1,0E0,0E0,0E0,0E0,0E0,0E0,0E0,0E0,0E0,0E0,0E0,0E0,0E0,0E0,0E0,0E0,0E0],"parents":[2147483647,0,0,1,1,2,2,3,3,4,4,5,5,6,6,7,7,8,8,9,9,10,10,11,11,12,12,15,15,18,18,19,19,20,20,21,21,22,22,23,23,25,25],"right_children":[2,4,6,8,10,12,14,16,18,20,22,24,26,-1,-1,28,-1,-1,30,32,34,36,38,40,-1,42,-1,-1,-1,-1,-1,-1,-1,-1,-1,-1,-1,-1,-1,-1,-1,-1,-1],"split_conditions":[-2.5222778E-2,2.3304109E-2,9.6359705E-5,3.1313293E-2,2.998127E-2,2.3794586E-2,1.6680509E-1,4.550934E-3,-2.1652222E-2,-2.5894165E-2,1.3264962E-2,7.5536144E-1,3.2654077E-1,2.5673604E-4,-1.71081E-4,3.1313293E-2,3.5493882E-4,-2.5640137E-4,2.3089382E-1,1.4005959E-1,-3.1015597E-2,7.27272E-1,3.1313293E-2,4.2515588E-1,-4.6759105E-4,7.334113E-2,-1.7105011E-4,7.333733E-5,-3.7669545E-4,7.304622E-5,4.4631498E-4,4.65862E-5,-2.2016224E-4,-1.0280262E-4,3.7623264E-4,-1.18343654E-4,2.2006342E-4,-7.335431E-5,-4.4468543E-4,-2.849946E-4,7.350506E-5,-1.02614875E-4,2.2018676E-4],"split_indices":[1110,2979,3062,110,2740,3007,21,259,1280,324,7,205,91,0,0,116,0,0,255,123,2308,68,161,25,0,18,0,0,0,0,0,0,0,0,0,0,0,0,0,0,0,0,0],"split_type":[0,0,0,0,0,0,0,0,0,0,0,0,0,0,0,0,0,0,0,0,0,0,0,0,0,0,0,0,0,0,0,0,0,0,0,0,0,0,0,0,0,0,0],"sum_hessian":[7.94998E1,5.2749893E1,2.6749912E1,3.5249916E1,1.7499979E1,2.5249912E1,1.4999993E0,5.7499905E0,2.9499924E1,5.499994E0,1.1999984E1,2.3749914E1,1.4999989E0,9.999996E-1,4.9999964E-1,3.499999E0,2.2499914E0,9.99997E-1,2.8499928E1,2.4999993E0,2.9999948E0,2.9999967E0,8.999988E0,1.9999965E0,2.1749918E1,9.9999946E-1,4.999995E-1,7.4999994E-1,2.749999E0,2.4999971E0,2.5999931E1,1.7499993E0,7.499999E-1,2.499999E-1,2.7499948E0,2.249997E0,7.4999964E-1,2.4999993E0,6.499988E0,1.2499976E0,7.499989E-1,2.4999964E-1,7.499998E-1],"tree_param":{"num_deleted":"0","num_feature":"3072","num_nodes":"43","size_leaf_vector":"0"}},{"base_weights":[7.305828E-2,9.2971116E-1,-1.0894461E0,1.5802267E0,2.6134488E-1,-1.5731586E0,2.4381685E-1,1.652735E0,-2.860819E-1,-1.3666948E0,6.17147E-1,5.0067484E-1,-1.6761392E0,1.3666761E0,-6.142445E-1,-1.0279627E-4,1.6924512E0,-1.7128202E-4,1.0266919E-4,1.02653685E-4,-3.9904183E-4,-4.0507864E-2,1.4569268E0,2.202066E-4,-1.0253795E-4,-3.9905876E-1,-1.740674E0,3.59575E-4,3.9228465E-4,5.452899E-1,-1.1562392E0,7.321312E-5,4.4358787E-4,-3.268991E-4,2.0185378E-4,-1.7106946E-4,4.2491007E-4,-2.1996239E-4,7.354054E-5,-1.2820086E-4,-4.5555385E-4,1.0275993E-4,-1.02649115E-4,2.8509277E-4,-1.708744E-4,2.1448707E-7,-3.7627827E-4],"categories":[],"categories_nodes":[],"categories_segments":[],"categories_sizes":[],"default_left":[false,false,false,false,false,false,false,false,false,false,false,false,false,false,false,false,false,false,false,false,false,false,false,false,false,false,false,false,false,false,false,false,false,false,false,false,false,false,false,false,false,false,false,false,false,false,false],"id":10,"left_children":[1,3,5,7,9,11,13,15,17,19,21,23,25,27,29,-1,31,-1,-1,-1,-1,33,35,-1,-1,37,39,41,-1,43,45,-1,-1,-1,-1,-1,-1,-1,-1,-1,-1,-1,-1,-1,-1,-1,-1],"loss_changes":[8.267337E1,2.0347836E1,2.3116776E1,3.7205582E0,1.5180111E1,6.3918533E0,1.0715149E1,2.573082E0,7.23595E-1,2.189499E0,1.1656987E1,9.842407E-1,1.3657608E0,1.0421247E0,4.715478E0,0E0,6.286545E-1,0E0,0E0,0E0,0E0,1.39842E1,4.9789677E0,0E0,0E0,1.0288633E0,7.735443E-2,3.9974663E-1,0E0,2.618399E0,1.6982846E0,0E0,0E0,0E0,0E0,0E0,0E0,0E0,0E0,0E0,0E0,0E0,0E0,0E0,0E0,0E0,0E0],"parents":[2147483647,0,0,1,1,2,2,3,3,4,4,5,5,6,6,7,7,8,8,9,9,10,10,11,11,12,12,13,13,14,14,16,16,21,21,22,22,25,25,26,26,27,27,29,29,30,30],"right_children":[2,4,6,8,10,12,14,16,18,20,22,24,26,28,30,-1,32,-1,-1,-1,-1,34,36,-1,-1,38,40,42,-1,44,46,-1,-1,-1,-1,-1,-1,-1,-1,-1,-1,-1,-1,-1,-1,-1,-1],"split_conditions":[-2.6870728E-2,1E0,2.7325094E-2,5.2304734E-2,-4.4363476E-2,1.4005959E-1,4.1485976E-2,3.1313293E-2,1E0,1.6769115E-2,-1.448822E-2,1.6769115E-2,-1.8066406E-2,8.763896E-3,1.3264962E-2,-1.0279627E-4,7.5536144E-1,-1.7128202E-4,1.0266919E-4,1.02653685E-4,-3.9904183E-4,1.6680509E-1,1E0,2.202066E-4,-1.0253795E-4,1.6680509E-1,-1.575975E-2,3.1313293E-2,3.9228465E-4,1.6680509E-1,1.5966251E-2,7.321312E-5,4.4358787E-4,-3.268991E-4,2.0185378E-4,-1.7106946E-4,4.2491007E-4,-2.1996239E-4,7.354054E-5,-1.2820086E-4,-4.5555385E-4,1.0275993E-4,-1.02649115E-4,2.8509277E-4,-1.708744E-4,2.1448707E-7,-3.7627827E-4],"split_indices":[1110,229,3058,3017,2331,64,2356,116,1,0,421,0,260,2304,134,0,176,0,0,0,0,5,1,0,0,5,2334,6,0,5,60,0,0,0,0,0,0,0,0,0,0,0,0,0,0,0,0],"split_type":[0,0,0,0,0,0,0,0,0,0,0,0,0,0,0,0,0,0,0,0,0,0,0,0,0,0,0,0,0,0,0,0,0,0,0,0,0,0,0,0,0,0,0,0,0,0,0],"sum_hessian":[8.099976E1,4.6749886E1,3.4249878E1,2.2999928E1,2.3749956E1,2.4999895E1,9.249983E0,2.2249928E1,7.499998E-1,3.7499928E0,1.9999964E1,9.999982E-1,2.3999897E1,3.7499928E0,5.49999E0,2.4999991E-1,2.1999928E1,4.999999E-1,2.499999E-1,2.4999984E-1,3.4999928E0,1.1749987E1,8.249977E0,7.4999917E-1,2.4999905E-1,1.499999E0,2.2499897E1,4.9999982E-1,3.249993E0,1.7499963E0,3.7499936E0,7.4999857E-1,2.124993E1,4.499997E0,7.249989E0,4.9999955E-1,7.7499776E0,7.499994E-1,7.499996E-1,9.999991E-1,2.1499899E1,2.5E-1,2.4999982E-1,1.2499985E0,4.9999785E-1,9.9999857E-1,2.749995E0],"tree_param":{"num_deleted":"0","num_feature":"3072","num_nodes":"47","size_leaf_vector":"0"}},{"base_weights":[-1.1426614E-2,8.549575E-1,-1.1914974E0,1.3071988E0,-2.5785995E-1,9.5521855E-1,-1.5346407E0,-9.651358E-2,1.4966457E0,9.4545025E-1,-7.223589E-1,-2.857503E-1,1.1985143E0,-1.7008374E0,6.665663E-1,3.077376E-4,-9.338892E-1,1.6266131E0,-1.535585E-1,-1.0280023E-4,1.1091549E0,1.9985786E-1,-1.2241304E0,1.02669794E-4,-1.7118316E-4,-2.851471E-1,3.923093E-4,2.8549254E-1,-1.7605095E0,-1.7098594E-4,3.0803468E-4,1.025041E-4,-2.936041E-4,-1.0279798E-4,4.2568E-4,-2.0531607E-4,2.2006224E-4,-1.02790975E-4,3.318685E-4,-2.0533128E-4,2.1999668E-4,5.703574E-5,-3.9461537E-4,1.02754646E-4,-1.7107313E-4,1.7100864E-4,-1.02553095E-4,-4.6035444E-4,1.02625825E-4],"categories":[],"categories_nodes":[],"categories_segments":[],"categories_sizes":[],"default_left":[false,false,false,false,false,false,false,false,false,false,false,false,false,false,false,false,false,false,false,false,false,false,false,false,false,false,false,false,false,false,false,false,false,false,false,false,false,false,false,false,false,false,false,false,false,false,false,false,false],"id":11,"left_children":[1,3,5,7,9,11,13,15,17,19,21,23,25,27,29,-1,31,33,35,-1,37,39,41,-1,-1,43,-1,45,47,-1,-1,-1,-1,-1,-1,-1,-1,-1,-1,-1,-1,-1,-1,-1,-1,-1,-1,-1,-1],"loss_changes":[8.9966705E1,2.5877548E1,2.89053E1,9.784348E0,9.346455E0,2.0785275E0,1.3023254E1,6.8105936E0,7.1128845E0,1.4903426E0,5.681865E0,7.231593E-1,2.8755417E0,4.1177063E0,2.9277248E0,0E0,1.5021346E0,2.5171661E0,2.8055837E0,0E0,1.759759E0,3.9658887E0,3.8412027E0,0E0,0E0,7.23236E-1,0E0,7.21605E-1,2.762947E0,0E0,0E0,0E0,0E0,0E0,0E0,0E0,0E0,0E0,0E0,0E0,0E0,0E0,0E0,0E0,0E0,0E0,0E0,0E0,0E0],"parents":[2147483647,0,0,1,1,2,2,3,3,4,4,5,5,6,6,7,7,8,8,9,9,10,10,11,11,12,12,13,13,14,14,16,16,17,17,18,18,20,20,21,21,22,22,25,25,27,27,28,28],"right_children":[2,4,6,8,10,12,14,16,18,20,22,24,26,28,30,-1,32,34,36,-1,38,40,42,-1,-1,44,-1,46,48,-1,-1,-1,-1,-1,-1,-1,-1,-1,-1,-1,-1,-1,-1,-1,-1,-1,-1,-1,-1],"split_conditions":[-2.2491455E-2,2.37738E-2,-1.3451305E-2,3.1313293E-2,-6.990433E-4,1.3264962E-2,6.361944E-3,1.5966251E-2,2.9480362E-2,3.167365E-1,5.632882E-1,3.1313293E-2,3.1313293E-2,4.2515588E-1,1.3264962E-2,3.077376E-4,1.4005959E-1,2.4463859E-1,7.334113E-2,-1.0280023E-4,3.1313293E-2,1.3264962E-2,1.6769115E-2,1.02669794E-4,-1.7118316E-4,1.6680509E-1,3.923093E-4,1.4005959E-1,5.2581787E-2,-1.7098594E-4,3.0803468E-4,1.025041E-4,-2.936041E-4,-1.0279798E-4,4.2568E-4,-2.0531607E-4,2.2006224E-4,-1.02790975E-4,3.318685E-4,-2.0533128E-4,2.1999668E-4,5.703574E-5,-3.9461537E-4,1.02754646E-4,-1.7107313E-4,1.7100864E-4,-1.02553095E-4,-4.6035444E-4,1.02625825E-4],"split_indices":[592,3031,2902,165,815,199,2710,79,2321,183,20,2,161,16,208,0,22,111,4,0,83,208,45,0,0,21,0,3,267,0,0,0,0,0,0,0,0,0,0,0,0,0,0,0,0,0,0,0,0],"split_type":[0,0,0,0,0,0,0,0,0,0,0,0,0,0,0,0,0,0,0,0,0,0,0,0,0,0,0,0,0,0,0,0,0,0,0,0,0,0,0,0,0,0,0,0,0,0,0,0,0],"sum_hessian":[8.5999695E1,4.974986E1,3.6249836E1,3.524988E1,1.4499979E1,4.7499914E0,3.1499846E1,4.2499933E0,3.0999887E1,3.7499933E0,1.0749986E1,7.4999976E-1,3.999992E0,2.949985E1,1.9999974E0,1.4999964E0,2.7499971E0,2.8749887E1,2.249999E0,2.4999991E-1,3.4999936E0,3.9999983E0,6.749987E0,2.499999E-1,4.9999982E-1,7.499996E-1,3.2499924E0,7.499983E-1,2.8749851E1,4.99999E-1,1.4999985E0,2.4999872E-1,2.4999983E0,2.4999991E-1,2.8499887E1,1.4999992E0,7.4999976E-1,2.4999993E-1,3.2499936E0,1.4999995E0,2.4999986E0,1.2499998E0,5.4999876E0,2.5E-1,4.9999958E-1,4.999991E-1,2.499992E-1,2.8499851E1,2.499997E-1],"tree_param":{"num_deleted":"0","num_feature":"3072","num_nodes":"49","size_leaf_vector":"0"}},{"base_weights":[6.522313E-2,8.8084954E-1,-1.0524126E0,-7.575923E-1,1.136614E0,-1.6317495E0,2.039914E-1,2.1985774E-4,-1.075469E0,-5.25609E-1,1.3088167E0,1.8268125E-1,-1.7777473E0,8.093997E-1,-1.247016E0,-1.5417473E-1,-3.9218258E-4,5.4447186E-1,-3.4193817E-4,4.5942834E-1,1.5374306E0,-2.1975364E-4,2.5679969E-4,1.0275472E-4,-4.672648E-4,-2.5660876E-4,1.1497127E0,4.5450538E-4,-3.6609225E-4,2.2001965E-4,-2.0549208E-4,-1.7135723E-4,2.851582E-4,-2.852947E-4,2.1087323E-4,4.152994E-4,3.5691443E-8,3.4178687E-5,4.1963937E-4,-1.0262542E-4,1.0276548E-4],"categories":[],"categories_nodes":[],"categories_segments":[],"categories_sizes":[],"default_left":[false,false,false,false,false,false,false,false,false,false,false,false,false,false,false,false,false,false,false,false,false,false,false,false,false,false,false,false,false,false,false,false,false,false,false,false,false,false,false,false,false],"id":12,"left_children":[1,3,5,7,9,11,13,-1,15,17,19,21,23,25,27,29,-1,31,-1,33,35,-1,-1,-1,-1,-1,37,39,-1,-1,-1,-1,-1,-1,-1,-1,-1,-1,-1,-1,-1],"loss_changes":[7.772674E1,2.1499485E1,2.6536453E1,4.6392946E0,1.299617E1,6.8810654E0,1.1770346E1,0E0,2.4681592E0,4.82016E0,6.9152756E0,3.1886332E0,2.8074265E0,6.8415895E0,8.90543E-1,2.8072095E0,0E0,2.6258793E0,0E0,6.4477606E0,3.727806E0,0E0,0E0,0E0,0E0,0E0,3.8430748E0,3.9967602E-1,0E0,0E0,0E0,0E0,0E0,0E0,0E0,0E0,0E0,0E0,0E0,0E0,0E0],"parents":[2147483647,0,0,1,1,2,2,3,3,4,4,5,5,6,6,8,8,9,9,10,10,11,11,12,12,13,13,14,14,15,15,17,17,19,19,20,20,26,26,27,27],"right_children":[2,4,6,8,10,12,14,-1,16,18,20,22,24,26,28,30,-1,32,-1,34,36,-1,-1,-1,-1,-1,38,40,-1,-1,-1,-1,-1,-1,-1,-1,-1,-1,-1,-1,-1],"split_conditions":[-2.2491455E-2,-2.716266E-2,2.7325094E-2,1.3264962E-2,7.5536144E-1,1.4005959E-1,-2.4187272E-2,2.1985774E-4,3.2654077E-1,3.1313293E-2,7.334113E-2,1.4005959E-1,-4.0175833E-2,6.7345923E-1,1.3264962E-2,7.334113E-2,-3.9218258E-4,1.3264962E-2,-3.4193817E-4,1.4005959E-1,4.6875E-2,-2.1975364E-4,2.5679969E-4,1.0275472E-4,-4.672648E-4,-2.5660876E-4,6.8326354E-1,7.334113E-2,-3.6609225E-4,2.2001965E-4,-2.0549208E-4,-1.7135723E-4,2.851582E-4,-2.852947E-4,2.1087323E-4,4.152994E-4,3.5691443E-8,3.4178687E-5,4.1963937E-4,-1.0262542E-4,1.0276548E-4],"split_indices":[592,3042,3058,109,176,64,2736,0,69,204,14,174,2352,118,7,132,0,199,0,147,295,0,0,0,0,0,23,18,0,0,0,0,0,0,0,0,0,0,0,0,0],"split_type":[0,0,0,0,0,0,0,0,0,0,0,0,0,0,0,0,0,0,0,0,0,0,0,0,0,0,0,0,0,0,0,0,0,0,0,0,0,0,0,0,0],"sum_hessian":[8.324965E1,4.8249832E1,3.499982E1,6.249985E0,4.1999847E1,2.374985E1,1.124997E1,7.499982E-1,5.499987E0,3.7499914E0,3.8249855E1,1.7499957E0,2.1999853E1,8.249985E0,2.9999862E0,2.2499979E0,3.2499893E0,1.749997E0,1.9999944E0,8.749974E0,2.949988E1,7.499973E-1,9.9999833E-1,2.5E-1,2.1749853E1,9.999988E-1,7.2499857E0,4.999997E-1,2.4999864E0,7.4999964E-1,1.4999982E0,4.999996E-1,1.2499974E0,1.2499992E0,7.4999757E0,2.799988E1,1.4999994E0,2.7499983E0,4.4999876E0,2.499997E-1,2.5E-1],"tree_param":{"num_deleted":"0","num_feature":"3072","num_nodes":"41","size_leaf_vector":"0"}},{"base_weights":[-6.673579E-2,8.636248E-1,-1.2565361E0,1.1291147E0,-1.0374058E0,1.1973695E0,-1.4919622E0,1.691465E0,5.912907E-1,1.712658E-4,-1.3015668E0,-1.0260271E-4,3.6614633E-4,-1.6726875E0,3.9988282E-1,-1.0281629E-4,1.7388116E0,-9.3244624E-1,8.4742737E-1,1.0266798E-4,-1.4515774E0,-1.7328409E0,1.7094094E-4,-6.6591924E-1,3.079932E-4,-3.9062544E-7,4.5838443E-4,5.4316395E-8,-3.2661945E-4,-7.356796E-5,3.0091067E-4,1.212423E-7,-4.101461E-4,-4.749551E-4,-1.2832362E-4,1.02637874E-4,-2.565647E-4],"categories":[],"categories_nodes":[],"categories_segments":[],"categories_sizes":[],"default_left":[false,false,false,false,false,false,false,false,false,false,false,false,false,false,false,false,false,false,false,false,false,false,false,false,false,false,false,false,false,false,false,false,false,false,false,false,false],"id":13,"left_children":[1,3,5,7,9,11,13,15,17,-1,19,-1,-1,21,23,-1,25,27,29,-1,31,33,-1,35,-1,-1,-1,-1,-1,-1,-1,-1,-1,-1,-1,-1,-1],"loss_changes":[9.213079E1,2.4766182E1,2.287283E1,1.1551285E1,3.6815681E0,1.9359622E0,1.2208084E1,2.6520576E0,9.66914E0,0E0,2.0477085E0,0E0,0E0,5.513481E0,3.9930182E0,0E0,1.5596542E0,1.1866968E0,7.6863403E0,0E0,1.1611528E0,3.45298E0,0E0,1.1975285E0,0E0,0E0,0E0,0E0,0E0,0E0,0E0,0E0,0E0,0E0,0E0,0E0,0E0],"parents":[2147483647,0,0,1,1,2,2,3,3,4,4,5,5,6,6,7,7,8,8,10,10,13,13,14,14,16,16,17,17,18,18,20,20,21,21,23,23],"right_children":[2,4,6,8,10,12,14,16,18,-1,20,-1,-1,22,24,-1,26,28,30,-1,32,34,-1,36,-1,-1,-1,-1,-1,-1,-1,-1,-1,-1,-1,-1,-1],"split_conditions":[-1.9973755E-2,2.9988852E-3,-3.8015798E-2,2.4998225E-2,6.145835E-1,1.7336465E-1,2.9997615E-2,3.167365E-1,1.7336465E-1,1.712658E-4,1.3264962E-2,-1.0260271E-4,3.6614633E-4,4.6903502E-2,1.3264962E-2,-1.0281629E-4,1.5966251E-2,1E0,1.3264962E-2,1.0266798E-4,1.3264962E-2,6.394551E-2,1.7094094E-4,1.6769115E-2,3.079932E-4,-3.9062544E-7,4.5838443E-4,5.4316395E-8,-3.2661945E-4,-7.356796E-5,3.0091067E-4,1.212423E-7,-4.101461E-4,-4.749551E-4,-1.2832362E-4,1.02637874E-4,-2.565647E-4],"split_indices":[592,2780,2431,2991,117,48,2906,183,91,0,53,0,0,2360,87,0,163,50,61,0,61,2730,0,0,0,0,0,0,0,0,0,0,0,0,0,0,0],"split_type":[0,0,0,0,0,0,0,0,0,0,0,0,0,0,0,0,0,0,0,0,0,0,0,0,0,0,0,0,0,0,0,0,0,0,0,0,0],"sum_hessian":[8.1249565E1,4.5749798E1,3.5499767E1,4.0499817E1,5.2499824E0,2.7499866E0,3.2749783E1,1.8749876E1,2.174994E1,4.9999994E-1,4.7499824E0,2.4999958E-1,2.4999871E0,2.9999784E1,2.7499967E0,2.4999985E-1,1.8499876E1,2.7499971E0,1.8999943E1,2.4999988E-1,4.4999824E0,2.9499786E1,4.9999845E-1,1.2499985E0,1.4999981E0,4.9999738E-1,1.799988E1,9.999994E-1,1.7499979E0,4.2499933E0,1.474995E1,4.9999973E-1,3.9999828E0,2.6499788E1,2.9999976E0,2.4999976E-1,9.999987E-1],"tree_param":{"num_deleted":"0","num_feature":"3072","num_nodes":"37","size_leaf_vector":"0"}},{"base_weights":[-1.7656244E-2,8.6309236E-1,-1.1639315E0,3.7981838E-1,1.7564762E0,-1.7277596E0,1.6643003E-1,-5.874838E-1,9.4902325E-1,-1.0258582E-4,1.8133482E0,-2.8512734E-1,-1.7590088E0,1.2289394E0,-9.2168415E-1,6.814923E-2,-1.2283858E0,-1.1428231E0,1.2934808E0,4.792163E-4,5.0019455E-1,1.0273063E-4,-1.7104721E-4,-4.98852E-1,-4.5976945E-4,4.151846E-4,-2.2154856E-1,6.654607E-1,-1.4263312E0,-1.2235246E-4,2.564174E-4,1.709865E-4,-3.8454038E-4,-7.342553E-5,-3.2685278E-4,-3.472046E-5,3.9849474E-4,2.2014375E-4,-1.02647224E-4,1.0256431E-4,-2.1969056E-4,-2.1984294E-4,1.7112867E-4,-1.02749174E-4,2.565018E-4,1.0260227E-4,-4.103104E-4],"categories":[],"categories_nodes":[],"categories_segments":[],"categories_sizes":[],"default_left":[false,false,false,false,false,false,false,false,false,false,false,false,false,false,false,false,false,false,false,false,false,false,false,false,false,false,false,false,false,false,false,false,false,false,false,false,false,false,false,false,false,false,false,false,false,false,false],"id":14,"left_children":[1,3,5,7,9,11,13,15,17,-1,19,21,23,25,27,29,31,33,35,-1,37,-1,-1,39,-1,-1,41,43,45,-1,-1,-1,-1,-1,-1,-1,-1,-1,-1,-1,-1,-1,-1,-1,-1,-1,-1],"loss_changes":[8.656602E1,2.0272594E1,2.8228401E1,1.8589401E1,2.7779694E0,6.8183136E-1,1.5006231E1,5.441207E0,1.6609756E1,0E0,2.031517E-1,7.2296053E-1,1.05522156E-1,4.0120544E0,6.1553144E0,4.1477785E0,4.306056E0,2.537918E-2,7.0295715E0,0E0,9.848929E-1,0E0,0E0,9.8196363E-1,0E0,0E0,1.8375716E0,1.1983566E0,2.2790613E0,0E0,0E0,0E0,0E0,0E0,0E0,0E0,0E0,0E0,0E0,0E0,0E0,0E0,0E0,0E0,0E0,0E0,0E0],"parents":[2147483647,0,0,1,1,2,2,3,3,4,4,5,5,6,6,7,7,8,8,10,10,11,11,12,12,13,13,14,14,15,15,16,16,17,17,18,18,20,20,23,23,26,26,27,27,28,28],"right_children":[2,4,6,8,10,12,14,16,18,-1,20,22,24,26,28,30,32,34,36,-1,38,-1,-1,40,-1,-1,42,44,46,-1,-1,-1,-1,-1,-1,-1,-1,-1,-1,-1,-1,-1,-1,-1,-1,-1,-1],"split_conditions":[-2.2491455E-2,3.616333E-2,2.7325094E-2,-3.3619143E-2,1E0,-1.575975E-2,-1.6530069E-2,-4.1290283E-2,3.1313293E-2,-1.0258582E-4,7.946777E-2,3.1313293E-2,2.3089382E-1,3.186035E-2,1.3264962E-2,3.1313293E-2,7.27272E-1,3.1313293E-2,2.4463859E-1,4.792163E-4,1.3264962E-2,1.0273063E-4,-1.7104721E-4,1.4005959E-1,-4.5976945E-4,4.151846E-4,6.145835E-1,7.334113E-2,1.3264962E-2,-1.2235246E-4,2.564174E-4,1.709865E-4,-3.8454038E-4,-7.342553E-5,-3.2685278E-4,-3.472046E-5,3.9849474E-4,2.2014375E-4,-1.02647224E-4,1.0256431E-4,-2.1969056E-4,-2.1984294E-4,1.7112867E-4,-1.02749174E-4,2.565018E-4,1.0260227E-4,-4.103104E-4],"split_indices":[592,1007,3058,2591,56,2334,2808,283,110,0,257,44,86,261,7,52,127,184,106,0,7,0,0,3,0,0,35,120,94,0,0,0,0,0,0,0,0,0,0,0,0,0,0,0,0,0,0],"split_type":[0,0,0,0,0,0,0,0,0,0,0,0,0,0,0,0,0,0,0,0,0,0,0,0,0,0,0,0,0,0,0,0,0,0,0,0,0,0,0,0,0,0,0,0,0,0,0],"sum_hessian":[8.374951E1,4.749977E1,3.6249737E1,3.174989E1,1.5749885E1,2.5249771E1,1.0999965E1,1.174997E1,1.9999918E1,2.4999946E-1,1.5499885E1,7.499994E-1,2.4499771E1,5.4999824E0,5.4999824E0,6.2499905E0,5.49998E0,2.4999983E0,1.749992E1,1.4499885E1,9.999997E-1,2.5E-1,4.999994E-1,9.9999577E-1,2.3499777E1,4.2499843E0,1.2499981E0,1.2499981E0,4.249984E0,4.249995E0,1.9999952E0,4.9999875E-1,4.999981E0,7.4999964E-1,1.7499988E0,2.749993E0,1.4749927E1,7.499999E-1,2.4999982E-1,2.499993E-1,7.499965E-1,7.499985E-1,4.999996E-1,2.5E-1,9.999981E-1,2.4999957E-1,3.9999845E0],"tree_param":{"num_deleted":"0","num_feature":"3072","num_nodes":"47","size_leaf_vector":"0"}},{"base_weights":[5.7597356E-3,8.7295526E-1,-1.3433853E0,1.1811093E0,-1.5421054E-1,-1.6864477E0,-1.7047602E-1,1.2662851E-4,1.4495121E0,9.976127E-1,-5.9951836E-1,-2.2131635E-1,-1.7515028E0,1.0581216E0,-1.0888531E0,-7.9896235E-1,8.879753E-1,4.318907E-1,1.6053287E0,-2.8577042E-1,3.5488128E-4,3.5180292E-1,-1.1096817E0,1.7124611E-4,-2.1986695E-4,-2.8444895E-1,-4.5859156E-4,3.6651923E-4,-2.8431487E-1,-3.9874308E-4,4.9873242E-1,1.15580065E-7,-2.9323628E-4,3.6646926E-4,-1.2816396E-4,-2.5685687E-4,2.4243187E-4,4.197554E-4,-1.7429828E-7,1.0246699E-4,-1.710201E-4,-2.5685685E-4,2.7622635E-4,1.2832138E-4,-3.792147E-4,-1.7086643E-4,1.02757476E-4,1.02735576E-4,-1.7080804E-4,-1.0274884E-4,2.197873E-4],"categories":[],"categories_nodes":[],"categories_segments":[],"categories_sizes":[],"default_left":[false,false,false,false,false,false,false,false,false,false,false,false,false,false,false,false,false,false,false,false,false,false,false,false,false,false,false,false,false,false,false,false,false,false,false,false,false,false,false,false,false,false,false,false,false,false,false,false,false,false,false],"id":15,"left_children":[1,3,5,7,9,11,13,15,17,19,21,23,25,27,29,31,33,35,37,39,-1,41,43,-1,-1,45,-1,-1,47,-1,49,-1,-1,-1,-1,-1,-1,-1,-1,-1,-1,-1,-1,-1,-1,-1,-1,-1,-1,-1,-1],"loss_changes":[1.009122E2,1.6799625E1,1.3292755E1,1.2837391E1,7.2659736E0,2.0905075E0,1.1024869E1,6.7399454E0,4.5391846E0,2.3666055E0,5.2436695E0,1.8389974E0,7.2639465E-1,2.510408E0,4.822519E0,1.3704407E0,4.0751386E0,5.1595902E0,1.3150864E0,7.210815E-1,0E0,5.2332745E0,4.721718E0,0E0,0E0,7.2233504E-1,0E0,0E0,7.219294E-1,0E0,9.840484E-1,0E0,0E0,0E0,0E0,0E0,0E0,0E0,0E0,0E0,0E0,0E0,0E0,0E0,0E0,0E0,0E0,0E0,0E0,0E0,0E0],"parents":[2147483647,0,0,1,1,2,2,3,3,4,4,5,5,6,6,7,7,8,8,9,9,10,10,11,11,12,12,13,13,14,14,15,15,16,16,17,17,18,18,19,19,21,21,22,22,25,25,28,28,30,30],"right_children":[2,4,6,8,10,12,14,16,18,20,22,24,26,28,30,32,34,36,38,40,-1,42,44,-1,-1,46,-1,-1,48,-1,50,-1,-1,-1,-1,-1,-1,-1,-1,-1,-1,-1,-1,-1,-1,-1,-1,-1,-1,-1,-1],"split_conditions":[-2.6870728E-2,2.1915914E-2,2.7325094E-2,-6.5761924E-2,1.3264962E-2,0E0,9.2665887E-1,3.1313293E-2,2.3089382E-1,2.72728E-1,1.7336465E-1,1.3264962E-2,1.4005959E-1,1.9900795E-2,1.1085566E-2,3.2654077E-1,5.332371E-1,1.3264962E-2,6.993763E-2,1.7336465E-1,3.5488128E-4,1.3264962E-2,1.6680509E-1,1.7124611E-4,-2.1986695E-4,3.1313293E-2,-4.5859156E-4,3.6651923E-4,1.4005959E-1,-3.9874308E-4,1.4005959E-1,1.15580065E-7,-2.9323628E-4,3.6646926E-4,-1.2816396E-4,-2.5685687E-4,2.4243187E-4,4.197554E-4,-1.7429828E-7,1.0246699E-4,-1.710201E-4,-2.5685685E-4,2.7622635E-4,1.2832138E-4,-3.792147E-4,-1.7086643E-4,1.02757476E-4,1.02735576E-4,-1.7080804E-4,-1.0274884E-4,2.197873E-4],"split_indices":[1110,2590,3058,2619,85,258,248,52,179,10,54,7,64,2321,2306,69,103,134,2326,11,0,94,28,0,0,2,0,0,3,0,3,0,0,0,0,0,0,0,0,0,0,0,0,0,0,0,0,0,0,0,0],"split_type":[0,0,0,0,0,0,0,0,0,0,0,0,0,0,0,0,0,0,0,0,0,0,0,0,0,0,0,0,0,0,0,0,0,0,0,0,0,0,0,0,0,0,0,0,0,0,0,0,0,0,0],"sum_hessian":[8.424942E1,5.1499702E1,3.274972E1,3.9499744E1,1.1999961E1,2.499975E1,7.74997E0,7.499987E0,3.1999756E1,2.9999862E0,8.999975E0,1.2499986E0,2.374975E1,3.249992E0,4.499978E0,3.9999936E0,3.4999933E0,4.7499714E0,2.7249784E1,7.499963E-1,2.24999E0,3.249995E0,5.74998E0,4.999999E-1,7.499987E-1,7.499975E-1,2.2999754E1,2.499995E0,7.499969E-1,3.4999812E0,9.9999714E-1,1.4999983E0,2.4999952E0,2.4999955E0,9.999981E-1,9.9999666E-1,3.749975E0,2.6749784E1,4.9999934E-1,2.4999827E-1,4.9999806E-1,9.999991E-1,2.249996E0,9.999972E-1,4.749983E0,4.9999753E-1,2.5E-1,2.5E-1,4.999969E-1,2.5E-1,7.4999714E-1],"tree_param":{"num_deleted":"0","num_feature":"3072","num_nodes":"51","size_leaf_vector":"0"}},{"base_weights":[6.1883453E-2,9.159833E-1,-1.1574622E0,-7.0810926E-1,1.1696955E0,-1.7534623E0,7.771966E-2,3.0775554E-4,-1.3573465E0,-6.658292E-1,1.3018006E0,-2.8390408E-1,-1.7872053E0,4.0480372E-4,-7.001103E-1,-5.1724986E-4,-4.149786E-4,4.9913728E-1,-3.264362E-4,3.7255377E-1,1.4709644E0,-1.7086351E-4,1.0295004E-4,-2.850404E-1,-4.6822865E-4,9.9913025E-1,-1.3066803E0,1.7096783E-4,-1.711448E-4,-1.0264589E-4,2.1983258E-4,2.7934933E-4,-2.2026202E-4,4.0068344E-4,-4.6579244E-5,-1.7103643E-4,1.0274891E-4,-1.02619415E-4,3.2659344E-4,1.7101559E-4,-3.9847504E-4],"categories":[],"categories_nodes":[],"categories_segments":[],"categories_sizes":[],"default_left":[false,false,false,false,false,false,false,false,false,false,false,false,false,false,false,false,false,false,false,false,false,false,false,false,false,false,false,false,false,false,false,false,false,false,false,false,false,false,false,false,false],"id":16,"left_children":[1,3,5,7,9,11,13,-1,15,17,19,21,23,-1,25,27,-1,29,-1,31,33,-1,-1,35,-1,37,39,-1,-1,-1,-1,-1,-1,-1,-1,-1,-1,-1,-1,-1,-1],"loss_changes":[9.3487564E1,2.2563885E1,2.7374252E1,1.1218267E1,1.202087E1,7.322769E-1,1.625443E1,0E0,2.1899729E0,3.277956E0,6.2506256E0,7.236048E-1,7.849045E-1,0E0,1.083955E1,1.3306532E0,0E0,9.833677E-1,0E0,7.9697747E0,5.6178894E0,0E0,0E0,7.230344E-1,0E0,1.6512077E0,4.533186E0,0E0,0E0,0E0,0E0,0E0,0E0,0E0,0E0,0E0,0E0,0E0,0E0,0E0,0E0],"parents":[2147483647,0,0,1,1,2,2,3,3,4,4,5,5,6,6,8,8,9,9,10,10,11,11,12,12,14,14,15,15,17,17,19,19,20,20,23,23,25,25,26,26],"right_children":[2,4,6,8,10,12,14,-1,16,18,20,22,24,-1,26,28,-1,30,-1,32,34,-1,-1,36,-1,38,40,-1,-1,-1,-1,-1,-1,-1,-1,-1,-1,-1,-1,-1,-1],"split_conditions":[-1.9973755E-2,-2.716266E-2,2.7325094E-2,5.7798244E-2,7.5536144E-1,1.4005959E-1,3.481185E-3,3.0775554E-4,1.4005959E-1,-2.477714E-2,2.72728E-1,1.6680509E-1,-2.634823E-2,4.0480372E-4,2.72728E-1,6.0070395E-3,-4.149786E-4,1.6680509E-1,-3.264362E-4,-3.9699357E-2,5.3253174E-2,-1.7086351E-4,1.0295004E-4,3.1313293E-2,-4.6822865E-4,1.3264962E-2,3.1313293E-2,1.7096783E-4,-1.711448E-4,-1.0264589E-4,2.1983258E-4,2.7934933E-4,-2.2026202E-4,4.0068344E-4,-4.6579244E-5,-1.7103643E-4,1.0274891E-4,-1.02619415E-4,3.2659344E-4,1.7101559E-4,-3.9847504E-4],"split_indices":[592,3042,3058,222,176,64,2334,0,253,2343,10,5,2311,0,7,2306,0,28,0,2391,295,0,0,51,0,20,98,0,0,0,0,0,0,0,0,0,0,0,0,0,0],"split_type":[0,0,0,0,0,0,0,0,0,0,0,0,0,0,0,0,0,0,0,0,0,0,0,0,0,0,0,0,0,0,0,0,0,0,0,0,0,0,0,0,0],"sum_hessian":[8.774931E1,5.1749664E1,3.599965E1,6.7499685E0,4.4999695E1,2.399971E1,1.1999939E1,1.4999934E0,5.2499747E0,2.7499897E0,4.2249706E1,7.499964E-1,2.3249714E1,3.7499835E0,8.249955E0,9.9999714E-1,4.2499776E0,9.9999684E-1,1.749993E0,6.999971E0,3.5249733E1,4.999975E-1,2.4999893E-1,7.4999934E-1,2.2499714E1,1.9999975E0,6.2499576E0,4.999978E-1,4.9999934E-1,2.4999979E-1,7.499971E-1,4.499976E0,2.499995E0,3.3499733E1,1.7499986E0,4.9999934E-1,2.5E-1,2.4999967E-1,1.7499979E0,4.9999875E-1,5.7499585E0],"tree_param":{"num_deleted":"0","num_feature":"3072","num_nodes":"41","size_leaf_vector":"0"}},{"base_weights":[1.7061E-2,5.281055E-1,-1.4996195E0,8.3137894E-1,-1.3630937E0,-1.6602305E0,6.658977E-1,-3.9178898E-4,1.0006869E0,2.8561416E-1,-1.5370547E0,1.02944745E-4,-1.7043787E0,-1.02651866E-4,2.5656723E-4,1.5145979E0,5.428884E-1,-1.0257222E-4,1.7106105E-4,1.02514845E-4,-4.2146828E-4,-4.592658E-4,-2.2111377E-1,4.0631735E-4,-7.306344E-5,-1.3285929E-4,2.0876614E-4,1.712536E-4,-2.1980655E-4],"categories":[],"categories_nodes":[],"categories_segments":[],"categories_sizes":[],"default_left":[false,false,false,false,false,false,false,false,false,false,false,false,false,false,false,false,false,false,false,false,false,false,false,false,false,false,false,false,false],"id":17,"left_children":[1,3,5,7,9,11,13,-1,15,17,19,-1,21,-1,-1,23,25,-1,-1,-1,-1,-1,27,-1,-1,-1,-1,-1,-1],"loss_changes":[6.84181E1,3.8987305E1,8.844135E0,2.4470078E1,3.163681E0,2.5939255E0,1.1976869E0,0E0,1.1940933E1,7.219654E-1,2.4152603E0,0E0,2.1820068E0,0E0,0E0,3.4801712E0,9.07706E0,0E0,0E0,0E0,0E0,0E0,1.8385524E0,0E0,0E0,0E0,0E0,0E0,0E0],"parents":[2147483647,0,0,1,1,2,2,3,3,4,4,5,5,6,6,8,8,9,9,10,10,12,12,15,15,16,16,22,22],"right_children":[2,4,6,8,10,12,14,-1,16,18,20,-1,22,-1,-1,24,26,-1,-1,-1,-1,-1,28,-1,-1,-1,-1,-1,-1],"split_conditions":[-9.460449E-3,3.5398514E-3,3.272686E-2,3.6346436E-2,1.4005959E-1,1.4005959E-1,1.6769115E-2,-3.9178898E-4,2.4770305E-2,1.3264962E-2,2.4102546E-1,1.02944745E-4,2.8693799E-2,-1.02651866E-4,2.5656723E-4,2.9790837E-3,-4.011825E-2,-1.0257222E-4,1.7106105E-4,1.02514845E-4,-4.2146828E-4,-4.592658E-4,2.4102546E-1,4.0631735E-4,-7.306344E-5,-1.3285929E-4,2.0876614E-4,1.712536E-4,-2.1980655E-4],"split_indices":[527,2527,2675,1281,64,64,26,0,2991,9,142,0,2457,0,0,2341,380,0,0,0,0,0,196,0,0,0,0,0,0],"split_type":[0,0,0,0,0,0,0,0,0,0,0,0,0,0,0,0,0,0,0,0,0,0,0,0,0,0,0,0,0],"sum_hessian":[8.6249275E1,6.499953E1,2.1249746E1,5.6499622E1,8.499905E0,1.9999748E1,1.2499983E0,3.2499752E0,5.3249645E1,7.4999815E-1,7.749907E0,2.4999896E-1,1.974975E1,2.4999982E-1,9.9999845E-1,2.3999773E1,2.9249872E1,2.4999934E-1,4.999988E-1,2.4999882E-1,7.499908E0,1.8499752E1,1.2499981E0,2.3249775E1,7.4999833E-1,5.7499886E0,2.3499884E1,5E-1,7.499981E-1],"tree_param":{"num_deleted":"0","num_feature":"3072","num_nodes":"29","size_leaf_vector":"0"}},{"base_weights":[-1.750244E-2,7.436338E-1,-1.6003219E0,-6.886376E-1,1.1601201E0,-1.6993529E0,2.1990389E-4,-1.4628255E0,2.0722957E-1,1.723943E0,5.949612E-1,-4.5310077E-4,3.5998248E-4,-1.699777E-4,-4.3350528E-4,1.056589E0,-7.4702317E-1,1.8051904E0,-1.2739315E-3,-6.159163E-1,9.830019E-1,-1.7100299E-4,1.7112622E-4,-1.7104455E-4,1.7098644E-4,-1.374982E-7,3.5496228E-4,5.7304525E-5,-3.2596604E-4,-1.03099104E-4,4.7530638E-4,-1.7131578E-4,1.7087974E-4,1.3980741E-4,-2.9741647E-4,3.3545084E-4,-2.4779614E-5],"categories":[],"categories_nodes":[],"categories_segments":[],"categories_sizes":[],"default_left":[false,false,false,false,false,false,false,false,false,false,false,false,false,false,false,false,false,false,false,false,false,false,false,false,false,false,false,false,false,false,false,false,false,false,false,false,false],"id":18,"left_children":[1,3,5,7,9,11,-1,13,15,17,19,-1,21,23,-1,25,27,29,31,33,35,-1,-1,-1,-1,-1,-1,-1,-1,-1,-1,-1,-1,-1,-1,-1,-1],"loss_changes":[1.0389323E2,3.5546005E1,8.266418E0,9.839661E0,1.3472755E1,3.000351E0,0E0,2.4679165E0,6.6654196E0,3.1210327E0,1.1999735E1,0E0,1.3307828E0,1.3300188E0,0E0,1.4628348E0,2.3091938E0,2.8708725E0,1.3312973E0,4.718279E0,6.664665E0,0E0,0E0,0E0,0E0,0E0,0E0,0E0,0E0,0E0,0E0,0E0,0E0,0E0,0E0,0E0,0E0],"parents":[2147483647,0,0,1,1,2,2,3,3,4,4,5,5,7,7,8,8,9,9,10,10,12,12,13,13,15,15,16,16,17,17,18,18,19,19,20,20],"right_children":[2,4,6,8,10,12,-1,14,16,18,20,-1,22,24,-1,26,28,30,32,34,36,-1,-1,-1,-1,-1,-1,-1,-1,-1,-1,-1,-1,-1,-1,-1,-1],"split_conditions":[-2.3834229E-2,-1.1691422E-2,5.3130277E-3,7.334113E-2,1.4854431E-2,2.448508E-2,2.1990389E-4,7.334113E-2,2.1314003E-2,2.8813086E-2,7.334113E-2,-4.5310077E-4,1.7336465E-1,1.4005959E-1,-4.3350528E-4,2.0794167E-1,1.6769115E-2,1.3264962E-2,6.145835E-1,7.5536144E-1,-5.9749605E-3,-1.7100299E-4,1.7112622E-4,-1.7104455E-4,1.7098644E-4,-1.374982E-7,3.5496228E-4,5.7304525E-5,-3.2596604E-4,-1.03099104E-4,4.7530638E-4,-1.7131578E-4,1.7087974E-4,1.3980741E-4,-2.9741647E-4,3.3545084E-4,-2.4779614E-5],"split_indices":[1110,2788,2496,101,690,3007,0,47,2590,2630,47,0,11,164,0,89,26,94,35,205,2383,0,0,0,0,0,0,0,0,0,0,0,0,0,0,0,0],"split_type":[0,0,0,0,0,0,0,0,0,0,0,0,0,0,0,0,0,0,0,0,0,0,0,0,0,0,0,0,0,0,0,0,0,0,0,0,0],"sum_hessian":[8.424916E1,5.7249546E1,2.6999617E1,1.2749913E1,4.4499634E1,2.6249619E1,7.499987E-1,6.499948E0,6.2499657E0,2.1249746E1,2.3249886E1,2.5249619E1,9.9999875E-1,9.9999803E-1,5.49995E0,3.2499838E0,2.9999819E0,2.0249748E1,9.999978E-1,5.4999847E0,1.77499E1,4.999991E-1,4.9999964E-1,4.999994E-1,4.9999863E-1,9.999955E-1,2.2499883E0,1.2499987E0,1.7499832E0,2.499969E-1,1.9999752E1,4.9999988E-1,4.999979E-1,1.7499944E0,3.7499905E0,1.349991E1,4.24999E0],"tree_param":{"num_deleted":"0","num_feature":"3072","num_nodes":"37","size_leaf_vector":"0"}},{"base_weights":[4.1443482E-2,-1.602862E0,5.654377E-1,2.1974827E-4,-1.7395424E0,-1.3436847E0,9.3163127E-1,1.8904699E-3,-1.8325206E0,1.7060793E-4,-1.5064384E0,1.6471982E0,4.9413514E-1,1.7144857E-4,-1.7080142E-4,-4.8316552E-4,-2.8494355E-1,-2.2151469E-1,-1.6602889E0,-8.367306E-4,1.6889635E0,-4.8668373E-1,8.118559E-1,-1.7098835E-4,1.02726044E-4,1.7112416E-4,-2.1982793E-4,-7.323169E-5,-4.4966585E-4,-1.0279503E-4,1.0253721E-4,1.3897133E-4,4.547408E-4,1.7063941E-4,-2.7633173E-4,3.0722166E-4,2.4156156E-5],"categories":[],"categories_nodes":[],"categories_segments":[],"categories_sizes":[],"default_left":[false,false,false,false,false,false,false,false,false,false,false,false,false,false,false,false,false,false,false,false,false,false,false,false,false,false,false,false,false,false,false,false,false,false,false,false,false],"id":19,"left_children":[1,3,5,-1,7,9,11,13,15,-1,17,19,21,-1,-1,-1,23,25,27,29,31,33,35,-1,-1,-1,-1,-1,-1,-1,-1,-1,-1,-1,-1,-1,-1],"loss_changes":[7.306511E1,8.376621E0,4.6169136E1,0E0,3.2012444E0,4.5136986E0,1.6247566E1,1.3317189E0,8.7571335E-1,0E0,1.6584835E0,1.3952141E0,1.1379899E1,0E0,0E0,0E0,7.226681E-1,1.8373951E0,6.203327E-1,3.9944735E-1,8.905792E-1,6.9881005E0,7.3353195E0,0E0,0E0,0E0,0E0,0E0,0E0,0E0,0E0,0E0,0E0,0E0,0E0,0E0,0E0],"parents":[2147483647,0,0,1,1,2,2,4,4,5,5,6,6,7,7,8,8,10,10,11,11,12,12,16,16,17,17,18,18,19,19,20,20,21,21,22,22],"right_children":[2,4,6,-1,8,10,12,14,16,-1,18,20,22,-1,-1,-1,24,26,28,30,32,34,36,-1,-1,-1,-1,-1,-1,-1,-1,-1,-1,-1,-1,-1,-1],"split_conditions":[2.4204254E-3,-1.32195465E-2,-2.744659E-2,2.1974827E-4,1.4005959E-1,1.6680509E-1,1.8525133E-2,7.334113E-2,2.199371E-2,1.7060793E-4,1.7336465E-1,-5.7682466E-2,1.3264962E-2,1.7144857E-4,-1.7080142E-4,-4.8316552E-4,1.7336465E-1,1.3264962E-2,1E0,7.334113E-2,7.334113E-2,4.2515588E-1,1E0,-1.7098835E-4,1.02726044E-4,1.7112416E-4,-2.1982793E-4,-7.323169E-5,-4.4966585E-4,-1.0279503E-4,1.0253721E-4,1.3897133E-4,4.547408E-4,1.7063941E-4,-2.7633173E-4,3.0722166E-4,2.4156156E-5],"split_indices":[1216,2469,2944,0,64,28,2881,47,2314,0,188,2307,208,0,0,0,11,61,17,4,135,164,0,0,0,0,0,0,0,0,0,0,0,0,0,0,0],"split_type":[0,0,0,0,0,0,0,0,0,0,0,0,0,0,0,0,0,0,0,0,0,0,0,0,0,0,0,0,0,0,0,0,0,0,0,0,0],"sum_hessian":[8.274912E1,1.94997E1,6.3249428E1,7.4999696E-1,1.8749702E1,9.749875E0,5.3499554E1,9.9999547E-1,1.7749708E1,4.9999335E-1,9.249882E0,1.9249723E1,3.424983E1,4.9999878E-1,4.9999672E-1,1.6999708E1,7.4999905E-1,1.2499982E0,7.999883E0,4.99999E-1,1.8749723E1,8.249974E0,2.5999855E1,4.9999902E-1,2.5E-1,4.9999982E-1,7.4999845E-1,7.499987E-1,7.249884E0,2.4999993E-1,2.4999905E-1,1.7499788E0,1.6999744E1,2.749987E0,5.4999876E0,1.6499905E1,9.49995E0],"tree_param":{"num_deleted":"0","num_feature":"3072","num_nodes":"37","size_leaf_vector":"0"}},{"base_weights":[6.527403E-2,-1.0892452E0,8.393294E-1,1.1962498E0,-1.3267506E0,-9.152958E-1,1.1993521E0,-1.0263415E-4,3.6584964E-4,-1.540431E0,6.652433E-1,4.6156484E-1,-1.423799E0,-1.9929413E-1,1.3488729E0,-1.6319321E0,4.993411E-1,-5.005803E-1,3.265006E-4,-4.979863E-1,2.8493063E-4,1.02305814E-4,-1.5502955E0,-3.078141E-4,5.7133317E-1,1.742579E0,8.8188887E-1,4.0172097E-7,-4.348491E-4,-1.0266916E-4,2.1990895E-4,1.024704E-4,-2.2013047E-4,1.0283453E-4,-2.1962954E-4,-7.305819E-5,-4.2664626E-4,-1.2800819E-4,3.0784617E-4,7.277787E-5,4.5839013E-4,3.7071662E-4,-1.4430015E-4],"categories":[],"categories_nodes":[],"categories_segments":[],"categories_sizes":[],"default_left":[false,false,false,false,false,false,false,false,false,false,false,false,false,false,false,false,false,false,false,false,false,false,false,false,false,false,false,false,false,false,false,false,false,false,false,false,false,false,false,false,false,false,false],"id":20,"left_children":[1,3,5,7,9,11,13,-1,-1,15,17,19,21,23,25,27,29,31,-1,33,-1,-1,35,-1,37,39,41,-1,-1,-1,-1,-1,-1,-1,-1,-1,-1,-1,-1,-1,-1,-1,-1],"loss_changes":[7.6204346E1,2.0178352E1,3.3314392E1,1.9346056E0,1.4432541E1,7.133398E0,9.208897E0,0E0,0E0,6.1807327E0,3.28552E0,2.5726118E0,2.2309418E0,4.53461E0,5.5875244E0,2.7733536E0,9.839431E-1,9.832787E-1,0E0,9.840299E-1,0E0,0E0,4.7442245E-1,0E0,2.9457898E0,7.239075E-1,1.6820246E1,0E0,0E0,0E0,0E0,0E0,0E0,0E0,0E0,0E0,0E0,0E0,0E0,0E0,0E0,0E0,0E0],"parents":[2147483647,0,0,1,1,2,2,3,3,4,4,5,5,6,6,9,9,10,10,11,11,12,12,13,13,14,14,15,15,16,16,17,17,19,19,22,22,24,24,25,25,26,26],"right_children":[2,4,6,8,10,12,14,-1,-1,16,18,20,22,24,26,28,30,32,-1,34,-1,-1,36,-1,38,40,42,-1,-1,-1,-1,-1,-1,-1,-1,-1,-1,-1,-1,-1,-1,-1,-1],"split_conditions":[6.817627E-2,-6.378174E-3,-6.2449137E-3,2.3089382E-1,1.4122094E-2,1.3264962E-2,-1.7572904E-2,-1.0263415E-4,3.6584964E-4,4.3738283E-2,6.145835E-1,3.1313293E-2,1E0,1.7336465E-1,1.7250406E-2,1E0,1.7336465E-1,3.1313293E-2,3.265006E-4,1.3264962E-2,2.8493063E-4,1.02305814E-4,1.6769115E-2,-3.078141E-4,1E0,1.5966251E-2,9.2665887E-1,4.0172097E-7,-4.348491E-4,-1.0266916E-4,2.1990895E-4,1.024704E-4,-2.2013047E-4,1.0283453E-4,-2.1962954E-4,-7.305819E-5,-4.2664626E-4,-1.2800819E-4,3.0784617E-4,7.277787E-5,4.5839013E-4,3.7071662E-4,-1.4430015E-4],"split_indices":[1142,257,2599,86,2775,43,2412,0,0,2344,35,220,1,210,2818,64,11,2,0,7,0,0,45,0,1,163,188,0,0,0,0,0,0,0,0,0,0,0,0,0,0,0,0],"split_type":[0,0,0,0,0,0,0,0,0,0,0,0,0,0,0,0,0,0,0,0,0,0,0,0,0,0,0,0,0,0,0,0,0,0,0,0,0,0,0,0,0,0,0],"sum_hessian":[8.324899E1,3.32495E1,4.9999493E1,2.7499762E0,3.0499525E1,8.249921E0,4.1749573E1,2.4999976E-1,2.4999762E0,2.774953E1,2.7499933E0,2.24999E0,5.9999313E0,3.9999912E0,3.774958E1,2.6749533E1,9.999989E-1,9.999983E-1,1.749995E0,9.9999547E-1,1.2499946E0,2.4999559E-1,5.7499356E0,1.4999969E0,2.4999943E0,1.8999702E1,1.8749878E1,9.999951E-1,2.5749537E1,2.4999991E-1,7.49999E-1,2.4999832E-1,7.4999994E-1,2.4999976E-1,7.499957E-1,7.4999833E-1,4.9999375E0,9.9999714E-1,1.4999971E0,7.499943E-1,1.8249708E1,1.3499895E1,5.249983E0],"tree_param":{"num_deleted":"0","num_feature":"3072","num_nodes":"43","size_leaf_vector":"0"}},{"base_weights":[1.6026297E-1,-1.4408158E0,7.683852E-1,-1.7526426E0,-3.3017278E-1,-1.2261174E0,1.005198E0,-2.823555E-1,-4.6332224E-4,-3.2557512E-4,3.5408503E-1,1.7089501E-4,-1.4946386E0,1.2897104E0,3.935632E-2,1.0295391E-4,-1.704033E-4,-2.1984844E-4,8.5794437E-1,1.0251738E-4,-4.228644E-4,1.5411917E0,3.5785905E-1,-8.3142114E-1,7.084271E-1,-7.286414E-5,3.2682138E-4,2.1873569E-4,4.454718E-4,-1.9264231E-4,2.4692237E-4,-3.8456626E-4,8.566634E-5,-1.3953805E-4,2.9897923E-4],"categories":[],"categories_nodes":[],"categories_segments":[],"categories_sizes":[],"default_left":[false,false,false,false,false,false,false,false,false,false,false,false,false,false,false,false,false,false,false,false,false,false,false,false,false,false,false,false,false,false,false,false,false,false,false],"id":21,"left_children":[1,3,5,7,9,11,13,15,-1,-1,17,-1,19,21,23,-1,-1,-1,25,-1,-1,27,29,31,33,-1,-1,-1,-1,-1,-1,-1,-1,-1,-1],"loss_changes":[7.680755E1,6.9538345E0,2.8154663E1,7.5333023E-1,4.297487E0,4.295824E0,1.4100975E1,7.2157997E-1,0E0,0E0,3.3255675E0,0E0,2.3814917E0,8.763504E0,8.017269E0,0E0,0E0,0E0,2.0172615E0,0E0,0E0,2.653267E0,7.2402496E0,5.1535845E0,5.0523405E0,0E0,0E0,0E0,0E0,0E0,0E0,0E0,0E0,0E0,0E0],"parents":[2147483647,0,0,1,1,2,2,3,3,4,4,5,5,6,6,7,7,10,10,12,12,13,13,14,14,18,18,21,21,22,22,23,23,24,24],"right_children":[2,4,6,8,10,12,14,16,-1,-1,18,-1,20,22,24,-1,-1,-1,26,-1,-1,28,30,32,34,-1,-1,-1,-1,-1,-1,-1,-1,-1,-1],"split_conditions":[2.4204254E-3,1.89655E-2,-1.2716495E-2,1.7336465E-1,4.667629E-1,1.5966251E-2,7.1972595E-3,1.4005959E-1,-4.6332224E-4,-3.2557512E-4,1.7336465E-1,1.7089501E-4,1.6769115E-2,3.4912564E-2,9.933472E-3,1.0295391E-4,-1.704033E-4,-2.1984844E-4,7.334113E-2,1.0251738E-4,-4.228644E-4,7.334113E-2,1.3264962E-2,6.145835E-1,1E0,-7.286414E-5,3.2682138E-4,2.1873569E-4,4.454718E-4,-1.9264231E-4,2.4692237E-4,-3.8456626E-4,8.566634E-5,-1.3953805E-4,2.9897923E-4],"split_indices":[1216,3007,2672,192,225,79,3068,3,0,0,11,0,0,3057,651,0,0,0,104,0,0,14,87,35,1,0,0,0,0,0,0,0,0,0,0],"split_type":[0,0,0,0,0,0,0,0,0,0,0,0,0,0,0,0,0,0,0,0,0,0,0,0,0,0,0,0,0,0,0,0,0,0,0],"sum_hessian":[7.674901E1,2.0749622E1,5.599939E1,1.5749664E1,4.9999576E0,5.499926E0,5.0499462E1,7.4998724E-1,1.4999677E1,1.7499715E0,3.2499862E0,4.999981E-1,4.999928E0,3.874952E1,1.1749946E1,2.4999887E-1,4.9998838E-1,7.4999845E-1,2.4999878E0,2.4999885E-1,4.7499294E0,2.9999554E1,8.749963E0,4.99997E0,6.7499757E0,7.499921E-1,1.7499958E0,7.7499104E0,2.2249643E1,2.9999886E0,5.7499747E0,2.9999814E0,1.9999886E0,1.7499942E0,4.9999814E0],"tree_param":{"num_deleted":"0","num_feature":"3072","num_nodes":"35","size_leaf_vector":"0"}},{"base_weights":[8.613185E-2,6.923597E-1,-1.2798003E0,-7.7642816E-1,1.1800888E0,-1.675508E0,-6.6262305E-2,3.6404854E-1,-1.3126463E0,1.4926391E0,2.48289E-1,1.02547245E-4,-1.7244666E0,8.5737264E-1,-7.32889E-1,-2.5624712E-4,8.88361E-1,4.9976188E-1,-1.5626128E0,9.938529E-1,4.8139595E-4,-7.9899794E-1,8.7180966E-1,1.8281589E-3,-4.5508996E-4,-1.7074443E-4,3.4228317E-4,4.0141717E-1,-3.5442476E-4,-5.7293855E-5,3.5559098E-4,-1.0250496E-4,2.199151E-4,-4.2473062E-7,-4.4989082E-4,-2.8583853E-4,3.204994E-4,1.7089315E-4,-2.8498285E-4,-3.437323E-5,3.6576088E-4,1.02948616E-4,-1.0238532E-4,-1.7055379E-4,2.567909E-4],"categories":[],"categories_nodes":[],"categories_segments":[],"categories_sizes":[],"default_left":[false,false,false,false,false,false,false,false,false,false,false,false,false,false,false,false,false,false,false,false,false,false,false,false,false,false,false,false,false,false,false,false,false,false,false,false,false,false,false,false,false,false,false,false,false],"id":22,"left_children":[1,3,5,7,9,11,13,15,17,19,21,-1,23,25,27,-1,29,31,33,35,-1,37,39,41,-1,-1,-1,43,-1,-1,-1,-1,-1,-1,-1,-1,-1,-1,-1,-1,-1,-1,-1,-1,-1],"loss_changes":[6.795851E1,4.1569805E1,1.2013969E1,9.498072E0,1.2152309E1,2.6184425E0,5.0922947E0,4.8131375E0,5.4245567E0,4.2286377E0,8.5325985E0,0E0,1.5373383E0,3.4180176E0,4.040123E0,0E0,2.790091E0,9.82535E-1,2.7261353E0,9.950124E0,0E0,3.0121436E0,4.6335254E0,3.9945185E-1,0E0,0E0,0E0,2.2577734E0,0E0,0E0,0E0,0E0,0E0,0E0,0E0,0E0,0E0,0E0,0E0,0E0,0E0,0E0,0E0,0E0,0E0],"parents":[2147483647,0,0,1,1,2,2,3,3,4,4,5,5,6,6,7,7,8,8,9,9,10,10,12,12,13,13,14,14,16,16,17,17,18,18,19,19,21,21,22,22,23,23,27,27],"right_children":[2,4,6,8,10,12,14,16,18,20,22,-1,24,26,28,-1,30,32,34,36,-1,38,40,42,-1,-1,-1,44,-1,-1,-1,-1,-1,-1,-1,-1,-1,-1,-1,-1,-1,-1,-1,-1,-1],"split_conditions":[-2.3834229E-2,-6.2449137E-3,1.9530755E-2,1.3264962E-2,2.998049E-2,-1.13370866E-1,1.4005959E-1,2.4102546E-1,3.1313293E-2,4.7282616E-4,3.1313293E-2,1.02547245E-4,1.4005959E-1,1.3264962E-2,1.4005959E-1,-2.5624712E-4,3.1313293E-2,2.72728E-1,-6.378174E-3,7.27272E-1,4.8139595E-4,1.6680509E-1,1.3264962E-2,1.4005959E-1,-4.5508996E-4,-1.7074443E-4,3.4228317E-4,3.1313293E-2,-3.5442476E-4,-5.7293855E-5,3.5559098E-4,-1.0250496E-4,2.199151E-4,-4.2473062E-7,-4.4989082E-4,-2.8583853E-4,3.204994E-4,1.7089315E-4,-2.8498285E-4,-3.437323E-5,3.6576088E-4,1.02948616E-4,-1.0238532E-4,-1.7055379E-4,2.567909E-4],"split_indices":[1110,2599,2500,7,2547,2305,171,75,198,2962,220,0,64,254,147,0,73,10,257,137,0,28,199,3,0,0,0,44,0,0,0,0,0,0,0,0,0,0,0,0,0,0,0,0,0],"split_type":[0,0,0,0,0,0,0,0,0,0,0,0,0,0,0,0,0,0,0,0,0,0,0,0,0,0,0,0,0,0,0,0,0,0,0,0,0,0,0,0,0,0,0,0,0],"sum_hessian":[7.999888E1,5.5749336E1,2.424954E1,1.3749879E1,4.1999454E1,1.7999594E1,6.2499475E0,4.4999866E0,9.249892E0,3.0999512E1,1.0999944E1,2.4999915E-1,1.7749594E1,2.4999886E0,3.7499588E0,9.999934E-1,3.4999933E0,9.999963E-1,8.249896E0,1.4999812E1,1.59997E1,3.9999907E0,6.9999533E0,4.99996E-1,1.7249598E1,4.9999422E-1,1.9999944E0,1.4999883E0,2.2499704E0,1.2499962E0,2.2499971E0,2.4999872E-1,7.499976E-1,9.999944E-1,7.249902E0,1.2499955E0,1.3749817E1,4.999973E-1,3.4999936E0,2.7499883E0,4.2499647E0,2.4999893E-1,2.4999706E-1,4.9999222E-1,9.999961E-1],"tree_param":{"num_deleted":"0","num_feature":"3072","num_nodes":"45","size_leaf_vector":"0"}},{"base_weights":[-3.0063936E-2,6.799554E-1,-1.576251E0,1.0258603E0,-8.409657E-1,1.7071136E-4,-1.6449101E0,-5.972311E-1,1.1888409E0,3.161366E-1,-1.4616724E0,1.8655406E-3,-1.7108569E0,1.5504225E-1,-3.259612E-4,6.768614E-1,1.6697055E0,-9.072145E-1,3.4215557E-4,1.7098781E-4,-4.388761E-4,-1.707615E-4,1.7140002E-4,-4.740518E-4,-8.5207325E-1,-2.1973763E-4,2.0558429E-4,-1.8709296E-4,2.7309798E-4,4.5031047E-4,-7.3709394E-5,-3.0758427E-4,1.0254334E-4,1.2897374E-4,-3.3103678E-4],"categories":[],"categories_nodes":[],"categories_segments":[],"categories_sizes":[],"default_left":[false,false,false,false,false,false,false,false,false,false,false,false,false,false,false,false,false,false,false,false,false,false,false,false,false,false,false,false,false,false,false,false,false,false,false],"id":23,"left_children":[1,3,5,7,9,-1,11,13,15,17,19,21,23,25,-1,27,29,31,-1,-1,-1,-1,-1,-1,33,-1,-1,-1,-1,-1,-1,-1,-1,-1,-1],"loss_changes":[9.2464096E1,3.1244276E1,5.170456E0,1.3275131E1,8.542011E0,0E0,2.8267212E0,2.7239306E0,9.579079E0,7.112568E0,5.0795364E0,1.3310304E0,1.3220749E0,2.8044806E0,0E0,1.3128722E1,4.0587616E0,1.5212581E0,0E0,0E0,0E0,0E0,0E0,0E0,3.7526622E0,0E0,0E0,0E0,0E0,0E0,0E0,0E0,0E0,0E0,0E0],"parents":[2147483647,0,0,1,1,2,2,3,3,4,4,6,6,7,7,8,8,9,9,10,10,11,11,12,12,13,13,15,15,16,16,17,17,24,24],"right_children":[2,4,6,8,10,-1,12,14,16,18,20,22,24,26,-1,28,30,32,-1,-1,-1,-1,-1,-1,34,-1,-1,-1,-1,-1,-1,-1,-1,-1,-1],"split_conditions":[-2.3834229E-2,3.590373E-2,-2.889621E-2,-6.1809834E-2,1.3264962E-2,1.7071136E-4,1.4005959E-1,2.4102546E-1,-9.303859E-2,3.1313293E-2,3.1313293E-2,3.1313293E-2,6.6981497E-3,1E0,-3.259612E-4,3.1313293E-2,8.557962E-2,3.1313293E-2,3.4215557E-4,1.7098781E-4,-4.388761E-4,-1.707615E-4,1.7140002E-4,-4.740518E-4,7.334113E-2,-2.1973763E-4,2.0558429E-4,-1.8709296E-4,2.7309798E-4,4.5031047E-4,-7.3709394E-5,-3.0758427E-4,1.0254334E-4,1.2897374E-4,-3.3103678E-4],"split_indices":[1110,3057,2663,2882,7,0,64,42,2688,198,184,6,2412,1,0,110,2423,62,0,0,0,0,0,0,4,0,0,0,0,0,0,0,0,0,0],"split_type":[0,0,0,0,0,0,0,0,0,0,0,0,0,0,0,0,0,0,0,0,0,0,0,0,0,0,0,0,0,0,0,0,0,0,0],"sum_hessian":[8.22487E1,5.674929E1,2.5499413E1,4.649938E1,1.0249909E1,4.999954E-1,2.4999416E1,3.9999738E0,4.2499405E1,3.7499855E0,6.4999237E0,9.99995E-1,2.3999422E1,2.2499921E0,1.7499816E0,2.174983E1,2.0749577E1,1.7499901E0,1.9999955E0,4.9999648E-1,5.999927E0,4.99996E-1,4.99999E-1,1.9749474E1,4.2499495E0,7.499973E-1,1.4999949E0,4.4999866E0,1.7249844E1,1.9999578E1,7.4999785E-1,1.499991E0,2.499991E-1,9.9999416E-1,3.2499554E0],"tree_param":{"num_deleted":"0","num_feature":"3072","num_nodes":"35","size_leaf_vector":"0"}},{"base_weights":[7.650462E-2,9.203693E-1,-1.120144E0,1.1576039E0,-7.1076417E-1,6.647789E-1,-1.60176E0,6.0976094E-1,1.7913823E0,4.0049258E-1,-3.9144178E-4,-7.9801774E-1,1.1080726E0,-1.6998727E0,2.1966996E-4,-1.1999998E0,8.842893E-1,-1.7139493E-4,4.8508556E-4,-3.9855635E-1,2.851793E-4,1.02625985E-4,-2.847535E-4,-4.9668851E-1,1.4735421E0,2.2313875E-1,-1.7999473E0,-1.9326129E-7,-3.555388E-4,-1.2782894E-4,2.882868E-4,-2.197439E-4,7.3506446E-5,4.6744717E-7,-1.7056157E-4,-1.0258084E-4,4.189857E-4,2.200405E-4,-1.7074692E-4,1.4483393E-7,-4.7128848E-4],"categories":[],"categories_nodes":[],"categories_segments":[],"categories_sizes":[],"default_left":[false,false,false,false,false,false,false,false,false,false,false,false,false,false,false,false,false,false,false,false,false,false,false,false,false,false,false,false,false,false,false,false,false,false,false,false,false,false,false,false,false],"id":24,"left_children":[1,3,5,7,9,11,13,15,17,19,-1,21,23,25,-1,27,29,-1,-1,31,-1,-1,-1,33,35,37,39,-1,-1,-1,-1,-1,-1,-1,-1,-1,-1,-1,-1,-1,-1],"loss_changes":[8.6610825E1,2.0267319E1,3.1581654E1,1.4271549E1,6.936733E0,6.2339115E0,8.263794E0,1.3606007E1,6.0432205E0,2.5694952E0,0E0,1.3730645E0,4.6906643E0,5.693733E0,0E0,8.2764053E-1,7.96332E0,0E0,0E0,1.0271823E0,0E0,0E0,0E0,1.6808999E-1,2.3503923E0,1.8353153E0,1.6544495E0,0E0,0E0,0E0,0E0,0E0,0E0,0E0,0E0,0E0,0E0,0E0,0E0,0E0,0E0],"parents":[2147483647,0,0,1,1,2,2,3,3,4,4,5,5,6,6,7,7,8,8,9,9,11,11,12,12,13,13,15,15,16,16,19,19,23,23,24,24,25,25,26,26],"right_children":[2,4,6,8,10,12,14,16,18,20,-1,22,24,26,-1,28,30,-1,-1,32,-1,-1,-1,34,36,38,40,-1,-1,-1,-1,-1,-1,-1,-1,-1,-1,-1,-1,-1,-1],"split_conditions":[-1.9973755E-2,1.63875E-2,-1.15137756E-1,1.5579224E-2,1.7336465E-1,1.3264962E-2,1.4122094E-2,3.1313293E-2,1.7336465E-1,3.2654077E-1,-3.9144178E-4,3.1313293E-2,-1.9965032E-2,1.4005959E-1,2.1966996E-4,2.4102546E-1,1.619852E-3,-1.7139493E-4,4.8508556E-4,2.0794167E-1,2.851793E-4,1.02625985E-4,-2.847535E-4,2.4102546E-1,1E0,3.1313293E-2,2.3089382E-1,-1.9326129E-7,-3.555388E-4,-1.2782894E-4,2.882868E-4,-2.197439E-4,7.3506446E-5,4.6744717E-7,-1.7056157E-4,-1.0258084E-4,4.189857E-4,2.200405E-4,-1.7074692E-4,1.4483393E-7,-4.7128848E-4],"split_indices":[592,2827,2853,1105,126,208,2775,110,97,190,0,51,2312,64,0,226,2361,0,0,229,0,0,0,42,1,220,86,0,0,0,0,0,0,0,0,0,0,0,0,0,0],"split_type":[0,0,0,0,0,0,0,0,0,0,0,0,0,0,0,0,0,0,0,0,0,0,0,0,0,0,0,0,0,0,0,0,0,0,0,0,0,0,0,0,0],"sum_hessian":[8.374854E1,4.9249302E1,3.449924E1,4.3249355E1,5.9999456E0,7.249921E0,2.7249321E1,2.4249771E1,1.8999586E1,2.7499924E0,3.2499535E0,1.4999923E0,5.7499285E0,2.6499327E1,7.4999547E-1,2.7499926E0,2.1499779E1,4.9999952E-1,1.8499586E1,1.4999948E0,1.2499975E0,2.499997E-1,1.2499926E0,9.999864E-1,4.749942E0,1.2499926E0,2.5249334E1,4.9999756E-1,2.249995E0,2.999981E0,1.8499798E1,7.4999714E-1,7.4999756E-1,4.9999434E-1,4.9999207E-1,2.499994E-1,4.4999423E0,7.4999684E-1,4.9999577E-1,4.9999508E-1,2.4749338E1],"tree_param":{"num_deleted":"0","num_feature":"3072","num_nodes":"41","size_leaf_vector":"0"}},{"base_weights":[-1.1150597E-4,-1.4030596E0,5.863636E-1,5.447924E-1,-1.5695277E0,-4.064445E-1,1.2193638E0,-1.7081884E-4,2.8489975E-4,1.7114788E-4,-1.6462735E0,1.166425E0,-1.009011E0,6.7725945E-1,1.8164943E0,-2.2116198E-1,-1.7171947E0,-2.2311884E-1,1.4931037E0,-1.492942E0,-6.885812E-2,1.5797949E0,1.9588506E-1,4.9496713E-1,4.7961727E-4,1.7116936E-4,-2.197503E-4,-4.7989897E-4,-2.7457485E-4,1.7077819E-4,-2.200607E-4,4.1851017E-4,-5.6583343E-7,-4.3261124E-4,-1.17987634E-4,1.350014E-4,-2.1985054E-4,-1.02935526E-4,4.386317E-4,-3.2722135E-4,1.2487093E-4,-1.0325192E-4,2.1904147E-4],"categories":[],"categories_nodes":[],"categories_segments":[],"categories_sizes":[],"default_left":[false,false,false,false,false,false,false,false,false,false,false,false,false,false,false,false,false,false,false,false,false,false,false,false,false,false,false,false,false,false,false,false,false,false,false,false,false,false,false,false,false,false,false],"id":25,"left_children":[1,3,5,7,9,11,13,-1,-1,-1,15,17,19,21,23,25,27,29,31,33,35,37,39,41,-1,-1,-1,-1,-1,-1,-1,-1,-1,-1,-1,-1,-1,-1,-1,-1,-1,-1,-1],"loss_changes":[7.11703E1,9.123375E0,3.883031E1,2.6157024E0,5.172264E0,2.4396706E1,1.09085655E1,0E0,0E0,0E0,1.970047E0,3.6241188E0,8.200281E0,8.922674E0,2.3521423E-1,1.8371916E0,1.5937805E-1,1.8358154E0,1.2267752E0,1.6001244E0,3.8423417E0,2.5222206E0,7.0198474E0,9.8480517E-1,0E0,0E0,0E0,0E0,0E0,0E0,0E0,0E0,0E0,0E0,0E0,0E0,0E0,0E0,0E0,0E0,0E0,0E0,0E0],"parents":[2147483647,0,0,1,1,2,2,3,3,4,4,5,5,6,6,10,10,11,11,12,12,13,13,14,14,15,15,16,16,17,17,18,18,19,19,20,20,21,21,22,22,23,23],"right_children":[2,4,6,8,10,12,14,-1,-1,-1,16,18,20,22,24,26,28,30,32,34,36,38,40,42,-1,-1,-1,-1,-1,-1,-1,-1,-1,-1,-1,-1,-1,-1,-1,-1,-1,-1,-1],"split_conditions":[2.4204254E-3,-5.4624017E-2,-1.8321693E-2,3.1313293E-2,-7.9904184E-2,-5.676205E-3,-1.2595214E-2,-1.7081884E-4,2.8489975E-4,1.7114788E-4,-4.626283E-2,-3.1036377E-2,3.1973243E-2,7.9205835E-1,1E0,2.4102546E-1,1.4215252E-2,1.6680509E-1,3.745458E-3,3.3203125E-2,3.1313293E-2,2.4463859E-1,1E0,1E0,4.7961727E-4,1.7116936E-4,-2.197503E-4,-4.7989897E-4,-2.7457485E-4,1.7077819E-4,-2.200607E-4,4.1851017E-4,-5.6583343E-7,-4.3261124E-4,-1.17987634E-4,1.350014E-4,-2.1985054E-4,-1.02935526E-4,4.386317E-4,-3.2722135E-4,1.2487093E-4,-1.0325192E-4,2.1904147E-4],"split_indices":[1216,2662,2569,51,2832,2889,2385,0,0,0,2454,262,3058,166,56,42,266,5,2311,342,51,106,153,1,0,0,0,0,0,0,0,0,0,0,0,0,0,0,0,0,0,0,0],"split_type":[0,0,0,0,0,0,0,0,0,0,0,0,0,0,0,0,0,0,0,0,0,0,0,0,0,0,0,0,0,0,0,0,0,0,0,0,0,0,0,0,0,0,0],"sum_hessian":[8.449842E1,2.449938E1,5.999904E1,1.7499915E0,2.2749388E1,2.349967E1,3.6499367E1,4.9999714E-1,1.2499944E0,4.9999964E-1,2.2249388E1,6.2498994E0,1.7249771E1,2.0249798E1,1.624957E1,1.2499962E0,2.0999392E1,1.2499948E0,4.9999046E0,1.0999798E1,6.249974E0,6.2499113E0,1.39998865E1,9.9997425E-1,1.5249596E1,4.9999934E-1,7.499968E-1,1.5499523E1,5.499869E0,4.9999648E-1,7.499983E-1,4.49991E0,4.9999446E-1,8.74981E0,2.2499876E0,3.7499819E0,2.499992E0,2.4999906E-1,5.9999123E0,1.7499961E0,1.2249891E1,2.4999373E-1,7.499805E-1],"tree_param":{"num_deleted":"0","num_feature":"3072","num_nodes":"43","size_leaf_vector":"0"}},{"base_weights":[-6.924033E-2,6.97469E-1,-1.5236982E0,1.0452794E0,-1.151612E0,1.3623084E-1,-1.6962156E0,-2.0698681E-1,1.2354274E0,5.005696E-1,-1.4048806E0,3.0793672E-4,-2.8383973E-4,-1.7586302E0,-2.2112682E-1,7.4719E-1,-1.0563331E0,8.298862E-1,1.7615643E0,2.201506E-4,-1.0250286E-4,1.7135544E-4,-1.617782E0,-2.8423542E-1,-4.600483E-4,1.7115472E-4,-2.1972616E-4,-1.2866844E-4,3.4165967E-4,1.02541155E-4,-3.203125E-4,-9.349521E-5,2.82487E-4,4.7951762E-4,5.5832854E-5,1.0270304E-4,-4.4548462E-4,-1.7078404E-4,1.0273531E-4],"categories":[],"categories_nodes":[],"categories_segments":[],"categories_sizes":[],"default_left":[false,false,false,false,false,false,false,false,false,false,false,false,false,false,false,false,false,false,false,false,false,false,false,false,false,false,false,false,false,false,false,false,false,false,false,false,false,false,false],"id":26,"left_children":[1,3,5,7,9,11,13,15,17,19,21,-1,-1,23,25,27,29,31,33,-1,-1,-1,35,37,-1,-1,-1,-1,-1,-1,-1,-1,-1,-1,-1,-1,-1,-1,-1],"loss_changes":[9.6963394E1,3.7861565E1,8.821838E0,1.1804161E1,4.6784153E0,6.2718015E0,2.1198654E0,6.6648493E0,7.5528336E0,9.83661E-1,4.8289566E0,0E0,0E0,7.381668E-1,1.8368309E0,3.5772746E0,1.6781063E0,8.699619E0,2.4424973E0,0E0,0E0,0E0,2.576931E0,7.218207E-1,0E0,0E0,0E0,0E0,0E0,0E0,0E0,0E0,0E0,0E0,0E0,0E0,0E0,0E0,0E0],"parents":[2147483647,0,0,1,1,2,2,3,3,4,4,5,5,6,6,7,7,8,8,9,9,10,10,13,13,14,14,15,15,16,16,17,17,18,18,22,22,23,23],"right_children":[2,4,6,8,10,12,14,16,18,20,22,-1,-1,24,26,28,30,32,34,-1,-1,-1,36,38,-1,-1,-1,-1,-1,-1,-1,-1,-1,-1,-1,-1,-1,-1,-1],"split_conditions":[-2.3834229E-2,5.9415042E-2,1E0,-6.5761924E-2,1.3264962E-2,7.334113E-2,6.394551E-2,7.27272E-1,-1.2595214E-2,1.7336465E-1,4.2515588E-1,3.0793672E-4,-2.8383973E-4,-1.575975E-2,2.4102546E-1,3.1313293E-2,5.7798244E-2,2.72728E-1,8.216858E-3,2.201506E-4,-1.0250286E-4,1.7135544E-4,1.4005959E-1,1.7336465E-1,-4.600483E-4,1.7115472E-4,-2.1972616E-4,-1.2866844E-4,3.4165967E-4,1.02541155E-4,-3.203125E-4,-9.349521E-5,2.82487E-4,4.7951762E-4,5.5832854E-5,1.0270304E-4,-4.4548462E-4,-1.7078404E-4,1.0273531E-4],"split_indices":[1110,2802,175,2619,254,4,2730,253,2385,11,242,0,0,2334,42,52,65,10,260,0,0,0,3,11,0,0,0,0,0,0,0,0,0,0,0,0,0,0,0],"split_type":[0,0,0,0,0,0,0,0,0,0,0,0,0,0,0,0,0,0,0,0,0,0,0,0,0,0,0,0,0,0,0,0,0,0,0,0,0,0,0],"sum_hessian":[8.499827E1,5.599911E1,2.8999155E1,4.749925E1,8.499861E0,2.749955E0,2.62492E1,6.24997E0,4.124928E1,9.9999815E-1,7.499862E0,1.499992E0,1.2499629E0,2.4999205E1,1.2499958E0,2.9999864E0,3.2499838E0,2.4749743E1,1.6499537E1,7.499994E-1,2.4999872E-1,4.999997E-1,6.9998627E0,7.4999666E-1,2.4249208E1,4.9999928E-1,7.4999654E-1,9.9999833E-1,1.999988E0,2.4999909E-1,2.9999845E0,4.4999757E0,2.0249767E1,1.5249561E1,1.2499753E0,2.4999997E-1,6.7498627E0,4.9999663E-1,2.5E-1],"tree_param":{"num_deleted":"0","num_feature":"3072","num_nodes":"39","size_leaf_vector":"0"}},{"base_weights":[-2.3667112E-2,7.8859556E-1,-1.169392E0,1.1493651E0,-9.1523117E-1,8.5346663E-1,-1.4742553E0,1.5255728E0,7.094732E-1,-3.7234262E-4,-1.03701934E-1,-2.5623472E-4,3.9136715E-4,-1.5830522E0,3.9921778E-1,1.5619953E0,-1.3796908E-3,1.2798145E0,-3.773036E-1,2.562488E-4,-6.634575E-1,1.3093731E-3,-1.6679779E0,-1.7100759E-4,2.5642588E-4,2.6270628E-4,4.55098E-4,-1.02871505E-4,1.024464E-4,3.8085328E-4,3.905538E-5,-3.422666E-4,4.1923682E-5,7.353356E-5,-2.5589997E-4,1.286198E-4,-1.7093253E-4,-4.5727767E-4,-2.0415316E-4],"categories":[],"categories_nodes":[],"categories_segments":[],"categories_sizes":[],"default_left":[false,false,false,false,false,false,false,false,false,false,false,false,false,false,false,false,false,false,false,false,false,false,false,false,false,false,false,false,false,false,false,false,false,false,false,false,false,false,false],"id":27,"left_children":[1,3,5,7,9,11,13,15,17,-1,19,-1,-1,21,23,25,27,29,31,-1,33,35,37,-1,-1,-1,-1,-1,-1,-1,-1,-1,-1,-1,-1,-1,-1,-1,-1],"loss_changes":[7.909341E1,3.163218E1,2.2996166E1,5.7853928E0,3.8616343E0,8.034202E0,6.95047E0,1.1978531E0,1.3499251E1,0E0,3.590322E0,0E0,0E0,3.9713821E0,2.2600205E0,5.6417465E-1,3.993906E-1,2.9797668E0,4.348393E0,0E0,1.4707927E0,1.1659058E0,1.3327255E0,0E0,0E0,0E0,0E0,0E0,0E0,0E0,0E0,0E0,0E0,0E0,0E0,0E0,0E0,0E0,0E0],"parents":[2147483647,0,0,1,1,2,2,3,3,4,4,5,5,6,6,7,7,8,8,10,10,13,13,14,14,15,15,16,16,17,17,18,18,20,20,21,21,22,22],"right_children":[2,4,6,8,10,12,14,16,18,-1,20,-1,-1,22,24,26,28,30,32,-1,34,36,38,-1,-1,-1,-1,-1,-1,-1,-1,-1,-1,-1,-1,-1,-1,-1,-1],"split_conditions":[-2.6870728E-2,2.731479E-2,-9.252049E-2,2.4770305E-2,4.667629E-1,7.5536144E-1,1.4122094E-2,4.7963664E-2,9.2665887E-1,-3.7234262E-4,1.6680509E-1,-2.5623472E-4,3.9136715E-4,0E0,1.4005959E-1,1.3819296E-2,1E0,1.2772327E-2,4.367118E-1,2.562488E-4,4.2515588E-1,5.7798244E-2,1.1999127E-2,-1.7100759E-4,2.5642588E-4,2.6270628E-4,4.55098E-4,-1.02871505E-4,1.024464E-4,3.8085328E-4,3.905538E-5,-3.422666E-4,4.1923682E-5,7.353356E-5,-2.5589997E-4,1.286198E-4,-1.7093253E-4,-4.5727767E-4,-2.0415316E-4],"split_indices":[1110,2716,2467,2991,225,245,2775,2323,188,0,243,0,0,258,3,2402,1,256,217,0,242,30,2432,0,0,0,0,0,0,0,0,0,0,0,0,0,0,0,0],"split_type":[0,0,0,0,0,0,0,0,0,0,0,0,0,0,0,0,0,0,0,0,0,0,0,0,0,0,0,0,0,0,0,0,0,0,0,0,0,0,0],"sum_hessian":[8.299822E1,4.8749165E1,3.4249058E1,4.049925E1,8.249917E0,4.249941E0,2.9999119E1,2.0499468E1,1.999978E1,4.4999495E0,3.7499676E0,9.999941E-1,3.2499468E0,2.8499126E1,1.4999914E0,1.999947E1,4.9999756E-1,1.2999833E1,6.9999475E0,9.9999225E-1,2.7499752E0,1.499996E0,2.699913E1,4.9999696E-1,9.9999446E-1,7.249843E0,1.2749627E1,2.4999957E-1,2.49998E-1,1.0749849E1,2.2499843E0,1.99999E0,4.9999576E0,7.4999547E-1,1.9999799E0,9.9999774E-1,4.9999827E-1,2.2999184E1,3.9999466E0],"tree_param":{"num_deleted":"0","num_feature":"3072","num_nodes":"39","size_leaf_vector":"0"}},{"base_weights":[-2.7933339E-2,9.3298703E-1,-1.1970664E0,1.1834502E0,-8.100438E-1,-1.4592097E0,7.244865E-1,5.4078586E-2,1.4284817E0,-1.3937916E0,5.4586333E-1,-1.6260437E0,3.980152E-1,-7.969862E-1,3.8379777E-4,-3.4616706E-1,3.0645775E-4,1.5785524E0,1.973552E-1,1.0250154E-4,-4.038011E-4,-2.8405774E-1,2.5661424E-4,1.8297124E-1,-1.733206E0,9.06212E-1,-4.997589E-1,1.0275363E-4,-2.8453025E-4,1.9613659E-4,-2.5640722E-4,4.1277788E-4,-1.02368474E-4,3.0719777E-4,-1.4701304E-4,1.0278175E-4,-1.7076959E-4,-2.1932437E-4,2.5652614E-4,-4.5239634E-4,-7.0584804E-8,-1.0244482E-4,3.0725184E-4,1.0265292E-4,-2.2001998E-4],"categories":[],"categories_nodes":[],"categories_segments":[],"categories_sizes":[],"default_left":[false,false,false,false,false,false,false,false,false,false,false,false,false,false,false,false,false,false,false,false,false,false,false,false,false,false,false,false,false,false,false,false,false,false,false,false,false,false,false,false,false,false,false,false,false],"id":28,"left_children":[1,3,5,7,9,11,13,15,17,19,21,23,25,27,-1,29,-1,31,33,-1,-1,35,-1,37,39,41,43,-1,-1,-1,-1,-1,-1,-1,-1,-1,-1,-1,-1,-1,-1,-1,-1,-1,-1],"loss_changes":[1.00258446E2,2.2349934E1,2.1331429E1,1.1891159E1,6.103429E0,1.172393E1,7.632656E0,4.4022703E0,6.2471695E0,2.2264833E0,1.3182418E0,6.7142487E0,2.1638012E0,1.3733368E0,0E0,6.0095015E0,0E0,2.4199142E0,4.5282836E0,0E0,0E0,7.220656E-1,0E0,3.1790717E0,1.5249634E0,1.5181253E0,9.843408E-1,0E0,0E0,0E0,0E0,0E0,0E0,0E0,0E0,0E0,0E0,0E0,0E0,0E0,0E0,0E0,0E0,0E0,0E0],"parents":[2147483647,0,0,1,1,2,2,3,3,4,4,5,5,6,6,7,7,8,8,9,9,10,10,11,11,12,12,13,13,15,15,17,17,18,18,21,21,23,23,24,24,25,25,26,26],"right_children":[2,4,6,8,10,12,14,16,18,20,22,24,26,28,-1,30,-1,32,34,-1,-1,36,-1,38,40,42,44,-1,-1,-1,-1,-1,-1,-1,-1,-1,-1,-1,-1,-1,-1,-1,-1,-1,-1],"split_conditions":[-2.2491455E-2,2.9988852E-3,2.3794586E-2,2.3089382E-1,7.334113E-2,3.5033803E-2,-3.1591073E-2,-1.8959178E-2,3.6981985E-2,4.2515588E-1,1.3264962E-2,1.4005959E-1,2.4102546E-1,2.72728E-1,3.8379777E-4,7.27272E-1,3.0645775E-4,3.9113916E-2,1.6680509E-1,1.0250154E-4,-4.038011E-4,8.2663536E-1,2.5661424E-4,2.4102546E-1,4.671771E-2,1.3264962E-2,6.8326354E-1,1.0275363E-4,-2.8453025E-4,1.9613659E-4,-2.5640722E-4,4.1277788E-4,-1.02368474E-4,3.0719777E-4,-1.4701304E-4,1.0278175E-4,-1.7076959E-4,-2.1932437E-4,2.5652614E-4,-4.5239634E-4,-7.0584804E-8,-1.0244482E-4,3.0725184E-4,1.0265292E-4,-2.2001998E-4],"split_indices":[592,2780,3007,179,120,2489,265,2322,2321,16,99,64,215,13,0,207,0,2329,5,0,0,63,0,155,2344,9,15,0,0,0,0,0,0,0,0,0,0,0,0,0,0,0,0,0,0],"split_type":[0,0,0,0,0,0,0,0,0,0,0,0,0,0,0,0,0,0,0,0,0,0,0,0,0,0,0,0,0,0,0,0,0,0,0,0,0,0,0,0,0,0,0,0,0],"sum_hessian":[8.724794E1,4.7999073E1,3.9248863E1,4.224916E1,5.7499146E0,3.474893E1,4.4999313E0,7.749897E0,3.4499264E1,3.9999208E0,1.7499938E0,3.1998951E1,2.749981E0,1.4999882E0,2.9999433E0,6.249946E0,1.499951E0,3.0499287E1,3.9999752E0,2.4999869E-1,3.7499223E0,7.499952E-1,9.999986E-1,1.7499802E0,3.024897E1,1.7499821E0,9.999989E-1,2.5E-1,1.2499882E0,2.249961E0,3.9999852E0,3.024929E1,2.499968E-1,1.4999831E0,2.499992E0,2.4999997E-1,4.9999517E-1,7.499889E-1,9.999913E-1,2.9748972E1,4.9999893E-1,2.4999797E-1,1.4999841E0,2.4999984E-1,7.4999905E-1],"tree_param":{"num_deleted":"0","num_feature":"3072","num_nodes":"45","size_leaf_vector":"0"}},{"base_weights":[1.7508546E-2,-1.2116367E0,7.1710896E-1,-1.6296734E0,-1.0503144E-1,-9.710298E-1,1.1110166E0,4.001403E-1,-1.7956963E0,-1.2444103E0,6.122812E-1,-1.3609312E0,2.8426736E-4,1.4590703E0,1.865989E-1,-1.7070606E-4,2.564955E-4,-2.1676236E-4,-4.7259554E-4,1.02732214E-4,-3.7517026E-4,-2.5203013E-1,3.6603506E-4,1.0281851E-4,-1.4518118E0,-4.209076E-3,1.5567641E0,-7.824084E-1,8.201527E-1,1.0256967E-4,-1.0263644E-4,3.8862418E-5,-2.2013158E-4,1.0253026E-4,-3.9748588E-4,2.557382E-4,-2.5735795E-4,4.2015142E-4,4.5830202E-5,1.2796985E-4,-2.9714382E-4,-2.1992056E-4,2.8069565E-4],"categories":[],"categories_nodes":[],"categories_segments":[],"categories_sizes":[],"default_left":[false,false,false,false,false,false,false,false,false,false,false,false,false,false,false,false,false,false,false,false,false,false,false,false,false,false,false,false,false,false,false,false,false,false,false,false,false,false,false,false,false,false,false],"id":29,"left_children":[1,3,5,7,9,11,13,15,17,19,21,23,-1,25,27,-1,-1,29,-1,-1,-1,31,-1,-1,33,35,37,39,41,-1,-1,-1,-1,-1,-1,-1,-1,-1,-1,-1,-1,-1,-1],"loss_changes":[7.2884605E1,1.4053421E1,3.698648E1,8.216412E0,8.526103E0,1.0215081E1,1.3964733E1,2.2569187E0,1.6508713E0,2.0069013E0,4.9257593E0,2.101757E0,0E0,4.5809326E0,8.776045E0,0E0,0E0,3.9895713E-1,0E0,0E0,0E0,1.1058174E0,0E0,0E0,2.257574E0,3.9907935E0,2.9774704E0,3.33414E0,4.821793E0,0E0,0E0,0E0,0E0,0E0,0E0,0E0,0E0,0E0,0E0,0E0,0E0,0E0,0E0],"parents":[2147483647,0,0,1,1,2,2,3,3,4,4,5,5,6,6,7,7,8,8,9,9,10,10,11,11,13,13,14,14,17,17,21,21,24,24,25,25,26,26,27,27,28,28],"right_children":[2,4,6,8,10,12,14,16,18,20,22,24,-1,26,28,-1,-1,30,-1,-1,-1,32,-1,-1,34,36,38,40,42,-1,-1,-1,-1,-1,-1,-1,-1,-1,-1,-1,-1,-1,-1],"split_conditions":[6.817627E-2,2.09198E-2,-6.2449137E-3,-5.5595376E-2,5.7798244E-2,-1.4014341E-2,6.824763E-2,1.7336465E-1,-6.016388E-4,1.6769115E-2,-1.5764738E-2,1.3264962E-2,2.8426736E-4,2.4463859E-1,2.4102546E-1,-1.7070606E-4,2.564955E-4,3.1313293E-2,-4.7259554E-4,1.02732214E-4,-3.7517026E-4,3.1313293E-2,3.6603506E-4,1.0281851E-4,6.145835E-1,3.1313293E-2,1.3755798E-2,7.6910615E-1,7.5536144E-1,1.0256967E-4,-1.0263644E-4,3.8862418E-5,-2.2013158E-4,1.0253026E-4,-3.9748588E-4,2.557382E-4,-2.5735795E-4,4.2015142E-4,4.5830202E-5,1.2796985E-4,-2.9714382E-4,-2.1992056E-4,2.8069565E-4],"split_indices":[1142,609,2599,2662,222,2643,3035,11,2329,113,2373,254,0,106,238,0,0,6,0,0,0,130,0,0,115,83,293,24,176,0,0,0,0,0,0,0,0,0,0,0,0,0,0],"split_type":[0,0,0,0,0,0,0,0,0,0,0,0,0,0,0,0,0,0,0,0,0,0,0,0,0,0,0,0,0,0,0,0,0,0,0,0,0,0,0,0,0,0,0],"sum_hessian":[8.274794E1,2.9749107E1,5.2998833E1,2.1249216E1,8.49989E0,9.749795E0,4.324904E1,1.4999921E0,1.9749226E1,2.9999497E0,5.499941E0,8.499816E0,1.2499791E0,3.0999146E1,1.2249893E1,4.9999535E-1,9.999968E-1,4.999991E-1,1.9249226E1,2.5E-1,2.7499497E0,2.999983E0,2.499958E0,2.4999982E-1,8.249816E0,1.9999753E0,2.899917E1,4.749966E0,7.4999266E0,2.4999933E-1,2.4999976E-1,2.2499862E0,7.499967E-1,2.4999899E-1,7.999817E0,9.999804E-1,9.999949E-1,2.724919E1,1.7499818E0,9.999867E-1,3.7499795E0,7.4999785E-1,6.749929E0],"tree_param":{"num_deleted":"0","num_feature":"3072","num_nodes":"43","size_leaf_vector":"0"}},{"base_weights":[-2.9927526E-2,9.464519E-1,-1.3241694E0,1.2525754E0,-4.1793114E-1,-1.6052389E0,4.33635E-1,-9.916096E-2,1.4195497E0,7.490624E-1,-1.0717891E0,4.990736E-1,-1.6913038E0,-6.653174E-1,1.1971542E0,1.0702282E0,-3.4235267E-4,1.5324371E0,-1.547646E-1,-2.8378302E-1,1.0747291E0,1.0258047E-4,-1.1945403E0,2.1966093E-4,-1.024319E-4,1.7138262E-4,-1.753375E0,1.701854E-4,-3.0716797E-4,-1.0278676E-4,3.6615296E-4,3.2528397E-4,-7.806121E-7,4.125594E-4,-8.917916E-7,2.5632986E-4,-2.852653E-4,-1.7077097E-4,1.02882375E-4,3.4179073E-4,-1.0260308E-4,1.0244856E-4,-3.4093627E-4,-1.4647044E-4,-4.7284516E-4],"categories":[],"categories_nodes":[],"categories_segments":[],"categories_sizes":[],"default_left":[false,false,false,false,false,false,false,false,false,false,false,false,false,false,false,false,false,false,false,false,false,false,false,false,false,false,false,false,false,false,false,false,false,false,false,false,false,false,false,false,false,false,false,false,false],"id":30,"left_children":[1,3,5,7,9,11,13,15,17,19,21,23,25,27,29,31,-1,33,35,37,39,-1,41,-1,-1,-1,43,-1,-1,-1,-1,-1,-1,-1,-1,-1,-1,-1,-1,-1,-1,-1,-1,-1,-1],"loss_changes":[1.05819244E2,2.0466782E1,1.8481846E1,8.999481E0,8.051722E0,6.5034866E0,5.621098E0,9.000901E0,6.4572144E0,1.6504378E0,1.6509008E0,9.806608E-1,5.5983887E0,2.9062815E0,1.9388652E0,6.883595E-1,0E0,3.719513E0,4.6897035E0,7.22742E-1,1.7581902E0,0E0,1.8527212E0,0E0,0E0,0E0,2.0338898E0,0E0,0E0,0E0,0E0,0E0,0E0,0E0,0E0,0E0,0E0,0E0,0E0,0E0,0E0,0E0,0E0,0E0,0E0],"parents":[2147483647,0,0,1,1,2,2,3,3,4,4,5,5,6,6,7,7,8,8,9,9,10,10,11,11,12,12,13,13,14,14,15,15,17,17,18,18,19,19,20,20,22,22,26,26],"right_children":[2,4,6,8,10,12,14,16,18,20,22,24,26,28,30,32,-1,34,36,38,40,-1,42,-1,-1,-1,44,-1,-1,-1,-1,-1,-1,-1,-1,-1,-1,-1,-1,-1,-1,-1,-1,-1,-1],"split_conditions":[-2.6870728E-2,2.731479E-2,2.0341002E-3,3.1313293E-2,1.7336465E-1,-1.575975E-2,1.6769115E-2,7.27272E-1,4.2022705E-2,1E0,1.3264962E-2,3.1313293E-2,1.4005959E-1,1.6769115E-2,3.2654077E-1,1.4005959E-1,-3.4235267E-4,2.452665E-6,1.7336465E-1,2.4102546E-1,2.4102546E-1,1.0258047E-4,8.2663536E-1,2.1966093E-4,-1.024319E-4,1.7138262E-4,-1.3700239E-3,1.701854E-4,-3.0716797E-4,-1.0278676E-4,3.6615296E-4,3.2528397E-4,-7.806121E-7,4.125594E-4,-8.917916E-7,2.5632986E-4,-2.852653E-4,-1.7077097E-4,1.02882375E-4,3.4179073E-4,-1.0260308E-4,1.0244856E-4,-3.4093627E-4,-1.4647044E-4,-4.7284516E-4],"split_indices":[1110,2716,2710,165,126,2334,26,207,621,1,254,44,64,0,129,240,0,2338,126,42,24,0,63,0,0,0,2304,0,0,0,0,0,0,0,0,0,0,0,0,0,0,0,0,0,0],"split_type":[0,0,0,0,0,0,0,0,0,0,0,0,0,0,0,0,0,0,0,0,0,0,0,0,0,0,0,0,0,0,0,0,0,0,0,0,0,0,0,0,0,0,0,0,0],"sum_hessian":[8.174777E1,4.674896E1,3.4998814E1,3.8249054E1,8.499905E0,3.0248873E1,4.7499413E0,4.2499366E0,3.399912E1,2.9999843E0,5.4999204E0,9.999919E-1,2.9248882E1,1.9999623E0,2.7499788E0,2.2499454E0,1.9999914E0,3.1749125E1,2.2499936E0,7.499959E-1,2.2499886E0,2.4999942E-1,5.249921E0,7.499941E-1,2.4999778E-1,4.999981E-1,2.8748882E1,4.9998134E-1,1.4999809E0,2.4999994E-1,2.4999788E0,1.7499559E0,4.9998945E-1,3.0249138E1,1.4999864E0,9.9999577E-1,1.2499979E0,4.9999642E-1,2.499995E-1,1.9999889E0,2.4999958E-1,2.4999803E-1,4.9999228E0,2.499983E0,2.62489E1],"tree_param":{"num_deleted":"0","num_feature":"3072","num_nodes":"45","size_leaf_vector":"0"}},{"base_weights":[1.15006985E-2,7.840605E-1,-1.0810702E0,1.5608433E0,2.3698126E-1,9.5131284E-1,-1.4177479E0,4.5360715E-4,2.4705169E-1,-6.0536814E-1,6.924075E-1,-1.7081575E-4,1.2319349E0,-1.5296146E0,2.5608236E-4,9.0631145E-1,-6.6851E-1,2.2331296E-1,-9.958326E-1,1.2779046E0,-4.545957E-1,-5.479463E-4,3.9093106E-4,4.0183538E-1,-1.6433773E0,2.8471867E-4,-3.1591736E-7,-2.572207E-4,1.02489845E-4,-2.0463597E-4,2.56564E-4,3.971647E-5,-3.7830707E-4,-1.2823819E-4,3.7319757E-4,1.4536107E-4,-2.6926506E-4,-1.7104833E-4,1.7086088E-4,2.568421E-4,-1.7044372E-4,7.3372954E-5,-4.3784096E-4],"categories":[],"categories_nodes":[],"categories_segments":[],"categories_sizes":[],"default_left":[false,false,false,false,false,false,false,false,false,false,false,false,false,false,false,false,false,false,false,false,false,false,false,false,false,false,false,false,false,false,false,false,false,false,false,false,false,false,false,false,false,false,false],"id":31,"left_children":[1,3,5,7,9,11,13,-1,15,17,19,-1,21,23,-1,25,27,29,31,33,35,37,-1,39,41,-1,-1,-1,-1,-1,-1,-1,-1,-1,-1,-1,-1,-1,-1,-1,-1,-1,-1],"loss_changes":[7.385817E1,2.140891E1,2.6152199E1,5.2261734E0,1.2407357E1,3.427411E0,1.0033997E1,0E0,3.0202405E0,3.9434047E0,1.4515712E1,0E0,1.878098E0,7.361786E0,0E0,5.0605536E-1,1.1993922E0,4.356043E0,4.6186357E0,5.082386E0,5.2895703E0,1.3290712E0,0E0,2.2568781E0,3.917694E0,0E0,0E0,0E0,0E0,0E0,0E0,0E0,0E0,0E0,0E0,0E0,0E0,0E0,0E0,0E0,0E0,0E0,0E0],"parents":[2147483647,0,0,1,1,2,2,3,3,4,4,5,5,6,6,8,8,9,9,10,10,12,12,13,13,15,15,16,16,17,17,18,18,19,19,20,20,21,21,23,23,24,24],"right_children":[2,4,6,8,10,12,14,-1,16,18,20,-1,22,24,-1,26,28,30,32,34,36,38,-1,40,42,-1,-1,-1,-1,-1,-1,-1,-1,-1,-1,-1,-1,-1,-1,-1,-1,-1,-1],"split_conditions":[-2.2491455E-2,2.0943135E-2,-9.2018366E-2,1.02910526E-4,2.0471761E-2,1.8223609E-1,1.4872136E-2,4.5360715E-4,1.5966251E-2,1.6769115E-2,9.2665887E-1,-1.7081575E-4,2.4102546E-1,1E0,2.5608236E-4,1.6769115E-2,1.6769115E-2,1.5966251E-2,2.72728E-1,-1.3023376E-2,3.1313293E-2,1.3264962E-2,3.9093106E-4,1.6769115E-2,-2.669756E-2,2.8471867E-4,-3.1591736E-7,-2.572207E-4,1.02489845E-4,-2.0463597E-4,2.56564E-4,3.971647E-5,-3.7830707E-4,-1.2823819E-4,3.7319757E-4,1.4536107E-4,-2.6926506E-4,-1.7104833E-4,1.7086088E-4,2.568421E-4,-1.7044372E-4,7.3372954E-5,-4.3784096E-4],"split_indices":[592,2739,2467,2333,2862,121,2775,0,78,26,188,0,27,64,0,0,0,78,140,268,73,7,0,0,2794,0,0,0,0,0,0,0,0,0,0,0,0,0,0,0,0,0,0],"split_type":[0,0,0,0,0,0,0,0,0,0,0,0,0,0,0,0,0,0,0,0,0,0,0,0,0,0,0,0,0,0,0,0,0,0,0,0,0,0,0,0,0,0,0],"sum_hessian":[8.549757E1,5.0248844E1,3.5248722E1,1.9999315E1,3.024953E1,4.74991E0,3.0498812E1,1.699933E1,2.9999835E0,1.049988E1,1.9749651E1,4.9999684E-1,4.249913E0,2.9498823E1,9.999894E-1,1.749989E0,1.2499945E0,3.4999774E0,6.9999027E0,1.2999716E1,6.749935E0,9.9999714E-1,3.249916E0,1.4999871E0,2.7998837E1,1.2499918E0,4.9999726E-1,9.99996E-1,2.4999855E-1,1.4999876E0,1.9999896E0,2.2499933E0,4.7499094E0,9.9998856E-1,1.1999727E1,2.499955E0,4.24998E0,4.9999943E-1,4.9999768E-1,9.999976E-1,4.9998945E-1,7.4999344E-1,2.7248842E1],"tree_param":{"num_deleted":"0","num_feature":"3072","num_nodes":"43","size_leaf_vector":"0"}},{"base_weights":[-1.160897E-2,6.945306E-1,-1.5243751E0,-5.4147166E-1,1.1372205E0,2.844768E-4,-1.6887752E0,1.0733637E0,-8.717715E-1,1.5884117E0,5.315244E-1,-1.7589581E0,1.7085884E-4,-1.0241054E-4,3.4133074E-4,9.076671E-1,-1.1935102E0,1.661753E0,-1.7167315E-4,-1.0592725E0,8.92652E-1,-5.649772E-1,-4.7794633E-4,-1.0239712E-4,3.076389E-4,-1.1798126E-4,-4.3784958E-4,-1.305773E-6,4.450823E-4,7.270767E-5,-3.6671944E-4,-1.2866476E-4,3.1365623E-4,2.2051805E-4,-3.250186E-4],"categories":[],"categories_nodes":[],"categories_segments":[],"categories_sizes":[],"default_left":[false,false,false,false,false,false,false,false,false,false,false,false,false,false,false,false,false,false,false,false,false,false,false,false,false,false,false,false,false,false,false,false,false,false,false],"id":32,"left_children":[1,3,5,7,9,-1,11,13,15,17,19,21,-1,-1,-1,23,25,27,-1,29,31,33,-1,-1,-1,-1,-1,-1,-1,-1,-1,-1,-1,-1,-1],"loss_changes":[9.3991356E1,3.3444885E1,1.3985451E1,9.736344E0,1.1316559E1,0E0,5.589302E0,1.7526748E0,9.241495E0,5.248493E0,1.2722239E1,2.1421204E0,0E0,0E0,0E0,1.5197039E0,3.9083652E0,2.9141312E0,0E0,2.5066218E0,8.509789E0,4.576401E0,0E0,0E0,0E0,0E0,0E0,0E0,0E0,0E0,0E0,0E0,0E0,0E0,0E0],"parents":[2147483647,0,0,1,1,2,2,3,3,4,4,6,6,7,7,8,8,9,9,10,10,11,11,15,15,16,16,17,17,19,19,20,20,21,21],"right_children":[2,4,6,8,10,-1,12,14,16,18,20,22,-1,-1,-1,24,26,28,-1,30,32,34,-1,-1,-1,-1,-1,-1,-1,-1,-1,-1,-1,-1,-1],"split_conditions":[-2.3834229E-2,-1.1691422E-2,-1.32195465E-2,4.2515588E-1,-1.3618469E-2,2.844768E-4,4.2037815E-2,2.4102546E-1,1.3264962E-2,5.2304734E-2,1.3264962E-2,7.5536144E-1,1.7085884E-4,-1.0241054E-4,3.4133074E-4,1.4005959E-1,1.4968291E-2,2.0794167E-1,-1.7167315E-4,1.8223609E-1,7.27272E-1,2.3089382E-1,-4.7794633E-4,-1.0239712E-4,3.076389E-4,-1.1798126E-4,-4.3784958E-4,-1.305773E-6,4.450823E-4,7.270767E-5,-3.6671944E-4,-1.2866476E-4,3.1365623E-4,2.2051805E-4,-3.250186E-4],"split_indices":[1110,2788,2469,0,900,0,2489,142,168,3017,61,205,0,0,0,171,2304,177,0,121,137,65,0,0,0,0,0,0,0,0,0,0,0,0,0],"split_type":[0,0,0,0,0,0,0,0,0,0,0,0,0,0,0,0,0,0,0,0,0,0,0,0,0,0,0,0,0,0,0,0,0,0,0],"sum_hessian":[8.599733E1,5.899849E1,2.699884E1,1.5499716E1,4.349877E1,1.2499858E0,2.5748854E1,2.249967E0,1.3249749E1,2.3999075E1,1.9499697E1,2.5248857E1,4.9999687E-1,2.4999747E-1,1.9999696E0,1.7499849E0,1.1499764E1,2.3499079E1,4.9999607E-1,3.2499886E0,1.6249708E1,2.499933E0,2.2748924E1,2.4999727E-1,1.4999876E0,5.499971E0,5.999793E0,9.999672E-1,2.2499111E1,7.4999243E-1,2.4999962E0,2.9999816E0,1.3249727E1,7.49994E-1,1.749939E0],"tree_param":{"num_deleted":"0","num_feature":"3072","num_nodes":"35","size_leaf_vector":"0"}},{"base_weights":[7.5607255E-2,9.9773854E-1,-1.1903089E0,1.2904013E0,-7.5454426E-1,-1.4754674E0,5.425944E-1,-3.3407208E-1,1.3846934E0,1.1825983E-1,-3.8353537E-4,-1.5982714E0,2.560234E-4,-5.447861E-1,1.1953183E0,2.1947449E-4,-2.851066E-4,1.4297673E0,-1.7086475E-4,-6.6388977E-1,2.847269E-4,2.2476806E-1,-1.6909994E0,2.8434289E-1,-2.5629703E-4,-1.0240086E-4,3.6551015E-4,4.1660573E-4,2.149738E-4,-2.845904E-4,7.3589836E-5,-1.7038836E-4,2.2027009E-4,-5.6578036E-5,-4.5046117E-4,-1.0235541E-4,1.704998E-4],"categories":[],"categories_nodes":[],"categories_segments":[],"categories_sizes":[],"default_left":[false,false,false,false,false,false,false,false,false,false,false,false,false,false,false,false,false,false,false,false,false,false,false,false,false,false,false,false,false,false,false,false,false,false,false,false,false],"id":33,"left_children":[1,3,5,7,9,11,13,15,17,19,-1,21,-1,23,25,-1,-1,27,-1,29,-1,31,33,35,-1,-1,-1,-1,-1,-1,-1,-1,-1,-1,-1,-1,-1],"loss_changes":[9.340448E1,2.4691292E1,1.7477558E1,6.5893936E0,4.8510685E0,1.0473255E1,4.5548153E0,3.715442E0,4.462204E0,4.02786E0,0E0,5.1554413E0,0E0,1.3168231E0,1.9288669E0,0E0,0E0,2.9160461E0,0E0,1.5838197E0,0E0,1.8335717E0,2.1089478E0,7.180285E-1,0E0,0E0,0E0,0E0,0E0,0E0,0E0,0E0,0E0,0E0,0E0,0E0,0E0],"parents":[2147483647,0,0,1,1,2,2,3,3,4,4,5,5,6,6,7,7,8,8,9,9,11,11,13,13,14,14,17,17,19,19,21,21,22,22,23,23],"right_children":[2,4,6,8,10,12,14,16,18,20,-1,22,-1,24,26,-1,-1,28,-1,30,-1,32,34,36,-1,-1,-1,-1,-1,-1,-1,-1,-1,-1,-1,-1,-1],"split_conditions":[-2.6870728E-2,2.731479E-2,1.2719168E-3,7.5536144E-1,-4.234138E-3,1.4872136E-2,2.4102546E-1,6.8326354E-1,5.9274756E-3,2.3089382E-1,-3.8353537E-4,1.4005959E-1,2.560234E-4,5.332371E-1,3.1313293E-2,2.1947449E-4,-2.851066E-4,1.1191145E-3,-1.7086475E-4,3.1313293E-2,2.847269E-4,7.334113E-2,-1.8066406E-2,1.6680509E-1,-2.5629703E-4,-1.0240086E-4,3.6551015E-4,4.1660573E-4,2.149738E-4,-2.845904E-4,7.3589836E-5,-1.7038836E-4,2.2027009E-4,-5.6578036E-5,-4.5046117E-4,-1.0235541E-4,1.704998E-4],"split_indices":[1110,2716,2520,176,2347,2775,226,23,2437,179,0,64,0,103,6,0,0,2347,0,40,0,14,260,5,0,0,0,0,0,0,0,0,0,0,0,0,0],"split_type":[0,0,0,0,0,0,0,0,0,0,0,0,0,0,0,0,0,0,0,0,0,0,0,0,0,0,0,0,0,0,0,0,0,0,0,0,0],"sum_hessian":[7.799737E1,4.5248703E1,3.2748665E1,3.8998787E1,6.249913E0,2.8248741E1,4.499924E0,1.9999789E0,3.699881E1,3.2499788E0,2.9999342E0,2.7248753E1,9.999879E-1,1.749979E0,2.7499452E0,7.4998707E-1,1.2499919E0,3.6498814E1,4.9999714E-1,1.9999877E0,1.249991E0,1.2499859E0,2.5998766E1,7.499847E-1,9.999944E-1,2.4999732E-1,2.4999478E0,2.6249016E1,1.0249796E1,1.2499899E0,7.4999785E-1,4.9998793E-1,7.4999803E-1,1.2499914E0,2.4748775E1,2.4999653E-1,4.9998817E-1],"tree_param":{"num_deleted":"0","num_feature":"3072","num_nodes":"37","size_leaf_vector":"0"}},{"base_weights":[6.389236E-2,7.8692615E-1,-1.3969961E0,1.0252485E0,-1.3504387E0,2.8623325E-1,-1.5682147E0,