{"learner":{"attributes":{"best_iteration":"40","best_ntree_limit":"41","best_score":"0.989916"},"feature_names":[],"feature_types":[],"gradient_booster":{"model":{"gbtree_model_param":{"num_trees":"50","size_leaf_vector":"0"},"tree_info":[0,0,0,0,0,0,0,0,0,0,0,0,0,0,0,0,0,0,0,0,0,0,0,0,0,0,0,0,0,0,0,0,0,0,0,0,0,0,0,0,0,0,0,0,0,0,0,0,0,0],"trees":[{"base_weights":[3.2432433E-2,-9.350649E-1,7.090909E-1,-1.240876E0,1.2380953E0,-9.62963E-1,9.2385787E-1,-1.4957983E0,3.6363637E-1,6.081129E-4,-2.857143E-1,1.8181819E-1,-1.4E0,-4.6511628E-2,1.164557E0,-3.3333334E-1,-1.7171717E0,-8E-1,1E0,1.563719E-4,-2.6061982E-4,-3.3508262E-4,3.9092972E-4,1.563719E-4,-6.172575E-4,-1.2E0,5E-1,1.2751678E0,-4.6153846E-1,-1E0,6.666667E-1,-5.4545456E-1,-6.9687475E-4,1.563719E-4,-4.3436637E-4,-2.6061982E-4,5.584711E-4,1.563719E-4,-5.584711E-4,9.0909094E-1,-2.857143E-1,-2.6061982E-4,1.3197279E0,-3.9092972E-4,2.2222222E-1,2.6061982E-4,-5.584711E-4,-2.857143E-1,4.3436637E-4,-4.3436637E-4,2.6061982E-4,-5E-1,1.3333334E0,3.3508262E-4,-9.0909094E-1,-2.6061982E-4,1.3655173E0,3.3508262E-4,-2.6061982E-4,-2.6061982E-4,1.563719E-4,1.563719E-4,-3.3508262E-4,-0E0,5.8639457E-4,1.563719E-4,-4.6911568E-4,1.68E0,9.72973E-1,1.563719E-4,-1.563719E-4,2.857143E-1,1.7222222E0,-8E-1,1.1764706E0,-1.563719E-4,2.6061982E-4,5E-1,6.89876E-4,1.563719E-4,-4.3436637E-4,-0E0,1.3333334E0,-1.563719E-4,3.3508262E-4,3.9092972E-4,-3.9092972E-4,1.86157E-4,6.363972E-4],"categories":[],"categories_nodes":[],"categories_segments":[],"categories_sizes":[],"default_left":[false,false,false,false,false,false,false,false,false,false,false,false,false,false,false,false,false,false,false,false,false,false,false,false,false,false,false,false,false,false,false,false,false,false,false,false,false,false,false,false,false,false,false,false,false,false,false,false,false,false,false,false,false,false,false,false,false,false,false,false,false,false,false,false,false,false,false,false,false,false,false,false,false,false,false,false,false,false,false,false,false,false,false,false,false,false,false,false,false],"id":0,"left_children":[1,3,5,7,9,11,13,15,17,-1,19,21,23,25,27,29,31,33,35,-1,-1,-1,-1,-1,-1,37,39,41,43,45,47,49,-1,-1,-1,-1,-1,-1,-1,51,53,-1,55,-1,57,-1,-1,59,-1,-1,-1,61,63,-1,65,-1,67,-1,-1,-1,-1,-1,-1,69,-1,-1,-1,71,73,-1,-1,75,77,79,81,-1,-1,83,-1,-1,-1,85,87,-1,-1,-1,-1,-1,-1],"loss_changes":[6.1219585E1,2.7122505E1,2.0640247E1,1.4553074E1,2.984128E0,3.63165E0,1.1557343E1,7.083435E0,4.8727274E0,0E0,7.2380954E-1,3.1948051E0,2.2421045E0,7.3767443E0,7.6931534E0,4.666667E0,9.253464E-1,1.3777777E0,3.8095236E0,0E0,0E0,0E0,0E0,0E0,0E0,1.9428568E0,2.8311687E0,4.1030006E0,1.4188035E0,3.8095236E0,1.5873014E0,2.6262627E0,0E0,0E0,0E0,0E0,0E0,0E0,0E0,3.9545455E0,3.2727273E0,0E0,4.25296E0,0E0,1.8412697E0,0E0,0E0,7.2380954E-1,0E0,0E0,0E0,9.857143E-1,1E0,0E0,1.5272727E0,0E0,2.8404083E0,0E0,0E0,0E0,0E0,0E0,0E0,4E-1,0E0,0E0,0E0,6.1174774E-1,7.615898E0,0E0,0E0,7.2380954E-1,5.2288055E-2,1.3777777E0,3.1372547E0,0E0,0E0,9.857143E-1,0E0,0E0,0E0,4E0,3.0121822E0,0E0,0E0,0E0,0E0,0E0,0E0],"parents":[2147483647,0,0,1,1,2,2,3,3,4,4,5,5,6,6,7,7,8,8,10,10,11,11,12,12,13,13,14,14,15,15,16,16,17,17,18,18,25,25,26,26,27,27,28,28,29,29,30,30,31,31,39,39,40,40,42,42,44,44,47,47,51,51,52,52,54,54,56,56,63,63,67,67,68,68,71,71,72,72,73,73,74,74,77,77,81,81,82,82],"right_children":[2,4,6,8,10,12,14,16,18,-1,20,22,24,26,28,30,32,34,36,-1,-1,-1,-1,-1,-1,38,40,42,44,46,48,50,-1,-1,-1,-1,-1,-1,-1,52,54,-1,56,-1,58,-1,-1,60,-1,-1,-1,62,64,-1,66,-1,68,-1,-1,-1,-1,-1,-1,70,-1,-1,-1,72,74,-1,-1,76,78,80,82,-1,-1,84,-1,-1,-1,86,88,-1,-1,-1,-1,-1,-1],"split_conditions":[8.98242E-5,3.388717E-2,-8.789988E-2,9.18366E-2,3.866577E-2,1.8343478E-1,-4.9663592E-2,-5.3322837E-2,1E0,6.081129E-4,1E0,1E0,1.8343478E-1,1E0,-3.289795E-2,1E0,-1.38574755E-2,1E0,1E0,1.563719E-4,-2.6061982E-4,-3.3508262E-4,3.9092972E-4,1.563719E-4,-6.172575E-4,1E0,-4.0985107E-2,0E0,7.79691E-1,1E0,7.79691E-1,1E0,-6.9687475E-4,1.563719E-4,-4.3436637E-4,-2.6061982E-4,5.584711E-4,1.563719E-4,-5.584711E-4,1E0,1E0,-2.6061982E-4,-2.7954102E-2,-3.9092972E-4,1E0,2.6061982E-4,-5.584711E-4,8.165652E-1,4.3436637E-4,-4.3436637E-4,2.6061982E-4,2.20309E-1,1E0,3.3508262E-4,1E0,-2.6061982E-4,-5.6419373E-3,3.3508262E-4,-2.6061982E-4,-2.6061982E-4,1.563719E-4,1.563719E-4,-3.3508262E-4,2.20309E-1,5.8639457E-4,1.563719E-4,-4.6911568E-4,7.79691E-1,1.6956452E-2,1.563719E-4,-1.563719E-4,1E0,-2.0675402E-2,8.165652E-1,7.79691E-1,-1.563719E-4,2.6061982E-4,2.20309E-1,6.89876E-4,1.563719E-4,-4.3436637E-4,1E0,7.79691E-1,-1.563719E-4,3.3508262E-4,3.9092972E-4,-3.9092972E-4,1.86157E-4,6.363972E-4],"split_indices":[730,2869,2763,2593,430,17,2841,2888,5,0,68,78,16,151,740,225,2462,32,68,0,0,0,0,0,0,32,297,1040,8,26,12,32,0,0,0,0,0,0,0,142,175,0,1286,0,159,0,0,40,0,0,0,2,94,0,1,0,594,0,0,0,0,0,0,2,0,0,0,135,2939,0,0,26,2310,129,147,0,0,2,0,0,0,78,37,0,0,0,0,0,0],"split_type":[0,0,0,0,0,0,0,0,0,0,0,0,0,0,0,0,0,0,0,0,0,0,0,0,0,0,0,0,0,0,0,0,0,0,0,0,0,0,0,0,0,0,0,0,0,0,0,0,0,0,0,0,0,0,0,0,0,0,0,0,0,0,0,0,0,0,0,0,0,0,0,0,0,0,0,0,0,0,0,0,0,0,0,0,0,0,0,0,0],"sum_hessian":[9.15E1,3.75E1,5.4E1,3.325E1,4.25E0,5.75E0,4.825E1,2.875E1,4.5E0,3.5E0,7.5E-1,1.75E0,4E0,9.75E0,3.85E1,5E0,2.375E1,1.5E0,3E0,2.5E-1,5E-1,7.5E-1,1E0,2.5E-1,3.75E0,2.75E0,7E0,3.625E1,2.25E0,3E0,2E0,1.75E0,2.2E1,2.5E-1,1.25E0,5E-1,2.5E0,2.5E-1,2.5E0,4.5E0,2.5E0,5E-1,3.575E1,1E0,1.25E0,5E-1,2.5E0,7.5E-1,1.25E0,1.25E0,5E-1,1E0,3.5E0,7.5E-1,1.75E0,5E-1,3.525E1,7.5E-1,5E-1,5E-1,2.5E-1,2.5E-1,7.5E-1,5E-1,3E0,2.5E-1,1.5E0,1.775E1,1.75E1,2.5E-1,2.5E-1,7.5E-1,1.7E1,1.5E0,1.6E1,2.5E-1,5E-1,1E0,1.6E1,2.5E-1,1.25E0,2E0,1.4E1,2.5E-1,7.5E-1,1E0,1E0,4.25E0,9.75E0],"tree_param":{"num_deleted":"0","num_feature":"3072","num_nodes":"89","size_leaf_vector":"0"}},{"base_weights":[6.786225E-2,5.653088E-1,-1.4221476E0,-8.1787103E-1,7.9970354E-1,4.3439234E-4,-1.6081403E0,-1.5709267E0,3.9998108E-1,1.6653898E-1,1.1641654E0,-1.7640896E0,1.816997E-1,1.5642017E-4,-6.658339E-4,-6.666063E-1,5.2120374E-4,1.2936836E0,-4.2420456E-1,2.9989734E-1,1.4093627E0,-4.9995658E-1,-7.0438755E-4,-3.350681E-4,3.9085333E-4,2.6063793E-4,-4.6909822E-4,-2.3643176E-4,6.613942E-4,-1.2589809E0,1.3941818E-1,-4.7617003E-1,9.563245E-1,1.4910197E0,-4.9976057E-1,-3.3957654E-8,-2.6056322E-4,6.6646355E-1,-3.3513896E-4,-6.3955586E-4,2.22136E-1,-1.0768545E0,5.880615E-1,1.3325487E-1,-4.6905287E-4,-2.6054707E-4,1.2378261E0,-2.392769E-4,1.5709171E0,1.5639229E-4,-3.3499024E-4,3.9081022E-4,-1.5632363E-4,3.3502787E-4,-2.6060647E-4,1.5632434E-4,-5.2119076E-4,-3.9084538E-4,9.330788E-1,3.3506157E-4,-3.334E-1,-1.563515E-4,1.3997043E0,3.3496707E-4,-3.3510072E-4,-1.563515E-4,1.6030853E0,-2.1457672E-5,1.2723919E0,-7.9999316E-1,2.6056322E-4,-4.9630802E-5,6.0799095E-4,1.761332E0,9.6743774E-1,3.350516E-4,-6.6663355E-1,2.8544158E-1,1.3681332E0,1.5635966E-4,-4.343566E-4,1.5632821E-4,-1.563515E-4,7.0344494E-4,4.998325E-1,1.285331E0,-3.3500986E-4,1.5632214E-4,-3.9088406E-4,2.605369E-4,-1.5642165E-4,1.1161718E-4,5.862947E-4,-1.5639808E-4,3.350265E-4,6.457165E-4,-8.6911576E-5],"categories":[],"categories_nodes":[],"categories_segments":[],"categories_sizes":[],"default_left":[false,false,false,false,false,false,false,false,false,false,false,false,false,false,false,false,false,false,false,false,false,false,false,false,false,false,false,false,false,false,false,false,false,false,false,false,false,false,false,false,false,false,false,false,false,false,false,false,false,false,false,false,false,false,false,false,false,false,false,false,false,false,false,false,false,false,false,false,false,false,false,false,false,false,false,false,false,false,false,false,false,false,false,false,false,false,false,false,false,false,false,false,false,false,false,false,false],"id":1,"left_children":[1,3,5,7,9,-1,11,13,15,17,19,21,23,-1,-1,25,-1,27,29,31,33,35,-1,-1,-1,-1,-1,37,-1,39,41,43,45,47,49,-1,-1,51,-1,-1,53,55,57,59,-1,-1,61,63,65,-1,-1,-1,-1,-1,-1,-1,-1,-1,67,-1,69,-1,71,-1,-1,-1,73,75,77,79,-1,81,-1,83,85,-1,87,89,91,-1,-1,-1,-1,-1,93,95,-1,-1,-1,-1,-1,-1,-1,-1,-1,-1,-1],"loss_changes":[7.177387E1,2.4159279E1,1.3213047E1,1.0716557E1,1.4228893E1,0E0,6.740391E0,2.5065975E0,5.8657656E0,1.6529268E1,7.948021E0,1.1289215E-1,3.1940303E0,0E0,0E0,2.9333997E0,0E0,4.379554E0,7.938757E0,5.54969E0,5.499901E0,1.6646403E-1,0E0,0E0,0E0,0E0,0E0,2.285537E0,0E0,4.1325417E0,6.4992366E0,2.4752505E0,3.451714E0,3.515236E0,9.855362E-1,0E0,0E0,1.1992633E0,0E0,0E0,1.8408675E0,1.7634609E0,5.589469E0,1.5524312E0,0E0,0E0,1.9516878E0,2.5706804E0,2.4163208E0,0E0,0E0,0E0,0E0,0E0,0E0,0E0,0E0,0E0,2.3746257E0,0E0,1.932883E0,0E0,1.0886602E0,0E0,0E0,0E0,1.0873718E0,2.2853768E0,1.2918377E-1,1.377649E0,0E0,3.9983612E-1,0E0,1.0947418E-1,5.5961843E0,0E0,1.1995049E0,7.237853E-1,2.4859715E-1,0E0,0E0,0E0,0E0,0E0,9.8568565E-1,4.234194E0,0E0,0E0,0E0,0E0,0E0,0E0,0E0,0E0,0E0,0E0,0E0],"parents":[2147483647,0,0,1,1,2,2,3,3,4,4,6,6,7,7,8,8,9,9,10,10,11,11,12,12,15,15,17,17,18,18,19,19,20,20,21,21,27,27,29,29,30,30,31,31,32,32,33,33,34,34,37,37,40,40,41,41,42,42,43,43,46,46,47,47,48,48,58,58,60,60,62,62,66,66,67,67,68,68,69,69,71,71,73,73,74,74,76,76,77,77,78,78,84,84,85,85],"right_children":[2,4,6,8,10,-1,12,14,16,18,20,22,24,-1,-1,26,-1,28,30,32,34,36,-1,-1,-1,-1,-1,38,-1,40,42,44,46,48,50,-1,-1,52,-1,-1,54,56,58,60,-1,-1,62,64,66,-1,-1,-1,-1,-1,-1,-1,-1,-1,68,-1,70,-1,72,-1,-1,-1,74,76,78,80,-1,82,-1,84,86,-1,88,90,92,-1,-1,-1,-1,-1,94,96,-1,-1,-1,-1,-1,-1,-1,-1,-1,-1,-1],"split_conditions":[-3.491211E-2,-4.263934E-2,-4.0883597E-2,2.7888836E-2,3.440857E-3,4.3439234E-4,4.723129E-3,7.79691E-1,1E0,1.8343478E-1,-4.355845E-3,-3.965441E-2,1E0,1.5642017E-4,-6.658339E-4,1E0,5.2120374E-4,1E0,1E0,7.79691E-1,3.161621E-2,1E0,-7.0438755E-4,-3.350681E-4,3.9085333E-4,2.6063793E-4,-4.6909822E-4,1E0,6.613942E-4,-4.484134E-3,1E0,1E0,1E0,1E0,1.7477788E-2,-3.3957654E-8,-2.6056322E-4,7.79691E-1,-3.3513896E-4,-6.3955586E-4,1E0,1.8343478E-1,1E0,7.79691E-1,-4.6905287E-4,-2.6054707E-4,1E0,1E0,1.6159058E-2,1.5639229E-4,-3.3499024E-4,3.9081022E-4,-1.5632363E-4,3.3502787E-4,-2.6060647E-4,1.5632434E-4,-5.2119076E-4,-3.9084538E-4,2.20309E-1,3.3506157E-4,7.79691E-1,-1.563515E-4,1.8343478E-1,3.3496707E-4,-3.3510072E-4,-1.563515E-4,2.394104E-2,-4.5820177E-3,1E0,1E0,2.6056322E-4,1.8343478E-1,6.0799095E-4,4.2440947E-2,0E0,3.350516E-4,-1.2672424E-2,1E0,1E0,1.5635966E-4,-4.343566E-4,1.5632821E-4,-1.563515E-4,7.0344494E-4,1E0,1E0,-3.3500986E-4,1.5632214E-4,-3.9088406E-4,2.605369E-4,-1.5642165E-4,1.1161718E-4,5.862947E-4,-1.5639808E-4,3.350265E-4,6.457165E-4,-8.6911576E-5],"split_indices":[498,2706,2967,2973,1075,0,2710,0,159,164,2700,2366,26,0,0,173,0,14,87,91,430,5,0,0,0,0,0,198,0,2308,225,35,10,90,2304,0,0,0,0,0,26,48,57,28,0,0,46,32,1281,0,0,0,0,0,0,0,0,0,199,0,150,0,164,0,0,0,734,2321,45,141,0,11,0,2314,2307,0,257,159,76,0,0,0,0,0,32,88,0,0,0,0,0,0,0,0,0,0,0],"split_type":[0,0,0,0,0,0,0,0,0,0,0,0,0,0,0,0,0,0,0,0,0,0,0,0,0,0,0,0,0,0,0,0,0,0,0,0,0,0,0,0,0,0,0,0,0,0,0,0,0,0,0,0,0,0,0,0,0,0,0,0,0,0,0,0,0,0,0,0,0,0,0,0,0,0,0,0,0,0,0,0,0,0,0,0,0,0,0,0,0,0,0,0,0,0,0,0,0],"sum_hessian":[9.474999E1,7.149999E1,2.3249998E1,9.999999E0,6.1499996E1,1.2499999E0,2.1999998E1,5.9999995E0,3.9999998E0,2.2999998E1,3.8499996E1,2.0249998E1,1.7499999E0,2.4999997E-1,5.7499995E0,2E0,1.9999999E0,7.4999995E0,1.5499999E1,8.999999E0,2.9499998E1,1E0,1.9249998E1,7.5E-1,9.9999994E-1,5E-1,1.5E0,1.9999999E0,5.4999995E0,5.7499995E0,9.749999E0,4.2499995E0,4.7499995E0,2.8499998E1,9.9999994E-1,5E-1,5E-1,1.2499999E0,7.5E-1,4.4999995E0,1.25E0,2.25E0,7.4999995E0,2.7499998E0,1.4999999E0,4.9999994E-1,4.2499995E0,1.4999999E0,2.6999998E1,2.5E-1,7.4999994E-1,9.999999E-1,2.4999997E-1,7.5E-1,5E-1,2.4999997E-1,2E0,9.9999994E-1,6.4999995E0,7.5E-1,1.9999999E0,2.5E-1,3.9999998E0,7.499999E-1,7.5E-1,2.5E-1,2.6749998E1,1.9999999E0,4.4999995E0,1.4999999E0,4.9999997E-1,5E-1,3.4999998E0,1.9999998E1,6.7499995E0,7.4999994E-1,1.25E0,7.499999E-1,3.7499998E0,2.5E-1,1.2499999E0,2.4999999E-1,2.5E-1,1.8999998E1,1E0,5.9999995E0,7.5E-1,2.4999997E-1,1E0,4.9999994E-1,2.4999997E-1,7.4999994E-1,3E0,2.5E-1,7.5E-1,4.7499995E0,1.2499999E0],"tree_param":{"num_deleted":"0","num_feature":"3072","num_nodes":"97","size_leaf_vector":"0"}},{"base_weights":[-1.3259259E-1,6.9292295E-1,-9.6379685E-1,1.1671704E0,-1.0262329E-1,3.7270626E-1,-1.4919553E0,1.3972452E0,-7.4952495E-1,-5.7314296E-4,2.0875996E-1,6.4561435E-4,-3.9986172E-1,-1.6108606E0,3.3313757E-1,1.5174507E0,-6.6621953E-1,2.2240646E-1,-4.973357E-4,1.3326902E0,-1.8870763E-1,4.7601953E-1,-1.1300383E0,-1.7343569E0,-3.5283095E-1,-5.000548E-1,3.9083633E-4,-3.5494572E-4,1.6723434E0,1.5631213E-4,-3.9069576E-4,3.350965E-4,-2.6052797E-4,-1.5631142E-4,5.976085E-4,-9.227634E-1,4.5130137E-1,-5.453316E-1,1.1425041E0,2.2182794E-1,-6.0783775E-4,-7.096391E-4,-7.496149E-1,-4.6897624E-4,5.453008E-1,1.5627043E-4,-3.350346E-4,-3.908455E-4,7.9933083E-1,1.710205E0,-1.5638964E-4,1.5356302E-1,-5.9762044E-4,-4.6133247E-1,9.0853024E-1,2.6043828E-4,-4.3418654E-4,-1.5638587E-4,5.41144E-4,3.349018E-4,-2.6064005E-4,2.605371E-4,-1.1423264E0,4.3419749E-4,-2.6047672E-4,-1.5643399E-4,4.341102E-4,2.8526953E-1,6.8160257E-4,3.9075367E-4,-6.666753E-1,3.3508203E-4,-4.6901059E-4,-4.0024507E-1,5.8615307E-4,1.562921E-4,-5.4103317E-4,2.604528E-4,-1.5641486E-4,1.5633929E-4,-3.909132E-4,-3.909226E-4,2.6045073E-4],"categories":[],"categories_nodes":[],"categories_segments":[],"categories_sizes":[],"default_left":[false,false,false,false,false,false,false,false,false,false,false,false,false,false,false,false,false,false,false,false,false,false,false,false,false,false,false,false,false,false,false,false,false,false,false,false,false,false,false,false,false,false,false,false,false,false,false,false,false,false,false,false,false,false,false,false,false,false,false,false,false,false,false,false,false,false,false,false,false,false,false,false,false,false,false,false,false,false,false,false,false,false,false],"id":2,"left_children":[1,3,5,7,9,11,13,15,17,-1,19,-1,21,23,25,27,29,31,-1,33,35,37,39,41,43,45,-1,47,49,-1,-1,-1,-1,-1,-1,51,53,55,57,59,-1,-1,61,-1,63,-1,-1,-1,65,67,-1,69,-1,71,73,-1,-1,-1,-1,-1,-1,-1,75,-1,-1,-1,-1,77,-1,-1,79,-1,-1,81,-1,-1,-1,-1,-1,-1,-1,-1,-1],"loss_changes":[6.7912674E1,1.888974E1,3.5320904E1,1.4827988E1,8.58507E0,1.5232521E1,8.240601E0,8.018082E0,2.3149092E0,0E0,7.7341456E0,0E0,6.9333987E0,4.592697E0,2.166212E0,6.3482056E0,1.1987946E0,1.8407221E0,0E0,2.139296E0,6.641324E0,4.1967955E0,3.6470819E0,1.0492325E0,3.8864996E0,9.849768E-1,0E0,3.5964618E0,2.6065216E0,0E0,0E0,0E0,0E0,0E0,0E0,4.474069E0,3.6530738E0,2.6234035E0,1.8589025E0,1.8403797E0,0E0,0E0,2.9857366E0,0E0,2.6238325E0,0E0,0E0,0E0,1.3773367E0,6.545868E-1,0E0,2.9215846E0,0E0,4.192407E0,4.853228E0,0E0,0E0,0E0,0E0,0E0,0E0,0E0,1.8575315E0,0E0,0E0,0E0,0E0,7.235096E-1,0E0,0E0,1.1997212E0,0E0,0E0,2.2652388E0,0E0,0E0,0E0,0E0,0E0,0E0,0E0,0E0,0E0],"parents":[2147483647,0,0,1,1,2,2,3,3,4,4,5,5,6,6,7,7,8,8,10,10,12,12,13,13,14,14,15,15,16,16,17,17,19,19,20,20,21,21,22,22,23,23,24,24,25,25,27,27,28,28,35,35,36,36,37,37,38,38,39,39,42,42,44,44,48,48,49,49,51,51,53,53,54,54,62,62,67,67,70,70,73,73],"right_children":[2,4,6,8,10,12,14,16,18,-1,20,-1,22,24,26,28,30,32,-1,34,36,38,40,42,44,46,-1,48,50,-1,-1,-1,-1,-1,-1,52,54,56,58,60,-1,-1,62,-1,64,-1,-1,-1,66,68,-1,70,-1,72,74,-1,-1,-1,-1,-1,-1,-1,76,-1,-1,-1,-1,78,-1,-1,80,-1,-1,82,-1,-1,-1,-1,-1,-1,-1,-1,-1],"split_conditions":[-2.6870728E-2,2.0721436E-2,-2.6157351E-2,2.6559938E-2,1E0,2.867377E-3,1.731004E-2,5.050659E-2,7.79691E-1,-5.7314296E-4,1E0,6.4561435E-4,-4.3945312E-2,1.1001587E-2,7.79691E-1,7.79691E-1,1.8343478E-1,1E0,-4.973357E-4,7.79691E-1,4.3397624E-2,7.79691E-1,1E0,4.3738283E-2,2.20309E-1,2.20309E-1,3.9083633E-4,1E0,4.4700723E-2,1.5631213E-4,-3.9069576E-4,3.350965E-4,-2.6052797E-4,-1.5631142E-4,5.976085E-4,1.8343478E-1,1E0,1E0,1E0,1.8343478E-1,-6.0783775E-4,-7.096391E-4,1E0,-4.6897624E-4,1E0,1.5627043E-4,-3.350346E-4,-3.908455E-4,7.79691E-1,-3.213501E-2,-1.5638964E-4,1E0,-5.9762044E-4,1E0,1E0,2.6043828E-4,-4.3418654E-4,-1.5638587E-4,5.41144E-4,3.349018E-4,-2.6064005E-4,2.605371E-4,1E0,4.3419749E-4,-2.6047672E-4,-1.5643399E-4,4.341102E-4,8.165652E-1,6.8160257E-4,3.9075367E-4,7.79691E-1,3.3508203E-4,-4.6901059E-4,1E0,5.8615307E-4,1.562921E-4,-5.4103317E-4,2.604528E-4,-1.5641486E-4,1.5633929E-4,-3.909132E-4,-3.909226E-4,2.6045073E-4],"split_indices":[1110,495,2764,2457,225,2651,2306,1007,8,0,178,0,587,1036,114,176,16,89,0,118,2647,114,140,2344,215,2,0,67,2306,0,0,0,0,0,0,164,140,70,70,83,0,0,178,0,8,0,0,0,56,277,0,34,0,79,255,0,0,0,0,0,0,0,14,0,0,0,0,20,0,0,13,0,0,14,0,0,0,0,0,0,0,0,0],"split_type":[0,0,0,0,0,0,0,0,0,0,0,0,0,0,0,0,0,0,0,0,0,0,0,0,0,0,0,0,0,0,0,0,0,0,0,0,0,0,0,0,0,0,0,0,0,0,0,0,0,0,0,0,0,0,0,0,0,0,0,0,0,0,0,0,0,0,0,0,0,0,0,0,0,0,0,0,0,0,0,0,0,0,0],"sum_hessian":[9.699997E1,4.8749985E1,4.8249985E1,3.024999E1,1.8499996E1,1.3749997E1,3.449999E1,2.724999E1,2.9999995E0,2.7499995E0,1.5749997E1,4.7499986E0,8.999998E0,3.249999E1,1.9999998E0,2.599999E1,1.2499995E0,1.2499999E0,1.7499996E0,3.499999E0,1.2249998E1,4.2499995E0,4.749999E0,2.9249989E1,3.2499995E0,9.999998E-1,9.999999E-1,2.4999995E0,2.349999E1,2.4999997E-1,9.9999964E-1,7.499999E-1,4.9999994E-1,2.4999994E-1,3.249999E0,5.4999986E0,6.749999E0,1.7499996E0,2.4999998E0,1.2499996E0,3.499999E0,2.6249989E1,2.9999993E0,1.4999999E0,1.7499996E0,2.499999E-1,7.499999E-1,9.9999994E-1,1.4999995E0,2.324999E1,2.5E-1,2.2499995E0,3.2499993E0,2.2499998E0,4.499999E0,4.9999976E-1,1.2499999E0,2.5E-1,2.2499998E0,7.4999976E-1,4.9999988E-1,4.9999994E-1,2.4999993E0,1.2499998E0,4.9999985E-1,2.4999996E-1,1.2499995E0,7.4999976E-1,2.2499992E1,9.9999976E-1,1.2499998E0,7.499999E-1,1.4999999E0,1.4999998E0,2.9999995E0,2.4999994E-1,2.2499995E0,4.999998E-1,2.4999999E-1,2.4999999E-1,9.9999976E-1,1E0,4.999998E-1],"tree_param":{"num_deleted":"0","num_feature":"3072","num_nodes":"83","size_leaf_vector":"0"}},{"base_weights":[6.0571816E-2,5.0751567E-1,-1.5039434E0,7.740985E-1,-1.1805303E0,7.997877E-1,-1.7090224E0,-1.1421639E0,8.6502296E-1,4.6163288E-1,-1.6555591E0,-1.5626986E-4,4.3421745E-4,-1.7981123E0,2.8573108E-1,1.5620969E-4,-5.4093305E-4,2.6989943E-1,1.2715076E0,-4.9950752E-1,4.3424853E-4,1.5645275E-4,-6.8925053E-4,-7.37084E-4,-7.6777E-1,-1.5629137E-4,2.605604E-4,-1.1297014E0,6.080649E-1,2.2201782E-1,1.6444371E0,1.5632706E-4,-3.348306E-4,-4.6862086E-4,2.866191E-1,2.6038528E-4,-1.4275967E0,-1.1993151E0,9.12737E-1,-5.996968E-1,7.580945E-1,1.7100788E0,-2.6044832E-4,-1.5620688E-4,2.60895E-4,1.5630493E-4,-6.2507077E-4,1.5634247E-4,-5.581737E-4,1.1341404E0,-9.0860736E-1,3.3485686E-4,-1.058229E0,-6.6603035E-1,1.1657922E0,6.65717E-1,6.901244E-4,-4.5714393E-4,1.2342787E0,1.5634968E-4,-4.6889664E-4,-2.2181351E-1,-5.210302E-4,1.5643662E-4,-3.9069034E-4,1.4276017E0,-2.8580284E-1,-2.6064197E-4,4.6868355E-4,-3.3501495E-4,3.3475977E-4,-1.2220145E-4,1.3537447E0,-2.6049404E-4,2.8596404E-1,-1.5645458E-4,6.251102E-4,1.5627989E-4,-2.6058353E-4,-2.6059183E-4,1.953842E-4,5.9747434E-4,1.5602604E-4,-1.5625269E-4,2.6063438E-4],"categories":[],"categories_nodes":[],"categories_segments":[],"categories_sizes":[],"default_left":[false,false,false,false,false,false,false,false,false,false,false,false,false,false,false,false,false,false,false,false,false,false,false,false,false,false,false,false,false,false,false,false,false,false,false,false,false,false,false,false,false,false,false,false,false,false,false,false,false,false,false,false,false,false,false,false,false,false,false,false,false,false,false,false,false,false,false,false,false,false,false,false,false,false,false,false,false,false,false,false,false,false,false,false,false],"id":3,"left_children":[1,3,5,7,9,11,13,15,17,19,21,-1,-1,23,25,-1,-1,27,29,31,-1,-1,-1,-1,33,-1,-1,35,37,39,41,-1,-1,-1,43,-1,45,47,49,51,53,55,-1,-1,-1,-1,-1,-1,-1,57,59,-1,61,63,65,67,-1,69,71,-1,-1,73,-1,-1,-1,75,77,-1,-1,-1,-1,79,81,-1,83,-1,-1,-1,-1,-1,-1,-1,-1,-1,-1],"loss_changes":[6.998902E1,3.590164E1,1.1878788E1,1.2792423E1,9.345076E0,1.3764615E0,4.2013054E0,1.856317E0,1.5441349E1,2.5826948E0,2.640154E0,0E0,0E0,3.524475E-1,7.232827E-1,0E0,0E0,1.3820908E1,1.4703239E1,9.8465073E-1,0E0,0E0,0E0,0E0,1.8203921E0,0E0,0E0,4.026841E0,1.3759795E1,5.4102726E0,5.424156E0,0E0,0E0,0E0,7.2388977E-1,0E0,2.283105E0,1.9413395E0,9.196329E0,4.2451572E0,4.9858923E0,4.263382E-1,0E0,0E0,0E0,0E0,0E0,0E0,0E0,2.1024742E0,1.5262718E0,0E0,6.803942E-1,1.1996249E0,2.6882582E0,2.9306116E0,0E0,2.5684319E0,2.5071373E0,0E0,0E0,6.984276E-1,0E0,0E0,0E0,2.2850256E0,7.233001E-1,0E0,0E0,0E0,0E0,1.1661109E0,1.9734898E0,0E0,7.2332937E-1,0E0,0E0,0E0,0E0,0E0,0E0,0E0,0E0,0E0,0E0],"parents":[2147483647,0,0,1,1,2,2,3,3,4,4,5,5,6,6,7,7,8,8,9,9,10,10,13,13,14,14,17,17,18,18,19,19,24,24,27,27,28,28,29,29,30,30,34,34,36,36,37,37,38,38,39,39,40,40,41,41,49,49,50,50,52,52,53,53,54,54,55,55,57,57,58,58,61,61,65,65,66,66,71,71,72,72,74,74],"right_children":[2,4,6,8,10,12,14,16,18,20,22,-1,-1,24,26,-1,-1,28,30,32,-1,-1,-1,-1,34,-1,-1,36,38,40,42,-1,-1,-1,44,-1,46,48,50,52,54,56,-1,-1,-1,-1,-1,-1,-1,58,60,-1,62,64,66,68,-1,70,72,-1,-1,74,-1,-1,-1,76,78,-1,-1,-1,-1,80,82,-1,84,-1,-1,-1,-1,-1,-1,-1,-1,-1,-1],"split_conditions":[9.117126E-3,4.483968E-2,-2.9876709E-2,3.6346436E-2,1E0,-7.2213024E-2,2.5687108E-2,1E0,-5.970001E-3,1.8343478E-1,1E0,-1.5626986E-4,4.3421745E-4,2.2903442E-2,1.8343478E-1,1.5620969E-4,-5.4093305E-4,1E0,-1.0001396E-2,7.79691E-1,4.3424853E-4,1.5645275E-4,-6.8925053E-4,-7.37084E-4,1E0,-1.5629137E-4,2.605604E-4,-6.416259E-2,1E0,7.79691E-1,5.3692624E-2,1.5632706E-4,-3.348306E-4,-4.6862086E-4,1.8343478E-1,2.6038528E-4,1.8343478E-1,1E0,-1.0062436E-2,7.79691E-1,8.165652E-1,2.20309E-1,-2.6044832E-4,-1.5620688E-4,2.60895E-4,1.5630493E-4,-6.2507077E-4,1.5634247E-4,-5.581737E-4,7.79691E-1,2.20309E-1,3.3485686E-4,1.8343478E-1,1E0,1E0,1E0,6.901244E-4,7.79691E-1,2.20309E-1,1.5634968E-4,-4.6889664E-4,8.165652E-1,-5.210302E-4,1.5643662E-4,-3.9069034E-4,1E0,7.79691E-1,-2.6064197E-4,4.6868355E-4,-3.3501495E-4,3.3475977E-4,1E0,-2.6045796E-2,-2.6049404E-4,1.8343478E-1,-1.5645458E-4,6.251102E-4,1.5627989E-4,-2.6058353E-4,-2.6059183E-4,1.953842E-4,5.9747434E-4,1.5602604E-4,-1.5625269E-4,2.6063438E-4],"split_indices":[575,2342,436,1281,201,2307,2809,3,780,48,187,0,0,259,11,0,0,151,2788,18,0,0,0,0,34,0,0,2324,137,18,2348,0,0,0,11,0,16,216,2343,7,30,228,0,0,0,0,0,0,0,91,71,0,48,3,78,24,0,7,228,0,0,72,0,0,0,73,7,0,0,0,0,29,2307,0,11,0,0,0,0,0,0,0,0,0,0],"split_type":[0,0,0,0,0,0,0,0,0,0,0,0,0,0,0,0,0,0,0,0,0,0,0,0,0,0,0,0,0,0,0,0,0,0,0,0,0,0,0,0,0,0,0,0,0,0,0,0,0,0,0,0,0,0,0,0,0,0,0,0,0,0,0,0,0,0,0,0,0,0,0,0,0,0,0,0,0,0,0,0,0,0,0,0,0],"sum_hessian":[9.799993E1,7.6749954E1,2.124998E1,6.674996E1,9.999992E0,1.4999996E0,1.974998E1,2.4999986E0,6.424996E1,2.2499988E0,7.7499933E0,2.4999988E-1,1.2499998E0,1.899998E1,7.499999E-1,2.4999973E-1,2.2499988E0,2.6749989E1,3.7499973E1,9.999995E-1,1.2499993E0,2.4999994E-1,7.4999933E0,1.6749983E1,2.2499976E0,2.4999994E-1,4.9999997E-1,4.7499976E0,2.199999E1,1.0249996E1,2.7249977E1,2.4999999E-1,7.499995E-1,1.4999983E0,7.4999917E-1,4.9999958E-1,4.249998E0,2.7499993E0,1.9249992E1,3.9999986E0,6.249997E0,2.6749977E1,4.9999982E-1,2.4999973E-1,4.9999946E-1,2.4999996E-1,3.999998E0,2.4999999E-1,2.4999993E0,1.7499992E1,1.7499995E0,7.4999964E-1,3.249999E0,1.2499995E0,4.9999976E0,1.9999986E0,2.4749979E1,1.4999992E0,1.5999992E1,2.5E-1,1.4999995E0,1.2499996E0,1.9999994E0,2.4999994E-1,9.999996E-1,4.249998E0,7.499997E-1,4.9999988E-1,1.4999986E0,7.499999E-1,7.499993E-1,1.4999996E0,1.4499993E1,4.9999985E-1,7.499998E-1,2.4999993E-1,3.999998E0,2.4999991E-1,4.9999982E-1,5E-1,9.999997E-1,1.1749994E1,2.7499988E0,2.4999985E-1,4.9999994E-1],"tree_param":{"num_deleted":"0","num_feature":"3072","num_nodes":"85","size_leaf_vector":"0"}},{"base_weights":[5.16979E-3,5.0935626E-1,-1.6106187E0,9.5422924E-1,-1.637138E-1,7.99826E-1,-1.8136302E0,1.0560195E0,-4.6857356E-4,9.7323954E-1,-6.658555E-1,-1.5628888E-4,4.3424466E-4,-7.263339E-4,1.5630799E-4,-8.0333844E-2,1.2140899E0,-5.4492456E-1,1.3734537E0,-1.1985768E0,4.5113447E-1,4.9700926E-4,-8.8851166E-1,4.1800842E-1,1.4717667E0,2.857825E-1,-3.906682E-4,-2.2238071E-1,6.653327E-4,-9.499389E-2,-1.6260406E0,-3.1591386E-1,1.2492206E0,2.6048537E-4,-1.2494466E0,-7.494239E-1,9.6661764E-1,5.70406E-1,1.6867782E0,-1.5624048E-4,2.6054136E-4,-3.350373E-4,2.6047401E-4,3.90752E-4,-5.8771974E-1,3.6378705E-4,-1.705413E0,7.989241E-1,-1.0762771E0,-1.5625356E-4,5.729992E-4,1.5628166E-4,-5.731028E-4,2.2213739E-1,-4.971922E-4,-4.0001184E-1,1.3586107E0,-3.90836E-4,9.9872744E-1,3.3261406E-1,7.04716E-4,4.9964538E-1,-1.0760306E0,-1.5623048E-4,1.5640112E-4,-2.8506652E-1,-6.9880194E-4,-1.5644234E-4,4.339382E-4,1.5621452E-4,-5.2090053E-4,-2.6043493E-4,3.348815E-4,2.6039526E-4,-3.9076706E-4,-5.813243E-4,6.3237385E-4,-2.6051147E-4,1.2712636E0,-2.6066953E-4,7.992133E-1,-1.5622479E-4,3.348191E-4,1.5629987E-4,-5.208317E-4,-2.602698E-4,1.5630627E-4,-2.6065533E-4,2.6035242E-4,-1.564116E-4,1.4270624E0,-1.563575E-4,4.3401672E-4,-1.5628606E-4,6.248467E-4],"categories":[],"categories_nodes":[],"categories_segments":[],"categories_sizes":[],"default_left":[false,false,false,false,false,false,false,false,false,false,false,false,false,false,false,false,false,false,false,false,false,false,false,false,false,false,false,false,false,false,false,false,false,false,false,false,false,false,false,false,false,false,false,false,false,false,false,false,false,false,false,false,false,false,false,false,false,false,false,false,false,false,false,false,false,false,false,false,false,false,false,false,false,false,false,false,false,false,false,false,false,false,false,false,false,false,false,false,false,false,false,false,false,false,false],"id":4,"left_children":[1,3,5,7,9,11,13,15,-1,17,19,-1,-1,-1,-1,21,23,25,27,29,31,-1,33,35,37,39,-1,41,-1,43,45,47,49,-1,51,53,55,57,59,-1,-1,-1,-1,-1,61,63,65,67,69,-1,-1,-1,-1,71,-1,73,75,-1,77,79,-1,81,83,-1,-1,85,-1,-1,-1,-1,-1,-1,-1,-1,-1,87,-1,-1,89,-1,91,-1,-1,-1,-1,-1,-1,-1,-1,-1,93,-1,-1,-1,-1],"loss_changes":[7.963852E1,2.2463783E1,1.2827911E1,1.112698E1,1.806083E1,1.376705E0,2.877304E0,7.9111557E0,0E0,6.672434E0,1.3482923E1,0E0,0E0,0E0,0E0,7.957122E0,7.2310677E0,1.3236573E0,4.571946E0,6.9216537E0,5.138965E0,0E0,3.3579075E0,7.6093917E0,4.5612297E0,7.2300404E-1,0E0,1.8400177E0,0E0,3.4188166E0,1.3883533E0,4.8863497E0,2.0139036E0,0E0,2.0146303E0,2.312677E0,4.6952047E0,5.706235E0,2.9313812E0,0E0,0E0,0E0,0E0,0E0,2.7942643E0,3.99713E-1,6.8605995E-1,1.3767849E0,1.761282E0,0E0,0E0,0E0,0E0,1.8388656E0,0E0,2.2638302E0,2.20117E0,0E0,3.5699825E0,1.931879E0,0E0,9.840255E-1,1.7618175E0,0E0,0E0,7.224989E-1,0E0,0E0,0E0,0E0,0E0,0E0,0E0,0E0,0E0,1.3321466E0,0E0,0E0,2.003151E0,0E0,1.3764151E0,0E0,0E0,0E0,0E0,0E0,0E0,0E0,0E0,0E0,2.2819014E0,0E0,0E0,0E0,0E0],"parents":[2147483647,0,0,1,1,2,2,3,3,4,4,5,5,6,6,7,7,9,9,10,10,15,15,16,16,17,17,18,18,19,19,20,20,22,22,23,23,24,24,25,25,27,27,29,29,30,30,31,31,32,32,34,34,35,35,36,36,37,37,38,38,44,44,45,45,46,46,47,47,48,48,53,53,55,55,56,56,58,58,59,59,61,61,62,62,65,65,75,75,78,78,80,80,90,90],"right_children":[2,4,6,8,10,12,14,16,-1,18,20,-1,-1,-1,-1,22,24,26,28,30,32,-1,34,36,38,40,-1,42,-1,44,46,48,50,-1,52,54,56,58,60,-1,-1,-1,-1,-1,62,64,66,68,70,-1,-1,-1,-1,72,-1,74,76,-1,78,80,-1,82,84,-1,-1,86,-1,-1,-1,-1,-1,-1,-1,-1,-1,88,-1,-1,90,-1,92,-1,-1,-1,-1,-1,-1,-1,-1,-1,94,-1,-1,-1,-1],"split_conditions":[-3.2348633E-2,6.02985E-3,-3.5981137E-2,3.3569336E-2,1.8343478E-1,7.79691E-1,3.555298E-2,2.20309E-1,-4.6857356E-4,-5.082661E-2,3.5527136E-2,-1.5628888E-4,4.3424466E-4,-7.263339E-4,1.5630799E-4,8.165652E-1,-1.4350891E-2,1.8343478E-1,2.20309E-1,7.79691E-1,-2.1058496E-2,4.9700926E-4,1E0,1E0,1.8343478E-1,1E0,-3.906682E-4,1E0,6.653327E-4,1E0,1E0,2.20309E-1,1E0,2.6048537E-4,1E0,-2.166117E-2,7.79691E-1,1E0,4.878998E-3,-1.5624048E-4,2.6054136E-4,-3.350373E-4,2.6047401E-4,3.90752E-4,1E0,1E0,7.79691E-1,1E0,1E0,-1.5625356E-4,5.729992E-4,1.5628166E-4,-5.731028E-4,7.79691E-1,-4.971922E-4,1.8343478E-1,1E0,-3.90836E-4,-1.7745972E-2,7.79691E-1,7.04716E-4,7.79691E-1,1E0,-1.5623048E-4,1.5640112E-4,1.8343478E-1,-6.9880194E-4,-1.5644234E-4,4.339382E-4,1.5621452E-4,-5.2090053E-4,-2.6043493E-4,3.348815E-4,2.6039526E-4,-3.9076706E-4,7.79691E-1,6.3237385E-4,-2.6051147E-4,1E0,-2.6066953E-4,1E0,-1.5622479E-4,3.348191E-4,1.5629987E-4,-5.208317E-4,-2.602698E-4,1.5630627E-4,-2.6065533E-4,2.6035242E-4,-1.564116E-4,1E0,-1.563575E-4,4.3401672E-4,-1.5628606E-4,6.248467E-4],"split_indices":[498,2634,2679,964,164,0,264,228,0,2332,2524,0,0,0,0,72,641,6,228,0,2630,0,166,67,17,1,0,76,0,84,45,148,166,0,23,2311,54,131,650,0,0,0,0,0,3,3,12,58,24,0,0,0,0,12,0,48,84,0,273,247,0,7,59,0,0,6,0,0,0,0,0,0,0,0,0,7,0,0,153,0,10,0,0,0,0,0,0,0,0,0,156,0,0,0,0],"split_type":[0,0,0,0,0,0,0,0,0,0,0,0,0,0,0,0,0,0,0,0,0,0,0,0,0,0,0,0,0,0,0,0,0,0,0,0,0,0,0,0,0,0,0,0,0,0,0,0,0,0,0,0,0,0,0,0,0,0,0,0,0,0,0,0,0,0,0,0,0,0,0,0,0,0,0,0,0,0,0,0,0,0,0,0,0,0,0,0,0,0,0,0,0,0,0],"sum_hessian":[9.5749886E1,7.349992E1,2.2249964E1,4.3999954E1,2.9499971E1,1.4999998E0,2.0749964E1,4.2499954E1,1.4999979E0,8.749992E0,2.0749979E1,2.4999994E-1,1.2499999E0,2.0499964E1,2.4999996E-1,5.2499967E0,3.7249958E1,1.7499993E0,6.9999933E0,1.3999985E1,6.7499948E0,1.7499979E0,3.4999988E0,9.749993E0,2.7499966E1,7.4999976E-1,9.9999946E-1,1.2499998E0,5.7499933E0,4.249997E0,9.749988E0,3.749997E0,2.9999979E0,4.9999988E-1,2.9999988E0,2.999998E0,6.749995E0,5.9999948E0,2.1499971E1,2.4999982E-1,4.9999994E-1,7.499999E-1,4.9999985E-1,9.999992E-1,3.2499976E0,4.999998E-1,9.249988E0,1.4999986E0,2.2499983E0,2.4999985E-1,2.749998E0,2.4999991E-1,2.749999E0,1.2499993E0,1.7499989E0,1.4999994E0,5.2499957E0,9.999997E-1,4.999995E0,1.9999992E0,1.9499971E1,9.9999917E-1,2.2499986E0,2.4999979E-1,2.5E-1,7.4999905E-1,8.499989E0,2.4999996E-1,1.2499987E0,2.4999975E-1,1.9999986E0,4.999997E-1,7.499996E-1,4.9999964E-1,9.9999976E-1,9.999994E-1,4.249996E0,4.9999976E-1,4.499995E0,4.9999997E-1,1.4999992E0,2.4999976E-1,7.499994E-1,2.4999994E-1,1.9999986E0,4.9999908E-1,2.4999996E-1,4.9999997E-1,4.9999946E-1,2.4999999E-1,4.249995E0,2.5E-1,1.2499992E0,2.4999994E-1,3.9999952E0],"tree_param":{"num_deleted":"0","num_feature":"3072","num_nodes":"95","size_leaf_vector":"0"}},{"base_weights":[3.0235691E-2,5.504555E-1,-1.5526658E0,1.0625652E0,-1.1948878E-1,1.0603247E-1,-7.247492E-4,1.2752999E0,-7.986411E-1,3.069165E-1,-1.4097306E0,-4.3382688E-4,8.5729927E-1,-2.220229E-1,1.430269E0,1.8188824E-1,-5.404935E-4,5.871298E-1,-7.820306E-1,4.9955708E-1,-6.766641E-4,-1.5627666E-4,1.0769979E0,7.994014E-1,-9.992022E-1,-3.3478442E-4,1.5048015E0,-4.9976614E-1,3.3502115E-4,-4.3477532E-1,9.0766454E-1,-1.1990074E0,3.3471663E-4,3.3469146E-4,-1.5610142E-4,2.4922224E-7,4.9744546E-4,-1.5627554E-4,4.3405284E-4,1.5619691E-4,-4.971271E-4,4.2761338E-1,1.7165741E0,-3.3493922E-4,1.5631739E-4,9.0782887E-1,-1.2491213E0,-1.3359508E-1,1.1256325E0,1.5619305E-4,-1.3672558E0,1.2922623E0,-6.663517E-1,1.7472355E0,-1.5389921E-4,-1.5612997E-4,4.6845202E-4,1.5612197E-4,-5.7291385E-4,4.339185E-4,-4.6886594E-4,3.9887094E-1,1.3828813E0,3.0759978E-4,-5.974258E-4,-1.562944E-4,5.855998E-4,2.6029532E-4,-1.0761764E0,7.063067E-4,5.439205E-1,1.5624054E-4,-1.563127E-4,-4.003071E-1,8.5574967E-1,3.992036E-1,6.6938775E-4,1.5632299E-4,-1.5617872E-4,-1.1599064E-4,-4.9717724E-4,3.904424E-4,-2.867003E-1,2.6035536E-4,-3.9088135E-4,-2.605213E-4,5.2055507E-4,-2.603818E-4,7.6803094E-1,1.5631686E-4,-1.5637127E-4,-2.6091063E-4,1.5618122E-4,-1.980294E-7,3.5494438E-4],"categories":[],"categories_nodes":[],"categories_segments":[],"categories_sizes":[],"default_left":[false,false,false,false,false,false,false,false,false,false,false,false,false,false,false,false,false,false,false,false,false,false,false,false,false,false,false,false,false,false,false,false,false,false,false,false,false,false,false,false,false,false,false,false,false,false,false,false,false,false,false,false,false,false,false,false,false,false,false,false,false,false,false,false,false,false,false,false,false,false,false,false,false,false,false,false,false,false,false,false,false,false,false,false,false,false,false,false,false,false,false,false,false,false,false],"id":5,"left_children":[1,3,5,7,9,11,-1,13,15,17,19,-1,21,23,25,27,-1,29,31,33,-1,-1,35,37,39,-1,41,43,-1,45,47,49,-1,-1,-1,-1,-1,-1,-1,-1,-1,51,53,-1,-1,55,57,59,61,-1,63,65,67,69,71,-1,-1,-1,-1,-1,-1,73,75,77,-1,-1,-1,-1,79,-1,81,-1,-1,83,85,87,-1,-1,-1,89,-1,-1,91,-1,-1,-1,-1,-1,93,-1,-1,-1,-1,-1,-1],"loss_changes":[8.237674E1,2.5944067E1,1.256353E1,1.7945045E1,1.8863201E1,5.2898426E0,0E0,9.309036E0,3.1143422E0,8.392717E0,6.0770836E0,0E0,1.3971431E0,4.370995E0,7.2963104E0,1.6937958E0,0E0,7.355189E0,4.9544606E0,9.829082E-1,0E0,0E0,6.8297553E-1,1.3759159E0,1.6513689E0,0E0,7.1360626E0,9.849422E-1,0E0,7.4207106E0,3.895237E0,1.8910437E0,0E0,0E0,0E0,0E0,0E0,0E0,0E0,0E0,0E0,7.4823627E0,1.5004272E0,0E0,0E0,1.5227804E0,2.0121603E0,6.3012886E0,2.019085E0,0E0,1.0460672E0,2.078166E0,2.7639198E0,1.0220032E0,3.995127E-1,0E0,0E0,0E0,0E0,0E0,0E0,2.168198E0,2.4758205E0,3.993809E-1,0E0,0E0,0E0,0E0,6.839223E-1,0E0,1.3252745E0,0E0,0E0,2.264205E0,3.4224162E0,1.9849179E0,0E0,0E0,0E0,3.9985767E-1,0E0,0E0,7.238228E-1,0E0,0E0,0E0,0E0,0E0,3.499403E-1,0E0,0E0,0E0,0E0,0E0,0E0],"parents":[2147483647,0,0,1,1,2,2,3,3,4,4,5,5,7,7,8,8,9,9,10,10,12,12,13,13,14,14,15,15,17,17,18,18,19,19,22,22,23,23,24,24,26,26,27,27,29,29,30,30,31,31,41,41,42,42,45,45,46,46,47,47,48,48,50,50,51,51,52,52,53,53,54,54,61,61,62,62,63,63,68,68,70,70,73,73,74,74,75,75,79,79,82,82,88,88],"right_children":[2,4,6,8,10,12,-1,14,16,18,20,-1,22,24,26,28,-1,30,32,34,-1,-1,36,38,40,-1,42,44,-1,46,48,50,-1,-1,-1,-1,-1,-1,-1,-1,-1,52,54,-1,-1,56,58,60,62,-1,64,66,68,70,72,-1,-1,-1,-1,-1,-1,74,76,78,-1,-1,-1,-1,80,-1,82,-1,-1,84,86,88,-1,-1,-1,90,-1,-1,92,-1,-1,-1,-1,-1,94,-1,-1,-1,-1,-1,-1],"split_conditions":[-3.491211E-2,-8.781433E-3,-5.3206743E-3,2.977065E-2,1.0565528E-2,7.79691E-1,-7.247492E-4,-1.0008154E-2,1E0,3.778076E-2,7.79691E-1,-4.3382688E-4,1E0,2.20309E-1,1.8737793E-2,7.79691E-1,-5.404935E-4,2.20309E-1,4.8305634E-2,1E0,-6.766641E-4,-1.5627666E-4,7.79691E-1,1E0,1E0,-3.3478442E-4,7.79691E-1,1E0,3.3502115E-4,1.6217245E-2,1E0,1E0,3.3471663E-4,3.3469146E-4,-1.5610142E-4,2.4922224E-7,4.9744546E-4,-1.5627554E-4,4.3405284E-4,1.5619691E-4,-4.971271E-4,1E0,-1.9264221E-3,-3.3493922E-4,1.5631739E-4,1E0,7.79691E-1,1E0,1E0,1.5619305E-4,1E0,1E0,1E0,3.3308662E-2,1.7477788E-2,-1.5612997E-4,4.6845202E-4,1.5612197E-4,-5.7291385E-4,4.339185E-4,-4.6886594E-4,1E0,7.79691E-1,2.20309E-1,-5.974258E-4,-1.562944E-4,5.855998E-4,2.6029532E-4,2.20309E-1,7.063067E-4,1E0,1.5624054E-4,-1.563127E-4,1E0,1E0,1E0,6.6938775E-4,1.5632299E-4,-1.5617872E-4,3.554434E-2,-4.9717724E-4,3.904424E-4,1E0,2.6035536E-4,-3.9088135E-4,-2.605213E-4,5.2055507E-4,-2.603818E-4,1E0,1.5631686E-4,-1.5637127E-4,-2.6091063E-4,1.5618122E-4,-1.980294E-7,3.5494438E-4],"split_indices":[498,1227,2572,2671,2877,55,0,2310,123,970,53,0,113,227,1282,185,0,208,2489,4,0,0,150,1,24,0,114,52,0,2342,255,202,0,0,0,0,0,0,0,0,0,195,333,0,0,102,41,63,123,0,143,172,68,2336,2304,0,0,0,0,0,0,207,28,2,0,0,0,0,117,0,78,0,0,171,195,10,0,0,0,256,0,0,35,0,0,0,0,0,70,0,0,0,0,0,0],"split_type":[0,0,0,0,0,0,0,0,0,0,0,0,0,0,0,0,0,0,0,0,0,0,0,0,0,0,0,0,0,0,0,0,0,0,0,0,0,0,0,0,0,0,0,0,0,0,0,0,0,0,0,0,0,0,0,0,0,0,0,0,0,0,0,0,0,0,0,0,0,0,0,0,0,0,0,0,0,0,0,0,0,0,0,0,0,0,0,0,0,0,0,0,0,0,0],"sum_hessian":[9.799982E1,7.424988E1,2.3749939E1,4.174992E1,3.2499954E1,3.7499971E0,1.999994E1,3.7749928E1,3.9999945E0,2.499997E1,7.4999847E0,1.249998E0,2.4999993E0,3.499997E0,3.424993E1,1.7499995E0,2.249995E0,2.0249973E1,4.7499957E0,9.999982E-1,6.499986E0,2.4999991E-1,2.2499993E0,1.4999987E0,1.9999983E0,7.499994E-1,3.349993E1,9.999997E-1,7.499999E-1,4.749993E0,1.5499981E1,3.999997E0,7.49999E-1,7.49999E-1,2.4999925E-1,4.9999958E-1,1.7499998E0,2.4999991E-1,1.2499988E0,2.4999969E-1,1.7499986E0,5.999992E0,2.7499939E1,7.4999976E-1,2.4999997E-1,1.7499963E0,2.9999967E0,2.7499976E0,1.2749983E1,2.4999967E-1,3.7499971E0,3.2499943E0,2.7499976E0,2.6999939E1,4.999998E-1,2.499994E-1,1.4999969E0,2.4999936E-1,2.7499974E0,1.2499986E0,1.499999E0,3.999995E0,8.749988E0,4.9999958E-1,3.2499976E0,2.4999994E-1,2.9999943E0,4.9999923E-1,2.2499986E0,2.524994E1,1.7499974E0,2.4999982E-1,2.4999997E-1,1.4999993E0,2.4999957E0,2.749997E0,5.999991E0,2.4999997E-1,2.4999961E-1,4.9999997E-1,1.7499985E0,9.9999845E-1,7.49999E-1,4.9999946E-1,9.999998E-1,4.9999925E-1,1.9999964E0,4.9999946E-1,2.2499976E0,2.4999997E-1,2.5E-1,4.9999937E-1,2.4999963E-1,4.999997E-1,1.7499979E0],"tree_param":{"num_deleted":"0","num_feature":"3072","num_nodes":"95","size_leaf_vector":"0"}},{"base_weights":[-1.5567937E-2,4.361186E-1,-1.5827776E0,6.555233E-1,-1.4970503E0,4.99865E-1,-1.7072362E0,1.5052103E0,3.8391894E-1,-6.763685E-4,2.6055315E-4,-1.5614631E-4,3.348611E-4,-1.7493982E0,1.0814274E-4,-1.8171778E-1,1.7213376E0,-4.7304535E-1,8.3493763E-1,-7.169722E-4,-5.439926E-1,1.5621886E-4,-1.5616814E-4,-3.904844E-4,3.3463532E-4,6.9696346E-4,-2.0140412E-4,7.987645E-1,-8.654455E-1,1.3114958E0,3.456206E-1,-4.3373278E-4,2.6071692E-4,-1.5633371E-4,1.5623924E-4,-3.3462804E-4,1.2921857E0,-1.4647887E0,-2.3479612E-1,-3.3471856E-4,1.4596747E0,-1.1988734E0,8.4574616E-1,-1.5619297E-4,5.8553624E-4,2.6032235E-4,-6.6931493E-4,-9.9848115E-1,6.6591936E-1,8.3111674E-1,1.6564127E0,2.852922E-1,-5.973063E-4,-3.5344762E-1,1.2153838E0,1.5635639E-4,-1.1562858E0,-2.6038053E-4,9.9893E-1,-2.6054366E-4,1.0884385E0,2.849907E-1,6.73967E-4,2.6024823E-4,-1.5615698E-4,3.989326E-1,-9.0890276E-1,-1.5635564E-4,1.2868322E0,2.99439E-4,-5.7262933E-4,-2.6036336E-4,5.578831E-4,-4.9757975E-4,1.1974318E0,-1.563713E-4,2.6028938E-4,-2.8618953E-1,3.3467228E-4,1.5631075E-4,-4.690042E-4,-1.5619006E-4,1.3614802E0,2.6042198E-4,-2.6026598E-4,-1.5639367E-4,1.561603E-4,5.574967E-4,1.5572771E-4,-2.606112E-4,1.5610161E-4,-1.5609142E-4,5.62771E-4],"categories":[],"categories_nodes":[],"categories_segments":[],"categories_sizes":[],"default_left":[false,false,false,false,false,false,false,false,false,false,false,false,false,false,false,false,false,false,false,false,false,false,false,false,false,false,false,false,false,false,false,false,false,false,false,false,false,false,false,false,false,false,false,false,false,false,false,false,false,false,false,false,false,false,false,false,false,false,false,false,false,false,false,false,false,false,false,false,false,false,false,false,false,false,false,false,false,false,false,false,false,false,false,false,false,false,false,false,false,false,false,false,false],"id":6,"left_children":[1,3,5,7,9,11,13,15,17,-1,-1,-1,-1,19,21,23,25,27,29,-1,31,-1,-1,-1,-1,-1,33,35,37,39,41,-1,-1,-1,-1,-1,43,45,47,-1,49,51,53,-1,-1,-1,-1,55,57,59,61,63,-1,65,67,-1,69,-1,71,-1,73,75,-1,-1,-1,77,79,-1,81,83,-1,-1,-1,85,87,-1,-1,89,-1,-1,-1,-1,91,-1,-1,-1,-1,-1,-1,-1,-1,-1,-1],"loss_changes":[6.882427E1,3.3004326E1,6.491028E0,1.5230429E1,5.187767E0,9.837082E-1,1.4938774E0,6.237385E0,2.0976416E1,0E0,0E0,0E0,0E0,1.0678291E0,3.9908776E-1,3.1869187E0,1.5354881E0,1.017338E1,7.7665806E0,0E0,2.6230392E0,0E0,0E0,0E0,0E0,0E0,3.9956307E-1,5.188507E0,5.325695E0,6.870924E0,1.5497189E1,0E0,0E0,0E0,0E0,0E0,2.0768018E0,5.0923557E0,6.511735E0,0E0,6.946449E-1,2.8776402E0,6.9677534E0,0E0,0E0,0E0,0E0,1.5658693E0,2.6613665E0,3.0375814E0,5.979576E-1,7.2178185E-1,0E0,2.1387224E0,1.8419361E0,0E0,1.695282E0,0E0,3.8017342E0,0E0,6.5337133E-1,7.228409E-1,0E0,0E0,0E0,1.0280316E0,1.5263462E0,0E0,1.9601498E0,1.3305118E0,0E0,0E0,0E0,3.9951438E-1,3.454528E-1,0E0,0E0,7.2259897E-1,0E0,0E0,0E0,0E0,2.0872822E0,0E0,0E0,0E0,0E0,0E0,0E0,0E0,0E0,0E0,0E0],"parents":[2147483647,0,0,1,1,2,2,3,3,4,4,5,5,6,6,7,7,8,8,13,13,14,14,15,15,16,16,17,17,18,18,20,20,26,26,27,27,28,28,29,29,30,30,36,36,37,37,38,38,40,40,41,41,42,42,47,47,48,48,49,49,50,50,51,51,53,53,54,54,56,56,58,58,60,60,61,61,65,65,66,66,68,68,69,69,73,73,74,74,77,77,82,82],"right_children":[2,4,6,8,10,12,14,16,18,-1,-1,-1,-1,20,22,24,26,28,30,-1,32,-1,-1,-1,-1,-1,34,36,38,40,42,-1,-1,-1,-1,-1,44,46,48,-1,50,52,54,-1,-1,-1,-1,56,58,60,62,64,-1,66,68,-1,70,-1,72,-1,74,76,-1,-1,-1,78,80,-1,82,84,-1,-1,-1,86,88,-1,-1,90,-1,-1,-1,-1,92,-1,-1,-1,-1,-1,-1,-1,-1,-1,-1],"split_conditions":[9.117126E-3,4.9043696E-2,-2.8075438E-3,-8.984399E-3,4.5715332E-2,1.8343478E-1,6.4086914E-2,7.79691E-1,-9.945761E-4,-6.763685E-4,2.6055315E-4,-1.5614631E-4,3.348611E-4,1.9299105E-2,7.79691E-1,1E0,2.0111084E-2,-1.209259E-2,1.3206482E-2,-7.169722E-4,1E0,1.5621886E-4,-1.5616814E-4,-3.904844E-4,3.3463532E-4,6.9696346E-4,1E0,1E0,1E0,1E0,1E0,-4.3373278E-4,2.6071692E-4,-1.5633371E-4,1.5623924E-4,-3.3462804E-4,1E0,1E0,-2.6168823E-3,-3.3471856E-4,1E0,1E0,2.1685313E-2,-1.5619297E-4,5.8553624E-4,2.6032235E-4,-6.6931493E-4,7.79691E-1,1E0,-7.0619583E-4,1E0,1E0,-5.973063E-4,1E0,1E0,1.5635639E-4,1E0,-2.6038053E-4,7.79691E-1,-2.6054366E-4,1.8343478E-1,7.79691E-1,6.73967E-4,2.6024823E-4,-1.5615698E-4,1E0,7.79691E-1,-1.5635564E-4,1E0,7.79691E-1,-5.7262933E-4,-2.6036336E-4,5.578831E-4,1E0,1E0,-1.563713E-4,2.6028938E-4,1E0,3.3467228E-4,1.5631075E-4,-4.690042E-4,-1.5619006E-4,1.8343478E-1,2.6042198E-4,-2.6026598E-4,-1.5639367E-4,1.561603E-4,5.574967E-4,1.5572771E-4,-2.606112E-4,1.5610161E-4,-1.5609142E-4,5.62771E-4],"split_indices":[575,2540,2424,2432,264,11,258,245,2788,0,0,0,0,2314,0,99,280,508,1050,0,32,0,0,0,0,0,10,127,5,242,110,0,0,0,0,0,70,236,768,0,84,70,2319,0,0,0,0,245,49,259,94,5,0,70,96,0,242,0,106,0,48,53,0,0,0,65,53,0,225,47,0,0,0,5,99,0,0,3,0,0,0,0,190,0,0,0,0,0,0,0,0,0,0],"split_type":[0,0,0,0,0,0,0,0,0,0,0,0,0,0,0,0,0,0,0,0,0,0,0,0,0,0,0,0,0,0,0,0,0,0,0,0,0,0,0,0,0,0,0,0,0,0,0,0,0,0,0,0,0,0,0,0,0,0,0,0,0,0,0,0,0,0,0,0,0,0,0,0,0,0,0,0,0,0,0,0,0,0,0,0,0,0,0,0,0,0,0,0,0],"sum_hessian":[9.524975E1,7.4499825E1,2.0749922E1,6.749985E1,6.999977E0,9.9999905E-1,1.9749924E1,1.5249959E1,5.2249893E1,6.499977E0,4.999999E-1,2.4999946E-1,7.4999964E-1,1.9249924E1,4.9999934E-1,1.7499965E0,1.3499962E1,1.7999968E1,3.4249924E1,1.7499928E1,1.749997E0,2.4999976E-1,2.4999957E-1,9.99998E-1,7.499986E-1,1.2999963E1,4.999998E-1,3.9999914E0,1.3999977E1,1.649995E1,1.7749973E1,1.2499973E0,4.9999976E-1,2.4999997E-1,2.4999982E-1,7.4999857E-1,3.2499928E0,6.499988E0,7.4999886E0,7.499991E-1,1.5749952E1,3.9999948E0,1.3749977E1,2.4999967E-1,2.999993E0,4.9999925E-1,5.999989E0,3.999993E0,3.4999957E0,4.9999866E0,1.0749966E1,7.4999845E-1,3.2499964E0,3.2499979E0,1.049998E1,2.5E-1,3.749993E0,4.9999958E-1,2.9999962E0,4.9999994E-1,4.4999866E0,7.4999905E-1,9.999967E0,4.9999893E-1,2.4999952E-1,1.4999981E0,1.7499996E0,2.5E-1,1.024998E1,9.999988E-1,2.7499943E0,4.9999943E-1,2.4999967E0,4.9999952E-1,3.9999871E0,2.5E-1,4.9999905E-1,7.499992E-1,7.4999887E-1,2.4999996E-1,1.4999996E0,2.4999964E-1,9.99998E0,4.999997E-1,4.999991E-1,2.5E-1,2.4999954E-1,2.499992E0,1.4999955E0,5E-1,2.4999925E-1,2.499992E-1,9.749981E0],"tree_param":{"num_deleted":"0","num_feature":"3072","num_nodes":"93","size_leaf_vector":"0"}},{"base_weights":[-2.381263E-2,5.328658E-1,-1.2639277E0,-9.9782103E-1,7.637096E-1,5.590565E-1,-1.6322825E0,-1.480786E0,4.6088433E-1,1.4310585E0,3.3437857E-1,1.1983802E0,-4.3398346E-4,-1.7692975E0,3.9065536E-4,1.5636339E-4,-1.5968089E0,-3.34703E-4,4.6851762E-4,-4.60749E-1,1.6407174E0,-1.0322282E-1,9.389351E-1,-1.5632667E-4,1.3666859E0,2.8519753E-1,-7.1939395E-4,2.4050484E-4,-6.6884886E-4,-4.3375412E-4,4.995209E-1,7.3147536E-4,9.3043506E-1,6.369325E-1,-7.397858E-1,-4.6101183E-1,1.1837419E0,-1.5622779E-4,6.0735695E-4,2.6028274E-4,-1.5625017E-4,1.5626637E-4,-1.5615358E-4,3.3468398E-4,-1.5611354E-4,-2.6084122E-4,1.1398736E0,-5.707494E-1,1.0250357E0,-5.4056296E-4,-1.24893606E-1,5.000393E-1,-4.3408253E-4,-3.3450636E-4,1.3541154E0,-2.8603777E-1,1.3567495E0,-4.6850622E-4,4.9924067E-1,-1.5400156E-1,1.4260126E0,4.336097E-4,-5.177472E-1,-1.561389E-4,3.3493372E-4,1.5799426E0,-5.628868E-4,1.56074E-4,-2.6051898E-4,2.8363648E-1,1.4515123E0,-1.5614179E-4,3.3457912E-4,6.655075E-1,-3.9051857E-4,-1.5634343E-4,1.5528888E0,3.3469585E-4,-8.321773E-1,3.984119E-1,1.7107887E0,6.655257E-1,-3.3488622E-4,-1.5675127E-4,2.5998833E-4,2.8483993E-1,6.160105E-4,-3.1524902E-4,3.3460563E-4,2.8471935E-1,6.5049005E-4,-2.933544E-5,-1.2482443E0,-2.6074648E-4,3.9024898E-4,-1.1231513E-3,7.0230395E-4,3.9043796E-4,-1.5638777E-4,2.6020125E-4,-1.5634797E-4,-1.5633595E-4,1.5618812E-4,2.6009063E-4,-1.5628118E-4,2.6062934E-4,-1.5639144E-4,1.2981127E-7,-5.5774226E-4,-1.5659498E-4,1.5606814E-4],"categories":[],"categories_nodes":[],"categories_segments":[],"categories_sizes":[],"default_left":[false,false,false,false,false,false,false,false,false,false,false,false,false,false,false,false,false,false,false,false,false,false,false,false,false,false,false,false,false,false,false,false,false,false,false,false,false,false,false,false,false,false,false,false,false,false,false,false,false,false,false,false,false,false,false,false,false,false,false,false,false,false,false,false,false,false,false,false,false,false,false,false,false,false,false,false,false,false,false,false,false,false,false,false,false,false,false,false,false,false,false,false,false,false,false,false,false,false,false,false,false,false,false,false,false,false,false,false,false,false,false],"id":7,"left_children":[1,3,5,7,9,11,13,15,17,19,21,23,-1,25,-1,-1,27,-1,-1,29,31,33,35,-1,37,39,-1,41,-1,-1,43,-1,45,47,49,51,53,-1,-1,-1,-1,-1,-1,-1,-1,-1,55,57,59,-1,61,63,-1,-1,65,67,69,-1,71,73,75,-1,77,-1,-1,79,81,-1,-1,83,85,-1,-1,87,-1,-1,89,-1,91,93,95,97,-1,-1,-1,99,-1,101,-1,103,-1,105,107,-1,-1,109,-1,-1,-1,-1,-1,-1,-1,-1,-1,-1,-1,-1,-1,-1,-1],"loss_changes":[7.298692E1,2.6556479E1,2.2904232E1,7.7274857E0,1.7858295E1,8.000046E0,1.1683563E1,2.3298244E0,4.183279E0,1.057262E1,1.0745223E1,1.891499E0,0E0,4.385742E0,0E0,0E0,1.3671951E0,0E0,0E0,2.5790505E0,1.9411354E0,1.1896688E1,6.3718824E0,0E0,2.1892672E0,7.2229093E-1,0E0,3.9917192E-1,0E0,0E0,9.82954E-1,0E0,3.270153E0,6.092314E0,5.16467E0,2.5834973E0,6.283716E0,0E0,0E0,0E0,0E0,0E0,0E0,0E0,0E0,0E0,2.5527954E0,2.94899E0,4.5926905E0,0E0,4.4527335E0,9.838974E-1,0E0,0E0,4.283798E0,7.222087E-1,2.2386551E-1,0E0,9.8278147E-1,2.91524E0,2.2427168E0,0E0,3.6284378E0,0E0,0E0,1.1735821E0,2.2807853E0,0E0,0E0,7.236235E-1,3.4840298E-1,0E0,0E0,2.8553092E-1,0E0,0E0,4.7699165E-1,0E0,2.0773358E0,2.2635229E0,1.5426159E0,1.198431E0,0E0,0E0,0E0,7.224812E-1,0E0,3.9943808E-1,0E0,7.218654E-1,0E0,1.0668149E0,8.917694E-1,0E0,0E0,3.997927E-1,0E0,0E0,0E0,0E0,0E0,0E0,0E0,0E0,0E0,0E0,0E0,0E0,0E0,0E0,0E0],"parents":[2147483647,0,0,1,1,2,2,3,3,4,4,5,5,6,6,7,7,8,8,9,9,10,10,11,11,13,13,16,16,19,19,20,20,21,21,22,22,24,24,25,25,27,27,30,30,32,32,33,33,34,34,35,35,36,36,46,46,47,47,48,48,50,50,51,51,54,54,55,55,56,56,58,58,59,59,60,60,62,62,65,65,66,66,69,69,70,70,73,73,76,76,78,78,79,79,80,80,81,81,85,85,87,87,89,89,91,91,92,92,95,95],"right_children":[2,4,6,8,10,12,14,16,18,20,22,24,-1,26,-1,-1,28,-1,-1,30,32,34,36,-1,38,40,-1,42,-1,-1,44,-1,46,48,50,52,54,-1,-1,-1,-1,-1,-1,-1,-1,-1,56,58,60,-1,62,64,-1,-1,66,68,70,-1,72,74,76,-1,78,-1,-1,80,82,-1,-1,84,86,-1,-1,88,-1,-1,90,-1,92,94,96,98,-1,-1,-1,100,-1,102,-1,104,-1,106,108,-1,-1,110,-1,-1,-1,-1,-1,-1,-1,-1,-1,-1,-1,-1,-1,-1,-1],"split_conditions":[-2.0065308E-2,-8.580771E-3,-3.575482E-2,-3.2276511E-3,1.627459E-2,7.79691E-1,3.2083467E-2,7.79691E-1,1E0,-8.105469E-2,1.3038635E-2,1.3145447E-2,-4.3398346E-4,-2.2003174E-2,3.9065536E-4,1.5636339E-4,1E0,-3.34703E-4,4.6851762E-4,1E0,-1.9873312E-2,2.20309E-1,1E0,-1.5632667E-4,1E0,1E0,-7.1939395E-4,7.79691E-1,-6.6884886E-4,-4.3375412E-4,7.79691E-1,7.3147536E-4,-3.4606934E-2,1E0,1E0,1.1806867E-2,-2.1110399E-2,-1.5622779E-4,6.0735695E-4,2.6028274E-4,-1.5625017E-4,1.5626637E-4,-1.5615358E-4,3.3468398E-4,-1.5611354E-4,-2.6084122E-4,1E0,1E0,8.165652E-1,-5.4056296E-4,1E0,8.165652E-1,-4.3408253E-4,-3.3450636E-4,2.1575928E-2,1E0,1E0,-4.6850622E-4,7.79691E-1,1E0,1E0,4.336097E-4,1E0,-1.561389E-4,3.3493372E-4,8.165652E-1,1E0,1.56074E-4,-2.6051898E-4,7.79691E-1,1E0,-1.5614179E-4,3.3457912E-4,8.165652E-1,-3.9051857E-4,-1.5634343E-4,1E0,3.3469585E-4,1E0,7.79691E-1,1E0,1E0,-3.3488622E-4,-1.5675127E-4,2.5998833E-4,1E0,6.160105E-4,7.79691E-1,3.3460563E-4,7.79691E-1,6.5049005E-4,7.79691E-1,1E0,-2.6074648E-4,3.9024898E-4,7.79691E-1,7.0230395E-4,3.9043796E-4,-1.5638777E-4,2.6020125E-4,-1.5634797E-4,-1.5633595E-4,1.5618812E-4,2.6009063E-4,-1.5628118E-4,2.6062934E-4,-1.5639144E-4,1.2981127E-7,-5.5774226E-4,-1.5659498E-4,1.5606814E-4],"split_indices":[1110,2381,2916,2352,3057,253,2518,0,105,589,781,256,0,357,0,0,249,0,0,151,2403,43,105,0,254,9,0,8,0,0,0,0,355,110,57,2357,2318,0,0,0,0,0,0,0,0,0,90,35,133,0,65,101,0,0,385,44,73,0,50,160,122,0,242,0,0,133,130,0,0,28,154,0,0,30,0,0,113,0,192,150,183,159,0,0,0,4,0,0,0,0,0,37,113,0,0,0,0,0,0,0,0,0,0,0,0,0,0,0,0,0,0],"split_type":[0,0,0,0,0,0,0,0,0,0,0,0,0,0,0,0,0,0,0,0,0,0,0,0,0,0,0,0,0,0,0,0,0,0,0,0,0,0,0,0,0,0,0,0,0,0,0,0,0,0,0,0,0,0,0,0,0,0,0,0,0,0,0,0,0,0,0,0,0,0,0,0,0,0,0,0,0,0,0,0,0,0,0,0,0,0,0,0,0,0,0,0,0,0,0,0,0,0,0,0,0,0,0,0,0,0,0,0,0,0,0],"sum_hessian":[1.03749626E2,7.199977E1,3.1749851E1,8.99997E0,6.29998E1,5.2499905E0,2.649986E1,6.7499743E0,2.249996E0,2.3749903E1,3.92499E1,3.9999924E0,1.2499979E0,2.5499863E1,9.999993E-1,2.5E-1,6.4999743E0,7.499989E-1,1.499997E0,2.2499952E0,2.1499908E1,2.3249949E1,1.5999952E1,2.5E-1,3.7499924E0,7.49999E-1,2.4749863E1,4.9999937E-1,5.9999747E0,1.249997E0,9.9999815E-1,1.4999932E1,6.4999757E0,1.0749974E1,1.2499973E1,2.2499974E0,1.3749955E1,2.4999979E-1,3.4999926E0,4.9999914E-1,2.4999985E-1,2.4999988E-1,2.499995E-1,7.4999887E-1,2.4999931E-1,4.9999875E-1,5.999977E0,2.4999943E0,8.24998E0,5.499989E0,6.9999843E0,9.9999857E-1,1.2499988E0,7.4999774E-1,1.2999957E1,7.49999E-1,5.249978E0,1.4999974E0,9.999969E-1,2.2499967E0,5.9999833E0,1.2499962E0,5.749988E0,2.4999946E-1,7.499991E-1,1.099996E1,1.9999977E0,2.4999909E-1,4.9999988E-1,7.499956E-1,4.4999824E0,2.4999946E-1,7.499975E-1,1.2499981E0,9.9999857E-1,2.4999997E-1,5.7499833E0,7.4999857E-1,4.9999895E0,1.4999967E0,9.499963E0,1.2499983E0,7.499994E-1,2.4999852E-1,4.9999705E-1,7.499986E-1,3.7499838E0,4.9999964E-1,7.499984E-1,7.4999785E-1,4.9999857E0,1.9999979E0,2.999992E0,4.999997E-1,9.999969E-1,4.9999857E-1,8.999965E0,9.999984E-1,2.5E-1,4.9999863E-1,2.5E-1,2.5E-1,2.4999966E-1,4.999979E-1,2.4999991E-1,4.9999973E-1,1.4999981E0,4.999986E-1,2.4999933E0,2.499995E-1,2.4999906E-1],"tree_param":{"num_deleted":"0","num_feature":"3072","num_nodes":"111","size_leaf_vector":"0"}},{"base_weights":[-3.1145139E-2,4.5291537E-1,-1.5652702E0,-1.6086631E0,6.846211E-1,-1.7223223E0,6.660189E-1,1.5627932E-4,-6.758835E-4,1.1082687E0,1.866236E-1,2.137821E-5,-1.7623781E0,3.904878E-4,-1.5612066E-4,1.3037453E0,-2.8499472E-1,-9.9842083E-1,6.2323934E-1,1.561863E-4,-1.5617628E-4,-7.204301E-4,-5.434837E-1,-6.657738E-1,1.4062923E0,3.9068866E-4,-8.2235116E-1,4.994617E-1,-1.2480891E0,-3.64692E-4,9.9742615E-1,-7.977849E-1,1.5633464E-4,-3.9036846E-4,1.5610216E-4,1.5226926E-1,1.5007802E0,2.6030664E-4,-1.1983446E0,-1.5605928E-4,3.3461873E-4,-1.8323545E-1,-5.9301336E-4,4.8145953E-1,-9.3179363E-1,-5.000671E-1,1.1401093E0,3.0894336E-7,-3.9007908E-4,3.899933E-4,-6.6681343E-1,7.4099404E-1,1.7518709E0,-1.365146E-4,-5.4051593E-4,4.9882028E-1,-3.3542604E-4,-6.6564184E-1,8.313798E-1,1.5620157E-4,-1.1410521E0,1.5604642E-4,-3.3488E-4,1.4256102E0,5.5799025E-1,1.5606181E-4,-3.908003E-4,5.966286E-4,-4.6512307E-4,3.993315E-1,7.183854E-4,1.561111E-4,-1.561751E-4,-1.5633547E-4,3.345297E-4,-3.3447458E-4,-2.7763846E-4,-1.5394191E-1,5.7217444E-4,1.5607764E-4,-5.4041424E-4,-3.3167045E-4,1.6096456E0,1.1976964E0,-2.8683504E-1,9.078757E-1,-6.6645813E-1,-2.603264E-4,3.903831E-4,1.5624065E-4,-1.5637088E-4,6.6528344E-1,-3.903823E-4,-2.603907E-4,2.60218E-4,2.848836E-1,6.688366E-4,-1.5636119E-4,5.575026E-4,-3.909377E-4,3.9844874E-1,-1.561797E-4,4.6849708E-4,-4.206264E-4,2.600119E-4,-3.5935176E-7,3.3469527E-4,2.602626E-4,-1.5639779E-4,-2.6037553E-4,3.8998906E-4],"categories":[],"categories_nodes":[],"categories_segments":[],"categories_sizes":[],"default_left":[false,false,false,false,false,false,false,false,false,false,false,false,false,false,false,false,false,false,false,false,false,false,false,false,false,false,false,false,false,false,false,false,false,false,false,false,false,false,false,false,false,false,false,false,false,false,false,false,false,false,false,false,false,false,false,false,false,false,false,false,false,false,false,false,false,false,false,false,false,false,false,false,false,false,false,false,false,false,false,false,false,false,false,false,false,false,false,false,false,false,false,false,false,false,false,false,false,false,false,false,false,false,false,false,false,false,false,false,false,false,false],"id":8,"left_children":[1,3,5,7,9,11,13,-1,-1,15,17,19,21,-1,-1,23,25,27,29,-1,-1,-1,31,33,35,-1,37,39,41,43,45,47,-1,-1,-1,49,51,-1,53,-1,-1,55,-1,57,59,61,63,-1,-1,-1,65,67,69,71,-1,73,-1,75,77,-1,79,-1,-1,81,83,-1,-1,-1,85,87,-1,-1,-1,-1,-1,-1,89,91,-1,-1,-1,93,95,97,99,101,103,-1,-1,-1,-1,105,-1,-1,-1,107,-1,-1,-1,-1,109,-1,-1,-1,-1,-1,-1,-1,-1,-1,-1],"loss_changes":[7.199909E1,3.633005E1,9.2945175E0,2.562872E0,1.39284725E1,1.5177994E0,1.1967804E0,0E0,0E0,1.0176136E1,1.7179293E1,3.9902538E-1,1.1076431E0,0E0,0E0,7.348732E0,4.445225E0,3.9891272E0,5.6006117E0,0E0,0E0,0E0,9.787751E-1,1.1962475E0,3.3854103E0,0E0,3.1760604E0,9.8243356E-1,2.0122538E0,4.936459E0,3.7751255E0,4.001534E-1,0E0,0E0,0E0,2.9155097E0,4.0912476E0,0E0,8.279104E-1,0E0,0E0,1.6936613E0,0E0,3.4634995E0,1.500664E0,9.8319334E-1,1.5312519E0,0E0,0E0,0E0,1.1974431E0,5.0947895E0,1.6440964E0,3.9883018E-1,0E0,9.837372E-1,0E0,2.8412396E-1,3.9630914E0,0E0,1.852931E0,0E0,0E0,2.2967358E0,3.7212818E0,0E0,0E0,0E0,3.9322717E0,2.2609112E0,0E0,0E0,0E0,0E0,0E0,0E0,3.9966172E-1,2.9132352E0,0E0,0E0,0E0,1.3301061E0,5.5202675E-1,1.9387851E0,2.1090236E0,1.5233636E0,2.7604547E0,0E0,0E0,0E0,0E0,2.868905E-1,0E0,0E0,0E0,7.2287875E-1,0E0,0E0,0E0,0E0,2.2588954E0,0E0,0E0,0E0,0E0,0E0,0E0,0E0,0E0,0E0,0E0],"parents":[2147483647,0,0,1,1,2,2,3,3,4,4,5,5,6,6,9,9,10,10,11,11,12,12,15,15,16,16,17,17,18,18,22,22,23,23,24,24,26,26,27,27,28,28,29,29,30,30,31,31,35,35,36,36,38,38,41,41,43,43,44,44,45,45,46,46,50,50,51,51,52,52,53,53,55,55,57,57,58,58,60,60,63,63,64,64,68,68,69,69,76,76,77,77,81,81,82,82,83,83,84,84,85,85,86,86,91,91,95,95,100,100],"right_children":[2,4,6,8,10,12,14,-1,-1,16,18,20,22,-1,-1,24,26,28,30,-1,-1,-1,32,34,36,-1,38,40,42,44,46,48,-1,-1,-1,50,52,-1,54,-1,-1,56,-1,58,60,62,64,-1,-1,-1,66,68,70,72,-1,74,-1,76,78,-1,80,-1,-1,82,84,-1,-1,-1,86,88,-1,-1,-1,-1,-1,-1,90,92,-1,-1,-1,94,96,98,100,102,104,-1,-1,-1,-1,106,-1,-1,-1,108,-1,-1,-1,-1,110,-1,-1,-1,-1,-1,-1,-1,-1,-1,-1],"split_conditions":[9.117126E-3,-3.280644E-2,2.620953E-2,7.79691E-1,9.216435E-3,-3.3203125E-2,1E0,1.5627932E-4,-6.758835E-4,-2.3269653E-2,-1.9288756E-2,7.79691E-1,5.7589382E-2,3.904878E-4,-1.5612066E-4,4.131317E-3,1E0,1E0,-1.8554688E-2,1.561863E-4,-1.5617628E-4,-7.204301E-4,1E0,1E0,1E0,3.9068866E-4,1.8343478E-1,2.20309E-1,-2.8686523E-2,1E0,1E0,8.165652E-1,1.5633464E-4,-3.9036846E-4,1.5610216E-4,1E0,-3.2073975E-2,2.6030664E-4,1E0,-1.5605928E-4,3.3461873E-4,7.79691E-1,-5.9301336E-4,7.79691E-1,1E0,1E0,8.165652E-1,3.0894336E-7,-3.9007908E-4,3.899933E-4,1E0,1E0,-3.308461E-2,2.20309E-1,-5.4051593E-4,7.79691E-1,-3.3542604E-4,1E0,8.062744E-2,1.5620157E-4,1E0,1.5604642E-4,-3.3488E-4,-3.3966064E-2,1E0,1.5606181E-4,-3.908003E-4,5.966286E-4,7.79691E-1,7.79691E-1,7.183854E-4,1.561111E-4,-1.561751E-4,-1.5633547E-4,3.345297E-4,-3.3447458E-4,8.062744E-2,7.79691E-1,5.7217444E-4,1.5607764E-4,-5.4041424E-4,1E0,1E0,7.79691E-1,1E0,7.8809063E-4,1.9061103E-2,-2.603264E-4,3.903831E-4,1.5624065E-4,-1.5637088E-4,7.79691E-1,-3.903823E-4,-2.603907E-4,2.60218E-4,1E0,6.688366E-4,-1.5636119E-4,5.575026E-4,-3.909377E-4,2.20309E-1,-1.561797E-4,4.6849708E-4,-4.206264E-4,2.600119E-4,-3.5935176E-7,3.3469527E-4,2.602626E-4,-1.5639779E-4,-2.6037553E-4,3.8998906E-4],"split_indices":[575,2432,2675,18,3000,260,21,0,0,297,2550,0,2374,0,0,1280,79,203,594,0,0,0,19,29,90,0,164,2,273,219,10,180,0,0,0,195,378,0,202,0,0,54,0,8,21,23,188,0,0,0,34,207,2390,2,0,8,0,4,257,0,3,0,0,377,173,0,0,0,28,8,0,0,0,0,0,0,257,253,0,0,0,34,33,41,76,2306,2306,0,0,0,0,55,0,0,0,26,0,0,0,0,71,0,0,0,0,0,0,0,0,0,0],"split_type":[0,0,0,0,0,0,0,0,0,0,0,0,0,0,0,0,0,0,0,0,0,0,0,0,0,0,0,0,0,0,0,0,0,0,0,0,0,0,0,0,0,0,0,0,0,0,0,0,0,0,0,0,0,0,0,0,0,0,0,0,0,0,0,0,0,0,0,0,0,0,0,0,0,0,0,0,0,0,0,0,0,0,0,0,0,0,0,0,0,0,0,0,0,0,0,0,0,0,0,0,0,0,0,0,0,0,0,0,0,0,0],"sum_hessian":[9.499955E1,7.27497E1,2.2249847E1,6.749956E0,6.599975E1,2.099985E1,1.2499976E0,2.4999991E-1,6.499956E0,3.4999847E1,3.0999899E1,4.9999925E-1,2.0499851E1,9.999983E-1,2.4999937E-1,3.0749855E1,4.2499924E0,7.999974E0,2.2999926E1,2.4999964E-1,2.4999961E-1,1.8749855E1,1.7499945E0,1.2499971E0,2.9499859E1,9.999996E-1,3.2499928E0,9.999975E-1,6.999976E0,8.999973E0,1.3999952E1,1.4999945E0,2.4999999E-1,9.99998E-1,2.4999925E-1,2.2499926E0,2.7249865E1,4.9999923E-1,2.7499936E0,2.4999899E-1,7.4999857E-1,1.7499969E0,5.2499795E0,6.2499804E0,2.7499926E0,9.9999774E-1,1.2999954E1,4.9999928E-1,9.9999523E-1,9.9999404E-1,1.2499986E0,7.749974E0,1.9499891E1,4.9999893E-1,2.2499945E0,9.999979E-1,7.499989E-1,1.2499973E0,4.9999833E0,2.499997E-1,2.4999928E0,2.4999891E-1,7.499988E-1,7.7499714E0,5.249983E0,2.4999902E-1,9.9999964E-1,3.2499852E0,4.499989E0,1.4999973E0,1.7999893E1,2.499993E-1,2.4999961E-1,2.5E-1,7.499979E-1,7.499974E-1,4.9999982E-1,2.2499955E0,2.7499878E0,2.4999912E-1,2.2499938E0,9.999976E-1,6.749974E0,2.7499905E0,2.4999926E0,1.7499962E0,2.7499926E0,4.9999934E-1,9.999979E-1,2.4999982E-1,2.5E-1,1.249998E0,9.999975E-1,4.9999937E-1,4.999982E-1,7.4999905E-1,5.9999747E0,2.5E-1,2.4999905E0,9.999989E-1,1.4999937E0,2.4999961E-1,1.4999967E0,2.2499952E0,4.9999726E-1,4.9999905E-1,7.499989E-1,4.9999905E-1,2.5E-1,4.999995E-1,9.9999416E-1],"tree_param":{"num_deleted":"0","num_feature":"3072","num_nodes":"111","size_leaf_vector":"0"}},{"base_weights":[-8.2747236E-2,4.4356754E-1,-1.4716872E0,7.334518E-1,-7.8388757E-1,9.983427E-1,-1.7116241E0,1.2520529E0,7.464773E-2,3.985427E-1,-1.2967144E0,-1.563146E-4,4.9681426E-4,-1.7859432E0,2.8567046E-1,-1.05926916E-1,1.4344516E0,8.5436356E-1,-4.1133243E-1,-7.9908806E-1,1.140125E0,4.9948245E-1,-1.5517908E0,-4.98197E-1,-7.1159826E-4,-1.5610846E-4,2.6038024E-4,4.3318697E-4,-8.561025E-1,1.5765163E0,-1.5435848E-1,-1.1842596E-1,1.3067768E0,6.650162E-1,-7.396462E-1,-5.6427764E-4,-3.9031857E-4,2.845006E-1,4.964895E-4,-1.561356E-4,3.3468258E-4,-2.8469527E-1,-6.381822E-4,3.089123E-7,-2.5998897E-4,1.5599983E-4,-1.0754366E0,1.8142936E-1,1.6687604E0,-3.3474423E-4,3.9872867E-1,7.9760015E-1,-9.081109E-1,4.5875692E-1,6.241715E-4,-6.660372E-1,5.402238E-4,-9.0053725E-1,3.3432874E-4,-1.5630541E-4,1.5604084E-4,-1.5657183E-4,2.6023292E-4,-2.6021272E-4,1.5644095E-4,-2.7245303E-4,-4.96802E-4,3.346324E-4,-4.995265E-1,4.6958073E-4,1.7397319E0,3.3451145E-4,-2.8606954E-1,-1.5631154E-4,4.3329078E-4,1.562613E-4,-4.68639E-4,3.898637E-4,-2.2381546E-1,1.5597563E-4,-3.9040504E-4,-2.0024092E-1,-1.1977884E0,-1.562153E-4,1.5608757E-4,1.5626711E-4,-3.3479626E-4,2.6041767E-4,-2.601731E-4,4.97979E-1,6.930357E-4,1.5605132E-4,-2.605146E-4,2.5995978E-4,-3.353171E-4,-6.6589713E-1,6.648494E-1,2.2154139E-1,-1.4638822E0,-1.5642063E-4,3.3421488E-4,-4.1312008E-4,-4.3368567E-4,-1.5629834E-4,3.900848E-4,-2.6019596E-4,3.3437734E-4,7.298901E-4,-6.6040515E-4,1.9514014E-4,-2.6045588E-4,-2.6006866E-4,2.6044896E-4],"categories":[],"categories_nodes":[],"categories_segments":[],"categories_sizes":[],"default_left":[false,false,false,false,false,false,false,false,false,false,false,false,false,false,false,false,false,false,false,false,false,false,false,false,false,false,false,false,false,false,false,false,false,false,false,false,false,false,false,false,false,false,false,false,false,false,false,false,false,false,false,false,false,false,false,false,false,false,false,false,false,false,false,false,false,false,false,false,false,false,false,false,false,false,false,false,false,false,false,false,false,false,false,false,false,false,false,false,false,false,false,false,false,false,false,false,false,false,false,false,false,false,false,false,false,false,false,false,false,false,false,false,false],"id":9,"left_children":[1,3,5,7,9,11,13,15,17,19,21,-1,-1,23,25,27,29,31,33,35,37,39,41,43,-1,-1,-1,-1,45,47,49,51,53,55,57,59,-1,61,-1,-1,-1,63,-1,-1,-1,-1,65,67,69,-1,71,73,75,77,-1,79,-1,81,-1,-1,-1,-1,-1,-1,-1,83,-1,-1,85,87,89,-1,91,-1,-1,-1,-1,-1,93,-1,-1,95,97,-1,-1,-1,-1,-1,-1,99,-1,-1,-1,-1,-1,101,103,105,107,-1,-1,109,-1,-1,-1,-1,-1,111,-1,-1,-1,-1,-1],"loss_changes":[7.119576E1,2.5749077E1,1.7562088E1,1.96371E1,9.00611E0,1.6512225E0,4.183975E0,8.140022E0,1.039294E1,5.351756E0,5.356745E0,0E0,0E0,1.5408325E-1,7.219547E-1,5.2745905E0,6.676159E0,4.775819E0,6.499316E0,3.9739752E-1,2.767849E-2,9.8307645E-1,4.5532608E-1,1.6704321E-1,0E0,0E0,0E0,0E0,1.3926895E0,3.0752945E0,1.6031429E0,3.7986333E0,1.0496073E0,5.2142973E0,4.2342243E0,3.989834E-1,0E0,7.2355413E-1,0E0,0E0,0E0,7.2292185E-1,0E0,0E0,0E0,0E0,6.823838E-1,1.6907926E0,2.8999863E0,0E0,1.027085E0,1.3734646E0,1.5245743E0,1.4178239E0,0E0,1.1955094E0,0E0,2.4142332E0,0E0,0E0,0E0,0E0,0E0,0E0,0E0,3.9887273E-1,0E0,0E0,9.8419595E-1,1.3300148E0,8.181E-2,0E0,7.220963E-1,0E0,0E0,0E0,0E0,0E0,1.8380971E0,0E0,0E0,2.4568906E0,3.628954E0,0E0,0E0,0E0,0E0,0E0,0E0,9.8322E-1,0E0,0E0,0E0,0E0,0E0,1.1062549E0,1.1966178E0,1.8343734E0,2.47756E0,0E0,0E0,1.1641674E0,0E0,0E0,0E0,0E0,0E0,1.3296399E0,0E0,0E0,0E0,0E0,0E0],"parents":[2147483647,0,0,1,1,2,2,3,3,4,4,5,5,6,6,7,7,8,8,9,9,10,10,13,13,14,14,15,15,16,16,17,17,18,18,19,19,20,20,21,21,22,22,23,23,28,28,29,29,30,30,31,31,32,32,33,33,34,34,35,35,37,37,41,41,46,46,47,47,48,48,50,50,51,51,52,52,53,53,55,55,57,57,65,65,68,68,69,69,70,70,72,72,78,78,81,81,82,82,89,89,95,95,96,96,97,97,98,98,101,101,107,107],"right_children":[2,4,6,8,10,12,14,16,18,20,22,-1,-1,24,26,28,30,32,34,36,38,40,42,44,-1,-1,-1,-1,46,48,50,52,54,56,58,60,-1,62,-1,-1,-1,64,-1,-1,-1,-1,66,68,70,-1,72,74,76,78,-1,80,-1,82,-1,-1,-1,-1,-1,-1,-1,84,-1,-1,86,88,90,-1,92,-1,-1,-1,-1,-1,94,-1,-1,96,98,-1,-1,-1,-1,-1,-1,100,-1,-1,-1,-1,-1,102,104,106,108,-1,-1,110,-1,-1,-1,-1,-1,112,-1,-1,-1,-1,-1],"split_conditions":[-1.4541626E-2,3.4963906E-2,-5.2729275E-2,2.3893168E-2,1E0,8.165652E-1,1.1552857E-2,-1.6320921E-2,-2.3698252E-2,1E0,1E0,-1.563146E-4,4.9681426E-4,-9.50491E-2,1.8343478E-1,-8.692917E-3,1.9836426E-2,1E0,1E0,1E0,9.109497E-3,1E0,1E0,1E0,-7.1159826E-4,-1.5610846E-4,2.6038024E-4,4.3318697E-4,1E0,-1.3261798E-2,2.20309E-1,1E0,1E0,2.20309E-1,4.2907715E-2,8.062744E-2,-3.9031857E-4,2.20309E-1,4.964895E-4,-1.561356E-4,3.3468258E-4,1E0,-6.381822E-4,3.089123E-7,-2.5998897E-4,1.5599983E-4,8.165652E-1,2.20309E-1,-5.291748E-2,-3.3474423E-4,2.20309E-1,1E0,1E0,1E0,6.241715E-4,7.79691E-1,5.402238E-4,1E0,3.3432874E-4,-1.5630541E-4,1.5604084E-4,-1.5657183E-4,2.6023292E-4,-2.6021272E-4,1.5644095E-4,1E0,-4.96802E-4,3.346324E-4,7.79691E-1,1E0,-2.545166E-2,3.3451145E-4,1.8343478E-1,-1.5631154E-4,4.3329078E-4,1.562613E-4,-4.68639E-4,3.898637E-4,8.165652E-1,1.5597563E-4,-3.9040504E-4,1E0,2.20309E-1,-1.562153E-4,1.5608757E-4,1.5626711E-4,-3.3479626E-4,2.6041767E-4,-2.601731E-4,1E0,6.930357E-4,1.5605132E-4,-2.605146E-4,2.5995978E-4,-3.353171E-4,1E0,1E0,1E0,1.8343478E-1,-1.5642063E-4,3.3421488E-4,1E0,-4.3368567E-4,-1.5629834E-4,3.900848E-4,-2.6019596E-4,3.3437734E-4,1E0,-6.6040515E-4,1.9514014E-4,-2.6045588E-4,-2.6006866E-4,2.6044896E-4],"split_indices":[1110,2458,2888,3057,131,133,2412,2995,2640,159,25,0,0,2371,11,485,340,98,85,10,261,5,94,5,0,0,0,0,155,2310,215,160,157,199,264,257,0,22,0,0,0,69,0,0,0,0,188,227,300,0,194,29,79,9,0,13,0,21,0,0,0,0,0,0,0,9,0,0,13,10,264,0,11,0,0,0,0,0,93,0,0,68,227,0,0,0,0,0,0,21,0,0,0,0,0,3,86,98,48,0,0,131,0,0,0,0,0,57,0,0,0,0,0],"split_type":[0,0,0,0,0,0,0,0,0,0,0,0,0,0,0,0,0,0,0,0,0,0,0,0,0,0,0,0,0,0,0,0,0,0,0,0,0,0,0,0,0,0,0,0,0,0,0,0,0,0,0,0,0,0,0,0,0,0,0,0,0,0,0,0,0,0,0,0,0,0,0,0,0,0,0,0,0,0,0,0,0,0,0,0,0,0,0,0,0,0,0,0,0,0,0,0,0,0,0,0,0,0,0,0,0,0,0,0,0,0,0,0,0],"sum_hessian":[9.549943E1,6.974965E1,2.574978E1,5.674971E1,1.2999941E1,1.9999946E0,2.3749786E1,3.1249811E1,2.5499899E1,3.9999852E0,8.999955E0,2.4999997E-1,1.7499946E0,2.2999786E1,7.4999887E-1,3.7499835E0,2.7499826E1,9.49996E0,1.5999939E1,1.4999963E0,2.4999888E0,9.9999833E-1,7.999957E0,9.999964E-1,2.199979E1,2.4999928E-1,4.9999958E-1,1.2499907E0,2.4999928E0,2.5249832E1,2.2499952E0,3.2499902E0,6.24997E0,3.4999857E0,1.2499953E1,4.999988E-1,9.999975E-1,7.499985E-1,1.7499903E0,2.4999943E-1,7.499989E-1,7.499987E-1,7.2499585E0,4.9999928E-1,4.999971E-1,2.4999858E-1,2.2499943E0,1.7499967E0,2.3499836E1,7.4999917E-1,1.4999962E0,1.4999921E0,1.7499981E0,2.249989E0,3.9999812E0,1.2499961E0,2.2499895E0,1.1749957E1,7.499962E-1,2.4999994E-1,2.4999888E-1,2.499996E-1,4.999989E-1,4.9999872E-1,2.4999997E-1,4.9999893E-1,1.7499955E0,7.499977E-1,9.999989E-1,9.999981E-1,2.2499838E1,7.4999785E-1,7.4999833E-1,2.4999994E-1,1.2499923E0,2.4999988E-1,1.4999982E0,9.9999255E-1,1.2499964E0,2.4999839E-1,9.999976E-1,3.9999895E0,7.7499676E0,2.4999976E-1,2.4999917E-1,2.4999988E-1,7.4999905E-1,4.9999967E-1,4.9999845E-1,9.9999493E-1,2.1499842E1,2.4999894E-1,4.9999934E-1,4.9999678E-1,7.4999964E-1,2.7499943E0,1.2499952E0,1.2499951E0,6.4999723E0,2.4999997E-1,7.4999493E-1,1.4999983E0,1.2499961E0,2.4999994E-1,9.9999523E-1,4.999987E-1,7.499964E-1,9.999962E-1,5.499976E0,9.999986E-1,4.999997E-1,4.9999768E-1,4.999985E-1],"tree_param":{"num_deleted":"0","num_feature":"3072","num_nodes":"113","size_leaf_vector":"0"}},{"base_weights":[-6.653368E-2,4.6546167E-1,-1.2892319E0,-1.4733822E0,6.33036E-1,9.310693E-1,-1.5498595E0,1.5636517E-4,-6.377083E-4,1.2103586E0,1.7594649E-1,-2.60504E-4,5.4021314E-4,6.6575974E-1,-1.6832696E0,3.3180535E-1,1.5451902E0,6.932914E-1,-6.4268893E-1,3.9035862E-4,-1.5609627E-4,2.868887E-1,-1.7538502E0,-9.9764305E-1,8.541687E-1,7.6612616E-1,6.989281E-4,-5.698783E-1,8.7513596E-1,4.335458E-4,-8.870329E-1,-1.5582606E-4,2.6070038E-4,2.2220628E-4,-6.996301E-4,1.561194E-4,-4.9642724E-4,-3.346239E-4,1.1963416E0,-3.9075047E-4,1.2688937E0,2.6032282E-4,-9.9781215E-1,6.062857E-4,5.065658E-1,3.5211125E-1,-1.3142842E0,-1.5609124E-4,1.5619543E-4,-1.5629733E-4,1.3294834E0,-1.5629956E-4,1.4245121E0,1.0411358E-3,-4.683333E-4,-4.600405E-1,7.173585E-1,-3.3452682E-4,8.5542554E-1,1.5625487E-4,-1.3971043E0,-1.0010907E-3,6.2383845E-4,-7.009909E-4,6.155903E-4,-1.5589946E-4,1.5638758E-4,-7.9859275E-1,2.8648522E-1,-3.3480438E-4,8.907016E-1,-2.5985367E-4,5.2007317E-4,-7.358466E-1,-6.5524643E-4,-2.607107E-4,2.6018906E-4,1.5603361E-4,-1.5636231E-4,1.5600918E-4,-4.3355353E-4,2.6067707E-4,-1.5601891E-4,-1.548576E-1,1.1546355E0,-5.405011E-4,3.992789E-1,3.34421E-4,-3.1279444E-4,-1.1184858E-4,5.12441E-4,-2.6004895E-4,3.901492E-4],"categories":[],"categories_nodes":[],"categories_segments":[],"categories_sizes":[],"default_left":[false,false,false,false,false,false,false,false,false,false,false,false,false,false,false,false,false,false,false,false,false,false,false,false,false,false,false,false,false,false,false,false,false,false,false,false,false,false,false,false,false,false,false,false,false,false,false,false,false,false,false,false,false,false,false,false,false,false,false,false,false,false,false,false,false,false,false,false,false,false,false,false,false,false,false,false,false,false,false,false,false,false,false,false,false,false,false,false,false,false,false,false,false],"id":10,"left_children":[1,3,5,7,9,11,13,-1,-1,15,17,-1,-1,19,21,23,25,27,29,-1,-1,31,33,35,37,39,-1,41,43,-1,45,-1,-1,47,-1,-1,-1,-1,49,-1,51,-1,53,-1,55,57,59,-1,-1,-1,61,-1,63,65,-1,67,69,-1,71,-1,73,75,-1,77,-1,-1,-1,79,81,-1,83,-1,-1,85,-1,-1,-1,-1,-1,-1,-1,-1,-1,87,89,-1,91,-1,-1,-1,-1,-1,-1],"loss_changes":[6.385782E1,2.3188251E1,1.8658348E1,2.3531046E0,1.6609808E1,3.6212904E0,9.101395E0,0E0,0E0,7.7239304E0,1.600974E1,0E0,0E0,1.1961739E0,4.083786E0,7.1022224E0,2.4113693E0,5.781806E0,7.2969627E0,0E0,0E0,7.2164965E-1,1.5705719E0,1.6479931E0,5.120153E0,7.0384674E0,0E0,2.5153666E0,4.320072E0,0E0,7.609993E0,0E0,0E0,3.988313E-1,0E0,0E0,0E0,0E0,1.8597479E0,0E0,1.9977827E0,0E0,6.0111713E-1,0E0,3.335367E0,3.315652E0,2.0134296E0,0E0,0E0,0E0,2.1274204E0,0E0,1.1247292E0,3.988315E-1,0E0,1.0501816E0,4.1728787E0,0E0,3.411096E0,0E0,6.116581E-1,1.3315934E0,0E0,3.9911017E-1,0E0,0E0,0E0,1.3720869E0,7.224285E-1,0E0,3.4213028E0,0E0,0E0,4.039254E0,0E0,0E0,0E0,0E0,0E0,0E0,0E0,0E0,0E0,2.8032193E0,2.512824E0,0E0,2.2572072E0,0E0,0E0,0E0,0E0,0E0,0E0],"parents":[2147483647,0,0,1,1,2,2,3,3,4,4,5,5,6,6,9,9,10,10,13,13,14,14,15,15,16,16,17,17,18,18,21,21,22,22,23,23,24,24,25,25,27,27,28,28,30,30,33,33,38,38,40,40,42,42,44,44,45,45,46,46,50,50,52,52,53,53,55,55,56,56,58,58,60,60,61,61,63,63,67,67,68,68,70,70,73,73,83,83,84,84,86,86],"right_children":[2,4,6,8,10,12,14,-1,-1,16,18,-1,-1,20,22,24,26,28,30,-1,-1,32,34,36,38,40,-1,42,44,-1,46,-1,-1,48,-1,-1,-1,-1,50,-1,52,-1,54,-1,56,58,60,-1,-1,-1,62,-1,64,66,-1,68,70,-1,72,-1,74,76,-1,78,-1,-1,-1,80,82,-1,84,-1,-1,86,-1,-1,-1,-1,-1,-1,-1,-1,-1,88,90,-1,92,-1,-1,-1,-1,-1,-1],"split_conditions":[-2.0065308E-2,-2.5895828E-2,-5.2729275E-2,7.79691E-1,-5.331421E-2,1E0,-1.8991025E-2,1.5636517E-4,-6.377083E-4,-5.3088196E-2,1.9798813E-2,-2.60504E-4,5.4021314E-4,1.8343478E-1,1E0,1E0,1.345525E-3,-2.7471757E-2,2.20309E-1,3.9035862E-4,-1.5609627E-4,1.8343478E-1,-3.463745E-2,1E0,2.20309E-1,7.79691E-1,6.989281E-4,1E0,2.877382E-4,4.335458E-4,7.79691E-1,-1.5582606E-4,2.6070038E-4,1E0,-6.996301E-4,1.561194E-4,-4.9642724E-4,-3.346239E-4,7.79691E-1,-3.9075047E-4,1E0,2.6032282E-4,1E0,6.062857E-4,7.79691E-1,1E0,-2.8402079E-2,-1.5609124E-4,1.5619543E-4,-1.5629733E-4,3.554434E-2,-1.5629956E-4,7.79691E-1,1.8343478E-1,-4.683333E-4,8.165652E-1,1E0,-3.3452682E-4,2.20309E-1,1.5625487E-4,7.79691E-1,1E0,6.2383845E-4,7.79691E-1,6.155903E-4,-1.5589946E-4,1.5638758E-4,1.8343478E-1,7.79691E-1,-3.3480438E-4,1E0,-2.5985367E-4,5.2007317E-4,7.79691E-1,-6.5524643E-4,-2.607107E-4,2.6018906E-4,1.5603361E-4,-1.5636231E-4,1.5600918E-4,-4.3355353E-4,2.6067707E-4,-1.5601891E-4,1E0,2.20309E-1,-5.405011E-4,7.79691E-1,3.34421E-4,-3.1279444E-4,-1.1184858E-4,5.12441E-4,-2.6004895E-4,3.901492E-4],"split_indices":[1110,3008,2888,0,1160,60,2334,0,0,2463,2355,0,0,6,64,38,2326,2867,117,0,0,6,260,14,199,8,0,38,2399,0,243,0,0,9,0,0,0,0,41,0,60,0,146,0,147,168,2304,0,0,0,256,0,112,6,0,40,116,0,217,0,0,99,0,0,0,0,0,17,8,0,38,0,0,103,0,0,0,0,0,0,0,0,0,236,194,0,13,0,0,0,0,0,0],"split_type":[0,0,0,0,0,0,0,0,0,0,0,0,0,0,0,0,0,0,0,0,0,0,0,0,0,0,0,0,0,0,0,0,0,0,0,0,0,0,0,0,0,0,0,0,0,0,0,0,0,0,0,0,0,0,0,0,0,0,0,0,0,0,0,0,0,0,0,0,0,0,0,0,0,0,0,0,0,0,0,0,0,0,0,0,0,0,0,0,0,0,0,0,0],"sum_hessian":[9.6249306E1,6.749959E1,2.8749718E1,4.7499547E0,6.274963E1,2.7499895E0,2.599973E1,2.5E-1,4.4999547E0,2.699981E1,3.574982E1,4.9999988E-1,2.2499895E0,1.2499964E0,2.4749733E1,7.9999576E0,1.8999853E1,2.1999886E1,1.3749936E1,9.9999726E-1,2.4999923E-1,7.499934E-1,2.3999739E1,1.99999E0,5.9999676E0,5.4999685E0,1.3499885E1,2.4999928E0,1.9499893E1,1.2499951E0,1.2499941E1,2.4999696E-1,4.9999642E-1,4.9999887E-1,2.349974E1,2.4999934E-1,1.7499906E0,7.499981E-1,5.2499695E0,9.9999857E-1,4.49997E0,4.9999934E-1,1.9999934E0,5.7499523E0,1.374994E1,3.2499824E0,9.249959E0,2.499992E-1,2.4999969E-1,2.4999994E-1,4.9999695E0,2.4999994E-1,4.24997E0,4.9999774E-1,1.4999957E0,2.2499928E0,1.1499947E1,7.499975E-1,2.4999847E0,2.4999987E-1,8.999959E0,9.999982E-1,3.9999714E0,4.999988E-1,3.749971E0,2.4999772E-1,2.5E-1,1.4999942E0,7.499987E-1,7.4999905E-1,1.0749948E1,4.9999565E-1,1.9999892E0,3.749988E0,5.249971E0,4.9999958E-1,4.999986E-1,2.4999882E-1,2.5E-1,2.4999866E-1,1.2499955E0,4.9999997E-1,2.4999872E-1,2.2499945E0,8.499953E0,2.249995E0,1.4999931E0,7.4999696E-1,1.4999975E0,7.499965E-1,7.749957E0,4.9999744E-1,9.9999565E-1],"tree_param":{"num_deleted":"0","num_feature":"3072","num_nodes":"93","size_leaf_vector":"0"}},{"base_weights":[8.503191E-2,-1.6068363E0,5.9149265E-1,-1.8049507E0,3.3207458E-1,-1.1749573E0,8.334034E-1,-1.8501767E0,1.5590295E-4,-3.3456224E-4,4.3330618E-4,-2.2018358E-1,-6.545738E-4,-4.1792455E-1,1.0472746E0,2.455981E-3,-7.410005E-4,-9.0650994E-1,5.4620874E-1,-1.1641194E0,4.3339744E-1,7.674037E-2,1.2934386E0,1.5690931E-4,-1.5575728E-4,1.5601935E-4,-4.6782978E-4,-2.59793E-4,4.3417484E-4,-5.9662305E-4,-1.8127869E-1,-7.982876E-1,1.0559433E0,-1.1973128E0,7.7602184E-1,-5.441728E-1,1.3765326E0,-3.3441777E-4,4.992533E-1,-4.334713E-4,1.560993E-4,-2.847406E-1,5.5691396E-4,1.5604225E-4,-1.3653709E0,1.3967466E0,9.298953E-5,2.599409E-4,-4.3330132E-4,-4.9857113E-1,1.4301752E0,-1.5608466E-4,3.3454382E-4,1.5637535E-4,-2.6017884E-4,-2.8451657E-1,-5.851834E-4,-1.56218E-4,6.1587844E-4,3.9003757E-4,-4.9874276E-1,1.5616906E-4,-3.3429964E-4,1.4693402E0,-2.6019613E-4,1.5638863E-4,-2.6008772E-4,4.999441E-1,-9.982876E-1,1.0220643E0,1.7565703E0,-1.5607712E-4,3.3484696E-4,2.8487152E-4,-4.6837848E-4,-3.3460459E-4,1.1428334E0,1.7920408E0,2.6547926E-4,-1.5578725E-4,1.559207E-4,-5.2799696E-5,5.359306E-4,1.9458891E-4,7.136729E-4,1.5621535E-4,-1.5609087E-4],"categories":[],"categories_nodes":[],"categories_segments":[],"categories_sizes":[],"default_left":[false,false,false,false,false,false,false,false,false,false,false,false,false,false,false,false,false,false,false,false,false,false,false,false,false,false,false,false,false,false,false,false,false,false,false,false,false,false,false,false,false,false,false,false,false,false,false,false,false,false,false,false,false,false,false,false,false,false,false,false,false,false,false,false,false,false,false,false,false,false,false,false,false,false,false,false,false,false,false,false,false,false,false,false,false,false,false],"id":11,"left_children":[1,3,5,7,9,11,13,15,-1,-1,-1,17,-1,19,21,23,-1,25,27,29,31,33,35,-1,-1,-1,-1,-1,-1,-1,37,39,41,43,45,47,49,-1,51,-1,-1,53,-1,-1,55,57,59,-1,-1,61,63,-1,-1,-1,-1,65,-1,-1,-1,-1,67,-1,-1,69,-1,-1,-1,71,73,75,77,-1,-1,79,-1,-1,81,83,85,-1,-1,-1,-1,-1,-1,-1,-1],"loss_changes":[8.642195E1,9.530201E0,3.409652E1,2.8557434E0,3.7151268E0,4.2806425E0,1.8836632E1,1.7672653E0,0E0,0E0,0E0,2.8621104E0,0E0,7.333453E0,1.3996361E1,3.9979786E-1,0E0,1.5195436E0,2.617322E0,1.8583269E0,5.2519116E0,1.2511071E1,7.925659E0,0E0,0E0,0E0,0E0,0E0,0E0,0E0,1.6887511E0,1.3724837E0,2.5061326E0,1.8864894E0,4.334594E0,2.6130219E0,5.264496E0,0E0,9.823402E-1,0E0,0E0,7.225355E-1,0E0,0E0,2.4939156E-1,2.2343426E0,2.9858506E0,0E0,0E0,9.820458E-1,4.6100006E0,0E0,0E0,0E0,0E0,7.2232735E-1,0E0,0E0,0E0,0E0,2.4946377E0,0E0,0E0,3.8252335E0,0E0,0E0,0E0,9.832648E-1,5.989635E-1,5.400793E0,1.5725098E0,0E0,0E0,3.9735377E-1,0E0,0E0,5.650036E0,1.656189E-1,3.9888126E-1,0E0,0E0,0E0,0E0,0E0,0E0,0E0,0E0],"parents":[2147483647,0,0,1,1,2,2,3,3,4,4,5,5,6,6,7,7,11,11,13,13,14,14,15,15,17,17,18,18,19,19,20,20,21,21,22,22,30,30,31,31,32,32,33,33,34,34,35,35,36,36,38,38,41,41,44,44,45,45,46,46,49,49,50,50,55,55,60,60,63,63,67,67,68,68,69,69,70,70,73,73,76,76,77,77,78,78],"right_children":[2,4,6,8,10,12,14,16,-1,-1,-1,18,-1,20,22,24,-1,26,28,30,32,34,36,-1,-1,-1,-1,-1,-1,-1,38,40,42,44,46,48,50,-1,52,-1,-1,54,-1,-1,56,58,60,-1,-1,62,64,-1,-1,-1,-1,66,-1,-1,-1,-1,68,-1,-1,70,-1,-1,-1,72,74,76,78,-1,-1,80,-1,-1,82,84,86,-1,-1,-1,-1,-1,-1,-1,-1],"split_conditions":[-7.801056E-3,1.1157666E-3,-4.2506304E-2,2.1255493E-2,7.79691E-1,1E0,7.79691E-1,1E0,1.5590295E-4,-3.3456224E-4,4.3330618E-4,-9.300232E-3,-6.545738E-4,3.262471E-2,-2.9066041E-2,8.81958E-2,-7.410005E-4,1.8343478E-1,8.165652E-1,2.20309E-1,1E0,1E0,3.8482666E-2,1.5690931E-4,-1.5575728E-4,1.5601935E-4,-4.6782978E-4,-2.59793E-4,4.3417484E-4,-5.9662305E-4,1E0,2.20309E-1,7.79691E-1,1E0,1E0,1E0,-2.6672421E-2,-3.3441777E-4,7.79691E-1,-4.334713E-4,1.560993E-4,1E0,5.5691396E-4,1.5604225E-4,8.165652E-1,1E0,1E0,2.599409E-4,-4.3330132E-4,1E0,3.35083E-2,-1.5608466E-4,3.3454382E-4,1.5637535E-4,-2.6017884E-4,7.79691E-1,-5.851834E-4,-1.56218E-4,6.1587844E-4,3.9003757E-4,1E0,1.5616906E-4,-3.3429964E-4,1.6131785E-2,-2.6019613E-4,1.5638863E-4,-2.6008772E-4,7.79691E-1,1E0,-3.0654907E-2,2.1759033E-2,-1.5607712E-4,3.3484696E-4,1E0,-4.6837848E-4,-3.3460459E-4,1E0,-2.0675402E-2,8.165652E-1,-1.5578725E-4,1.559207E-4,-5.2799696E-5,5.359306E-4,1.9458891E-4,7.136729E-4,1.5621535E-4,-1.5609087E-4],"split_indices":[486,2437,2604,266,8,98,176,144,0,0,0,434,0,2740,2857,256,0,16,66,223,75,225,1289,0,0,0,0,0,0,0,38,42,56,137,89,168,2919,0,8,0,0,5,0,0,66,94,178,0,0,21,876,0,0,0,0,50,0,0,0,0,85,0,0,2549,0,0,0,12,74,439,308,0,0,1,0,0,10,2310,20,0,0,0,0,0,0,0,0],"split_type":[0,0,0,0,0,0,0,0,0,0,0,0,0,0,0,0,0,0,0,0,0,0,0,0,0,0,0,0,0,0,0,0,0,0,0,0,0,0,0,0,0,0,0,0,0,0,0,0,0,0,0,0,0,0,0,0,0,0,0,0,0,0,0,0,0,0,0,0,0,0,0,0,0,0,0,0,0,0,0,0,0,0,0,0,0,0,0],"sum_hessian":[9.874914E1,2.224971E1,7.649943E1,2.0249722E1,1.9999893E0,8.749916E0,6.774951E1,1.9999723E1,2.4999775E-1,7.4999774E-1,1.2499915E0,3.4999776E0,5.2499385E0,9.7499485E0,5.799956E1,4.9999315E-1,1.9499731E1,1.7499866E0,1.7499909E0,4.999977E0,4.749971E0,1.1999941E1,4.599962E1,2.4999703E-1,2.4999611E-1,2.4999873E-1,1.499988E0,4.9999493E-1,1.249996E0,3.2499843E0,1.749993E0,1.499993E0,3.249978E0,3.9999828E0,7.999958E0,1.7499886E0,4.424963E1,7.499958E-1,9.9999714E-1,1.2499937E0,2.4999924E-1,7.499978E-1,2.4999804E0,2.4999888E-1,3.7499838E0,3.9999757E0,3.9999824E0,4.9999645E-1,1.2499921E0,9.999951E-1,4.3249634E1,2.4999914E-1,7.49998E-1,2.5E-1,4.999978E-1,7.4999785E-1,2.999986E0,2.4999976E-1,3.749976E0,9.999942E-1,2.999988E0,2.4999958E-1,7.4999547E-1,4.2749638E1,4.9999863E-1,2.5E-1,4.9999788E-1,9.9999857E-1,1.9999895E0,1.8499884E1,2.4249752E1,2.499991E-1,7.499994E-1,4.999944E-1,1.4999951E0,7.49998E-1,1.7749886E1,2.3749754E1,4.9999893E-1,2.499965E-1,2.4999791E-1,2.7499838E0,1.4999902E1,9.9999374E-1,2.274976E1,2.4999975E-1,2.499992E-1],"tree_param":{"num_deleted":"0","num_feature":"3072","num_nodes":"87","size_leaf_vector":"0"}},{"base_weights":[5.0147343E-3,4.5543292E-1,-1.3873969E0,6.310253E-1,-1.5326483E0,-1.6015121E0,9.078697E-1,-5.959115E-4,7.5691885E-1,1.5631902E-4,-6.543885E-4,2.6025242E-4,-1.6814841E0,-1.5602617E-4,4.684176E-4,-1.0587299E-1,1.071214E0,1.5612331E-4,-1.722814E0,-6.0675974E-4,3.208287E-1,6.635514E-1,1.5760018E0,-2.8282917E-1,-6.879938E-4,-6.6600096E-1,8.541771E-1,1.3141152E0,2.1448846E-1,-1.524423E-1,1.7859486E0,-2.5964438E-4,1.5677993E-4,3.340137E-4,-1.0459458E0,1.245909E0,-2.8526008E-1,1.5399424E0,-3.3474548E-4,-3.5877702E-1,7.6575524E-1,-7.979304E-1,3.3494527E-4,5.433834E-1,7.346176E-4,-3.3325505E-1,-5.402588E-4,-1.4117501E-3,1.5339706E0,3.8999345E-4,-4.6811803E-4,-2.864997E-1,1.7015368E0,8.8579327E-1,-1.1974621E0,-5.4600084E-1,1.1209534E0,-4.334702E-4,1.563764E-4,-2.6054843E-4,4.3333016E-4,-3.9049328E-4,4.9900085E-1,2.599669E-4,-5.005112E-1,-1.5632105E-4,6.549263E-4,-2.6056304E-4,1.5587444E-4,-8.256443E-4,6.993431E-4,-2.8613985E-1,1.1964844E0,2.5993088E-4,-1.4750428E0,2.8406405E-1,-3.9065813E-4,-3.3484507E-4,1.443666E0,3.347508E-4,-1.5653214E-4,-3.351527E-4,1.5615034E-4,-1.56392E-4,1.5600485E-4,1.5578036E-4,-2.603204E-4,-1.5599396E-4,5.5686384E-4,1.5587795E-4,-6.3827564E-4,-1.5626117E-4,2.597754E-4,-1.561481E-4,6.12412E-4],"categories":[],"categories_nodes":[],"categories_segments":[],"categories_sizes":[],"default_left":[false,false,false,false,false,false,false,false,false,false,false,false,false,false,false,false,false,false,false,false,false,false,false,false,false,false,false,false,false,false,false,false,false,false,false,false,false,false,false,false,false,false,false,false,false,false,false,false,false,false,false,false,false,false,false,false,false,false,false,false,false,false,false,false,false,false,false,false,false,false,false,false,false,false,false,false,false,false,false,false,false,false,false,false,false,false,false,false,false,false,false,false,false,false,false],"id":12,"left_children":[1,3,5,7,9,11,13,-1,15,-1,-1,-1,17,-1,-1,19,21,-1,23,-1,25,27,29,31,-1,33,35,37,39,41,43,-1,-1,-1,45,47,49,51,-1,53,55,57,-1,59,-1,61,-1,63,65,-1,-1,67,69,71,73,75,77,-1,-1,-1,-1,-1,79,-1,81,-1,-1,-1,-1,83,-1,85,87,-1,89,91,-1,-1,93,-1,-1,-1,-1,-1,-1,-1,-1,-1,-1,-1,-1,-1,-1,-1,-1],"loss_changes":[6.3504772E1,2.7672441E1,1.3617214E1,2.0419285E1,2.4439974E0,5.289612E0,1.5217836E0,0E0,1.8485111E1,0E0,0E0,0E0,2.6230278E0,0E0,0E0,1.2222886E1,9.191856E0,0E0,6.901703E-1,0E0,8.726861E0,8.263286E0,8.074123E0,7.2274154E-1,0E0,4.359681E0,5.0420966E0,7.077648E0,6.121107E0,2.8008637E0,1.208313E0,0E0,0E0,0E0,7.967744E-1,2.8765907E0,5.290313E0,3.7340317E0,0E0,1.1237717E1,5.154863E0,1.3746035E0,0E0,2.6188521E0,0E0,2.16036E0,0E0,1.1643472E0,2.4464521E0,0E0,0E0,7.2146195E-1,1.5262794E0,1.9808438E0,4.211727E0,1.3186123E0,6.341795E0,0E0,0E0,0E0,0E0,0E0,9.855746E-1,0E0,9.846627E-1,0E0,0E0,0E0,0E0,3.9911246E-1,0E0,7.20342E-1,1.9324212E0,0E0,2.3497782E0,7.20857E-1,0E0,0E0,2.2677765E0,0E0,0E0,0E0,0E0,0E0,0E0,0E0,0E0,0E0,0E0,0E0,0E0,0E0,0E0,0E0,0E0],"parents":[2147483647,0,0,1,1,2,2,3,3,4,4,5,5,6,6,8,8,12,12,15,15,16,16,18,18,20,20,21,21,22,22,23,23,25,25,26,26,27,27,28,28,29,29,30,30,34,34,35,35,36,36,37,37,39,39,40,40,41,41,43,43,45,45,47,47,48,48,51,51,52,52,53,53,54,54,55,55,56,56,62,62,64,64,69,69,71,71,72,72,74,74,75,75,78,78],"right_children":[2,4,6,8,10,12,14,-1,16,-1,-1,-1,18,-1,-1,20,22,-1,24,-1,26,28,30,32,-1,34,36,38,40,42,44,-1,-1,-1,46,48,50,52,-1,54,56,58,-1,60,-1,62,-1,64,66,-1,-1,68,70,72,74,76,78,-1,-1,-1,-1,-1,80,-1,82,-1,-1,-1,-1,84,-1,86,88,-1,90,92,-1,-1,94,-1,-1,-1,-1,-1,-1,-1,-1,-1,-1,-1,-1,-1,-1,-1,-1],"split_conditions":[-3.2348633E-2,2.3166735E-2,9.241264E-2,-2.1102905E-2,1E0,-2.4353392E-2,1E0,-5.959115E-4,4.3029785E-2,1.5631902E-4,-6.543885E-4,2.6025242E-4,-3.7395723E-2,-1.5602617E-4,4.684176E-4,7.79691E-1,2.0354137E-2,1.5612331E-4,1E0,-6.0675974E-4,1E0,8.165652E-1,-5.029443E-2,1E0,-6.879938E-4,1E0,7.79691E-1,6.347656E-2,1E0,1E0,2.20309E-1,-2.5964438E-4,1.5677993E-4,3.340137E-4,1E0,1.8343478E-1,7.79691E-1,8.165652E-1,-3.3474548E-4,3.0732155E-4,8.165652E-1,1E0,3.3494527E-4,1E0,7.346176E-4,1E0,-5.402588E-4,1E0,7.79691E-1,3.8999345E-4,-4.6811803E-4,1E0,7.79691E-1,1.7745988E-4,1E0,7.79691E-1,-1.9897461E-2,-4.334702E-4,1.563764E-4,-2.6054843E-4,4.3333016E-4,-3.9049328E-4,1.2652917E-2,2.599669E-4,2.20309E-1,-1.5632105E-4,6.549263E-4,-2.6056304E-4,1.5587444E-4,7.79691E-1,6.993431E-4,7.79691E-1,1E0,2.5993088E-4,1E0,1.7745988E-4,-3.9065813E-4,-3.3484507E-4,1E0,3.347508E-4,-1.5653214E-4,-3.351527E-4,1.5615034E-4,-1.56392E-4,1.5600485E-4,1.5578036E-4,-2.603204E-4,-1.5599396E-4,5.5686384E-4,1.5587795E-4,-6.3827564E-4,-1.5626117E-4,2.597754E-4,-1.561481E-4,6.12412E-4],"split_indices":[498,2741,2951,1084,32,2395,32,0,870,0,0,0,2624,0,0,91,3046,0,64,0,5,72,2466,5,0,229,103,788,5,88,228,0,0,0,32,152,8,133,0,282,133,213,0,24,0,160,0,236,92,0,0,5,112,2304,236,134,324,0,0,0,0,0,2321,0,71,0,0,0,0,18,0,7,187,0,198,2304,0,0,200,0,0,0,0,0,0,0,0,0,0,0,0,0,0,0,0],"split_type":[0,0,0,0,0,0,0,0,0,0,0,0,0,0,0,0,0,0,0,0,0,0,0,0,0,0,0,0,0,0,0,0,0,0,0,0,0,0,0,0,0,0,0,0,0,0,0,0,0,0,0,0,0,0,0,0,0,0,0,0,0,0,0,0,0,0,0,0,0,0,0,0,0,0,0,0,0,0,0,0,0,0,0,0,0,0,0,0,0,0,0,0,0,0,0],"sum_hessian":[9.924898E1,7.549933E1,2.3749651E1,6.99994E1,5.4999294E0,2.1999657E1,1.7499946E0,3.249962E0,6.6749435E1,2.4999997E-1,5.2499294E0,4.99999E-1,2.1499659E1,2.4999878E-1,1.4999958E0,1.7999895E1,4.8749542E1,2.4999937E-1,2.1249659E1,3.4999807E0,1.4499915E1,2.8249771E1,2.0499771E1,7.499913E-1,2.0499668E1,4.999976E0,9.499939E0,1.0749895E1,1.7499876E1,2.2499943E0,1.8249777E1,4.99993E-1,2.499983E-1,7.499924E-1,4.249984E0,6.9999533E0,2.499986E0,9.999896E0,7.4999905E-1,8.74994E0,8.749935E0,1.4999944E0,7.499998E-1,1.749989E0,1.6499788E1,1.9999943E0,2.2499895E0,1.4999962E0,5.499957E0,9.999939E-1,1.499992E0,7.499975E-1,9.249898E0,3.4999723E0,5.249968E0,1.7499932E0,6.9999423E0,1.2499944E0,2.5E-1,4.999997E-1,1.2499893E0,9.9999666E-1,9.999976E-1,4.9999684E-1,9.9999934E-1,2.4999997E-1,5.249957E0,5E-1,2.4999747E-1,4.9999863E-1,8.7499E0,7.499957E-1,2.7499766E0,4.9999648E-1,4.7499714E0,7.499945E-1,9.999987E-1,7.49998E-1,6.249944E0,7.4999785E-1,2.4999973E-1,7.499999E-1,2.499995E-1,2.5E-1,2.4999861E-1,2.4999642E-1,4.9999928E-1,2.4999854E-1,2.499978E0,2.499975E-1,4.499974E0,2.4999988E-1,4.9999467E-1,2.499995E-1,5.9999447E0],"tree_param":{"num_deleted":"0","num_feature":"3072","num_nodes":"95","size_leaf_vector":"0"}},{"base_weights":[-5.274718E-3,4.3148655E-1,-1.319941E0,-4.9402836E-1,1.0474367E0,-1.6466055E0,4.4335398E-1,-9.961826E-1,3.9796707E-1,1.5649111E0,5.3499174E-1,2.9678678E-4,-6.7715894E-4,-3.900041E-4,1.1401025E0,-1.5721356E0,-3.802117E-1,-1.1400461E0,9.6769243E-1,-2.404298E-3,1.6855977E0,-4.3339666E-4,6.787721E-1,2.6031482E-4,-2.6016028E-4,-1.56014E-4,5.399902E-4,2.876159E-1,-6.8976206E-4,4.3328493E-4,-7.0118934E-1,1.5599592E-4,-5.399594E-4,-5.441209E-1,1.4233798E0,3.336578E-4,-3.3499798E-4,5.4280275E-1,1.7676876E0,-6.563021E-2,1.0125648E0,2.608955E-4,-1.5566286E-4,3.9973858E-1,-9.6585214E-1,2.8557548E-1,-3.901649E-4,2.2056326E-1,6.436672E-4,4.330163E-4,-2.6049357E-4,7.100214E-4,2.8595236E-1,8.8558155E-1,-1.0573508E0,-4.0068272E-1,1.1958783E0,-2.600982E-4,3.9041063E-4,2.8596503E-1,-1.1408284E0,2.6009622E-4,-1.5581997E-4,-2.604363E-4,3.3409224E-4,2.6043857E-4,-1.5602427E-4,-2.6012925E-4,1.2458109E0,2.8460875E-1,-5.575553E-4,2.5971286E-4,-3.9058208E-4,-2.8613186E-1,1.3033892E0,-1.5609428E-4,2.605027E-4,2.8373092E-1,-1.3571726E0,-1.5600878E-4,5.714962E-4,2.5974523E-4,-1.559272E-4,-2.6032014E-4,1.5578444E-4,2.2131328E-1,1.3996689E0,-1.5649153E-4,2.598154E-4,-5.8511895E-4,1.5577588E-4,-1.5638038E-4,4.9899146E-1,8.298004E-1,6.641349E-4,3.3447592E-4,-1.5615315E-4,-1.11738744E-4,4.0798206E-4],"categories":[],"categories_nodes":[],"categories_segments":[],"categories_sizes":[],"default_left":[false,false,false,false,false,false,false,false,false,false,false,false,false,false,false,false,false,false,false,false,false,false,false,false,false,false,false,false,false,false,false,false,false,false,false,false,false,false,false,false,false,false,false,false,false,false,false,false,false,false,false,false,false,false,false,false,false,false,false,false,false,false,false,false,false,false,false,false,false,false,false,false,false,false,false,false,false,false,false,false,false,false,false,false,false,false,false,false,false,false,false,false,false,false,false,false,false,false,false],"id":13,"left_children":[1,3,5,7,9,11,13,15,17,19,21,23,-1,-1,25,27,29,31,33,35,37,-1,39,-1,-1,-1,-1,41,-1,-1,43,-1,-1,45,47,-1,-1,49,51,53,55,-1,-1,57,59,61,-1,63,-1,-1,-1,-1,65,67,69,71,73,-1,-1,75,77,-1,-1,-1,-1,-1,-1,-1,79,81,-1,-1,-1,83,85,-1,-1,87,89,-1,-1,-1,-1,-1,-1,91,93,-1,-1,-1,-1,-1,95,97,-1,-1,-1,-1,-1],"loss_changes":[5.4686813E1,4.1277126E1,1.4409954E1,1.349796E1,1.063158E1,2.85421E0,5.6554003E0,6.142824E0,1.096089E1,3.9762306E0,6.246921E0,1.3294237E0,0E0,0E0,1.8506017E0,3.904541E0,5.793964E0,1.8503003E0,6.802438E0,2.5598435E0,8.6980057E-1,0E0,5.5328865E0,0E0,0E0,0E0,0E0,7.215022E-1,0E0,0E0,3.0812902E0,0E0,0E0,1.3207128E0,1.5154619E0,0E0,0E0,2.6163013E0,7.5754166E-1,8.247171E0,4.4299173E0,0E0,0E0,2.259213E0,2.023775E0,7.198619E-1,0E0,1.8343902E0,0E0,0E0,0E0,0E0,7.217558E-1,3.3431675E0,2.5097394E0,2.2571094E0,2.5637455E0,0E0,0E0,7.222501E-1,2.5424252E0,0E0,0E0,0E0,0E0,0E0,0E0,0E0,2.005084E0,7.1930796E-1,0E0,0E0,0E0,7.20359E-1,1.0445919E0,0E0,0E0,7.219813E-1,2.1278152E0,0E0,0E0,0E0,0E0,0E0,0E0,5.8780205E-1,5.936413E-1,0E0,0E0,0E0,0E0,0E0,9.8251724E-1,1.729548E0,0E0,0E0,0E0,0E0,0E0],"parents":[2147483647,0,0,1,1,2,2,3,3,4,4,5,5,6,6,7,7,8,8,9,9,10,10,11,11,14,14,15,15,16,16,17,17,18,18,19,19,20,20,22,22,27,27,30,30,33,33,34,34,37,37,38,38,39,39,40,40,43,43,44,44,45,45,47,47,52,52,53,53,54,54,55,55,56,56,59,59,60,60,68,68,69,69,73,73,74,74,77,77,78,78,85,85,86,86,92,92,93,93],"right_children":[2,4,6,8,10,12,14,16,18,20,22,24,-1,-1,26,28,30,32,34,36,38,-1,40,-1,-1,-1,-1,42,-1,-1,44,-1,-1,46,48,-1,-1,50,52,54,56,-1,-1,58,60,62,-1,64,-1,-1,-1,-1,66,68,70,72,74,-1,-1,76,78,-1,-1,-1,-1,-1,-1,-1,80,82,-1,-1,-1,84,86,-1,-1,88,90,-1,-1,-1,-1,-1,-1,92,94,-1,-1,-1,-1,-1,96,98,-1,-1,-1,-1,-1],"split_conditions":[1.7852783E-2,-4.355845E-3,1.932082E-2,-2.3185251E-2,8.605957E-3,-7.014678E-3,7.79691E-1,5.5818046E-3,1E0,1E0,1E0,7.79691E-1,-6.7715894E-4,-3.900041E-4,1E0,1E0,2.20309E-1,1E0,-1.1375427E-2,2.20309E-1,-2.0675402E-2,-4.3339666E-4,2.20309E-1,2.6031482E-4,-2.6016028E-4,-1.56014E-4,5.399902E-4,7.79691E-1,-6.8976206E-4,4.3328493E-4,1E0,1.5599592E-4,-5.399594E-4,2.20309E-1,1E0,3.336578E-4,-3.3499798E-4,2.20309E-1,3.1066895E-2,1E0,7.79691E-1,2.608955E-4,-1.5566286E-4,8.165652E-1,7.79691E-1,7.79691E-1,-3.901649E-4,1.8343478E-1,6.436672E-4,4.330163E-4,-2.6049357E-4,7.100214E-4,1E0,2.20309E-1,1E0,-9.489408E-2,1.8873215E-3,-2.600982E-4,3.9041063E-4,1E0,1E0,2.6009622E-4,-1.5581997E-4,-2.604363E-4,3.3409224E-4,2.6043857E-4,-1.5602427E-4,-2.6012925E-4,1E0,7.79691E-1,-5.575553E-4,2.5971286E-4,-3.9058208E-4,7.8809063E-4,-1.4663696E-2,-1.5609428E-4,2.605027E-4,1E0,3.554434E-2,-1.5600878E-4,5.714962E-4,2.5974523E-4,-1.559272E-4,-2.6032014E-4,1.5578444E-4,1E0,1E0,-1.5649153E-4,2.598154E-4,-5.8511895E-4,1.5577588E-4,-1.5638038E-4,-3.9038822E-2,1.8343478E-1,6.641349E-4,3.3447592E-4,-1.5615315E-4,-1.11738744E-4,4.0798206E-4],"split_indices":[831,2700,2734,2970,454,2321,114,2629,82,94,153,118,0,0,70,202,2,159,1012,2,2310,0,184,0,0,0,0,0,0,0,69,0,0,208,141,0,0,117,267,88,106,0,0,40,50,0,0,152,0,0,0,0,10,71,192,2305,387,0,0,9,203,0,0,0,0,0,0,0,137,0,0,0,0,2306,330,0,0,29,256,0,0,0,0,0,0,65,52,0,0,0,0,0,2305,17,0,0,0,0,0],"split_type":[0,0,0,0,0,0,0,0,0,0,0,0,0,0,0,0,0,0,0,0,0,0,0,0,0,0,0,0,0,0,0,0,0,0,0,0,0,0,0,0,0,0,0,0,0,0,0,0,0,0,0,0,0,0,0,0,0,0,0,0,0,0,0,0,0,0,0,0,0,0,0,0,0,0,0,0,0,0,0,0,0,0,0,0,0,0,0,0,0,0,0,0,0,0,0,0,0,0,0],"sum_hessian":[9.32489E1,7.049927E1,2.2749628E1,2.824972E1,4.224955E1,1.9249655E1,3.4999747E0,1.7999813E1,1.0249907E1,1.9999722E1,2.2249828E1,9.999976E-1,1.8249657E1,9.999924E-1,2.4999824E0,8.499869E0,9.499945E0,2.4999833E0,7.749923E0,1.499986E0,1.8499735E1,1.2499909E0,2.0999838E1,4.9999923E-1,4.9999836E-1,2.4999869E-1,2.2499838E0,7.499932E-1,7.749876E0,1.2499917E0,8.249953E0,2.4999855E-1,2.2499847E0,1.7499908E0,5.9999323E0,7.499864E-1,7.499997E-1,1.7499874E0,1.6749748E1,6.7499423E0,1.4249895E1,4.9999836E-1,2.4999483E-1,1.4999955E0,6.7499576E0,7.499949E-1,9.9999595E-1,1.2499923E0,4.74994E0,1.2499877E0,4.999997E-1,1.599975E1,7.499982E-1,3.4999652E0,3.249977E0,1.4999921E0,1.2749903E1,4.9999797E-1,9.9999744E-1,7.4999905E-1,5.9999585E0,4.9999797E-1,2.4999689E-1,4.99999E-1,7.499933E-1,4.9999943E-1,2.4999875E-1,4.999982E-1,2.999967E0,7.499923E-1,2.4999847E0,4.9999392E-1,9.999982E-1,7.4999577E-1,1.19999075E1,2.4999923E-1,4.9999982E-1,7.4999505E-1,5.2499633E0,2.4999863E-1,2.7499685E0,4.9999434E-1,2.4999797E-1,4.9999928E-1,2.4999647E-1,1.2499968E0,1.074991E1,2.4999985E-1,4.999952E-1,4.999967E0,2.4999636E-1,2.5E-1,9.999968E-1,4.999966E0,5.7499437E0,7.4999726E-1,2.4999952E-1,7.499971E-1,4.2499695E0],"tree_param":{"num_deleted":"0","num_feature":"3072","num_nodes":"99","size_leaf_vector":"0"}},{"base_weights":[5.099496E-3,-1.0423294E0,7.538096E-1,7.5570744E-1,-1.3778123E0,-9.6311104E-1,9.9520046E-1,-3.897107E-4,1.1956246E0,-1.6313457E0,7.986716E-2,1.8181694E-1,-1.3273535E0,1.3992239E0,-1.2984445E-3,-2.851872E-1,1.4494071E0,2.223202E-1,-1.7181643E0,4.959943E-4,-6.6442305E-1,3.9012093E-4,-3.341592E-4,-6.303573E-4,2.8643554E-1,1.4657706E0,-4.9821976E-1,-1.3967571E0,5.802521E-1,-2.600032E-4,1.5592051E-4,-2.619431E-4,6.23309E-4,3.346462E-4,-2.600534E-4,-1.7501699E0,1.5593534E-4,2.8563175E-1,-9.30604E-1,-1.5579228E-4,2.6046517E-4,-1.8623563E-4,1.5520095E0,-3.340563E-4,1.5604803E-4,1.558228E-4,-6.157784E-4,-4.6827956E-4,9.4835144E-1,-1.560474E-4,1.5592464E-4,-7.465846E-1,-7.182373E-4,2.604899E-4,-1.562612E-4,1.562302E-4,-1.1398047E0,-3.3414573E-4,6.645538E-1,5.848283E-1,1.6352134E0,-3.3398652E-1,1.2893717E0,2.8698707E-1,-1.0734057E0,-8.135256E-4,-5.196885E-4,-1.5630075E-4,3.8995652E-4,-5.0021523E-1,1.0726038E0,1.7973409E0,1.1944283E0,3.3401785E-4,-4.3387746E-4,-2.6055262E-4,1.4949269E0,6.7448656E-7,1.5625881E-4,-4.960754E-4,7.1950885E-4,-1.562306E-4,1.5584928E-4,1.5610871E-4,-3.349907E-4,5.193641E-4,-1.5625864E-4,7.187292E-4,4.972482E-1,-3.3515113E-4,1.4226328E0,-1.4021886E-3,6.680556E-4,-1.5588147E-4,1.5621874E-4,3.3406127E-4,-1.566627E-4,-1.5635359E-4,1.5061069E0,2.5980492E-4,-2.6053513E-4,-1.5605324E-4,6.230085E-4],"categories":[],"categories_nodes":[],"categories_segments":[],"categories_sizes":[],"default_left":[false,false,false,false,false,false,false,false,false,false,false,false,false,false,false,false,false,false,false,false,false,false,false,false,false,false,false,false,false,false,false,false,false,false,false,false,false,false,false,false,false,false,false,false,false,false,false,false,false,false,false,false,false,false,false,false,false,false,false,false,false,false,false,false,false,false,false,false,false,false,false,false,false,false,false,false,false,false,false,false,false,false,false,false,false,false,false,false,false,false,false,false,false,false,false,false,false,false,false,false,false,false,false],"id":14,"left_children":[1,3,5,7,9,11,13,-1,15,17,19,21,23,25,27,29,31,33,35,-1,37,-1,-1,-1,39,41,43,45,47,-1,-1,49,-1,-1,-1,51,-1,53,55,-1,-1,57,59,-1,-1,-1,-1,-1,61,-1,-1,63,-1,-1,-1,-1,65,-1,67,69,71,73,75,77,79,81,-1,-1,-1,83,85,87,89,-1,-1,-1,91,-1,-1,-1,93,-1,-1,-1,-1,-1,-1,-1,95,-1,97,99,-1,-1,-1,-1,-1,-1,101,-1,-1,-1,-1],"loss_changes":[7.901062E1,2.6375648E1,2.5307068E1,6.781544E0,1.3342201E1,3.4732914E0,2.093724E1,0E0,2.762105E0,5.290329E0,6.373441E0,3.179453E0,3.2224102E0,5.4021454E0,1.3794853E1,7.20031E-1,1.1566753E0,1.834928E0,2.6799774E0,0E0,1.4037935E0,0E0,0E0,0E0,7.2081625E-1,4.5514297E0,9.8057336E-1,2.2293596E0,8.990204E0,0E0,0E0,3.9802784E-1,0E0,0E0,0E0,1.1627808E0,0E0,7.2294456E-1,1.4990804E0,0E0,0E0,2.2721975E0,1.7797318E0,0E0,0E0,0E0,0E0,0E0,5.0222816E0,0E0,0E0,1.6592178E0,0E0,0E0,0E0,0E0,7.5459194E-1,0E0,1.1961969E0,2.7858632E0,5.067444E-2,3.7144358E0,4.413662E0,5.558282E-2,6.835816E-1,3.983027E-1,0E0,0E0,0E0,9.839056E-1,1.7556586E0,1.8308258E-1,6.4870358E0,0E0,0E0,0E0,2.5636368E0,0E0,0E0,0E0,3.9835468E-1,0E0,0E0,0E0,0E0,0E0,0E0,0E0,9.8411834E-1,0E0,2.19981E0,1.328731E0,0E0,0E0,0E0,0E0,0E0,0E0,2.3459625E0,0E0,0E0,0E0,0E0],"parents":[2147483647,0,0,1,1,2,2,3,3,4,4,5,5,6,6,8,8,9,9,10,10,11,11,12,12,13,13,14,14,15,15,16,16,17,17,18,18,20,20,24,24,25,25,26,26,27,27,28,28,31,31,35,35,37,37,38,38,41,41,42,42,48,48,51,51,56,56,58,58,59,59,60,60,61,61,62,62,63,63,64,64,65,65,69,69,70,70,71,71,72,72,76,76,80,80,88,88,90,90,91,91,98,98],"right_children":[2,4,6,8,10,12,14,-1,16,18,20,22,24,26,28,30,32,34,36,-1,38,-1,-1,-1,40,42,44,46,48,-1,-1,50,-1,-1,-1,52,-1,54,56,-1,-1,58,60,-1,-1,-1,-1,-1,62,-1,-1,64,-1,-1,-1,-1,66,-1,68,70,72,74,76,78,80,82,-1,-1,-1,84,86,88,90,-1,-1,-1,92,-1,-1,-1,94,-1,-1,-1,-1,-1,-1,-1,96,-1,98,100,-1,-1,-1,-1,-1,-1,102,-1,-1,-1,-1],"split_conditions":[8.98242E-5,-9.058597E-2,-8.789988E-2,7.79691E-1,6.9410787E-3,1E0,1.4274597E-2,-3.897107E-4,1E0,-2.4780273E-2,1E0,1E0,2.6824951E-2,4.7231793E-2,1E0,7.79691E-1,1E0,7.79691E-1,2.6323825E-2,4.959943E-4,1E0,3.9012093E-4,-3.341592E-4,-6.303573E-4,1E0,1E0,1E0,2.9227845E-2,7.79691E-1,-2.600032E-4,1.5592051E-4,1.8343478E-1,6.23309E-4,3.346462E-4,-2.600534E-4,-3.5668306E-2,1.5593534E-4,8.062744E-2,1E0,-1.5579228E-4,2.6046517E-4,-2.296774E-2,-4.5654583E-3,-3.340563E-4,1.5604803E-4,1.558228E-4,-6.157784E-4,-4.6827956E-4,2.20309E-1,-1.560474E-4,1.5592464E-4,1E0,-7.182373E-4,2.604899E-4,-1.562612E-4,1.562302E-4,2.20309E-1,-3.3414573E-4,7.79691E-1,1E0,-1.9203156E-2,1E0,1E0,7.79691E-1,8.165652E-1,8.062744E-2,-5.196885E-4,-1.5630075E-4,3.8995652E-4,1E0,1E0,4.5684814E-2,-3.2440186E-2,3.3401785E-4,-4.3387746E-4,-2.6055262E-4,1E0,6.7448656E-7,1.5625881E-4,-4.960754E-4,1.8343478E-1,-1.562306E-4,1.5584928E-4,1.5610871E-4,-3.349907E-4,5.193641E-4,-1.5625864E-4,7.187292E-4,7.79691E-1,-3.3515113E-4,2.20309E-1,1E0,6.680556E-4,-1.5588147E-4,1.5621874E-4,3.3406127E-4,-1.566627E-4,-1.5635359E-4,1E0,2.5980492E-4,-2.6053513E-4,-1.5605324E-4,6.230085E-4],"split_indices":[730,2467,2763,204,2426,207,403,0,142,423,253,4,273,2397,110,7,174,103,2328,0,246,0,0,0,9,97,23,2304,106,0,0,6,0,0,0,2483,0,257,31,0,0,2307,2310,0,0,0,0,0,228,0,0,62,0,0,0,0,42,0,118,149,2908,34,153,7,133,257,0,0,0,34,62,273,505,0,0,0,123,0,0,0,6,0,0,0,0,0,0,0,28,0,42,3,0,0,0,0,0,0,186,0,0,0,0],"split_type":[0,0,0,0,0,0,0,0,0,0,0,0,0,0,0,0,0,0,0,0,0,0,0,0,0,0,0,0,0,0,0,0,0,0,0,0,0,0,0,0,0,0,0,0,0,0,0,0,0,0,0,0,0,0,0,0,0,0,0,0,0,0,0,0,0,0,0,0,0,0,0,0,0,0,0,0,0,0,0,0,0,0,0,0,0,0,0,0,0,0,0,0,0,0,0,0,0,0,0,0,0,0,0],"sum_hessian":[9.87486E1,4.0999302E1,5.774929E1,6.2499247E0,3.474938E1,6.749912E0,5.099938E1,9.9999E-1,5.2499347E0,2.949942E1,5.249958E0,1.749988E0,4.9999237E0,3.5999493E1,1.4999884E1,7.499951E-1,4.49994E0,1.2499957E0,2.8249424E1,1.7499814E0,3.4999766E0,9.999937E-1,7.499943E-1,4.2499275E0,7.4999636E-1,3.4999504E1,9.999913E-1,3.9999733E0,1.099991E1,4.999972E-1,2.4999791E-1,4.999969E-1,3.9999428E0,7.499981E-1,4.9999762E-1,2.7999426E1,2.4999805E-1,7.4999964E-1,2.7499769E0,2.4999656E-1,4.9999982E-1,1.9999851E0,3.2999516E1,7.499924E-1,2.4999893E-1,2.4999692E-1,3.7499764E0,1.4999902E0,9.49992E0,2.4999893E-1,2.4999796E-1,2.9999774E0,2.4999449E1,4.9999976E-1,2.4999988E-1,2.4999979E-1,2.499977E0,7.499927E-1,1.2499924E0,3.249972E0,2.9749546E1,1.9999894E0,7.499931E0,7.4999654E-1,2.249981E0,4.99997E-1,1.9999802E0,2.4999994E-1,9.999925E-1,9.9999887E-1,2.2499733E0,1.9499674E1,1.0249871E1,7.499924E-1,1.249997E0,4.9999988E-1,6.999931E0,4.999967E-1,2.4999987E-1,1.7499835E0,4.9999732E-1,2.4999979E-1,2.499972E-1,2.4999928E-1,7.499996E-1,1.9999733E0,2.4999988E-1,1.8499681E1,9.999921E-1,7.499951E-1,9.499876E0,9.99994E-1,5.999937E0,2.4999754E-1,2.4999976E-1,7.4999297E-1,2.4999914E-1,2.5E-1,9.249876E0,4.999951E-1,4.9999887E-1,2.4999896E-1,8.999877E0],"tree_param":{"num_deleted":"0","num_feature":"3072","num_nodes":"103","size_leaf_vector":"0"}},{"base_weights":[-3.564048E-2,-1.1578727E0,5.4106736E-1,-1.6897767E0,4.430369E-2,-1.1458458E0,7.7168673E-1,2.6012282E-4,-1.7707886E0,-5.566686E-4,6.265473E-1,7.992527E-1,-6.63213E-4,-4.9444452E-2,1.1888713E0,-7.622338E-1,-7.209918E-4,-4.329259E-4,1.0632006E0,-1.5562717E-4,4.3362746E-4,-1.2691548E0,3.729223E-1,-5.7029295E-1,1.3268782E0,-4.9497356E-4,2.6182632E-4,-2.596102E-4,1.2814472E0,2.8551185E-1,-6.156113E-4,-8.306547E-1,9.955181E-1,-4.6811876E-4,4.9880037E-1,1.7866876E0,7.3870105E-1,1.8122494E-1,6.3083187E-4,2.601076E-4,-1.5586834E-4,3.993535E-1,-1.3294042E0,-7.9935753E-1,1.3630645E0,-1.5597048E-4,3.3426005E-4,-1.5613872E-4,1.8358276E0,1.2323261E0,-1.5152708E-3,3.901164E-4,-3.345172E-4,-2.60061E-4,3.901947E-4,1.5613134E-4,-5.9619587E-4,1.5592219E-4,-4.338373E-4,-1.6130368E-3,6.329719E-4,4.9679753E-1,7.357208E-4,-1.5604105E-4,1.3110611E0,3.6787766E-1,-4.335474E-4,2.5999348E-4,-5.0081444E-1,-1.5624643E-4,3.3356342E-4,1.3936462E0,-1.5577176E-4,4.673469E-4,-9.628629E-2,1.5582453E-4,-3.350549E-4,-1.5212554E-3,1.4672364E0,4.990172E-1,-4.3463783E-4,-1.5634137E-4,1.5562843E-4,1.1043888E-4,6.006629E-4,-1.9470412E-4,3.8991036E-4],"categories":[],"categories_nodes":[],"categories_segments":[],"categories_sizes":[],"default_left":[false,false,false,false,false,false,false,false,false,false,false,false,false,false,false,false,false,false,false,false,false,false,false,false,false,false,false,false,false,false,false,false,false,false,false,false,false,false,false,false,false,false,false,false,false,false,false,false,false,false,false,false,false,false,false,false,false,false,false,false,false,false,false,false,false,false,false,false,false,false,false,false,false,false,false,false,false,false,false,false,false,false,false,false,false,false,false],"id":15,"left_children":[1,3,5,7,9,11,13,-1,15,-1,17,19,-1,21,23,25,-1,-1,27,-1,-1,29,31,33,35,-1,-1,-1,37,39,-1,41,43,-1,45,47,49,51,-1,-1,-1,53,55,57,59,-1,-1,-1,61,63,65,-1,-1,-1,-1,-1,-1,-1,-1,67,-1,69,-1,-1,71,73,-1,-1,75,-1,-1,77,-1,-1,79,-1,-1,81,83,85,-1,-1,-1,-1,-1,-1,-1],"loss_changes":[6.38893E1,2.1495762E1,2.6268412E1,5.614197E0,1.0509569E1,1.0192207E1,1.9927197E1,0E0,2.8086853E-1,0E0,7.802373E0,1.3694186E0,0E0,1.1034093E1,1.0103481E1,3.1931415E0,0E0,0E0,3.6782665E0,0E0,0E0,3.0625181E0,1.2816302E1,2.9439893E0,8.416195E0,0E0,0E0,0E0,2.2661781E0,7.2010696E-1,0E0,4.211674E0,8.346215E0,0E0,9.80778E-1,2.8279686E0,6.3961124E0,3.1827419E0,0E0,0E0,0E0,2.2575846E0,2.1312842E0,1.3724332E0,3.3225174E0,0E0,0E0,0E0,2.5458527E-1,1.8720684E0,3.680787E0,0E0,0E0,0E0,0E0,0E0,0E0,0E0,0E0,1.1650877E0,0E0,9.8013854E-1,0E0,0E0,2.002409E0,2.708044E0,0E0,0E0,9.82474E-1,0E0,0E0,1.028923E0,0E0,0E0,3.728645E0,0E0,0E0,3.9802033E-1,3.454666E-1,2.4844093E0,0E0,0E0,0E0,0E0,0E0,0E0,0E0],"parents":[2147483647,0,0,1,1,2,2,3,3,4,4,5,5,6,6,8,8,10,10,11,11,13,13,14,14,15,15,18,18,21,21,22,22,23,23,24,24,28,28,29,29,31,31,32,32,34,34,35,35,36,36,37,37,41,41,42,42,43,43,44,44,48,48,49,49,50,50,59,59,61,61,64,64,65,65,68,68,71,71,74,74,77,