{"learner":{"attributes":{"best_iteration":"49","best_ntree_limit":"50","best_score":"0.946186"},"feature_names":[],"feature_types":[],"gradient_booster":{"model":{"gbtree_model_param":{"num_trees":"50","size_leaf_vector":"0"},"tree_info":[0,0,0,0,0,0,0,0,0,0,0,0,0,0,0,0,0,0,0,0,0,0,0,0,0,0,0,0,0,0,0,0,0,0,0,0,0,0,0,0,0,0,0,0,0,0,0,0,0,0],"trees":[{"base_weights":[1.2080537E-1,7.079646E-1,-1.6315789E0,9.5566505E-1,-1.2592592E0,-4E-1,-4.6364587E-2,3.6726676E-2,5.939492E-3,1.7026544E-2,-3.882052E-2,1.0215926E-2,-2.8377574E-2],"categories":[],"categories_nodes":[],"categories_segments":[],"categories_sizes":[],"default_left":[false,false,false,false,false,false,false,false,false,false,false,false,false],"id":0,"left_children":[1,3,5,7,9,11,-1,-1,-1,-1,-1,-1,-1],"loss_changes":[7.781029E1,2.8734875E1,3.574894E0,1.7366756E1,4.4029627E0,2.5777779E0,0E0,0E0,0E0,0E0,0E0,0E0,0E0],"parents":[2147483647,0,0,1,1,2,2,3,3,4,4,5,5],"right_children":[2,4,6,8,10,12,-1,-1,-1,-1,-1,-1,-1],"split_conditions":[-2.1552656E-2,4.6422474E-2,3.474469E-2,-8.674622E-3,2.5267988E-1,1.4079823E-2,-4.6364587E-2,3.6726676E-2,5.939492E-3,1.7026544E-2,-3.882052E-2,1.0215926E-2,-2.8377574E-2],"split_indices":[1110,2971,193,308,2,99,0,0,0,0,0,0,0],"split_type":[0,0,0,0,0,0,0,0,0,0,0,0,0],"sum_hessian":[7.35E1,5.55E1,1.8E1,4.975E1,5.75E0,2.75E0,1.525E1,2.925E1,2.05E1,5E-1,5.25E0,1.5E0,1.25E0],"tree_param":{"num_deleted":"0","num_feature":"3072","num_nodes":"13","size_leaf_vector":"0"}},{"base_weights":[-1.1030972E-1,-1.5343024E0,5.574503E-1,-1.6422261E0,2.1779696E-2,-6.319814E-1,1.031062E0,-1.4984414E-2,-4.53612E-2,2.3435114E-2,-2.6124336E-2,3.991548E-2,1.1789246E-2],"categories":[],"categories_nodes":[],"categories_segments":[],"categories_sizes":[],"default_left":[false,false,false,false,false,false,false,false,false,false,false,false,false],"id":1,"left_children":[1,3,5,7,-1,9,11,-1,-1,-1,-1,-1,-1],"loss_changes":[7.5241776E1,7.90279E0,3.1065088E1,2.4184418E0,0E0,1.0627501E1,1.1087566E1,0E0,0E0,0E0,0E0,0E0,0E0],"parents":[2147483647,0,0,1,1,2,2,3,3,5,5,6,6],"right_children":[2,4,6,8,-1,10,12,-1,-1,-1,-1,-1,-1],"split_conditions":[2.33078E-3,3.272686E-2,-1.2842403E-2,-2.9629996E-2,2.1779696E-2,3.8827974E-2,3.366089E-2,-1.4984414E-2,-4.53612E-2,2.3435114E-2,-2.6124336E-2,3.991548E-2,1.1789246E-2],"split_indices":[486,2675,2788,2577,0,248,520,0,0,0,0,0,0],"split_type":[0,0,0,0,0,0,0,0,0,0,0,0,0],"sum_hessian":[7.722865E1,2.42398E1,5.2988853E1,2.348982E1,7.4998045E-1,1.4995262E1,3.799359E1,3.2497258E0,2.0240093E1,2.7493436E0,1.2245919E1,1.8744171E1,1.924942E1],"tree_param":{"num_deleted":"0","num_feature":"3072","num_nodes":"13","size_leaf_vector":"0"}},{"base_weights":[5.1679756E-2,-1.2705821E0,7.0532626E-1,1.20749315E-2,-1.6425538E0,1.2964784E0,-3.643684E-1,1.8790243E-2,-2.6807878E-2,-1.3701228E-4,-4.5207243E-2,7.801218E-3,4.032572E-2,3.0072631E-2,-2.1831239E-2],"categories":[],"categories_nodes":[],"categories_segments":[],"categories_sizes":[],"default_left":[false,false,false,false,false,false,false,false,false,false,false,false,false,false,false],"id":2,"left_children":[1,3,5,7,9,11,13,-1,-1,-1,-1,-1,-1,-1,-1],"loss_changes":[6.97571E1,1.2765175E1,3.459395E1,6.1489906E0,4.315201E0,9.307415E0,1.6119654E1,0E0,0E0,0E0,0E0,0E0,0E0,0E0,0E0],"parents":[2147483647,0,0,1,1,2,2,3,3,4,4,5,5,6,6],"right_children":[2,4,6,8,10,12,14,-1,-1,-1,-1,-1,-1,-1,-1],"split_conditions":[2.857785E-3,3.474469E-2,1.5236855E-2,-2.5704829E-2,-1.4475803E-2,1.4079823E-2,-5.8955653E-3,1.8790243E-2,-2.6807878E-2,-1.3701228E-4,-4.5207243E-2,7.801218E-3,4.032572E-2,3.0072631E-2,-2.1831239E-2],"split_indices":[486,193,2868,2366,2314,196,2768,0,0,0,0,0,0,0,0],"split_type":[0,0,0,0,0,0,0,0,0,0,0,0,0,0,0],"sum_hessian":[7.867324E1,2.5713518E1,5.2959724E1,5.9980817E0,1.9715435E1,3.3973003E1,1.8986725E1,3.7495322E0,2.2485492E0,1.4999121E0,1.8215525E1,7.99683E0,2.5976171E1,4.243765E0,1.4742959E1],"tree_param":{"num_deleted":"0","num_feature":"3072","num_nodes":"15","size_leaf_vector":"0"}},{"base_weights":[-8.791822E-2,8.8104624E-1,-9.560805E-1,1.6783285E0,2.2108184E-1,-1.5212936E0,2.6513696E-1,-1.0659815E-2,4.4240344E-2,1.8480837E-2,-1.9135676E-2,3.4620983E-3,-4.2388182E-2,-2.7989326E-2,1.52663E-2],"categories":[],"categories_nodes":[],"categories_segments":[],"categories_sizes":[],"default_left":[false,false,false,false,false,false,false,false,false,false,false,false,false,false,false],"id":3,"left_children":[1,3,5,7,9,11,13,-1,-1,-1,-1,-1,-1,-1,-1],"loss_changes":[7.008858E1,2.0371082E1,3.0702621E1,2.72184E0,1.1620445E1,7.1398773E0,7.3278055E0,0E0,0E0,0E0,0E0,0E0,0E0,0E0,0E0],"parents":[2147483647,0,0,1,1,2,2,3,3,4,4,5,5,6,6],"right_children":[2,4,6,8,10,12,14,-1,-1,-1,-1,-1,-1,-1,-1],"split_conditions":[0E0,1.076211E-2,2.360306E-2,3.474469E-2,-1.5571594E-2,-6.684036E-3,1E0,-1.0659815E-2,4.4240344E-2,1.8480837E-2,-1.9135676E-2,3.4620983E-3,-4.2388182E-2,-2.7989326E-2,1.52663E-2],"split_indices":[957,2991,3007,211,1038,2376,10,0,0,0,0,0,0,0,0],"split_type":[0,0,0,0,0,0,0,0,0,0,0,0,0,0,0],"sum_hessian":[8.131658E1,3.842038E1,4.2896202E1,1.6701166E1,2.1719213E1,2.9156195E1,1.3740009E1,2.4953638E-1,1.645163E1,1.4476307E1,7.2429056E0,2.2492492E0,2.6906946E1,2.247647E0,1.1492362E1],"tree_param":{"num_deleted":"0","num_feature":"3072","num_nodes":"15","size_leaf_vector":"0"}},{"base_weights":[2.6331557E-2,5.2209E-1,-1.5117047E0,-5.776467E-1,9.036975E-1,-1.5953357E0,2.6636937E-1,2.2023883E-2,-2.635096E-2,2.1602581E-3,3.464665E-2,1.0517712E-2,-4.198046E-2,-1.0296012E-2,1.6519655E-2],"categories":[],"categories_nodes":[],"categories_segments":[],"categories_sizes":[],"default_left":[false,false,false,false,false,false,false,false,false,false,false,false,false,false,false],"id":4,"left_children":[1,3,5,7,9,11,13,-1,-1,-1,-1,-1,-1,-1,-1],"loss_changes":[6.214136E1,2.6370249E1,3.3796997E0,1.1664108E1,1.69921E1,2.53405E0,7.063844E-1,0E0,0E0,0E0,0E0,0E0,0E0,0E0,0E0],"parents":[2147483647,0,0,1,1,2,2,3,3,4,4,5,5,6,6],"right_children":[2,4,6,8,10,12,14,-1,-1,-1,-1,-1,-1,-1,-1],"split_conditions":[-2.1552656E-2,-3.7367485E-2,4.3738283E-2,0E0,-1.5075684E-2,4.4945067E-1,3.1313293E-2,2.2023883E-2,-2.635096E-2,2.1602581E-3,3.464665E-2,1.0517712E-2,-4.198046E-2,-1.0296012E-2,1.6519655E-2],"split_indices":[1110,2534,2344,2743,1002,64,11,0,0,0,0,0,0,0,0],"split_type":[0,0,0,0,0,0,0,0,0,0,0,0,0,0,0],"sum_hessian":[7.946237E1,6.0592133E1,1.8870243E1,1.5476735E1,4.5115395E1,1.8120714E1,7.4952835E-1,3.4950564E0,1.1981678E1,1.648532E1,2.8630077E1,2.4978444E-1,1.787093E1,2.4998468E-1,4.9954367E-1],"tree_param":{"num_deleted":"0","num_feature":"3072","num_nodes":"15","size_leaf_vector":"0"}},{"base_weights":[-2.4423772E-2,4.292442E-1,-1.2984723E0,-6.6058797E-1,8.526516E-1,-1.5695784E0,4.2832536E-1,2.320826E-2,-2.5778685E-2,5.4608067E-3,3.5726722E-2,1.0463429E-2,-4.1314818E-2,3.2380063E-2,-2.4051584E-2],"categories":[],"categories_nodes":[],"categories_segments":[],"categories_sizes":[],"default_left":[false,false,false,false,false,false,false,false,false,false,false,false,false,false,false],"id":5,"left_children":[1,3,5,7,9,11,13,-1,-1,-1,-1,-1,-1,-1,-1],"loss_changes":[4.7992386E1,2.883591E1,1.087698E1,1.06085E1,1.5250774E1,2.4762192E0,5.4996E0,0E0,0E0,0E0,0E0,0E0,0E0,0E0,0E0],"parents":[2147483647,0,0,1,1,2,2,3,3,4,4,5,5,6,6],"right_children":[2,4,6,8,10,12,14,-1,-1,-1,-1,-1,-1,-1,-1],"split_conditions":[-2.5222778E-2,-1.2842403E-2,1.0880714E-2,2.0982446E-1,2.0645142E-2,4.4945067E-1,3.474469E-2,2.320826E-2,-2.5778685E-2,5.4608067E-3,3.5726722E-2,1.0463429E-2,-4.1314818E-2,3.2380063E-2,-2.4051584E-2],"split_indices":[1110,2788,2921,0,780,64,27,0,0,0,0,0,0,0,0],"split_type":[0,0,0,0,0,0,0,0,0,0,0,0,0,0,0],"sum_hessian":[8.106823E1,6.0270107E1,2.0798119E1,1.6706957E1,4.3563152E1,1.8054604E1,2.7435153E0,2.745925E0,1.3961032E1,2.0720465E1,2.2842686E1,2.498547E-1,1.7804749E1,1.7474067E0,9.9610853E-1],"tree_param":{"num_deleted":"0","num_feature":"3072","num_nodes":"15","size_leaf_vector":"0"}},{"base_weights":[-1.8457996E-2,5.243293E-1,-1.36595E0,9.2260575E-1,-8.5966974E-1,-4.057645E-2,2.9704377E-1,7.7410545E-3,3.536527E-2,-3.659048E-2,2.8088405E-3,-1.6121749E-2,2.7913585E-2],"categories":[],"categories_nodes":[],"categories_segments":[],"categories_sizes":[],"default_left":[false,false,false,false,false,false,false,false,false,false,false,false,false],"id":6,"left_children":[1,3,5,7,9,-1,11,-1,-1,-1,-1,-1,-1],"loss_changes":[5.715997E1,3.1515053E1,8.785305E0,1.2108543E1,7.365365E0,0E0,3.2708888E0,0E0,0E0,0E0,0E0,0E0,0E0],"parents":[2147483647,0,0,1,1,2,2,3,3,4,4,6,6],"right_children":[2,4,6,8,10,-1,12,-1,-1,-1,-1,-1,-1],"split_conditions":[-2.1552656E-2,3.590373E-2,5.5198584E-2,-5.4656982E-2,1.5546615E-1,-4.057645E-2,3.1313293E-2,7.7410545E-3,3.536527E-2,-3.659048E-2,2.8088405E-3,-1.6121749E-2,2.7913585E-2],"split_indices":[1110,3057,2418,498,101,0,11,0,0,0,0,0,0],"split_type":[0,0,0,0,0,0,0,0,0,0,0,0,0],"sum_hessian":[7.617206E1,5.473498E1,2.1437075E1,4.2762497E1,1.1972482E1,1.89437E1,2.4933753E0,1.8977188E1,2.378531E1,7.225212E0,4.7472696E0,1.246467E0,1.2469084E0],"tree_param":{"num_deleted":"0","num_feature":"3072","num_nodes":"13","size_leaf_vector":"0"}},{"base_weights":[-1.0283682E-2,5.1768774E-1,-1.4320219E0,7.953646E-1,-1.3338304E0,1.4558616E-1,-4.0052205E-2,2.4113646E-2,-1.8050224E-2,7.738992E-3,-3.9125595E-2,-2.1906175E-2,2.431156E-2],"categories":[],"categories_nodes":[],"categories_segments":[],"categories_sizes":[],"default_left":[false,false,false,false,false,false,false,false,false,false,false,false,false],"id":7,"left_children":[1,3,5,7,9,11,-1,-1,-1,-1,-1,-1,-1],"loss_changes":[6.388867E1,3.297708E1,5.180397E0,1.2872799E1,3.2107248E0,3.0384817E0,0E0,0E0,0E0,0E0,0E0,0E0,0E0],"parents":[2147483647,0,0,1,1,2,2,3,3,4,4,5,5],"right_children":[2,4,6,8,10,12,-1,-1,-1,-1,-1,-1,-1],"split_conditions":[-2.1552656E-2,4.341472E-2,-1.67619E-2,2.0353429E-2,1.5546615E-1,3.1313293E-2,-4.0052205E-2,2.4113646E-2,-1.8050224E-2,7.738992E-3,-3.9125595E-2,-2.1906175E-2,2.431156E-2],"split_indices":[1110,2342,2334,2636,18,11,0,0,0,0,0,0,0],"split_type":[0,0,0,0,0,0,0,0,0,0,0,0,0],"sum_hessian":[8.312498E1,6.107884E1,2.2046137E1,5.3609337E1,7.469502E0,1.7466304E0,2.0299505E1,4.911556E1,4.49378E0,7.492887E-1,6.7202134E0,7.498431E-1,9.967873E-1],"tree_param":{"num_deleted":"0","num_feature":"3072","num_nodes":"13","size_leaf_vector":"0"}},{"base_weights":[8.399071E-2,4.783397E-1,-1.2879215E0,7.4854803E-1,-1.385512E0,2.1292897E-2,-1.4337989E0,2.2757353E-2,-2.0512838E-2,1.7030701E-2,-4.1190594E-2,1.0827526E-2,-3.8007166E-2],"categories":[],"categories_nodes":[],"categories_segments":[],"categories_sizes":[],"default_left":[false,false,false,false,false,false,false,false,false,false,false,false,false],"id":8,"left_children":[1,3,5,7,9,-1,11,-1,-1,-1,-1,-1,-1],"loss_changes":[4.1903156E1,3.1257404E1,6.5526047E0,1.2448051E1,4.7831783E0,0E0,2.3034286E0,0E0,0E0,0E0,0E0,0E0,0E0],"parents":[2147483647,0,0,1,1,2,2,3,3,4,4,6,6],"right_children":[2,4,6,8,10,-1,12,-1,-1,-1,-1,-1,-1],"split_conditions":[-2.1552656E-2,4.024761E-2,-1.32195465E-2,4.421997E-2,1.5546615E-1,2.1292897E-2,4.4945067E-1,2.2757353E-2,-2.0512838E-2,1.7030701E-2,-4.1190594E-2,1.0827526E-2,-3.8007166E-2],"split_indices":[1110,2342,2469,428,18,0,64,0,0,0,0,0,0],"split_type":[0,0,0,0,0,0,0,0,0,0,0,0,0],"sum_hessian":[7.531453E1,5.9005142E1,1.6309385E1,5.2056705E1,6.9484344E0,7.4589825E-1,1.5563487E1,4.8068024E1,3.9886813E0,4.9997145E-1,6.448463E0,2.4912602E-1,1.5314362E1],"tree_param":{"num_deleted":"0","num_feature":"3072","num_nodes":"13","size_leaf_vector":"0"}},{"base_weights":[3.4329125E-3,8.410235E-1,-6.831591E-1,1.0947307E-1,1.3659406E0,5.615379E-1,-1.2033131E0,2.1077193E-2,-2.4530731E-2,9.06107E-5,4.008668E-2,-1.3790071E-2,2.5321247E-2,-3.742178E-2,5.7466156E-3],"categories":[],"categories_nodes":[],"categories_segments":[],"categories_sizes":[],"default_left":[false,false,false,false,false,false,false,false,false,false,false,false,false,false,false],"id":9,"left_children":[1,3,5,7,9,11,13,-1,-1,-1,-1,-1,-1,-1,-1],"loss_changes":[4.6031715E1,1.3695728E1,2.9155977E1,1.31614685E1,5.7941666E0,6.997523E0,1.2055134E1,0E0,0E0,0E0,0E0,0E0,0E0,0E0,0E0],"parents":[2147483647,0,0,1,1,2,2,3,3,4,4,5,5,6,6],"right_children":[2,4,6,8,10,12,14,-1,-1,-1,-1,-1,-1,-1,-1],"split_conditions":[1.9368967E-2,-2.5269492E-2,2.836007E-2,1.6680509E-1,4.0870222E-1,1E0,3.272686E-2,2.1077193E-2,-2.4530731E-2,9.06107E-5,4.008668E-2,-1.3790071E-2,2.5321247E-2,-3.742178E-2,5.7466156E-3],"split_indices":[2979,279,2526,188,186,8,2675,0,0,0,0,0,0,0,0],"split_type":[0,0,0,0,0,0,0,0,0,0,0,0,0,0,0],"sum_hessian":[7.804451E1,3.5055058E1,4.2989452E1,1.5149924E1,1.9905132E1,1.2646818E1,3.0342636E1,9.214324E0,5.9356003E0,2.7206228E0,1.718451E1,3.4784691E0,9.168348E0,2.5618893E1,4.7237434E0],"tree_param":{"num_deleted":"0","num_feature":"3072","num_nodes":"15","size_leaf_vector":"0"}},{"base_weights":[9.576908E-2,6.0705465E-1,-1.3598546E0,-5.9226805E-1,8.8533723E-1,-3.6536294E-1,-3.852842E-2,1.4839218E-2,-2.8786544E-2,-2.4624362E-3,2.9801989E-2,-2.7540706E-2,1.2603704E-2],"categories":[],"categories_nodes":[],"categories_segments":[],"categories_sizes":[],"default_left":[false,false,false,false,false,false,false,false,false,false,false,false,false],"id":10,"left_children":[1,3,5,7,9,11,-1,-1,-1,-1,-1,-1,-1],"loss_changes":[5.7918926E1,1.9702965E1,2.443573E0,7.822384E0,1.3115421E1,2.9532063E0,0E0,0E0,0E0,0E0,0E0,0E0,0E0],"parents":[2147483647,0,0,1,1,2,2,3,3,4,4,5,5],"right_children":[2,4,6,8,10,12,-1,-1,-1,-1,-1,-1,-1],"split_conditions":[-2.1552656E-2,-6.2317472E-2,3.474469E-2,3.9488152E-1,6.0484976E-1,2.4102546E-1,-3.852842E-2,1.4839218E-2,-2.8786544E-2,-2.4624362E-3,2.9801989E-2,-2.7540706E-2,1.2603704E-2],"split_indices":[1110,2350,193,85,75,95,0,0,0,0,0,0,0],"split_type":[0,0,0,0,0,0,0,0,0,0,0,0,0],"sum_hessian":[7.571378E1,5.646389E1,1.9249897E1,1.0421545E1,4.6042343E1,2.9537215E0,1.6296175E1,3.2361739E0,7.185371E0,1.0407813E1,3.5634533E1,1.4742824E0,1.4794393E0],"tree_param":{"num_deleted":"0","num_feature":"3072","num_nodes":"13","size_leaf_vector":"0"}},{"base_weights":[5.6664553E-2,5.1646465E-1,-1.2283071E0,-7.997425E-1,8.3139664E-1,5.0080466E-1,-1.4538807E0,2.5787951E-2,-2.8014781E-2,-2.918858E-2,2.3434207E-2,2.360369E-2,-1.5622595E-2,1.0900663E-2,-3.8330127E-2],"categories":[],"categories_nodes":[],"categories_segments":[],"categories_sizes":[],"default_left":[false,false,false,false,false,false,false,false,false,false,false,false,false,false,false],"id":11,"left_children":[1,3,5,7,9,11,13,-1,-1,-1,-1,-1,-1,-1,-1],"loss_changes":[4.8295223E1,2.5582792E1,9.135212E0,7.622432E0,9.383106E0,2.0872777E0,2.3456078E0,0E0,0E0,0E0,0E0,0E0,0E0,0E0,0E0],"parents":[2147483647,0,0,1,1,2,2,3,3,4,4,5,5,6,6],"right_children":[2,4,6,8,10,12,14,-1,-1,-1,-1,-1,-1,-1,-1],"split_conditions":[-2.1552656E-2,-4.6043575E-2,-1.2591794E-2,2.0982446E-1,1.9602843E-2,1.5546615E-1,4.4945067E-1,2.5787951E-2,-2.8014781E-2,-2.918858E-2,2.3434207E-2,2.360369E-2,-1.5622595E-2,1.0900663E-2,-3.8330127E-2],"split_indices":[1110,2882,3041,0,1281,42,64,0,0,0,0,0,0,0,0],"split_type":[0,0,0,0,0,0,0,0,0,0,0,0,0,0,0],"sum_hessian":[7.96676E1,5.9113247E1,2.055436E1,1.1116061E1,4.7997185E1,2.231197E0,1.8323162E1,1.2298064E0,9.886255E0,1.494204E0,4.6502983E1,1.7387445E0,4.924526E-1,2.4890791E-1,1.8074253E1],"tree_param":{"num_deleted":"0","num_feature":"3072","num_nodes":"15","size_leaf_vector":"0"}},{"base_weights":[1.6010046E-2,7.896655E-1,-6.8263245E-1,-2.15234E-1,1.0910211E0,-1.0483212E0,9.6937114E-1,-3.540517E-2,1.2822297E-2,-3.9826897E-3,3.157764E-2,-8.774209E-3,-3.465899E-2,-2.1381352E-2,3.836124E-2],"categories":[],"categories_nodes":[],"categories_segments":[],"categories_sizes":[],"default_left":[false,false,false,false,false,false,false,false,false,false,false,false,false,false,false],"id":12,"left_children":[1,3,5,7,9,11,13,-1,-1,-1,-1,-1,-1,-1,-1],"loss_changes":[4.3220085E1,1.1722563E1,2.6407494E1,8.748561E0,5.513294E0,7.1261024E0,9.087456E0,0E0,0E0,0E0,0E0,0E0,0E0,0E0,0E0],"parents":[2147483647,0,0,1,1,2,2,3,3,4,4,5,5,6,6],"right_children":[2,4,6,8,10,12,14,-1,-1,-1,-1,-1,-1,-1,-1],"split_conditions":[1.8786075E-2,1E0,3.306923E-2,7.3699124E-2,1E0,3.167365E-1,-2.380489E-2,-3.540517E-2,1.2822297E-2,-3.9826897E-3,3.157764E-2,-8.774209E-3,-3.465899E-2,-2.1381352E-2,3.836124E-2],"split_indices":[2979,56,2917,106,165,159,260,0,0,0,0,0,0,0,0],"split_type":[0,0,0,0,0,0,0,0,0,0,0,0,0,0,0],"sum_hessian":[7.7964584E1,3.6934338E1,4.103025E1,8.586755E0,2.8347584E1,3.3893078E1,7.1371727E0,2.9074259E0,5.6793284E0,2.9524374E0,2.5395147E1,1.0968151E1,2.2924925E1,1.4949827E0,5.64219E0],"tree_param":{"num_deleted":"0","num_feature":"3072","num_nodes":"15","size_leaf_vector":"0"}},{"base_weights":[4.574528E-2,5.8116496E-1,-9.035969E-1,-7.67124E-1,8.477206E-1,-3.482344E-2,-1.4715925E0,1.787088E-2,-3.351949E-2,-9.112393E-3,2.8665327E-2,1.2398284E-2,-1.7416118E-2,-1.0178293E-2,-3.900137E-2],"categories":[],"categories_nodes":[],"categories_segments":[],"categories_sizes":[],"default_left":[false,false,false,false,false,false,false,false,false,false,false,false,false,false,false],"id":13,"left_children":[1,3,5,7,9,11,13,-1,-1,-1,-1,-1,-1,-1,-1],"loss_changes":[3.8719547E1,1.8136131E1,1.3513147E1,7.76228E0,1.3996706E1,4.3343987E0,3.7966156E-1,0E0,0E0,0E0,0E0,0E0,0E0,0E0,0E0],"parents":[2147483647,0,0,1,1,2,2,3,3,4,4,5,5,6,6],"right_children":[2,4,6,8,10,12,14,-1,-1,-1,-1,-1,-1,-1,-1],"split_conditions":[3.707715E-2,-2.2628784E-2,-3.4179688E-2,7.3699124E-2,1.4079823E-2,1.2857816E-2,2.4102546E-1,1.787088E-2,-3.351949E-2,-9.112393E-3,2.8665327E-2,1.2398284E-2,-1.7416118E-2,-1.0178293E-2,-3.900137E-2],"split_indices":[2802,471,435,231,139,2912,249,0,0,0,0,0,0,0,0],"split_type":[0,0,0,0,0,0,0,0,0,0,0,0,0,0,0],"sum_hessian":[7.414199E1,4.765363E1,2.6488358E1,7.556006E0,4.0097622E1,1.0891168E1,1.5597191E1,1.9710125E0,5.5849934E0,7.389938E0,3.2707687E1,6.175669E0,4.7154984E0,1.1691775E0,1.4428013E1],"tree_param":{"num_deleted":"0","num_feature":"3072","num_nodes":"15","size_leaf_vector":"0"}},{"base_weights":[-3.4854125E-2,-1.0389475E0,4.1321772E-1,-2.1035993E-2,-1.4113687E0,-3.916339E-1,1.0999436E0,2.6876662E-2,-1.7362487E-2,-1.1427967E-2,-3.8326357E-2,-2.8233998E-2,8.246691E-3,3.5297103E-2,9.516721E-3],"categories":[],"categories_nodes":[],"categories_segments":[],"categories_sizes":[],"default_left":[false,false,false,false,false,false,false,false,false,false,false,false,false,false,false],"id":14,"left_children":[1,3,5,7,9,11,13,-1,-1,-1,-1,-1,-1,-1,-1],"loss_changes":[3.5077305E1,9.086267E0,3.0257797E1,5.988038E0,8.4235764E-1,1.340608E1,5.5134735E0,0E0,0E0,0E0,0E0,0E0,0E0,0E0,0E0],"parents":[2147483647,0,0,1,1,2,2,3,3,4,4,5,5,6,6],"right_children":[2,4,6,8,10,12,14,-1,-1,-1,-1,-1,-1,-1,-1],"split_conditions":[2.857785E-3,-1.6296148E-2,-2.5775326E-2,8.504032E-2,3.474469E-2,1.4522444E-2,2.4696682E-2,2.6876662E-2,-1.7362487E-2,-1.1427967E-2,-3.8326357E-2,-2.8233998E-2,8.246691E-3,3.5297103E-2,9.516721E-3],"split_indices":[486,2615,3064,224,193,2492,2452,0,0,0,0,0,0,0,0],"split_type":[0,0,0,0,0,0,0,0,0,0,0,0,0,0,0],"sum_hessian":[7.601164E1,2.3046827E1,5.2964813E1,6.45643E0,1.6590397E1,2.4582966E1,2.8381845E1,2.2283316E0,4.2280984E0,1.9160484E0,1.467435E1,1.2023573E1,1.2559392E1,1.9801464E1,8.580381E0],"tree_param":{"num_deleted":"0","num_feature":"3072","num_nodes":"15","size_leaf_vector":"0"}},{"base_weights":[1.2452923E-2,4.7228336E-1,-1.0741701E0,8.3367056E-1,-6.244198E-1,-1.2683454E0,8.6083716E-1,3.397294E-2,9.306372E-3,5.850562E-3,-3.0009663E-2,1.6734542E-2,-3.4341037E-2,-1.0068565E-2,2.9268237E-2],"categories":[],"categories_nodes":[],"categories_segments":[],"categories_sizes":[],"default_left":[false,false,false,false,false,false,false,false,false,false,false,false,false,false,false],"id":15,"left_children":[1,3,5,7,9,11,13,-1,-1,-1,-1,-1,-1,-1,-1],"loss_changes":[3.936964E1,2.2455742E1,9.895979E0,9.314823E0,6.984018E0,4.0642815E0,1.4297342E0,0E0,0E0,0E0,0E0,0E0,0E0,0E0,0E0],"parents":[2147483647,0,0,1,1,2,2,3,3,4,4,5,5,6,6],"right_children":[2,4,6,8,10,12,14,-1,-1,-1,-1,-1,-1,-1,-1],"split_conditions":[-2.5222778E-2,3.4912564E-2,2.0341002E-3,-4.5329656E-2,1.5636407E-2,3.1313293E-2,3.1313293E-2,3.397294E-2,9.306372E-3,5.850562E-3,-3.0009663E-2,1.6734542E-2,-3.4341037E-2,-1.0068565E-2,2.9268237E-2],"split_indices":[1110,3057,2710,2305,148,86,11,0,0,0,0,0,0,0,0],"split_type":[0,0,0,0,0,0,0,0,0,0,0,0,0,0,0],"sum_hessian":[7.677718E1,5.434512E1,2.2432068E1,4.1056095E1,1.3289024E1,2.0699434E1,1.7326324E0,1.905766E1,2.1998436E1,5.4400964E0,7.848928E0,4.9985126E-1,2.0199583E1,2.4994768E-1,1.4826847E0],"tree_param":{"num_deleted":"0","num_feature":"3072","num_nodes":"15","size_leaf_vector":"0"}},{"base_weights":[1.4026336E-1,5.653601E-1,-1.2086824E0,1.0034509E0,-2.7635834E-1,-1.3630192E0,6.0064876E-1,1.3864863E-2,3.542167E-2,-2.8288297E-2,1.0569094E-2,1.1473544E-2,-3.6072545E-2,-1.001749E-2,2.3573704E-2],"categories":[],"categories_nodes":[],"categories_segments":[],"categories_sizes":[],"default_left":[false,false,false,false,false,false,false,false,false,false,false,false,false,false,false],"id":16,"left_children":[1,3,5,7,9,11,13,-1,-1,-1,-1,-1,-1,-1,-1],"loss_changes":[4.6877197E1,2.31158E1,6.297987E0,6.4795647E0,1.3071658E1,2.2799797E0,1.0778193E0,0E0,0E0,0E0,0E0,0E0,0E0,0E0,0E0],"parents":[2147483647,0,0,1,1,2,2,3,3,4,4,5,5,6,6],"right_children":[2,4,6,8,10,12,14,-1,-1,-1,-1,-1,-1,-1,-1],"split_conditions":[-2.1552656E-2,1.5236855E-2,3.272686E-2,-5.331421E-2,2.759992E-1,4.4945067E-1,3.1313293E-2,1.3864863E-2,3.542167E-2,-2.8288297E-2,1.0569094E-2,1.1473544E-2,-3.6072545E-2,-1.001749E-2,2.3573704E-2],"split_indices":[1110,2868,2675,1253,87,64,11,0,0,0,0,0,0,0,0],"split_type":[0,0,0,0,0,0,0,0,0,0,0,0,0,0,0],"sum_hessian":[7.9556755E1,6.0935028E1,1.8621723E1,3.995002E1,2.098501E1,1.7385412E1,1.2363107E0,1.9247652E1,2.0702368E1,9.245258E0,1.1739751E1,2.4640745E-1,1.7139006E1,2.4990495E-1,9.8640585E-1],"tree_param":{"num_deleted":"0","num_feature":"3072","num_nodes":"15","size_leaf_vector":"0"}},{"base_weights":[5.194432E-2,-9.831443E-1,5.4088354E-1,6.159905E-1,-1.2210985E0,8.2266647E-1,-8.458213E-1,-1.6206505E-2,2.7540596E-2,3.2606765E-4,-3.344071E-2,-2.2791543E-3,2.636938E-2,2.2499569E-2,-2.7918201E-2],"categories":[],"categories_nodes":[],"categories_segments":[],"categories_sizes":[],"default_left":[false,false,false,false,false,false,false,false,false,false,false,false,false,false,false],"id":17,"left_children":[1,3,5,7,9,11,13,-1,-1,-1,-1,-1,-1,-1,-1],"loss_changes":[3.9636044E1,1.0319857E1,2.1453629E1,2.9516375E0,2.436657E0,8.636658E0,5.004817E0,0E0,0E0,0E0,0E0,0E0,0E0,0E0,0E0],"parents":[2147483647,0,0,1,1,2,2,3,3,4,4,5,5,6,6],"right_children":[2,4,6,8,10,12,14,-1,-1,-1,-1,-1,-1,-1,-1],"split_conditions":[2.857785E-3,7.3699124E-2,3.590373E-2,-1.7580038E-2,3.1313293E-2,1.5636407E-2,1.7336465E-1,-1.6206505E-2,2.7540596E-2,3.2606765E-4,-3.344071E-2,-2.2791543E-3,2.636938E-2,2.2499569E-2,-2.7918201E-2],"split_indices":[486,231,3057,2313,86,179,26,0,0,0,0,0,0,0,0],"split_type":[0,0,0,0,0,0,0,0,0,0,0,0,0,0,0],"sum_hessian":[7.626661E1,2.414361E1,5.2123E1,2.9214904E0,2.1222118E1,4.3658253E1,8.46475E0,6.880383E-1,2.2334523E0,1.4737662E0,1.9748352E1,8.273648E0,3.53846E1,7.39433E-1,7.7253175E0],"tree_param":{"num_deleted":"0","num_feature":"3072","num_nodes":"15","size_leaf_vector":"0"}},{"base_weights":[-9.552735E-3,-1.0205094E0,4.3225706E-1,9.2808776E-2,-1.344611E0,-8.144224E-1,7.5783145E-1,1.6836293E-2,-2.2126563E-2,-2.941703E-3,-3.5045736E-2,2.1483885E-2,-2.675104E-2,3.060891E-2,4.572687E-3],"categories":[],"categories_nodes":[],"categories_segments":[],"categories_sizes":[],"default_left":[false,false,false,false,false,false,false,false,false,false,false,false,false,false,false],"id":18,"left_children":[1,3,5,7,9,11,13,-1,-1,-1,-1,-1,-1,-1,-1],"loss_changes":[3.3898987E1,8.452127E0,2.2060192E1,3.9063196E0,4.5043182E-1,5.2871714E0,1.0601292E1,0E0,0E0,0E0,0E0,0E0,0E0,0E0,0E0],"parents":[2147483647,0,0,1,1,2,2,3,3,4,4,5,5,6,6],"right_children":[2,4,6,8,10,12,14,-1,-1,-1,-1,-1,-1,-1,-1],"split_conditions":[2.1078696E-3,3.474469E-2,-5.0924607E-2,1.4079823E-2,-3.649871E-2,2.4102546E-1,2.6841786E-2,1.6836293E-2,-2.2126563E-2,-2.941703E-3,-3.5045736E-2,2.1483885E-2,-2.675104E-2,3.060891E-2,4.572687E-3],"split_indices":[765,193,2882,99,281,249,614,0,0,0,0,0,0,0,0],"split_type":[0,0,0,0,0,0,0,0,0,0,0,0,0,0,0],"sum_hessian":[7.390837E1,2.2078388E1,5.1829983E1,5.1390243E0,1.6939363E1,1.0421768E1,4.140821E1,3.4276404E0,1.7113839E0,4.853633E-1,1.6454E1,9.637254E-1,9.458043E0,2.2901834E1,1.8506378E1],"tree_param":{"num_deleted":"0","num_feature":"3072","num_nodes":"15","size_leaf_vector":"0"}},{"base_weights":[-3.6709957E-2,-1.2689972E0,3.1760967E-1,1.7790668E-2,-3.5217628E-2,5.920483E-1,-8.2704777E-1,-2.5444662E-2,2.0228317E-2,5.2518966E-3,-3.2529917E-2],"categories":[],"categories_nodes":[],"categories_segments":[],"categories_sizes":[],"default_left":[false,false,false,false,false,false,false,false,false,false,false],"id":19,"left_children":[1,3,5,-1,-1,7,9,-1,-1,-1,-1],"loss_changes":[3.0705E1,4.3527546E0,1.7673628E1,0E0,0E0,1.4989329E1,5.33376E0,0E0,0E0,0E0,0E0],"parents":[2147483647,0,0,1,1,2,2,5,5,6,6],"right_children":[2,4,6,-1,-1,8,10,-1,-1,-1,-1],"split_conditions":[-1.7653584E-2,1.7336465E-1,7.671356E-3,1.7790668E-2,-3.5217628E-2,-6.870634E-2,-1.9419031E-2,-2.5444662E-2,2.0228317E-2,5.2518966E-3,-3.2529917E-2],"split_indices":[2788,192,518,0,0,2619,2410,0,0,0,0],"split_type":[0,0,0,0,0,0,0,0,0,0,0],"sum_hessian":[6.8400635E1,1.46986685E1,5.3701965E1,4.9588615E-1,1.4202783E1,4.3705967E1,9.995999E0,4.442269E0,3.9263695E1,3.1809597E0,6.815039E0],"tree_param":{"num_deleted":"0","num_feature":"3072","num_nodes":"11","size_leaf_vector":"0"}},{"base_weights":[-4.6020675E-2,3.5936677E-1,-1.2319592E0,6.681111E-1,-9.2121243E-1,9.377833E-3,-1.2711822E0,3.0419502E-2,6.845211E-3,-3.495057E-2,-2.6815515E-3,-3.4697574E-2,-1.4201154E-2],"categories":[],"categories_nodes":[],"categories_segments":[],"categories_sizes":[],"default_left":[false,false,false,false,false,false,false,false,false,false,false,false,false],"id":20,"left_children":[1,3,5,7,9,-1,11,-1,-1,-1,-1,-1,-1],"loss_changes":[3.7254448E1,2.3482758E1,1.7043915E0,9.552429E0,4.111474E0,0E0,4.6216393E-1,0E0,0E0,0E0,0E0,0E0,0E0],"parents":[2147483647,0,0,1,1,2,2,3,3,4,4,6,6],"right_children":[2,4,6,8,10,-1,12,-1,-1,-1,-1,-1,-1],"split_conditions":[-2.1552656E-2,2.827472E-2,-1.13370866E-1,1.8476885E-2,-2.4429321E-2,9.377833E-3,6.518555E-2,3.0419502E-2,6.845211E-3,-3.495057E-2,-2.6815515E-3,-3.4697574E-2,-1.4201154E-2],"split_indices":[1110,2716,2305,2881,279,0,261,0,0,0,0,0,0],"split_type":[0,0,0,0,0,0,0,0,0,0,0,0,0],"sum_hessian":[7.556912E1,5.683745E1,1.8731676E1,4.6181488E1,1.0655963E1,2.4826477E-1,1.8483412E1,1.9160341E1,2.7021145E1,6.446745E0,4.209218E0,1.5669037E1,2.8143742E0],"tree_param":{"num_deleted":"0","num_feature":"3072","num_nodes":"13","size_leaf_vector":"0"}},{"base_weights":[1.8237105E-2,4.8028076E-1,-1.2542088E0,1.0126265E0,-2.1693565E-1,-1.3375347E0,1.4723217E-1,-7.9681305E-3,2.9444382E-2,1.3323483E-2,-2.4584144E-2,1.1590982E-2,-3.5437535E-2,1.8378874E-2,-1.3618673E-2],"categories":[],"categories_nodes":[],"categories_segments":[],"categories_sizes":[],"default_left":[false,false,false,false,false,false,false,false,false,false,false,false,false,false,false],"id":21,"left_children":[1,3,5,7,9,11,13,-1,-1,-1,-1,-1,-1,-1,-1],"loss_changes":[4.2138535E1,1.9724869E1,2.4269733E0,5.9286957E0,1.3486566E1,2.2532768E0,1.1520097E0,0E0,0E0,0E0,0E0,0E0,0E0,0E0,0E0],"parents":[2147483647,0,0,1,1,2,2,3,3,4,4,5,5,6,6],"right_children":[2,4,6,8,10,12,14,-1,-1,-1,-1,-1,-1,-1,-1],"split_conditions":[-2.1552656E-2,-1.5907288E-3,4.9058497E-2,7.9017556E-1,1.5636407E-2,4.4945067E-1,3.474469E-2,-7.9681305E-3,2.9444382E-2,1.3323483E-2,-2.4584144E-2,1.1590982E-2,-3.5437535E-2,1.8378874E-2,-1.3618673E-2],"split_indices":[1110,1227,2322,186,148,64,27,0,0,0,0,0,0,0,0],"split_type":[0,0,0,0,0,0,0,0,0,0,0,0,0,0,0],"sum_hessian":[6.9648674E1,5.155196E1,1.8096716E1,2.897573E1,2.257623E1,1.7124159E1,9.72556E-1,2.6570663E0,2.6318665E1,1.1492513E1,1.1083715E1,2.4572797E-1,1.6878431E1,4.969784E-1,4.7557762E-1],"tree_param":{"num_deleted":"0","num_feature":"3072","num_nodes":"15","size_leaf_vector":"0"}},{"base_weights":[-1.9611053E-2,3.6140046E-1,-1.226114E0,-8.1722045E-1,6.186203E-1,-1.2576147E0,-2.7143806E-2,4.1061407E-3,-3.275523E-2,2.8934447E-2,4.376489E-3,-8.755472E-3,-3.4726508E-2,-9.365728E-3,8.57219E-3],"categories":[],"categories_nodes":[],"categories_segments":[],"categories_sizes":[],"default_left":[false,false,false,false,false,false,false,false,false,false,false,false,false,false,false],"id":22,"left_children":[1,3,5,7,9,11,13,-1,-1,-1,-1,-1,-1,-1,-1],"loss_changes":[3.511887E1,1.8119654E1,6.582298E-1,5.1386247E0,1.0907198E1,1.1999626E0,3.0680364E-1,0E0,0E0,0E0,0E0,0E0,0E0,0E0,0E0],"parents":[2147483647,0,0,1,1,2,2,3,3,4,4,5,5,6,6],"right_children":[2,4,6,8,10,12,14,-1,-1,-1,-1,-1,-1,-1,-1],"split_conditions":[-2.1552656E-2,0E0,1.8131956E-2,1.5636407E-2,5.884764E-3,2.4102546E-1,3.8827974E-2,4.1061407E-3,-3.275523E-2,2.8934447E-2,4.376489E-3,-8.755472E-3,-3.4726508E-2,-9.365728E-3,8.57219E-3],"split_indices":[1110,2993,2312,126,2399,249,7,0,0,0,0,0,0,0,0],"split_type":[0,0,0,0,0,0,0,0,0,0,0,0,0,0,0],"sum_hessian":[7.4432655E1,5.7100784E1,1.7331871E1,9.839151E0,4.7261635E1,1.6840506E1,4.9136633E-1,3.3829908E0,6.45616E0,2.1270344E1,2.5991291E1,2.1281505E0,1.4712355E1,2.4821353E-1,2.4315278E-1],"tree_param":{"num_deleted":"0","num_feature":"3072","num_nodes":"15","size_leaf_vector":"0"}},{"base_weights":[2.2483133E-2,5.494482E-1,-7.37878E-1,-1.0815482E0,6.9606686E-1,6.2200594E-1,-9.832662E-1,1.1491304E-2,-3.5280455E-2,2.1357039E-2,-1.6076434E-2,-2.457705E-2,2.7362522E-2,-1.2364671E-2,-3.0800926E-2],"categories":[],"categories_nodes":[],"categories_segments":[],"categories_sizes":[],"default_left":[false,false,false,false,false,false,false,false,false,false,false,false,false,false,false],"id":23,"left_children":[1,3,5,7,9,11,13,-1,-1,-1,-1,-1,-1,-1,-1],"loss_changes":[3.112202E1,1.1717815E1,1.122579E1,2.5380425E0,8.455517E0,4.9286146E0,2.45479E0,0E0,0E0,0E0,0E0,0E0,0E0,0E0,0E0],"parents":[2147483647,0,0,1,1,2,2,3,3,4,4,5,5,6,6],"right_children":[2,4,6,8,10,12,14,-1,-1,-1,-1,-1,-1,-1,-1],"split_conditions":[3.5777442E-2,2.8865805E-1,-2.4200458E-2,2.0982446E-1,3.9008863E-2,1E0,1.5636407E-2,1.1491304E-2,-3.5280455E-2,2.1357039E-2,-1.6076434E-2,-2.457705E-2,2.7362522E-2,-1.2364671E-2,-3.0800926E-2],"split_indices":[2802,230,2767,0,2342,183,253,0,0,0,0,0,0,0,0],"split_type":[0,0,0,0,0,0,0,0,0,0,0,0,0,0,0],"sum_hessian":[7.566044E1,4.4852787E1,3.080765E1,3.1735365E0,4.1679253E1,4.4747643E0,2.6332886E1,4.3764186E-1,2.7358947E0,3.8027466E1,3.6517854E0,7.3652244E-1,3.7382421E0,9.104206E0,1.722868E1],"tree_param":{"num_deleted":"0","num_feature":"3072","num_nodes":"15","size_leaf_vector":"0"}},{"base_weights":[3.3635397E-2,4.084558E-1,-1.041253E0,-9.858233E-1,6.731742E-1,6.0070974E-1,-1.1601124E0,-3.267478E-2,8.509256E-3,-3.6383264E-3,2.3775665E-2,-7.434985E-3,2.2603318E-2,-3.2739107E-2,-4.881467E-3],"categories":[],"categories_nodes":[],"categories_segments":[],"categories_sizes":[],"default_left":[false,false,false,false,false,false,false,false,false,false,false,false,false,false,false],"id":24,"left_children":[1,3,5,7,9,11,13,-1,-1,-1,-1,-1,-1,-1,-1],"loss_changes":[3.036303E1,2.1263939E1,4.501362E0,4.031581E0,1.0118942E1,7.5834715E-1,1.9401627E0,0E0,0E0,0E0,0E0,0E0,0E0,0E0,0E0],"parents":[2147483647,0,0,1,1,2,2,3,3,4,4,5,5,6,6],"right_children":[2,4,6,8,10,12,14,-1,-1,-1,-1,-1,-1,-1,-1],"split_conditions":[-2.5222778E-2,0E0,-1.0149171E-1,-2.859497E-2,1E0,3.9404002E-1,3.625303E-2,-3.267478E-2,8.509256E-3,-3.6383264E-3,2.3775665E-2,-7.434985E-3,2.2603318E-2,-3.2739107E-2,-4.881467E-3],"split_indices":[1110,2993,2403,283,208,1,2355,0,0,0,0,0,0,0,0],"split_type":[0,0,0,0,0,0,0,0,0,0,0,0,0,0,0],"sum_hessian":[7.330742E1,5.481358E1,1.8493841E1,8.311683E0,4.65019E1,9.7472465E-1,1.7519117E1,6.823223E0,1.4884592E0,1.12739105E1,3.522799E1,2.2984277E-1,7.4488187E-1,1.5276398E1,2.242719E0],"tree_param":{"num_deleted":"0","num_feature":"3072","num_nodes":"15","size_leaf_vector":"0"}},{"base_weights":[9.747779E-3,3.48003E-1,-1.1213229E0,-5.677016E-1,6.707217E-1,-1.2933384E-1,-3.185343E-2,1.8630411E-2,-2.2720344E-2,2.5747389E-2,2.9483647E-3,1.5209394E-2,-1.9328874E-2],"categories":[],"categories_nodes":[],"categories_segments":[],"categories_sizes":[],"default_left":[false,false,false,false,false,false,false,false,false,false,false,false,false],"id":25,"left_children":[1,3,5,7,9,11,-1,-1,-1,-1,-1,-1,-1],"loss_changes":[2.8593452E1,1.737562E1,1.9874496E0,7.1327763E0,7.936388E0,1.8394711E0,0E0,0E0,0E0,0E0,0E0,0E0,0E0],"parents":[2147483647,0,0,1,1,2,2,3,3,4,4,5,5],"right_children":[2,4,6,8,10,12,-1,-1,-1,-1,-1,-1,-1],"split_conditions":[-2.1552656E-2,1E0,3.474469E-2,3.4892297E-1,-1.2459277E-2,-8.087564E-2,-3.185343E-2,1.8630411E-2,-2.2720344E-2,2.5747389E-2,2.9483647E-3,1.5209394E-2,-1.9328874E-2],"split_indices":[1110,208,193,28,2640,2305,0,0,0,0,0,0,0],"split_type":[0,0,0,0,0,0,0,0,0,0,0,0,0],"sum_hessian":[7.271647E1,5.650927E1,1.62072E1,1.452784E1,4.198143E1,2.0534017E0,1.4153798E1,2.636697E0,1.1891143E1,2.5606544E1,1.6374886E1,9.764109E-1,1.0769908E0],"tree_param":{"num_deleted":"0","num_feature":"3072","num_nodes":"13","size_leaf_vector":"0"}},{"base_weights":[7.426094E-2,-5.2422315E-1,7.5456E-1,-9.186673E-1,2.5616342E-1,-2.5995769E-2,9.0333694E-1,-5.2400506E-3,-3.0501753E-2,-2.666401E-2,1.4098503E-2,3.345279E-2,1.0937801E-2],"categories":[],"categories_nodes":[],"categories_segments":[],"categories_sizes":[],"default_left":[false,false,false,false,false,false,false,false,false,false,false,false,false],"id":26,"left_children":[1,3,5,7,9,-1,11,-1,-1,-1,-1,-1,-1],"loss_changes":[3.00641E1,1.2349751E1,1.0020466E1,4.9387093E0,5.959917E0,0E0,5.6902237E0,0E0,0E0,0E0,0E0,0E0,0E0],"parents":[2147483647,0,0,1,1,2,2,3,3,4,4,6,6],"right_children":[2,4,6,8,10,-1,12,-1,-1,-1,-1,-1,-1],"split_conditions":[1.6308581E-2,3.7612915E-3,-1.247943E-2,-4.36588E-2,6.2918174E-1,-2.5995769E-2,1.9631805E-2,-5.2400506E-3,-3.0501753E-2,-2.666401E-2,1.4098503E-2,3.345279E-2,1.0937801E-2],"split_indices":[2993,899,2306,2907,137,0,3029,0,0,0,0,0,0],"split_type":[0,0,0,0,0,0,0,0,0,0,0,0,0],"sum_hessian":[7.186915E1,3.8355675E1,3.3513477E1,2.5360226E1,1.299545E1,2.142921E0,3.1370556E1,7.5526924E0,1.7807533E1,1.9402021E0,1.1055248E1,1.5958591E1,1.5411964E1],"tree_param":{"num_deleted":"0","num_feature":"3072","num_nodes":"13","size_leaf_vector":"0"}},{"base_weights":[5.6704967E-3,-8.207333E-1,3.645232E-1,5.7562375E-1,-1.0351084E0,8.969012E-1,-2.2971344E-1,3.0327752E-2,-1.0451631E-2,-1.0457918E-2,-3.3044644E-2,3.0745504E-2,2.0577591E-4,-3.07212E-2,5.7365634E-3],"categories":[],"categories_nodes":[],"categories_segments":[],"categories_sizes":[],"default_left":[false,false,false,false,false,false,false,false,false,false,false,false,false,false,false],"id":27,"left_children":[1,3,5,7,9,11,13,-1,-1,-1,-1,-1,-1,-1,-1],"loss_changes":[2.17803E1,7.252721E0,1.6402561E1,2.6566482E0,2.6487846E0,7.4128246E0,1.1318613E1,0E0,0E0,0E0,0E0,0E0,0E0,0E0,0E0],"parents":[2147483647,0,0,1,1,2,2,3,3,4,4,5,5,6,6],"right_children":[2,4,6,8,10,12,14,-1,-1,-1,-1,-1,-1,-1,-1],"split_conditions":[4.3754578E-3,7.3699124E-2,-1.5907288E-3,1.4996143E-1,1.5636407E-2,2.6751861E-2,1E0,3.0327752E-2,-1.0451631E-2,-1.0457918E-2,-3.3044644E-2,3.0745504E-2,2.0577591E-4,-3.07212E-2,5.7365634E-3],"split_indices":[486,231,1227,103,253,2458,225,0,0,0,0,0,0,0,0],"split_type":[0,0,0,0,0,0,0,0,0,0,0,0,0,0,0],"sum_hessian":[7.1435E1,2.123824E1,5.019676E1,2.6023579E0,1.8635881E1,2.6207798E1,2.398896E1,1.4782518E0,1.1241059E0,6.207854E0,1.2428028E1,1.9217472E1,6.990326E0,7.1105776E0,1.6878382E1],"tree_param":{"num_deleted":"0","num_feature":"3072","num_nodes":"15","size_leaf_vector":"0"}},{"base_weights":[-1.1889057E-1,4.9014735E-1,-7.1312463E-1,1.0279967E0,-1.566553E-1,-9.999009E-1,7.919657E-1,-3.817122E-3,3.2165825E-2,2.105586E-2,-3.3181388E-2,-3.0580457E-2,2.47648E-3,2.9990884E-2,-5.2843313E-3],"categories":[],"categories_nodes":[],"categories_segments":[],"categories_sizes":[],"default_left":[false,false,false,false,false,false,false,false,false,false,false,false,false,false,false],"id":28,"left_children":[1,3,5,7,9,11,13,-1,-1,-1,-1,-1,-1,-1,-1],"loss_changes":[2.7115057E1,1.3072953E1,1.712469E1,5.7466335E0,2.0932863E1,7.0960007E0,2.7687783E0,0E0,0E0,0E0,0E0,0E0,0E0,0E0,0E0],"parents":[2147483647,0,0,1,1,2,2,3,3,4,4,5,5,6,6],"right_children":[2,4,6,8,10,12,14,-1,-1,-1,-1,-1,-1,-1,-1],"split_conditions":[1.9368967E-2,4.660034E-2,2.5686942E-2,3.474469E-2,1.6680509E-1,-1.0484051E-2,1.4079823E-2,-3.817122E-3,3.2165825E-2,2.105586E-2,-3.3181388E-2,-3.0580457E-2,2.47648E-3,2.9990884E-2,-5.2843313E-3],"split_indices":[2979,345,3045,75,188,2534,71,0,0,0,0,0,0,0,0],"split_type":[0,0,0,0,0,0,0,0,0,0,0,0,0,0,0],"sum_hessian":[7.295607E1,3.6115746E1,3.684032E1,1.9396893E1,1.6718853E1,3.122621E1,5.6141124E0,3.2445524E0,1.615234E1,9.144788E0,7.5740666E0,2.6384687E1,4.8415213E0,3.9331205E0,1.680992E0],"tree_param":{"num_deleted":"0","num_feature":"3072","num_nodes":"15","size_leaf_vector":"0"}},{"base_weights":[-2.0502526E-2,2.5409743E-1,-9.6868587E-1,1.0736656E0,-9.73655E-2,-1.0918906E0,4.797213E-1,5.9173675E-3,3.4646563E-2,1.2860341E-2,-1.447413E-2,1.2260752E-2,-2.9320292E-2,-9.451749E-3,2.0775026E-2],"categories":[],"categories_nodes":[],"categories_segments":[],"categories_sizes":[],"default_left":[false,false,false,false,false,false,false,false,false,false,false,false,false,false,false],"id":29,"left_children":[1,3,5,7,9,11,13,-1,-1,-1,-1,-1,-1,-1,-1],"loss_changes":[1.9168602E1,1.6565487E1,3.4733038E0,3.7909546E0,1.1824302E1,1.9221516E0,8.655198E-1,0E0,0E0,0E0,0E0,0E0,0E0,0E0,0E0],"parents":[2147483647,0,0,1,1,2,2,3,3,4,4,5,5,6,6],"right_children":[2,4,6,8,10,12,14,-1,-1,-1,-1,-1,-1,-1,-1],"split_conditions":[-2.1552656E-2,1.076211E-2,3.272686E-2,6.39357E-3,1.5636407E-2,4.4945067E-1,3.1313293E-2,5.9173675E-3,3.4646563E-2,1.2860341E-2,-1.447413E-2,1.2260752E-2,-2.9320292E-2,-9.451749E-3,2.0775026E-2],"split_indices":[1110,2991,2675,2326,148,64,11,0,0,0,0,0,0,0,0],"split_type":[0,0,0,0,0,0,0,0,0,0,0,0,0,0,0],"sum_hessian":[7.1674965E1,5.6146576E1,1.5528392E1,1.6234615E1,3.991196E1,1.45379095E1,9.9048245E-1,4.5404463E0,1.1694168E1,1.7471312E1,2.244065E1,2.4084438E-1,1.4297065E1,2.4856102E-1,7.419214E-1],"tree_param":{"num_deleted":"0","num_feature":"3072","num_nodes":"15","size_leaf_vector":"0"}},{"base_weights":[-1.2591067E-1,3.0846855E-1,-9.4664216E-1,-2.8298178E-1,7.8987026E-1,5.8414686E-1,-1.0659293E0,1.3824403E-2,-1.9367855E-2,-9.188037E-3,2.559485E-2,-9.28956E-3,2.2016414E-2,-2.0903407E-3,-3.1502124E-2],"categories":[],"categories_nodes":[],"categories_segments":[],"categories_sizes":[],"default_left":[false,false,false,false,false,false,false,false,false,false,false,false,false,false,false],"id":30,"left_children":[1,3,5,7,9,11,13,-1,-1,-1,-1,-1,-1,-1,-1],"loss_changes":[2.5063822E1,1.3375241E1,5.0587387E0,8.820051E0,6.6394444E0,9.46318E-1,3.6728115E0,0E0,0E0,0E0,0E0,0E0,0E0,0E0,0E0],"parents":[2147483647,0,0,1,1,2,2,3,3,4,4,5,5,6,6],"right_children":[2,4,6,8,10,12,14,-1,-1,-1,-1,-1,-1,-1,-1],"split_conditions":[2.0796815E-2,-2.402223E-2,2.3512864E-2,1.8223609E-1,4.0870222E-1,2.5267988E-1,3.474469E-2,1.3824403E-2,-1.9367855E-2,-9.188037E-3,2.559485E-2,-9.28956E-3,2.2016414E-2,-2.0903407E-3,-3.1502124E-2],"split_indices":[2714,514,2771,121,186,2,193,0,0,0,0,0,0,0,0],"split_type":[0,0,0,0,0,0,0,0,0,0,0,0,0,0,0],"sum_hessian":[6.848446E1,4.5190926E1,2.3293531E1,2.0462664E1,2.4728262E1,1.4022121E0,2.189132E1,7.4337864E0,1.3028876E1,3.7461848E0,2.0982079E1,2.4787363E-1,1.1543385E0,3.401037E0,1.8490282E1],"tree_param":{"num_deleted":"0","num_feature":"3072","num_nodes":"15","size_leaf_vector":"0"}},{"base_weights":[2.4673364E-3,-5.8888376E-1,5.7906693E-1,2.3345108E-1,-9.417513E-1,1.7281997E-1,1.2308587E0,2.5163068E-2,-1.2285668E-2,-3.4628194E-2,-1.36241615E-2,1.1367154E-2,-3.296329E-2,-1.404375E-2,3.315575E-2],"categories":[],"categories_nodes":[],"categories_segments":[],"categories_sizes":[],"default_left":[false,false,false,false,false,false,false,false,false,false,false,false,false,false,false],"id":31,"left_children":[1,3,5,7,9,11,13,-1,-1,-1,-1,-1,-1,-1,-1],"loss_changes":[2.523237E1,1.0821493E1,9.707776E0,6.797025E0,3.6328335E0,1.0234121E1,2.419283E0,0E0,0E0,0E0,0E0,0E0,0E0,0E0,0E0],"parents":[2147483647,0,0,1,1,2,2,3,3,4,4,5,5,6,6],"right_children":[2,4,6,8,10,12,14,-1,-1,-1,-1,-1,-1,-1,-1],"split_conditions":[-7.239468E-4,-1.1269082E-2,5.342383E-3,3.167365E-1,9.6117204E-1,2.5558472E-3,1E0,2.5163068E-2,-1.2285668E-2,-3.4628194E-2,-1.36241615E-2,1.1367154E-2,-3.296329E-2,-1.404375E-2,3.315575E-2],"split_indices":[2788,2362,2584,159,221,570,90,0,0,0,0,0,0,0,0],"split_type":[0,0,0,0,0,0,0,0,0,0,0,0,0,0,0],"sum_hessian":[7.200104E1,3.5535305E1,3.646573E1,1.07714815E1,2.4763823E1,2.3243643E1,1.3222087E1,5.0640564E0,5.707425E0,1.11424675E1,1.3621355E1,2.0184536E1,3.059107E0,2.206821E-1,1.3001406E1],"tree_param":{"num_deleted":"0","num_feature":"3072","num_nodes":"15","size_leaf_vector":"0"}},{"base_weights":[3.20723E-2,8.366715E-1,-2.574152E-1,-3.951912E-1,1.227729E0,7.028818E-1,-5.771431E-1,2.1053012E-2,-3.939541E-2,-1.16006145E-2,3.282746E-2,-2.9912734E-2,2.9284324E-2,1.8417183E-2,-1.8109482E-2],"categories":[],"categories_nodes":[],"categories_segments":[],"categories_sizes":[],"default_left":[false,false,false,false,false,false,false,false,false,false,false,false,false,false,false],"id":32,"left_children":[1,3,5,7,9,11,13,-1,-1,-1,-1,-1,-1,-1,-1],"loss_changes":[1.7471264E1,1.004151E1,1.7368378E1,9.018066E0,2.0665855E0,1.3193771E1,7.7042027E0,0E0,0E0,0E0,0E0,0E0,0E0,0E0,0E0],"parents":[2147483647,0,0,1,1,2,2,3,3,4,4,5,5,6,6],"right_children":[2,4,6,8,10,12,14,-1,-1,-1,-1,-1,-1,-1,-1],"split_conditions":[-2.5603678E-2,3.474469E-2,8.911104E-3,1.6680509E-1,1.4996143E-1,6.6592234E-1,-1.4333725E-3,2.1053012E-2,-3.939541E-2,-1.16006145E-2,3.282746E-2,-2.9912734E-2,2.9284324E-2,1.8417183E-2,-1.8109482E-2],"split_indices":[2709,75,2802,188,10,186,1192,0,0,0,0,0,0,0,0],"split_type":[0,0,0,0,0,0,0,0,0,0,0,0,0,0,0],"sum_hessian":[7.308461E1,1.8837538E1,5.4247074E1,4.536531E0,1.4301007E1,1.3250638E1,4.0996437E1,2.3355463E0,2.200985E0,2.456698E-1,1.4055337E1,2.2228746E0,1.1027763E1,3.3696942E0,3.7626743E1],"tree_param":{"num_deleted":"0","num_feature":"3072","num_nodes":"15","size_leaf_vector":"0"}},{"base_weights":[3.301531E-2,3.5424754E-1,-1.0308785E0,-1.1480331E0,5.0133586E-1,-1.1239212E0,1.5293025E-2,9.79971E-3,-3.3527974E-2,-1.5572696E-3,2.1223705E-2,-6.23315E-3,-2.9722314E-2],"categories":[],"categories_nodes":[],"categories_segments":[],"categories_sizes":[],"default_left":[false,false,false,false,false,false,false,false,false,false,false,false,false],"id":33,"left_children":[1,3,5,7,9,11,-1,-1,-1,-1,-1,-1,-1],"loss_changes":[2.2961985E1,1.1961937E1,3.036871E0,1.7399902E0,8.880189E0,2.4516487E-1,0E0,0E0,0E0,0E0,0E0,0E0,0E0],"parents":[2147483647,0,0,1,1,2,2,3,3,4,4,5,5],"right_children":[2,4,6,8,10,12,-1,-1,-1,-1,-1,-1,-1],"split_conditions":[-2.1552656E-2,-2.023025E-2,4.3738283E-2,2.0794167E-1,1E0,-3.4621038E-2,1.5293025E-2,9.79971E-3,-3.3527974E-2,-1.5572696E-3,2.1223705E-2,-6.23315E-3,-2.9722314E-2],"split_indices":[1110,2759,2344,98,62,2333,0,0,0,0,0,0,0],"split_type":[0,0,0,0,0,0,0,0,0,0,0,0,0],"sum_hessian":[6.5119484E1,5.05296E1,1.4589887E1,3.8992896E0,4.663031E1,1.4095472E1,4.9441382E-1,2.495784E-1,3.6497114E0,1.7535452E1,2.9094858E1,9.1931444E-1,1.3176158E1],"tree_param":{"num_deleted":"0","num_feature":"3072","num_nodes":"13","size_leaf_vector":"0"}},{"base_weights":[-6.832467E-2,2.3660773E-1,-9.830889E-1,-4.7886905E-1,6.0256636E-1,-1.0978408E0,1.892377E-2,-3.39778E-2,2.285022E-3,3.1325784E-2,6.1098645E-3,1.2653264E-2,-2.9333211E-2],"categories":[],"categories_nodes":[],"categories_segments":[],"categories_sizes":[],"default_left":[false,false,false,false,false,false,false,false,false,false,false,false,false],"id":34,"left_children":[1,3,5,7,9,11,-1,-1,-1,-1,-1,-1,-1],"loss_changes":[2.0324156E1,1.4644026E1,4.414366E0,9.36754E0,8.030645E0,1.9797707E0,0E0,0E0,0E0,0E0,0E0,0E0,0E0],"parents":[2147483647,0,0,1,1,2,2,3,3,4,4,5,5],"right_children":[2,4,6,8,10,12,-1,-1,-1,-1,-1,-1,-1],"split_conditions":[-2.5222778E-2,-6.5922383E-3,4.3738283E-2,1E0,1.076211E-2,4.4945067E-1,1.892377E-2,-3.39778E-2,2.285022E-3,3.1325784E-2,6.1098645E-3,1.2653264E-2,-2.9333211E-2],"split_indices":[1110,2599,2344,8,2991,64,0,0,0,0,0,0,0],"split_type":[0,0,0,0,0,0,0,0,0,0,0,0,0],"sum_hessian":[7.1027885E1,5.382644E1,1.7201447E1,1.8110504E1,3.5715935E1,1.6468521E1,7.3292565E-1,6.7125483E0,1.1397956E1,1.2269323E1,2.3446611E1,2.3723811E-1,1.6231283E1],"tree_param":{"num_deleted":"0","num_feature":"3072","num_nodes":"13","size_leaf_vector":"0"}},{"base_weights":[4.1566014E-2,-1.0475825E0,3.1107238E-1,1.4457537E-2,-1.1511343E0,-5.820886E-1,5.4744756E-1,-1.2266998E-3,-3.204216E-2,1.9352041E-2,-2.8718242E-2,-2.1952426E-3,2.2881677E-2],"categories":[],"categories_nodes":[],"categories_segments":[],"categories_sizes":[],"default_left":[false,false,false,false,false,false,false,false,false,false,false,false,false],"id":35,"left_children":[1,3,5,-1,7,9,11,-1,-1,-1,-1,-1,-1],"loss_changes":[2.0040041E1,2.916026E0,1.18480835E1,0E0,1.4307079E0,9.508622E0,9.7221155E0,0E0,0E0,0E0,0E0,0E0,0E0],"parents":[2147483647,0,0,1,1,2,2,4,4,5,5,6,6],"right_children":[2,4,6,-1,8,10,12,-1,-1,-1,-1,-1,-1],"split_conditions":[-3.0822754E-2,1.5636407E-2,1E0,1.4457537E-2,3.474469E-2,3.1313293E-2,1.8617595E-2,-1.2266998E-3,-3.204216E-2,1.9352041E-2,-2.8718242E-2,-2.1952426E-3,2.2881677E-2],"split_indices":[628,197,38,0,193,86,2419,0,0,0,0,0,0],"split_type":[0,0,0,0,0,0,0,0,0,0,0,0,0],"sum_hessian":[6.61618E1,1.2551347E1,5.361045E1,4.8752698E-1,1.206382E1,1.0912858E1,4.269759E1,1.1600207E0,1.0903799E1,3.0301998E0,7.882658E0,1.5421029E1,2.7276562E1],"tree_param":{"num_deleted":"0","num_feature":"3072","num_nodes":"13","size_leaf_vector":"0"}},{"base_weights":[6.0179763E-2,3.4052745E-1,-1.0120103E0,7.739372E-1,-2.673186E-1,-3.0795734E-2,1.9857627E-1,2.9267874E-2,-3.62645E-4,2.2125205E-2,-1.3892144E-2,1.9482328E-2,-1.6939297E-2],"categories":[],"categories_nodes":[],"categories_segments":[],"categories_sizes":[],"default_left":[false,false,false,false,false,false,false,false,false,false,false,false,false],"id":36,"left_children":[1,3,5,7,9,-1,11,-1,-1,-1,-1,-1,-1],"loss_changes":[2.1574865E1,1.5154312E1,3.7328587E0,9.8032055E0,8.110061E0,0E0,1.9226844E0,0E0,0E0,0E0,0E0,0E0,0E0],"parents":[2147483647,0,0,1,1,2,2,3,3,4,4,6,6],"right_children":[2,4,6,8,10,-1,12,-1,-1,-1,-1,-1,-1],"split_conditions":[-2.1552656E-2,7.6448023E-3,5.1632322E-2,0E0,1.4079823E-2,-3.0795734E-2,1.4996143E-1,2.9267874E-2,-3.62645E-4,2.2125205E-2,-1.3892144E-2,1.9482328E-2,-1.6939297E-2],"split_indices":[1110,2822,2418,303,242,0,103,0,0,0,0,0,0],"split_type":[0,0,0,0,0,0,0,0,0,0,0,0,0],"sum_hessian":[6.962953E1,5.5738003E1,1.3891527E1,3.2378242E1,2.3359758E1,1.1978109E1,1.9134179E0,2.1687033E1,1.069121E1,4.163923E0,1.9195835E1,1.2257723E0,6.876457E-1],"tree_param":{"num_deleted":"0","num_feature":"3072","num_nodes":"13","size_leaf_vector":"0"}},{"base_weights":[8.704382E-2,-9.344144E-1,4.1455036E-1,-1.6593145E-2,-1.1329663E0,-3.906093E-1,6.775648E-1,2.422326E-2,-1.51067E-2,-7.0899553E-3,-3.0179294E-2,1.9253952E-2,-2.6985107E-2,2.4587812E-2,-4.097207E-3],"categories":[],"categories_nodes":[],"categories_segments":[],"categories_sizes":[],"default_left":[false,false,false,false,false,false,false,false,false,false,false,false,false,false,false],"id":37,"left_children":[1,3,5,7,9,11,13,-1,-1,-1,-1,-1,-1,-1,-1],"loss_changes":[2.4855421E1,3.2732172E0,1.2139803E1,2.9065852E0,2.898941E-1,1.18041935E1,1.0342352E1,0E0,0E0,0E0,0E0,0E0,0E0,0E0,0E0],"parents":[2147483647,0,0,1,1,2,2,3,3,4,4,5,5,6,6],"right_children":[2,4,6,8,10,12,14,-1,-1,-1,-1,-1,-1,-1,-1],"split_conditions":[2.33078E-3,3.474469E-2,1E0,3.8827974E-2,7.3699124E-2,-1.1510555E-1,2.0320214E-4,2.422326E-2,-1.51067E-2,-7.0899553E-3,-3.0179294E-2,1.9253952E-2,-2.6985107E-2,2.4587812E-2,-4.097207E-3],"split_indices":[486,193,225,72,144,2853,2898,0,0,0,0,0,0,0,0],"split_type":[0,0,0,0,0,0,0,0,0,0,0,0,0,0,0],"sum_hessian":[7.214067E1,1.7064667E1,5.5076008E1,3.2277436E0,1.3836924E1,1.3441808E1,4.16342E1,9.6243E-1,2.2653136E0,1.1061535E0,1.273077E1,4.896012E0,8.545795E0,3.09525E1,1.0681701E1],"tree_param":{"num_deleted":"0","num_feature":"3072","num_nodes":"15","size_leaf_vector":"0"}},{"base_weights":[-3.119813E-3,3.672474E-1,-6.444899E-1,-1.1271027E-1,8.5194147E-1,-8.362312E-1,6.3539356E-1,-1.2737407E-2,1.0512885E-2,2.104381E-3,3.1117696E-2,-3.26176E-2,-9.932284E-3,-1.4092526E-2,2.1887388E-2],"categories":[],"categories_nodes":[],"categories_segments":[],"categories_sizes":[],"default_left":[false,false,false,false,false,false,false,false,false,false,false,false,false,false,false],"id":38,"left_children":[1,3,5,7,9,11,13,-1,-1,-1,-1,-1,-1,-1,-1],"loss_changes":[1.6538197E1,1.0364626E1,6.7854767E0,4.8731046E0,6.12599E0,3.9599466E0,1.4959025E0,0E0,0E0,0E0,0E0,0E0,0E0,0E0,0E0],"parents":[2147483647,0,0,1,1,2,2,3,3,4,4,5,5,6,6],"right_children":[2,4,6,8,10,12,14,-1,-1,-1,-1,-1,-1,-1,-1],"split_conditions":[-2.078351E-2,1.4591948E-2,4.9161956E-2,9.6117204E-1,4.0870222E-1,7.5897455E-1,1.4079823E-2,-1.2737407E-2,1.0512885E-2,2.104381E-3,3.1117696E-2,-3.26176E-2,-9.932284E-3,-1.4092526E-2,2.1887388E-2],"split_indices":[355,2993,2361,52,91,208,24,0,0,0,0,0,0,0,0],"split_type":[0,0,0,0,0,0,0,0,0,0,0,0,0,0,0],"sum_hessian":[6.762567E1,4.3140846E1,2.4484823E1,2.2061949E1,2.10789E1,2.1596111E1,2.8887115E0,1.2735165E1,9.326783E0,7.1948586E0,1.3884041E1,9.942151E0,1.165396E1,2.2000742E-1,2.668704E0],"tree_param":{"num_deleted":"0","num_feature":"3072","num_nodes":"15","size_leaf_vector":"0"}},{"base_weights":[5.119995E-2,3.150568E-1,-9.574958E-1,7.754777E-1,-2.4264185E-1,2.2713476E-1,-1.0658696E0,-9.2122506E-4,2.7760047E-2,1.6341582E-2,-1.4934766E-2,1.9408107E-2,-1.21738175E-2,-4.6177516E-3,-2.8506476E-2],"categories":[],"categories_nodes":[],"categories_segments":[],"categories_sizes":[],"default_left":[false,false,false,false,false,false,false,false,false,false,false,false,false,false,false],"id":39,"left_children":[1,3,5,7,9,11,13,-1,-1,-1,-1,-1,-1,-1,-1],"loss_changes":[1.7091707E1,1.3221286E1,1.9531593E0,7.1269836E0,7.5342426E0,1.0901908E0,3.4949493E-1,0E0,0E0,0E0,0E0,0E0,0E0,0E0,0E0],"parents":[2147483647,0,0,1,1,2,2,3,3,4,4,5,5,6,6],"right_children":[2,4,6,8,10,12,14,-1,-1,-1,-1,-1,-1,-1,-1],"split_conditions":[-2.1552656E-2,5.292737E-5,-5.0374728E-2,-5.586628E-2,2.0982446E-1,3.474469E-2,2.4102546E-1,-9.2122506E-4,2.7760047E-2,1.6341582E-2,-1.4934766E-2,1.9408107E-2,-1.21738175E-2,-4.6177516E-3,-2.8506476E-2],"split_indices":[1110,3068,2382,2900,0,27,119,0,0,0,0,0,0,0,0],"split_type":[0,0,0,0,0,0,0,0,0,0,0,0,0,0,0],"sum_hessian":[6.2084576E1,4.9756752E1,1.2327822E1,2.7041515E1,2.2715237E1,9.414131E-1,1.1386409E1,7.744939E0,1.9296576E1,6.1028852E0,1.6612352E1,4.9041978E-1,4.5099333E-1,8.5925114E-1,1.0527158E1],"tree_param":{"num_deleted":"0","num_feature":"3072","num_nodes":"15","size_leaf_vector":"0"}},{"base_weights":[-9.888607E-2,3.4218767E-1,-5.546708E-1,5.077964E-1,-9.9665964E-1,4.3054268E-1,-8.1301886E-1,-9.666929E-3,1.8890452E-2,1.1279498E-2,-3.0462107E-2,-3.193206E-2,2.6035007E-2,-8.272827E-3,-2.8300148E-2],"categories":[],"categories_nodes":[],"categories_segments":[],"categories_sizes":[],"default_left":[false,false,false,false,false,false,false,false,false,false,false,false,false,false,false],"id":40,"left_children":[1,3,5,7,9,11,13,-1,-1,-1,-1,-1,-1,-1,-1],"loss_changes":[1.423786E1,8.517229E0,9.194334E0,7.0233364E0,1.7435675E0,9.066422E0,3.6638641E0,0E0,0E0,0E0,0E0,0E0,0E0,0E0,0E0],"parents":[2147483647,0,0,1,1,2,2,3,3,4,4,5,5,6,6],"right_children":[2,4,6,8,10,12,14,-1,-1,-1,-1,-1,-1,-1,-1],"split_conditions":[-2.3162842E-2,7.592012E-3,-1.6995082E-2,9.686867E-1,3.474469E-2,1.5546615E-1,7.3699124E-2,-9.666929E-3,1.8890452E-2,1.1279498E-2,-3.0462107E-2,-3.193206E-2,2.6035007E-2,-8.272827E-3,-2.8300148E-2],"split_indices":[674,2827,2921,254,53,114,78,0,0,0,0,0,0,0,0],"split_type":[0,0,0,0,0,0,0,0,0,0,0,0,0,0,0],"sum_hessian":[6.887878E1,3.513095E1,3.3747826E1,3.1816172E1,3.314781E0,6.8725924E0,2.6875235E1,6.4659834E0,2.5350187E1,2.4740818E-1,3.0673728E0,1.4916067E0,5.3809857E0,1.0901853E1,1.5973382E1],"tree_param":{"num_deleted":"0","num_feature":"3072","num_nodes":"15","size_leaf_vector":"0"}},{"base_weights":[-5.0487537E-2,4.4589943E-1,-6.989381E-1,-9.801145E-2,1.0885321E0,-8.4533453E-1,7.1000826E-1,2.2189962E-2,-1.2245965E-2,5.2276743E-3,3.1971626E-2,-2.1626348E-4,-2.5617607E-2,-8.0390265E-3,2.4558002E-2],"categories":[],"categories_nodes":[],"categories_segments":[],"categories_sizes":[],"default_left":[false,false,false,false,false,false,false,false,false,false,false,false,false,false,false],"id":41,"left_children":[1,3,5,7,9,11,13,-1,-1,-1,-1,-1,-1,-1,-1],"loss_changes":[2.168933E1,1.3468902E1,6.6202354E0,8.39139E0,2.2849922E0,3.5412464E0,1.1509259E0,0E0,0E0,0E0,0E0,0E0,0E0,0E0,0E0],"parents":[2147483647,0,0,1,1,2,2,3,3,4,4,5,5,6,6],"right_children":[2,4,6,8,10,12,14,-1,-1,-1,-1,-1,-1,-1,-1],"split_conditions":[1.5236855E-2,7.5035095E-3,-4.0017483E-3,1.4079823E-2,7.9017556E-1,1.7336465E-1,3.1313293E-2,2.2189962E-2,-1.2245965E-2,5.2276743E-3,3.1971626E-2,-2.1626348E-4,-2.5617607E-2,-8.0390265E-3,2.4558002E-2],"split_indices":[2868,765,2379,99,75,192,11,0,0,0,0,0,0,0,0],"split_type":[0,0,0,0,0,0,0,0,0,0,0,0,0,0,0],"sum_hessian":[6.541454E1,3.7228554E1,2.8185987E1,2.0622004E1,1.6606552E1,2.5895357E1,2.290631E0,5.473013E0,1.5148992E1,2.941212E0,1.3665339E1,4.27334E0,2.1622017E1,4.0192932E-1,1.8887018E0],"tree_param":{"num_deleted":"0","num_feature":"3072","num_nodes":"15","size_leaf_vector":"0"}},{"base_weights":[9.165823E-2,-3.58143E-1,6.92779E-1,-7.0187086E-1,8.0407673E-1,-4.0633976E-1,8.8953424E-1,-1.2327628E-3,-2.3942595E-2,-1.7647965E-2,2.4649167E-2,-2.9234627E-2,1.7514978E-2,2.6678499E-2,-1.0658978E-2],"categories":[],"categories_nodes":[],"categories_segments":[],"categories_sizes":[],"default_left":[false,false,false,false,false,false,false,false,false,false,false,false,false,false,false],"id":42,"left_children":[1,3,5,7,9,11,13,-1,-1,-1,-1,-1,-1,-1,-1],"loss_changes":[1.8269726E1,1.60579E1,6.6043987E0,4.645873E0,2.910581E0,4.872839E0,5.4609566E0,0E0,0E0,0E0,0E0,0E0,0E0,0E0,0E0],"parents":[2147483647,0,0,1,1,2,2,3,3,4,4,5,5,6,6],"right_children":[2,4,6,8,10,12,14,-1,-1,-1,-1,-1,-1,-1,-1],"split_conditions":[-1.8346611E-2,-7.456141E-3,1.6680509E-1,-6.50771E-2,2.759992E-1,2.0794167E-1,7.702637E-2,-1.2327628E-3,-2.3942595E-2,-1.7647965E-2,2.4649167E-2,-2.9234627E-2,1.7514978E-2,2.6678499E-2,-1.0658978E-2],"split_indices":[2569,2586,165,1125,201,98,256,0,0,0,0,0,0,0,0],"split_type":[0,0,0,0,0,0,0,0,0,0,0,0,0,0,0],"sum_hessian":[6.5651695E1,3.778356E1,2.7868134E1,2.946527E1,8.318295E0,4.069544E0,2.379859E1,8.1260195E0,2.133925E1,4.8892206E-1,7.8293724E0,2.3993623E0,1.6701813E0,2.1453964E1,2.3446264E0],"tree_param":{"num_deleted":"0","num_feature":"3072","num_nodes":"15","size_leaf_vector":"0"}},{"base_weights":[-9.598347E-2,-4.9261877E-1,5.0588244E-1,1.835347E-1,-7.4107975E-1,-8.068362E-1,7.621245E-1,-1.775599E-2,1.4909171E-2,1.6858093E-3,-2.4026582E-2,1.731687E-2,-3.361363E-2,-1.2307527E-2,2.4258666E-2],"categories":[],"categories_nodes":[],"categories_segments":[],"categories_sizes":[],"default_left":[false,false,false,false,false,false,false,false,false,false,false,false,false,false,false],"id":43,"left_children":[1,3,5,7,9,11,13,-1,-1,-1,-1,-1,-1,-1,-1],"loss_changes":[1.5461659E1,6.674143E0,9.295632E0,4.365858E0,4.6804466E0,4.4470434E0,5.6199436E0,0E0,0E0,0E0,0E0,0E0,0E0,0E0,0E0],"parents":[2147483647,0,0,1,1,2,2,3,3,4,4,5,5,6,6],"right_children":[2,4,6,8,10,12,14,-1,-1,-1,-1,-1,-1,-1,-1],"split_conditions":[7.856873E-3,-2.337611E-2,9.859202E-1,3.3115876E-1,1.4079823E-2,6.0484976E-1,5.912978E-1,-1.775599E-2,1.4909171E-2,1.6858093E-3,-2.4026582E-2,1.731687E-2,-3.361363E-2,-1.2307527E-2,2.4258666E-2],"split_indices":[1095,2577,186,220,242,227,169,0,0,0,0,0,0,0,0],"split_type":[0,0,0,0,0,0,0,0,0,0,0,0,0,0,0],"sum_hessian":[6.2724747E1,3.791796E1,2.4806782E1,1.0259476E1,2.7658487E1,3.7005048E0,2.1106277E1,2.9797895E0,7.2796865E0,5.618277E0,2.2040209E1,8.604561E-1,2.8400486E0,2.5617447E0,1.8544533E1],"tree_param":{"num_deleted":"0","num_feature":"3072","num_nodes":"15","size_leaf_vector":"0"}},{"base_weights":[-5.522954E-2,-6.058617E-1,3.2748967E-1,-9.931732E-1,7.55354E-2,-5.050183E-1,5.680866E-1,-6.406491E-3,-2.9681982E-2,-3.0641189E-2,1.3503105E-2,2.2181977E-2,-2.2776397E-2,2.522949E-2,4.433447E-3],"categories":[],"categories_nodes":[],"categories_segments":[],"categories_sizes":[],"default_left":[false,false,false,false,false,false,false,false,false,false,false,false,false,false,false],"id":44,"left_children":[1,3,5,7,9,11,13,-1,-1,-1,-1,-1,-1,-1,-1],"loss_changes":[1.4513518E1,7.518653E0,8.4438095E0,1.973547E0,7.0787516E0,5.9064803E0,5.13813E0,0E0,0E0,0E0,0E0,0E0,0E0,0E0,0E0],"parents":[2147483647,0,0,1,1,2,2,3,3,4,4,5,5,6,6],"right_children":[2,4,6,8,10,12,14,-1,-1,-1,-1,-1,-1,-1,-1],"split_conditions":[1.3374329E-2,3.7269544E-2,1E0,3.8827974E-2,3.1313293E-2,1.9415157E-2,-2.2713706E-2,-6.406491E-3,-2.9681982E-2,-3.0641189E-2,1.3503105E-2,2.2181977E-2,-2.2776397E-2,2.522949E-2,4.433447E-3],"split_indices":[835,2713,37,72,208,2526,2560,0,0,0,0,0,0,0,0],"split_type":[0,0,0,0,0,0,0,0,0,0,0,0,0,0,0],"sum_hessian":[6.6928604E1,2.7204887E1,3.9723717E1,1.7053812E1,1.0151074E1,8.659904E0,3.1063812E1,3.6233904E0,1.3430422E1,2.2295234E0,7.9215508E0,1.6290996E0,7.0308037E0,1.4321264E1,1.6742548E1],"tree_param":{"num_deleted":"0","num_feature":"3072","num_nodes":"15","size_leaf_vector":"0"}},{"base_weights":[-5.729854E-2,-7.5219303E-1,2.5231287E-1,3.9441445E-1,-1.11948E0,7.284437E-1,-1.3028273E-1,-2.8989453E-2,2.8774576E-2,-3.2325383E-2,-6.955521E-4,-8.749742E-3,2.3117097E-2,-2.0163575E-2,6.792508E-3],"categories":[],"categories_nodes":[],"categories_segments":[],"categories_sizes":[],"default_left":[false,false,false,false,false,false,false,false,false,false,false,false,false,false,false],"id":45,"left_children":[1,3,5,7,9,11,13,-1,-1,-1,-1,-1,-1,-1,-1],"loss_changes":[1.5006019E1,9.486273E0,8.909612E0,7.9425855E0,2.604782E0,4.4187784E0,7.4396057E0,0E0,0E0,0E0,0E0,0E0,0E0,0E0,0E0],"parents":[2147483647,0,0,1,1,2,2,3,3,4,4,5,5,6,6],"right_children":[2,4,6,8,10,12,14,-1,-1,-1,-1,-1,-1,-1,-1],"split_conditions":[1E0,-1.3305664E-2,3.8709883E-2,4.0870222E-1,3.5835984E-3,6.2918174E-1,3.8827974E-2,-2.8989453E-2,2.8774576E-2,-3.2325383E-2,-6.955521E-4,-8.749742E-3,2.3117097E-2,-2.0163575E-2,6.792508E-3],"split_indices":[208,1150,2356,186,2395,32,87,0,0,0,0,0,0,0,0],"split_type":[0,0,0,0,0,0,0,0,0,0,0,0,0,0,0],"sum_hessian":[6.786553E1,2.0477095E1,4.738844E1,4.9500427E0,1.5527052E1,2.0710625E1,2.6677816E1,1.4244868E0,3.5255558E0,1.3553954E1,1.9730973E0,2.7999494E0,1.7910675E1,9.642843E0,1.7034973E1],"tree_param":{"num_deleted":"0","num_feature":"3072","num_nodes":"15","size_leaf_vector":"0"}},{"base_weights":[-1.0411584E-2,-9.4766974E-1,3.234154E-1,2.8896335E-1,-1.1783453E0,8.544342E-1,-2.018352E-1,1.7236585E-2,-1.374216E-2,8.828118E-3,-3.1327464E-2,-2.1986512E-2,2.482953E-2,2.6481146E-2,-1.6640307E-2],"categories":[],"categories_nodes":[],"categories_segments":[],"categories_sizes":[],"default_left":[false,false,false,false,false,false,false,false,false,false,false,false,false,false,false],"id":46,"left_children":[1,3,5,7,9,11,13,-1,-1,-1,-1,-1,-1,-1,-1],"loss_changes":[2.1136383E1,5.400728E0,1.4072421E1,1.5095482E0,1.5382137E0,5.881052E0,1.5082362E1,0E0,0E0,0E0,0E0,0E0,0E0,0E0,0E0],"parents":[2147483647,0,0,1,1,2,2,3,3,4,4,5,5,6,6],"right_children":[2,4,6,8,10,12,14,-1,-1,-1,-1,-1,-1,-1,-1],"split_conditions":[3.925284E-3,7.3699124E-2,2.0532118E-2,3.222371E-2,-1.13370866E-1,-2.1652222E-2,7.3699124E-2,1.7236585E-2,-1.374216E-2,8.828118E-3,-3.1327464E-2,-2.1986512E-2,2.482953E-2,2.6481146E-2,-1.6640307E-2],"split_indices":[727,231,3061,2384,2305,1280,164,0,0,0,0,0,0,0,0],"split_type":[0,0,0,0,0,0,0,0,0,0,0,0,0,0,0],"sum_hessian":[6.557426E1,1.6738937E1,4.8835323E1,2.5918047E0,1.4147133E1,2.3972672E1,2.486265E1,1.892599E0,6.9920576E-1,2.4515611E-1,1.3901977E1,1.1345954E0,2.2838076E1,6.2744555E0,1.8588196E1],"tree_param":{"num_deleted":"0","num_feature":"3072","num_nodes":"15","size_leaf_vector":"0"}},{"base_weights":[-1.4761994E-2,2.1474302E-1,-9.448635E-1,-6.392777E-1,4.337928E-1,-3.671859E-1,-2.9613595E-2,1.931912E-2,-3.2807883E-2,2.6408287E-2,3.2862816E-3,-2.1644708E-2,7.0726764E-3],"categories":[],"categories_nodes":[],"categories_segments":[],"categories_sizes":[],"default_left":[false,false,false,false,false,false,false,false,false,false,false,false,false],"id":47,"left_children":[1,3,5,7,9,11,-1,-1,-1,-1,-1,-1,-1],"loss_changes":[1.5009667E1,1.0837775E1,1.2994537E0,1.1714489E1,8.203912E0,1.8535244E0,0E0,0E0,0E0,0E0,0E0,0E0,0E0],"parents":[2147483647,0,0,1,1,2,2,3,3,4,4,5,5],"right_children":[2,4,6,8,10,12,-1,-1,-1,-1,-1,-1,-1],"split_conditions":[-2.1552656E-2,1E0,7.3699124E-2,1.5636407E-2,-5.215849E-3,1.2555024E-1,-2.9613595E-2,1.931912E-2,-3.2807883E-2,2.6408287E-2,3.2862816E-3,-2.1644708E-2,7.0726764E-3],"split_indices":[1110,10,21,70,2472,257,0,0,0,0,0,0,0],"split_type":[0,0,0,0,0,0,0,0,0,0,0,0,0],"sum_hessian":[6.8364555E1,5.5450996E1,1.2913562E1,1.0927802E1,4.4523197E1,4.2326794E0,8.680882E0,3.4005637E0,7.527238E0,1.4200354E1,3.0322842E1,2.2437863E0,1.988893E0],"tree_param":{"num_deleted":"0","num_feature":"3072","num_nodes":"13","size_leaf_vector":"0"}},{"base_weights":[-3.8791131E-3,2.8585482E-1,-1.0306439E0,-6.7616594E-1,5.107198E-1,-1.0967842E0,-3.0746432E-2,5.0940234E-3,-2.930133E-2,2.654247E-2,3.903617E-3,-2.9615063E-2,-8.822406E-3,-1.4785391E-2,1.385119E-2],"categories":[],"categories_nodes":[],"categories_segments":[],"categories_sizes":[],"default_left":[false,false,false,false,false,false,false,false,false,false,false,false,false,false,false],"id":48,"left_children":[1,3,5,7,9,11,13,-1,-1,-1,-1,-1,-1,-1,-1],"loss_changes":[2.0507458E1,1.1978096E1,9.695492E-1,4.6090713E0,8.193349E0,2.6926804E-1,9.328551E-1,0E0,0E0,0E0,0E0,0E0,0E0,0E0,0E0],"parents":[2147483647,0,0,1,1,2,2,3,3,4,4,5,5,6,6],"right_children":[2,4,6,8,10,12,14,-1,-1,-1,-1,-1,-1,-1,-1],"split_conditions":[-2.1552656E-2,0E0,1.8131956E-2,1.5636407E-2,1.6471853E-2,8.81958E-2,3.1313293E-2,5.0940234E-3,-2.930133E-2,2.654247E-2,3.903617E-3,-2.9615063E-2,-8.822406E-3,-1.4785391E-2,1.385119E-2],"split_indices":[1110,2993,2312,126,3029,256,11,0,0,0,0,0,0,0,0],"split_type":[0,0,0,0,0,0,0,0,0,0,0,0,0,0,0],"sum_hessian":[6.694494E1,5.277454E1,1.4170396E1,9.618318E0,4.3156223E1,1.32003355E1,9.7006035E-1,3.5663965E0,6.0519214E0,1.6654934E1,2.650129E1,1.1680994E1,1.5193415E0,4.906066E-1,4.7945377E-1],"tree_param":{"num_deleted":"0","num_feature":"3072","num_nodes":"15","size_leaf_vector":"0"}},{"base_weights":[-3.1097932E-2,5.143206E-1,-5.32535E-1,-7.283318E-1,7.3717153E-1,-7.1405685E-1,8.6691445E-1,2.161174E-2,-3.770131E-2,2.5455004E-2,-8.943433E-3,-2.2973472E-2,5.48466E-3,-3.7412653E-3,2.6066571E-2],"categories":[],"categories_nodes":[],"categories_segments":[],"categories_sizes":[],"default_left":[false,false,false,false,false,false,false,false,false,false,false,false,false,false,false],"id":49,"left_children":[1,3,5,7,9,11,13,-1,-1,-1,-1,-1,-1,-1,-1],"loss_changes":[1.7559393E1,9.061356E0,9.10881E0,7.3532352E0,7.854439E0,5.38348E0,8.1758714E-1,0E0,0E0,0E0,0E0,0E0,0E0,0E0,0E0],"parents":[2147483647,0,0,1,1,2,2,3,3,4,4,5,5,6,6],"right_children":[2,4,6,8,10,12,14,-1,-1,-1,-1,-1,-1,-1,-1],"split_conditions":[1.9224484E-2,1.6680509E-1,3.272686E-2,8.504032E-2,-7.4386597E-3,3.7994385E-2,6.6884124E-1,2.161174E-2,-3.770131E-2,2.5455004E-2,-8.943433E-3,-2.2973472E-2,5.48466E-3,-3.7412653E-3,2.6066571E-2],"split_indices":[2979,165,2675,236,606,1056,16,0,0,0,0,0,0,0,0],"split_type":[0,0,0,0,0,0,0,0,0,0,0,0,0,0,0],"sum_hessian":[6.2202698E1,2.9782383E1,3.242031E1,4.183922E0,2.5598461E1,2.9131447E1,3.2888658E0,1.3049468E0,2.878975E0,2.0733551E1,4.86491E0,2.4309076E1,4.8223715E0,4.3933693E-1,2.849529E0],"tree_param":{"num_deleted":"0","num_feature":"3072","num_nodes":"15","size_leaf_vector":"0"}}]},"name":"gbtree"},"learner_model_param":{"base_score":"5E-1","num_class":"0","num_feature":"3072"},"objective":{"name":"binary:logistic","reg_loss_param":{"scale_pos_weight":"1"}}},"version":[1,5,1]}