{"learner":{"attributes":{"best_iteration":"49","best_ntree_limit":"50","best_score":"0.935995"},"feature_names":[],"feature_types":[],"gradient_booster":{"model":{"gbtree_model_param":{"num_trees":"50","size_leaf_vector":"0"},"tree_info":[0,0,0,0,0,0,0,0,0,0,0,0,0,0,0,0,0,0,0,0,0,0,0,0,0,0,0,0,0,0,0,0,0,0,0,0,0,0,0,0,0,0,0,0,0,0,0,0,0,0],"trees":[{"base_weights":[1.3333334E-1,-1.137931E0,8.5714287E-1,4.6153846E-1,-1.531915E0,1.1038251E0,-1.1666666E0,2.7504418E-2,-3.004684E-3,-0E0,-4.276434E-2,3.245059E-2,-2.103279E-2,1.7026544E-2,-3.7148822E-2],"categories":[],"categories_nodes":[],"categories_segments":[],"categories_sizes":[],"default_left":[false,false,false,false,false,false,false,false,false,false,false,false,false,false,false],"id":0,"left_children":[1,3,5,7,9,11,13,-1,-1,-1,-1,-1,-1,-1,-1],"loss_changes":[7.343743E1,1.898183E1,2.6624123E1,2.443439E0,5.130131E0,1.575095E1,4.136364E0,0E0,0E0,0E0,0E0,0E0,0E0,0E0,0E0],"parents":[2147483647,0,0,1,1,2,2,3,3,4,4,5,5,6,6],"right_children":[2,4,6,8,10,12,14,-1,-1,-1,-1,-1,-1,-1,-1],"split_conditions":[2.8476715E-3,-6.016388E-4,7.096031E-2,5.1114462E-2,4.6450414E-2,3.46872E-2,4.6450414E-2,2.7504418E-2,-3.004684E-3,-0E0,-4.276434E-2,3.245059E-2,-2.103279E-2,1.7026544E-2,-3.7148822E-2],"split_indices":[1243,2329,2878,87,130,2862,130,0,0,0,0,0,0,0,0],"split_type":[0,0,0,0,0,0,0,0,0,0,0,0,0,0,0],"sum_hessian":[7.775E1,2.8E1,4.975E1,5.5E0,2.25E1,4.475E1,5E0,2.25E0,3.25E0,2E0,2.05E1,4.15E1,3.25E0,5E-1,4.5E0],"tree_param":{"num_deleted":"0","num_feature":"3072","num_nodes":"15","size_leaf_vector":"0"}},{"base_weights":[2.258498E-2,6.302056E-1,-1.6145416E0,8.31685E-1,-1.459298E0,6.6187054E-1,-4.765476E-2,1.2653273E-3,3.280025E-2,3.1625896E-4,-4.0909965E-2,-1.7152632E-2,3.0577922E-2],"categories":[],"categories_nodes":[],"categories_segments":[],"categories_sizes":[],"default_left":[false,false,false,false,false,false,false,false,false,false,false,false,false],"id":1,"left_children":[1,3,5,7,9,11,-1,-1,-1,-1,-1,-1,-1],"loss_changes":[8.35573E1,2.6992834E1,1.424728E1,1.993203E1,1.2254391E0,2.9455314E0,0E0,0E0,0E0,0E0,0E0,0E0,0E0],"parents":[2147483647,0,0,1,1,2,2,3,3,4,4,5,5],"right_children":[2,4,6,8,10,12,-1,-1,-1,-1,-1,-1,-1],"split_conditions":[-2.9683232E-2,1.7386824E-2,-1.4834991E-2,-5.674362E-4,6.505159E-2,3.9245516E-1,-4.765476E-2,1.2653273E-3,3.280025E-2,3.1625896E-4,-4.0909965E-2,-1.7152632E-2,3.0577922E-2],"split_indices":[498,2711,2572,1220,182,26,0,0,0,0,0,0,0],"split_type":[0,0,0,0,0,0,0,0,0,0,0,0,0],"sum_hessian":[8.197527E1,6.023432E1,2.1740952E1,5.548607E1,4.748249E0,1.9994974E0,1.9741455E1,2.0745173E1,3.47409E1,4.9982753E-1,4.2484217E0,4.9993363E-1,1.4995638E0],"tree_param":{"num_deleted":"0","num_feature":"3072","num_nodes":"13","size_leaf_vector":"0"}},{"base_weights":[-7.109705E-2,4.8766634E-1,-1.4381489E0,-7.6206803E-1,9.5938164E-1,2.7622694E-1,-1.6903787E0,2.1543194E-2,-3.1688243E-2,-1.75643E-2,2.8572686E-2,-1.924635E-2,3.0517843E-2,-4.4254705E-2,7.6976354E-4],"categories":[],"categories_nodes":[],"categories_segments":[],"categories_sizes":[],"default_left":[false,false,false,false,false,false,false,false,false,false,false,false,false,false,false],"id":2,"left_children":[1,3,5,7,9,11,13,-1,-1,-1,-1,-1,-1,-1,-1],"loss_changes":[6.442129E1,3.6079796E1,1.104237E1,1.410279E1,1.2312378E1,4.681206E0,1.6175499E0,0E0,0E0,0E0,0E0,0E0,0E0,0E0,0E0],"parents":[2147483647,0,0,1,1,2,2,3,3,4,4,5,5,6,6],"right_children":[2,4,6,8,10,12,14,-1,-1,-1,-1,-1,-1,-1,-1],"split_conditions":[-2.9683232E-2,-1.7795255E-2,-5.297214E-3,-2.8855007E-2,6.118529E-1,5.142344E-1,2.6342534E-3,2.1543194E-2,-3.1688243E-2,-1.75643E-2,2.8572686E-2,-1.924635E-2,3.0517843E-2,-4.4254705E-2,7.6976354E-4],"split_indices":[498,2810,2473,2738,137,11,2305,0,0,0,0,0,0,0,0],"split_type":[0,0,0,0,0,0,0,0,0,0,0,0,0,0,0],"sum_hessian":[8.2418526E1,5.8961926E1,2.3456596E1,1.5988204E1,4.297372E1,2.996257E0,2.0460339E1,3.4968145E0,1.249139E1,3.4987123E0,3.947501E1,1.4974233E0,1.4988338E0,1.9961359E1,4.9897948E-1],"tree_param":{"num_deleted":"0","num_feature":"3072","num_nodes":"15","size_leaf_vector":"0"}},{"base_weights":[-1.0306217E-1,4.283086E-1,-1.5210977E0,-5.693915E-1,9.376824E-1,-1.700978E0,-8.654885E-2,9.234077E-3,-2.4782337E-2,-1.7879747E-2,2.8083986E-2,-4.4396933E-2,-7.335513E-3,2.2321954E-2,-1.5796872E-2],"categories":[],"categories_nodes":[],"categories_segments":[],"categories_sizes":[],"default_left":[false,false,false,false,false,false,false,false,false,false,false,false,false,false,false],"id":3,"left_children":[1,3,5,7,9,11,13,-1,-1,-1,-1,-1,-1,-1,-1],"loss_changes":[6.683031E1,3.3398445E1,6.0872E0,8.741532E0,1.2223835E1,6.3191223E-1,2.4545054E0,0E0,0E0,0E0,0E0,0E0,0E0,0E0,0E0],"parents":[2147483647,0,0,1,1,2,2,3,3,4,4,5,5,6,6],"right_children":[2,4,6,8,10,12,14,-1,-1,-1,-1,-1,-1,-1,-1],"split_conditions":[-2.9683232E-2,-1.2930519E-2,1.0126094E-2,2.6423014E-3,7.087709E-1,2.1495735E-2,6.505159E-2,9.234077E-3,-2.4782337E-2,-1.7879747E-2,2.8083986E-2,-4.4396933E-2,-7.335513E-3,2.2321954E-2,-1.5796872E-2],"split_indices":[498,2810,2385,2689,176,2314,198,0,0,0,0,0,0,0,0],"split_type":[0,0,0,0,0,0,0,0,0,0,0,0,0,0,0],"sum_hessian":[8.682823E1,6.366823E1,2.3160004E1,2.1479311E1,4.2188915E1,2.0414476E1,2.745527E0,6.495634E0,1.4983676E1,3.497079E0,3.8691837E1,1.9665161E1,7.49316E-1,7.494037E-1,1.9961233E0],"tree_param":{"num_deleted":"0","num_feature":"3072","num_nodes":"15","size_leaf_vector":"0"}},{"base_weights":[1.5731707E-2,5.2746415E-1,-1.3885357E0,7.04746E-1,-1.378529E0,3.3742577E-2,-1.6437795E0,6.4421096E-3,3.3362683E-2,9.6972974E-4,-3.883859E-2,-2.4679022E-2,3.1162491E-2,1.2499163E-3,-4.3172345E-2],"categories":[],"categories_nodes":[],"categories_segments":[],"categories_sizes":[],"default_left":[false,false,false,false,false,false,false,false,false,false,false,false,false,false,false],"id":4,"left_children":[1,3,5,7,9,11,13,-1,-1,-1,-1,-1,-1,-1,-1],"loss_changes":[6.214572E1,2.2380974E1,8.441639E0,1.56302395E1,1.2117662E0,6.511878E0,1.6297264E0,0E0,0E0,0E0,0E0,0E0,0E0,0E0,0E0],"parents":[2147483647,0,0,1,1,2,2,3,3,4,4,5,5,6,6],"right_children":[2,4,6,8,10,12,14,-1,-1,-1,-1,-1,-1,-1,-1],"split_conditions":[-2.9683232E-2,1.7386824E-2,-4.8173643E-3,-1.1955261E-2,3.8814712E-1,5.68055E-1,1E0,6.4421096E-3,3.3362683E-2,9.6972974E-4,-3.883859E-2,-2.4679022E-2,3.1162491E-2,1.2499163E-3,-4.3172345E-2],"split_indices":[498,2711,2933,691,3,88,64,0,0,0,0,0,0,0,0],"split_type":[0,0,0,0,0,0,0,0,0,0,0,0,0,0,0],"sum_hessian":[8.446136E1,6.236072E1,2.2100634E1,5.7630585E1,4.7301373E0,3.494769E0,1.8605865E1,3.3699837E1,2.3930746E1,4.9832892E-1,4.231808E0,1.9970033E0,1.4977659E0,4.973015E-1,1.8108564E1],"tree_param":{"num_deleted":"0","num_feature":"3072","num_nodes":"15","size_leaf_vector":"0"}},{"base_weights":[9.3560144E-2,-1.3711331E0,7.632504E-1,-1.5650897E0,1.754938E-1,-2.1838337E-1,1.1906469E0,-4.1801922E-2,8.033607E-3,-1.8300615E-2,2.1501672E-2,-2.8323552E-2,1.0510676E-2,-1.7707393E-2,3.519345E-2],"categories":[],"categories_nodes":[],"categories_segments":[],"categories_sizes":[],"default_left":[false,false,false,false,false,false,false,false,false,false,false,false,false,false,false],"id":5,"left_children":[1,3,5,7,9,11,13,-1,-1,-1,-1,-1,-1,-1,-1],"loss_changes":[8.669841E1,8.600731E0,2.5669865E1,3.849701E0,2.976338E0,1.1236918E1,1.5901936E1,0E0,0E0,0E0,0E0,0E0,0E0,0E0,0E0],"parents":[2147483647,0,0,1,1,2,2,3,3,4,4,5,5,6,6],"right_children":[2,4,6,8,10,12,14,-1,-1,-1,-1,-1,-1,-1,-1],"split_conditions":[6.99234E-3,6.832123E-3,-1.6970308E-2,3.272686E-2,1E0,3.6636186E-1,1.9967379E-1,-4.1801922E-2,8.033607E-3,-1.8300615E-2,2.1501672E-2,-2.8323552E-2,1.0510676E-2,-1.7707393E-2,3.519345E-2],"split_indices":[486,277,2810,2675,181,62,176,0,0,0,0,0,0,0,0],"split_type":[0,0,0,0,0,0,0,0,0,0,0,0,0,0,0],"sum_hessian":[8.632052E1,2.6755533E1,5.9564987E1,2.3763504E1,2.9920294E0,1.8215988E1,4.1349E1,2.3015463E1,7.480424E-1,1.2472172E0,1.7448123E0,7.231406E0,1.0984581E1,3.495474E0,3.7853523E1],"tree_param":{"num_deleted":"0","num_feature":"3072","num_nodes":"15","size_leaf_vector":"0"}},{"base_weights":[2.6266517E-3,4.7636834E-1,-1.4202796E0,8.7923044E-1,-5.309855E-1,1.7298134E-2,-1.5067047E0,-4.8905183E-3,2.6854137E-2,4.85293E-3,-3.6484394E-2,-4.1467786E-2,-4.69117E-3],"categories":[],"categories_nodes":[],"categories_segments":[],"categories_sizes":[],"default_left":[false,false,false,false,false,false,false,false,false,false,false,false,false],"id":6,"left_children":[1,3,5,7,9,-1,11,-1,-1,-1,-1,-1,-1],"loss_changes":[5.523224E1,2.5411278E1,4.7306976E0,8.367657E0,1.2038012E1,0E0,2.7910843E0,0E0,0E0,0E0,0E0,0E0,0E0],"parents":[2147483647,0,0,1,1,2,2,3,3,4,4,6,6],"right_children":[2,4,6,8,10,-1,12,-1,-1,-1,-1,-1,-1],"split_conditions":[-2.9683232E-2,2.414757E-2,-1.4188332E-2,1.9967379E-1,-1.6924506E-2,1.7298134E-2,2.0388924E-2,-4.8905183E-3,2.6854137E-2,4.85293E-3,-3.6484394E-2,-4.1467786E-2,-4.69117E-3],"split_indices":[498,2880,2328,228,2527,0,2412,0,0,0,0,0,0],"split_type":[0,0,0,0,0,0,0,0,0,0,0,0,0],"sum_hessian":[7.993231E1,6.0466003E1,1.9466307E1,4.3283287E1,1.7182714E1,4.9977064E-1,1.8966536E1,5.9821334E0,3.7301155E1,9.965611E0,7.217104E0,1.7217386E1,1.7491491E0],"tree_param":{"num_deleted":"0","num_feature":"3072","num_nodes":"13","size_leaf_vector":"0"}},{"base_weights":[-2.8229177E-3,4.295393E-1,-1.6026838E0,-3.7717637E-1,8.4516406E-1,3.346524E-2,-1.6477909E0,-1.7806241E-2,3.154814E-2,2.7099952E-2,-1.6026005E-2,9.801267E-3,-8.811041E-3,-6.799913E-4,-4.3183573E-2],"categories":[],"categories_nodes":[],"categories_segments":[],"categories_sizes":[],"default_left":[false,false,false,false,false,false,false,false,false,false,false,false,false,false,false],"id":7,"left_children":[1,3,5,7,9,11,13,-1,-1,-1,-1,-1,-1,-1,-1],"loss_changes":[6.235236E1,2.4113857E1,1.470478E0,1.3669765E1,1.5657288E1,3.305418E-1,1.2586517E0,0E0,0E0,0E0,0E0,0E0,0E0,0E0,0E0],"parents":[2147483647,0,0,1,1,2,2,3,3,4,4,5,5,6,6],"right_children":[2,4,6,8,10,12,14,-1,-1,-1,-1,-1,-1,-1,-1],"split_conditions":[2.2613525E-2,9.5354956E-1,4.6450414E-2,8.905822E-3,-2.9683232E-2,4.6450414E-2,3.8814712E-1,-1.7806241E-2,3.154814E-2,2.7099952E-2,-1.6026005E-2,9.801267E-3,-8.811041E-3,-6.799913E-4,-4.3183573E-2],"split_indices":[385,5,193,2876,498,0,235,0,0,0,0,0,0,0,0],"split_type":[0,0,0,0,0,0,0,0,0,0,0,0,0,0,0],"sum_hessian":[8.814589E1,6.9968445E1,1.8177448E1,2.3822386E1,4.6146057E1,4.9461514E-1,1.7682833E1,2.0350945E1,3.4714413E0,4.0488987E1,5.6570683E0,2.4958158E-1,2.4503356E-1,4.9920335E-1,1.718363E1],"tree_param":{"num_deleted":"0","num_feature":"3072","num_nodes":"15","size_leaf_vector":"0"}},{"base_weights":[-9.066689E-2,-1.1329602E0,4.8239058E-1,1.2482298E-1,-1.3408731E0,6.757783E-1,-1.2201614E0,2.3522938E-2,-1.8178971E-2,-3.6837205E-2,1.36927515E-2,-1.9506553E-2,2.2505522E-2,6.4350287E-3,-3.815084E-2],"categories":[],"categories_nodes":[],"categories_segments":[],"categories_sizes":[],"default_left":[false,false,false,false,false,false,false,false,false,false,false,false,false,false,false],"id":8,"left_children":[1,3,5,7,9,11,13,-1,-1,-1,-1,-1,-1,-1,-1],"loss_changes":[4.837826E1,7.6747475E0,1.806847E1,3.977586E0,5.4816437E0,1.477059E1,2.6717281E0,0E0,0E0,0E0,0E0,0E0,0E0,0E0,0E0],"parents":[2147483647,0,0,1,1,2,2,3,3,4,4,5,5,6,6],"right_children":[2,4,6,8,10,12,14,-1,-1,-1,-1,-1,-1,-1,-1],"split_conditions":[6.591797E-3,-6.3964844E-2,6.322585E-3,2.1482404E-1,3.272686E-2,-1.0664822E-2,7.883821E-3,2.3522938E-2,-1.8178971E-2,-3.6837205E-2,1.36927515E-2,-1.9506553E-2,2.2505522E-2,6.4350287E-3,-3.815084E-2],"split_indices":[486,276,2690,98,2675,2310,256,0,0,0,0,0,0,0,0],"split_type":[0,0,0,0,0,0,0,0,0,0,0,0,0,0,0],"sum_hessian":[7.908073E1,2.7707851E1,5.1372875E1,3.987124E0,2.3720728E1,4.667436E1,4.698519E0,1.9911937E0,1.9959303E0,2.2723848E1,9.9687946E-1,5.489039E0,4.1185318E1,7.488253E-1,3.9496942E0],"tree_param":{"num_deleted":"0","num_feature":"3072","num_nodes":"15","size_leaf_vector":"0"}},{"base_weights":[-3.6774748E-3,3.8170594E-1,-1.243996E0,8.39206E-1,-7.383966E-1,3.4436017E-1,-1.4376721E0,2.5325704E-2,-1.610094E-2,3.516656E-3,-3.0339163E-2,-2.1383803E-2,2.8359447E-2,-1.303591E-2,-4.0387664E-2],"categories":[],"categories_nodes":[],"categories_segments":[],"categories_sizes":[],"default_left":[false,false,false,false,false,false,false,false,false,false,false,false,false,false,false],"id":9,"left_children":[1,3,5,7,9,11,13,-1,-1,-1,-1,-1,-1,-1,-1],"loss_changes":[4.066796E1,3.3886864E1,6.699295E0,1.1054054E1,7.787156E0,3.6440496E0,1.6136665E0,0E0,0E0,0E0,0E0,0E0,0E0,0E0,0E0],"parents":[2147483647,0,0,1,1,2,2,3,3,4,4,5,5,6,6],"right_children":[2,4,6,8,10,12,14,-1,-1,-1,-1,-1,-1,-1,-1],"split_conditions":[-2.9683232E-2,2.4234729E-2,-1.4834991E-2,6.621265E-2,-1.9502396E-2,3.9245516E-1,2.1233912E-1,2.5325704E-2,-1.610094E-2,3.516656E-3,-3.0339163E-2,-2.1383803E-2,2.8359447E-2,-1.303591E-2,-4.0387664E-2],"split_indices":[498,2880,2572,2820,2322,26,131,0,0,0,0,0,0,0,0],"split_type":[0,0,0,0,0,0,0,0,0,0,0,0,0,0,0],"sum_hessian":[8.308634E1,6.3918327E1,1.9168018E1,4.5560253E1,1.835807E1,1.9986746E0,1.7169344E1,4.1574013E1,3.9862437E0,6.4605327E0,1.1897539E1,7.495273E-1,1.2491474E0,2.914381E0,1.4254963E1],"tree_param":{"num_deleted":"0","num_feature":"3072","num_nodes":"15","size_leaf_vector":"0"}},{"base_weights":[-3.1580941E-3,6.8180805E-1,-8.279274E-1,-5.154106E-1,9.2178446E-1,4.9392465E-1,-1.1161615E0,1.1998921E-2,-2.618586E-2,2.7098395E-2,-1.3569916E-2,3.605666E-2,-2.0324998E-2,2.4139054E-2,-3.2905456E-2],"categories":[],"categories_nodes":[],"categories_segments":[],"categories_sizes":[],"default_left":[false,false,false,false,false,false,false,false,false,false,false,false,false,false,false],"id":10,"left_children":[1,3,5,7,9,11,13,-1,-1,-1,-1,-1,-1,-1,-1],"loss_changes":[4.6814922E1,1.3482201E1,1.487513E1,4.601396E0,8.266964E0,9.911351E0,1.2284748E1,0E0,0E0,0E0,0E0,0E0,0E0,0E0,0E0],"parents":[2147483647,0,0,1,1,2,2,3,3,4,4,5,5,6,6],"right_children":[2,4,6,8,10,12,14,-1,-1,-1,-1,-1,-1,-1,-1],"split_conditions":[-2.6870728E-2,9.349484E-1,-8.865356E-3,1.9967379E-1,1.5292934E-3,5.142344E-1,-4.6981346E-2,1.1998921E-2,-2.618586E-2,2.7098395E-2,-1.3569916E-2,3.605666E-2,-2.0324998E-2,2.4139054E-2,-3.2905456E-2],"split_indices":[1110,165,260,179,2678,253,2639,0,0,0,0,0,0,0,0],"split_type":[0,0,0,0,0,0,0,0,0,0,0,0,0,0,0],"sum_hessian":[8.0868004E1,4.427293E1,3.6595078E1,7.200849E0,3.7072083E1,6.423419E0,3.0171658E1,2.4825482E0,4.7183003E0,3.4076588E1,2.9954946E0,3.6974587E0,2.7259603E0,1.9805923E0,2.8191065E1],"tree_param":{"num_deleted":"0","num_feature":"3072","num_nodes":"15","size_leaf_vector":"0"}},{"base_weights":[4.980279E-2,4.0909043E-1,-1.0855179E0,-7.8546554E-1,6.344871E-1,-1.3117054E0,7.0594496E-1,2.3960255E-2,-2.68835E-2,2.866379E-2,2.2275902E-3,-9.537774E-3,-3.7695885E-2,2.9303048E-2,-6.749131E-3],"categories":[],"categories_nodes":[],"categories_segments":[],"categories_sizes":[],"default_left":[false,false,false,false,false,false,false,false,false,false,false,false,false,false,false],"id":11,"left_children":[1,3,5,7,9,11,13,-1,-1,-1,-1,-1,-1,-1,-1],"loss_changes":[3.5471127E1,1.8256483E1,9.401281E0,6.013915E0,1.4862812E1,2.3648949E0,1.5857605E0,0E0,0E0,0E0,0E0,0E0,0E0,0E0,0E0],"parents":[2147483647,0,0,1,1,2,2,3,3,4,4,5,5,6,6],"right_children":[2,4,6,8,10,12,14,-1,-1,-1,-1,-1,-1,-1,-1],"split_conditions":[-2.9683232E-2,7.087709E-1,2.7608832E-2,1.8182497E-1,4.97818E-3,2.1233912E-1,3.9245516E-1,2.3960255E-2,-2.68835E-2,2.866379E-2,2.2275902E-3,-9.537774E-3,-3.7695885E-2,2.9303048E-2,-6.749131E-3],"split_indices":[498,176,2971,205,320,131,74,0,0,0,0,0,0,0,0],"split_type":[0,0,0,0,0,0,0,0,0,0,0,0,0,0,0],"sum_hessian":[8.487025E1,6.495426E1,1.9915989E1,9.91611E0,5.503815E1,1.7921099E1,1.9948889E0,9.936085E-1,8.922502E0,2.8543694E1,2.649446E1,3.157707E0,1.4763392E1,1.2456061E0,7.492829E-1],"tree_param":{"num_deleted":"0","num_feature":"3072","num_nodes":"15","size_leaf_vector":"0"}},{"base_weights":[-9.5664725E-2,-1.1718905E0,4.9155763E-1,-1.3010699E0,2.6255269E-2,9.8265904E-1,-7.9017065E-2,-3.6227953E-2,1.9054313E-3,3.015984E-2,-1.280925E-2,2.6146717E-2,-1.467714E-2],"categories":[],"categories_nodes":[],"categories_segments":[],"categories_sizes":[],"default_left":[false,false,false,false,false,false,false,false,false,false,false,false,false],"id":12,"left_children":[1,3,5,7,-1,9,11,-1,-1,-1,-1,-1,-1],"loss_changes":[5.42711E1,9.945E0,1.5678081E1,4.798321E0,0E0,9.417515E0,1.5171077E1,0E0,0E0,0E0,0E0,0E0,0E0],"parents":[2147483647,0,0,1,1,2,2,3,3,5,5,6,6],"right_children":[2,4,6,8,-1,10,12,-1,-1,-1,-1,-1,-1],"split_conditions":[6.99234E-3,1.7953217E-2,-1.9828312E-2,3.451538E-2,2.6255269E-2,-2.8686523E-2,5.1114462E-2,-3.6227953E-2,1.9054313E-3,3.015984E-2,-1.280925E-2,2.6146717E-2,-1.467714E-2],"split_indices":[486,2648,2508,317,0,297,164,0,0,0,0,0,0],"split_type":[0,0,0,0,0,0,0,0,0,0,0,0,0],"sum_hessian":[8.396269E1,2.928862E1,5.4674072E1,2.8050085E1,1.2385353E0,2.8995243E1,2.5678827E1,2.581551E1,2.2345767E0,2.5759106E1,3.2361386E0,7.632354E0,1.8046474E1],"tree_param":{"num_deleted":"0","num_feature":"3072","num_nodes":"13","size_leaf_vector":"0"}},{"base_weights":[-1.3259236E-2,5.4832894E-1,-7.4196535E-1,2.5177965E-1,3.9828762E-2,-1.0529717E0,5.796022E-1,-1.631559E-2,1.2046293E-2,1.4119145E-2,-3.0412238E-2,-2.484126E-2,2.4846971E-2],"categories":[],"categories_nodes":[],"categories_segments":[],"categories_sizes":[],"default_left":[false,false,false,false,false,false,false,false,false,false,false,false,false],"id":13,"left_children":[1,3,5,7,-1,9,11,-1,-1,-1,-1,-1,-1],"loss_changes":[3.3324986E1,1.3401767E1,1.51747055E1,7.500907E0,0E0,7.084461E0,5.4608035E0,0E0,0E0,0E0,0E0,0E0,0E0],"parents":[2147483647,0,0,1,1,2,2,3,3,5,5,6,6],"right_children":[2,4,6,8,-1,10,12,-1,-1,-1,-1,-1,-1],"split_conditions":[-2.6870728E-2,4.441686E-2,3.147711E-4,9.349484E-1,3.9828762E-2,-5.493164E-2,2.9214466E-1,-1.631559E-2,1.2046293E-2,1.4119145E-2,-3.0412238E-2,-2.484126E-2,2.4846971E-2],"split_indices":[1110,2677,2520,91,0,397,50,0,0,0,0,0,0],"split_type":[0,0,0,0,0,0,0,0,0,0,0,0,0],"sum_hessian":[7.943868E1,4.5003555E1,3.4435127E1,3.576377E1,9.239785E0,2.8039738E1,6.395391E0,6.7042665E0,2.9059504E1,1.9780931E0,2.6061644E1,9.9497074E-1,5.4004207E0],"tree_param":{"num_deleted":"0","num_feature":"3072","num_nodes":"13","size_leaf_vector":"0"}},{"base_weights":[-1.2212935E-1,-7.521896E-1,7.0461774E-1,-1.9485021E-3,-1.3033252E0,1.0000293E0,-6.911281E-1,-1.6986156E-2,2.0952856E-2,-3.5450246E-2,1.2062823E-2,1.454897E-2,3.85222E-2,1.281286E-2,-3.0324936E-2],"categories":[],"categories_nodes":[],"categories_segments":[],"categories_sizes":[],"default_left":[false,false,false,false,false,false,false,false,false,false,false,false,false,false,false],"id":14,"left_children":[1,3,5,7,9,11,13,-1,-1,-1,-1,-1,-1,-1,-1],"loss_changes":[4.3729828E1,1.965809E1,1.5693111E1,1.2073048E1,4.7786446E0,5.7990494E0,4.707639E0,0E0,0E0,0E0,0E0,0E0,0E0,0E0,0E0],"parents":[2147483647,0,0,1,1,2,2,3,3,4,4,5,5,6,6],"right_children":[2,4,6,8,10,12,14,-1,-1,-1,-1,-1,-1,-1,-1],"split_conditions":[1.2939453E-2,-1.639344E-2,2.6751861E-2,2.9122913E-1,1.3699815E-2,1.2166622E-2,1.8182497E-1,-1.6986156E-2,2.0952856E-2,-3.5450246E-2,1.2062823E-2,1.454897E-2,3.85222E-2,1.281286E-2,-3.0324936E-2],"split_indices":[486,2809,2458,196,2775,2523,67,0,0,0,0,0,0,0,0],"split_type":[0,0,0,0,0,0,0,0,0,0,0,0,0,0,0],"sum_hessian":[8.193297E1,4.654864E1,3.5384327E1,2.0138441E1,2.64102E1,2.943738E1,5.946946E0,1.1254286E1,8.884156E0,2.5415928E1,9.9427146E-1,1.7088894E1,1.2348487E1,1.7439538E0,4.2029924E0],"tree_param":{"num_deleted":"0","num_feature":"3072","num_nodes":"15","size_leaf_vector":"0"}},{"base_weights":[1.1930572E-1,-8.857368E-1,5.933336E-1,5.730609E-1,-1.290467E0,-7.8505516E-1,8.926115E-1,-2.4383891E-2,2.7725872E-2,1.9161029E-4,-3.6282618E-2,8.984236E-3,-3.0953629E-2,-1.2182846E-2,2.7600542E-2],"categories":[],"categories_nodes":[],"categories_segments":[],"categories_sizes":[],"default_left":[false,false,false,false,false,false,false,false,false,false,false,false,false,false,false],"id":15,"left_children":[1,3,5,7,9,11,13,-1,-1,-1,-1,-1,-1,-1,-1],"loss_changes":[4.0594288E1,1.6890871E1,2.4523201E1,6.231E0,3.6805267E0,5.6843486E0,1.2857967E1,0E0,0E0,0E0,0E0,0E0,0E0,0E0,0E0],"parents":[2147483647,0,0,1,1,2,2,3,3,4,4,5,5,6,6],"right_children":[2,4,6,8,10,12,14,-1,-1,-1,-1,-1,-1,-1,-1],"split_conditions":[6.99234E-3,4.6450414E-2,-2.289458E-2,1.7052412E-1,1.834045E-1,6.505159E-2,7.087709E-1,-2.4383891E-2,2.7725872E-2,1.9161029E-4,-3.6282618E-2,8.984236E-3,-3.0953629E-2,-1.2182846E-2,2.7600542E-2],"split_indices":[486,193,2604,71,155,24,176,0,0,0,0,0,0,0,0],"split_type":[0,0,0,0,0,0,0,0,0,0,0,0,0,0,0],"sum_hessian":[8.310415E1,2.6355726E1,5.6748425E1,5.633737E0,2.0721989E1,9.83376E0,4.691466E1,1.198465E0,4.435272E0,1.97453E0,1.874746E1,2.7327774E0,7.1009827E0,5.4789405E0,4.1435722E1],"tree_param":{"num_deleted":"0","num_feature":"3072","num_nodes":"15","size_leaf_vector":"0"}},{"base_weights":[5.9005383E-2,-8.3908063E-1,4.9556243E-1,-1.424064E0,1.3594316E-1,-7.988944E-1,6.560744E-1,-5.9626496E-4,-3.7752572E-2,-3.414376E-2,2.0047726E-2,2.0955574E-2,-2.8827053E-2,2.7055398E-3,2.7767604E-2],"categories":[],"categories_nodes":[],"categories_segments":[],"categories_sizes":[],"default_left":[false,false,false,false,false,false,false,false,false,false,false,false,false,false,false],"id":16,"left_children":[1,3,5,7,9,11,13,-1,-1,-1,-1,-1,-1,-1,-1],"loss_changes":[3.399142E1,1.6382534E1,1.2628032E1,1.3169212E0,1.2095814E1,4.5994453E0,1.2308395E1,0E0,0E0,0E0,0E0,0E0,0E0,0E0,0E0],"parents":[2147483647,0,0,1,1,2,2,3,3,4,4,5,5,6,6],"right_children":[2,4,6,8,10,12,14,-1,-1,-1,-1,-1,-1,-1,-1],"split_conditions":[2.8476715E-3,2.6923688E-2,-2.2767331E-2,2.1482404E-1,1.9967379E-1,5.142344E-1,-4.1656494E-3,-5.9626496E-4,-3.7752572E-2,-3.414376E-2,2.0047726E-2,2.0955574E-2,-2.8827053E-2,2.7055398E-3,2.7767604E-2],"split_indices":[1243,3058,2919,15,176,253,513,0,0,0,0,0,0,0,0],"split_type":[0,0,0,0,0,0,0,0,0,0,0,0,0,0,0],"sum_hessian":[8.463769E1,2.7383095E1,5.7254597E1,1.6826927E1,1.0556167E1,5.8775597E0,5.1377037E1,6.792223E-1,1.6147705E1,2.9046726E0,7.6514945E0,7.4277127E-1,5.1347885E0,2.312099E1,2.8256046E1],"tree_param":{"num_deleted":"0","num_feature":"3072","num_nodes":"15","size_leaf_vector":"0"}},{"base_weights":[1.8149402E-2,-9.2301774E-1,5.222339E-1,5.84057E-1,-1.1011603E0,-2.1215084E-1,9.1246134E-1,3.037463E-2,-1.3730306E-2,-3.502255E-2,-8.384968E-3,-2.7943324E-2,7.3500564E-3,8.5084664E-4,3.2018334E-2],"categories":[],"categories_nodes":[],"categories_segments":[],"categories_sizes":[],"default_left":[false,false,false,false,false,false,false,false,false,false,false,false,false,false,false],"id":17,"left_children":[1,3,5,7,9,11,13,-1,-1,-1,-1,-1,-1,-1,-1],"loss_changes":[3.9517227E1,8.444725E0,1.5731645E1,3.1683629E0,5.047535E0,8.967977E0,1.0635429E1,0E0,0E0,0E0,0E0,0E0,0E0,0E0,0E0],"parents":[2147483647,0,0,1,1,2,2,3,3,4,4,5,5,6,6],"right_children":[2,4,6,8,10,12,14,-1,-1,-1,-1,-1,-1,-1,-1],"split_conditions":[6.99234E-3,1.834045E-1,-4.581274E-3,1.7052412E-1,5.0159986E-4,-9.981489E-3,1E0,3.037463E-2,-1.3730306E-2,-3.502255E-2,-8.384968E-3,-2.7943324E-2,7.3500564E-3,8.5084664E-4,3.2018334E-2],"split_indices":[486,155,2700,7,2744,2436,77,0,0,0,0,0,0,0,0],"split_type":[0,0,0,0,0,0,0,0,0,0,0,0,0,0,0],"sum_hessian":[8.127848E1,2.8058983E1,5.3219498E1,2.7252183E0,2.5333765E1,1.8624895E1,3.45946E1,1.7309117E0,9.943065E-1,1.8198555E1,7.1352105E0,6.3081E0,1.2316795E1,9.979332E0,2.461527E1],"tree_param":{"num_deleted":"0","num_feature":"3072","num_nodes":"15","size_leaf_vector":"0"}},{"base_weights":[-2.1606049E-2,-5.938282E-1,7.3685926E-1,-1.1231604E0,-1.0039946E-1,9.33887E-1,-3.0974563E-2,-3.321695E-2,1.5425687E-2,1.3094087E-2,-1.2889467E-2,-1.36994505E-2,2.7744489E-2],"categories":[],"categories_nodes":[],"categories_segments":[],"categories_sizes":[],"default_left":[false,false,false,false,false,false,false,false,false,false,false,false,false],"id":18,"left_children":[1,3,5,7,9,11,-1,-1,-1,-1,-1,-1,-1],"loss_changes":[3.5055138E1,1.1906179E1,1.4479622E1,7.558941E0,6.434012E0,7.781891E0,0E0,0E0,0E0,0E0,0E0,0E0,0E0],"parents":[2147483647,0,0,1,1,2,2,3,3,4,4,5,5],"right_children":[2,4,6,8,10,12,-1,-1,-1,-1,-1,-1,-1],"split_conditions":[1.2939453E-2,4.627228E-3,1.765178E-2,5.3130277E-3,-4.6313245E-2,1.9967379E-1,-3.0974563E-2,-3.321695E-2,1.5425687E-2,1.3094087E-2,-1.2889467E-2,-1.36994505E-2,2.7744489E-2],"split_indices":[486,704,2689,2496,2612,38,0,0,0,0,0,0,0],"split_type":[0,0,0,0,0,0,0,0,0,0,0,0,0],"sum_hessian":[7.876203E1,4.5016506E1,3.374552E1,2.11024E1,2.3914106E1,3.1121454E1,2.6240673E0,1.9360418E1,1.7419808E0,9.396372E0,1.45177355E1,2.6868923E0,2.8434563E1],"tree_param":{"num_deleted":"0","num_feature":"3072","num_nodes":"13","size_leaf_vector":"0"}},{"base_weights":[8.0461845E-2,-8.0391115E-1,5.270597E-1,-5.983452E-2,-1.2597331E0,8.033384E-1,-5.012829E-1,2.2959339E-2,-2.2798283E-2,-8.627085E-3,-3.6505934E-2,-1.0363214E-2,2.5407378E-2,1.0438627E-2,-2.9500894E-2],"categories":[],"categories_nodes":[],"categories_segments":[],"categories_sizes":[],"default_left":[false,false,false,false,false,false,false,false,false,false,false,false,false,false,false],"id":19,"left_children":[1,3,5,7,9,11,13,-1,-1,-1,-1,-1,-1,-1,-1],"loss_changes":[2.9755133E1,8.510595E0,1.459383E1,9.319816E0,1.9645519E0,9.607765E0,7.131936E0,0E0,0E0,0E0,0E0,0E0,0E0,0E0,0E0],"parents":[2147483647,0,0,1,1,2,2,3,3,4,4,5,5,6,6],"right_children":[2,4,6,8,10,12,14,-1,-1,-1,-1,-1,-1,-1,-1],"split_conditions":[6.99234E-3,-2.1332297E-3,1.3128322E-2,2.5177002E-2,1.7052412E-1,8.18175E-1,1.9967379E-1,2.2959339E-2,-2.2798283E-2,-8.627085E-3,-3.6505934E-2,-1.0363214E-2,2.5407378E-2,1.0438627E-2,-2.9500894E-2],"split_indices":[486,2711,2308,836,72,165,159,0,0,0,0,0,0,0,0],"split_type":[0,0,0,0,0,0,0,0,0,0,0,0,0,0,0],"sum_hessian":[7.326447E1,2.4314915E1,4.894956E1,9.666591E0,1.4648324E1,3.8756012E1,1.0193548E1,4.4565325E0,5.2100577E0,2.7413177E0,1.1907006E1,5.1454034E0,3.3610607E1,4.418524E0,5.7750244E0],"tree_param":{"num_deleted":"0","num_feature":"3072","num_nodes":"15","size_leaf_vector":"0"}},{"base_weights":[5.278549E-2,-9.1789573E-1,4.5905972E-1,-1.1279216E0,8.38198E-1,-1.8451768E-1,8.2993746E-1,-3.0577265E-2,1.6448472E-2,-1.466413E-2,3.3119727E-2,5.8042025E-3,-3.4280293E-2,-1.5277219E-2,2.5309693E-2],"categories":[],"categories_nodes":[],"categories_segments":[],"categories_sizes":[],"default_left":[false,false,false,false,false,false,false,false,false,false,false,false,false,false,false],"id":20,"left_children":[1,3,5,7,9,11,13,-1,-1,-1,-1,-1,-1,-1,-1],"loss_changes":[3.3091934E1,1.0083691E1,1.425181E1,3.5415897E0,2.8304086E0,1.0989632E1,9.253338E0,0E0,0E0,0E0,0E0,0E0,0E0,0E0,0E0],"parents":[2147483647,0,0,1,1,2,2,3,3,4,4,5,5,6,6],"right_children":[2,4,6,8,10,12,14,-1,-1,-1,-1,-1,-1,-1,-1],"split_conditions":[6.99234E-3,3.9319128E-2,-5.8160968E-2,6.394551E-2,1.834045E-1,-1.24184145E-2,1.0505676E-2,-3.0577265E-2,1.6448472E-2,-1.466413E-2,3.3119727E-2,5.8042025E-3,-3.4280293E-2,-1.5277219E-2,2.5309693E-2],"split_indices":[486,2955,2908,2730,168,2796,383,0,0,0,0,0,0,0,0],"split_type":[0,0,0,0,0,0,0,0,0,0,0,0,0,0,0],"sum_hessian":[8.184393E1,2.3776703E1,5.8067234E1,2.1556313E1,2.2203887E0,2.1412682E1,3.6654552E1,2.1056923E1,4.9938995E-1,4.8246497E-1,1.7379236E0,1.638759E1,5.025092E0,3.4396582E0,3.3214893E1],"tree_param":{"num_deleted":"0","num_feature":"3072","num_nodes":"15","size_leaf_vector":"0"}},{"base_weights":[-5.845726E-2,-1.0786583E0,2.768125E-1,2.457751E-2,-1.2685231E0,-6.3778263E-1,6.519672E-1,1.3410616E-2,-3.374327E-2,8.054374E-3,-3.0745436E-2,-2.4931012E-2,2.11941E-2],"categories":[],"categories_nodes":[],"categories_segments":[],"categories_sizes":[],"default_left":[false,false,false,false,false,false,false,false,false,false,false,false,false],"id":21,"left_children":[1,3,5,-1,7,9,11,-1,-1,-1,-1,-1,-1],"loss_changes":[2.6555676E1,8.657763E0,2.0513317E1,0E0,2.3935356E0,9.844499E0,1.2982513E1,0E0,0E0,0E0,0E0,0E0,0E0],"parents":[2147483647,0,0,1,1,2,2,4,4,5,5,6,6],"right_children":[2,4,6,-1,8,10,12,-1,-1,-1,-1,-1,-1],"split_conditions":[1.4007568E-2,-4.7577307E-2,-1.0581993E-2,2.457751E-2,1E0,9.348157E-3,6.118529E-1,1.3410616E-2,-3.374327E-2,8.054374E-3,-3.0745436E-2,-2.4931012E-2,2.11941E-2],"split_indices":[1105,2715,2788,0,64,2637,137,0,0,0,0,0,0],"split_type":[0,0,0,0,0,0,0,0,0,0,0,0,0],"sum_hessian":[7.5765564E1,1.8191843E1,5.757372E1,1.2020265E0,1.6989817E1,1.6543074E1,4.1030647E1,2.2889481E-1,1.6760921E1,6.32886E0,1.0214213E1,3.5991955E0,3.743145E1],"tree_param":{"num_deleted":"0","num_feature":"3072","num_nodes":"13","size_leaf_vector":"0"}},{"base_weights":[7.379686E-2,4.6572083E-1,-9.9635255E-1,7.405028E-1,-3.4935158E-1,-1.1665491E0,6.1573404E-1,3.0901982E-2,8.288106E-3,-2.5779735E-2,1.3782895E-2,-9.32108E-3,-3.482887E-2,-1.546228E-2,2.9501854E-2],"categories":[],"categories_nodes":[],"categories_segments":[],"categories_sizes":[],"default_left":[false,false,false,false,false,false,false,false,false,false,false,false,false,false,false],"id":22,"left_children":[1,3,5,7,9,11,13,-1,-1,-1,-1,-1,-1,-1,-1],"loss_changes":[3.413018E1,1.3569839E1,6.7093105E0,8.350088E0,9.736311E0,2.6782475E0,2.5039234E0,0E0,0E0,0E0,0E0,0E0,0E0,0E0,0E0],"parents":[2147483647,0,0,1,1,2,2,3,3,4,4,5,5,6,6],"right_children":[2,4,6,8,10,12,14,-1,-1,-1,-1,-1,-1,-1,-1],"split_conditions":[-2.9683232E-2,2.3867387E-2,2.7608832E-2,1.3806386E-2,3.108186E-2,2.1233912E-1,1.9967379E-1,3.0901982E-2,8.288106E-3,-2.5779735E-2,1.3782895E-2,-9.32108E-3,-3.482887E-2,-1.546228E-2,2.9501854E-2],"split_indices":[498,2880,2971,3029,2344,131,18,0,0,0,0,0,0,0,0],"split_type":[0,0,0,0,0,0,0,0,0,0,0,0,0,0,0],"sum_hessian":[7.92689E1,5.8433453E1,2.083545E1,4.376921E1,1.4664242E1,1.909578E1,1.7396698E0,1.9666464E1,2.4102747E1,8.3382E0,6.3260417E0,4.3324738E0,1.4763305E1,4.9550027E-1,1.2441696E0],"tree_param":{"num_deleted":"0","num_feature":"3072","num_nodes":"15","size_leaf_vector":"0"}},{"base_weights":[1.3772302E-2,3.2714614E-1,-1.0034418E0,5.1006734E-1,-8.442267E-1,-1.2352897E0,3.5914838E-1,2.5214028E-2,-1.197653E-3,1.3201296E-2,-2.848149E-2,-4.7210213E-3,-3.5006292E-2,-2.2205899E-2,3.2835614E-2],"categories":[],"categories_nodes":[],"categories_segments":[],"categories_sizes":[],"default_left":[false,false,false,false,false,false,false,false,false,false,false,false,false,false,false],"id":23,"left_children":[1,3,5,7,9,11,13,-1,-1,-1,-1,-1,-1,-1,-1],"loss_changes":[2.6598652E1,1.4091747E1,6.6529922E0,1.4867905E1,3.891241E0,2.1671143E0,5.2531676E0,0E0,0E0,0E0,0E0,0E0,0E0,0E0,0E0],"parents":[2147483647,0,0,1,1,2,2,3,3,4,4,5,5,6,6],"right_children":[2,4,6,8,10,12,14,-1,-1,-1,-1,-1,-1,-1,-1],"split_conditions":[-2.9683232E-2,6.621265E-2,8.892264E-2,-6.668091E-3,2.1233912E-1,4.6450414E-2,1.9967379E-1,2.5214028E-2,-1.197653E-3,1.3201296E-2,-2.848149E-2,-4.7210213E-3,-3.5006292E-2,-2.2205899E-2,3.2835614E-2],"split_indices":[498,2820,2951,312,84,130,51,0,0,0,0,0,0,0,0],"split_type":[0,0,0,0,0,0,0,0,0,0,0,0,0,0,0],"sum_hessian":[8.141214E1,6.2756954E1,1.8655188E1,5.476883E1,7.988127E0,1.602237E1,2.6328175E0,2.908106E1,2.5687767E1,1.1754831E0,6.812644E0,2.099078E0,1.3923291E1,1.1583544E0,1.4744632E0],"tree_param":{"num_deleted":"0","num_feature":"3072","num_nodes":"15","size_leaf_vector":"0"}},{"base_weights":[1.1906188E-2,5.9480804E-1,-5.631451E-1,-5.9528744E-1,7.5528413E-1,1.9900708E-1,-1.0585703E0,7.6372586E-3,-3.60989E-2,2.840105E-3,2.9031891E-2,-2.5778344E-2,1.7647937E-2,2.3617273E-2,-3.0590521E-2],"categories":[],"categories_nodes":[],"categories_segments":[],"categories_sizes":[],"default_left":[false,false,false,false,false,false,false,false,false,false,false,false,false,false,false],"id":24,"left_children":[1,3,5,7,9,11,13,-1,-1,-1,-1,-1,-1,-1,-1],"loss_changes":[2.7283587E1,8.167532E0,1.5685868E1,4.3452406E0,8.730644E0,1.0796466E1,8.007931E0,0E0,0E0,0E0,0E0,0E0,0E0,0E0,0E0],"parents":[2147483647,0,0,1,1,2,2,3,3,4,4,5,5,6,6],"right_children":[2,4,6,8,10,12,14,-1,-1,-1,-1,-1,-1,-1,-1],"split_conditions":[-4.6875E-2,9.349484E-1,-1.225278E-2,5.142344E-1,9.681702E-3,9.4888556E-1,-3.6733057E-2,7.6372586E-3,-3.60989E-2,2.840105E-3,2.9031891E-2,-2.5778344E-2,1.7647937E-2,2.3617273E-2,-3.0590521E-2],"split_indices":[792,37,2337,40,418,208,2389,0,0,0,0,0,0,0,0],"split_type":[0,0,0,0,0,0,0,0,0,0,0,0,0,0,0],"sum_hessian":[7.939602E1,3.9411808E1,3.9984215E1,4.360998E0,3.5050808E1,1.5987569E1,2.3996643E1,2.3866472E0,1.9743512E0,1.3517587E1,2.1533222E1,4.3217177E0,1.1665852E1,1.2035459E0,2.2793098E1],"tree_param":{"num_deleted":"0","num_feature":"3072","num_nodes":"15","size_leaf_vector":"0"}},{"base_weights":[2.717987E-2,-1.065339E0,3.1784853E-1,-8.066432E-2,-1.2886827E0,-1.1356903E0,4.4671774E-1,-1.9381296E-2,2.697202E-2,8.626302E-3,-3.4317777E-2,1.4890473E-2,-3.6359258E-2,-3.181815E-2,1.4421835E-2],"categories":[],"categories_nodes":[],"categories_segments":[],"categories_sizes":[],"default_left":[false,false,false,false,false,false,false,false,false,false,false,false,false,false,false],"id":25,"left_children":[1,3,5,7,9,11,13,-1,-1,-1,-1,-1,-1,-1,-1],"loss_changes":[2.5300735E1,3.5793571E0,1.2281559E1,4.0110583E0,1.6694031E0,3.5030723E0,1.2374661E1,0E0,0E0,0E0,0E0,0E0,0E0,0E0,0E0],"parents":[2147483647,0,0,1,1,2,2,3,3,4,4,5,5,6,6],"right_children":[2,4,6,8,10,12,14,-1,-1,-1,-1,-1,-1,-1,-1],"split_conditions":[1.1482239E-2,1.8182497E-1,1E0,1.9967379E-1,-1.2764414E-1,3.9245516E-1,-1.4255863E-2,-1.9381296E-2,2.697202E-2,8.626302E-3,-3.4317777E-2,1.4890473E-2,-3.6359258E-2,-3.181815E-2,1.4421835E-2],"split_indices":[1105,47,105,8,2305,74,2571,0,0,0,0,0,0,0,0],"split_type":[0,0,0,0,0,0,0,0,0,0,0,0,0,0,0],"sum_hessian":[7.760574E1,1.5748324E1,6.1857418E1,3.1632771E0,1.2585048E1,4.401327E0,5.7456093E1,2.1894374E0,9.7383976E-1,2.4360627E-1,1.2341441E1,4.8450074E-1,3.9168265E0,3.1205723E0,5.4335518E1],"tree_param":{"num_deleted":"0","num_feature":"3072","num_nodes":"15","size_leaf_vector":"0"}},{"base_weights":[2.7122356E-2,3.5208836E-1,-9.677651E-1,8.2855815E-1,-1.4012589E-1,-1.265543E0,3.2316768E-1,-2.169849E-2,2.5754124E-2,-3.2744285E-2,9.021606E-3,-3.3567443E-2,-5.5124736E-3,-2.7190171E-2,3.480713E-2],"categories":[],"categories_nodes":[],"categories_segments":[],"categories_sizes":[],"default_left":[false,false,false,false,false,false,false,false,false,false,false,false,false,false,false],"id":26,"left_children":[1,3,5,7,9,11,13,-1,-1,-1,-1,-1,-1,-1,-1],"loss_changes":[2.560638E1,1.4103233E1,7.908037E0,1.0045975E1,1.7462404E1,5.3832245E-1,7.8760457E0,0E0,0E0,0E0,0E0,0E0,0E0,0E0,0E0],"parents":[2147483647,0,0,1,1,2,2,3,3,4,4,5,5,6,6],"right_children":[2,4,6,8,10,12,14,-1,-1,-1,-1,-1,-1,-1,-1],"split_conditions":[-2.9683232E-2,-6.4964294E-3,5.841097E-4,1.9967379E-1,6.9575775E-1,2.1495735E-2,5.68055E-1,-2.169849E-2,2.5754124E-2,-3.2744285E-2,9.021606E-3,-3.3567443E-2,-5.5124736E-3,-2.7190171E-2,3.480713E-2],"split_indices":[498,1227,2710,38,225,2314,26,0,0,0,0,0,0,0,0],"split_type":[0,0,0,0,0,0,0,0,0,0,0,0,0,0,0],"sum_hessian":[7.71481E1,5.8640205E1,1.8507898E1,2.944944E1,2.9190765E1,1.5054876E1,3.4530218E0,2.4899108E0,2.695953E1,8.324288E0,2.0866478E1,1.4145512E1,9.0936464E-1,1.4686621E0,1.9843597E0],"tree_param":{"num_deleted":"0","num_feature":"3072","num_nodes":"15","size_leaf_vector":"0"}},{"base_weights":[-6.01905E-2,-9.456954E-1,2.3542908E-1,5.4620904E-1,-1.135556E0,-5.693126E-1,5.8206296E-1,3.0226415E-2,-1.5899843E-2,-3.2560173E-2,-5.5420664E-3,1.290746E-2,-2.7709635E-2,2.8197777E-2,2.894053E-5],"categories":[],"categories_nodes":[],"categories_segments":[],"categories_sizes":[],"default_left":[false,false,false,false,false,false,false,false,false,false,false,false,false,false,false],"id":27,"left_children":[1,3,5,7,9,11,13,-1,-1,-1,-1,-1,-1,-1,-1],"loss_changes":[2.053209E1,6.177021E0,1.678017E1,2.8893278E0,1.9920845E0,1.0666288E1,1.2646886E1,0E0,0E0,0E0,0E0,0E0,0E0,0E0,0E0],"parents":[2147483647,0,0,1,1,2,2,3,3,4,4,5,5,6,6],"right_children":[2,4,6,8,10,12,14,-1,-1,-1,-1,-1,-1,-1,-1],"split_conditions":[1.1482239E-2,2.1482404E-1,9.349484E-1,1.8182497E-1,2.4429321E-2,-1.939392E-2,2.5595754E-34,3.0226415E-2,-1.5899843E-2,-3.2560173E-2,-5.5420664E-3,1.290746E-2,-2.7709635E-2,2.8197777E-2,2.894053E-5],"split_indices":[1105,175,208,4,282,720,3060,0,0,0,0,0,0,0,0],"split_type":[0,0,0,0,0,0,0,0,0,0,0,0,0,0,0],"sum_hessian":[7.658431E1,1.8617636E1,5.7966675E1,1.8899232E0,1.6727713E1,1.7258083E1,4.070859E1,1.2148733E0,6.750499E-1,1.4187849E1,2.5398636E0,5.602132E0,1.1655952E1,2.0967354E1,1.9741238E1],"tree_param":{"num_deleted":"0","num_feature":"3072","num_nodes":"15","size_leaf_vector":"0"}},{"base_weights":[-8.087523E-2,3.0895376E-1,-8.310935E-1,1.0703366E0,-1.2748855E-1,2.1242464E-1,-1.0318143E0,-7.1850945E-3,3.0425316E-2,-1.9576991E-2,7.856806E-3,1.9552244E-2,-2.7730795E-2,-8.463859E-3,-3.147645E-2],"categories":[],"categories_nodes":[],"categories_segments":[],"categories_sizes":[],"default_left":[false,false,false,false,false,false,false,false,false,false,false,false,false,false,false],"id":28,"left_children":[1,3,5,7,9,11,13,-1,-1,-1,-1,-1,-1,-1,-1],"loss_changes":[2.3436533E1,1.7710432E1,5.9525814E0,3.5028973E0,9.831544E0,4.5976386E0,2.8416119E0,0E0,0E0,0E0,0E0,0E0,0E0,0E0,0E0],"parents":[2147483647,0,0,1,1,2,2,3,3,4,4,5,5,6,6],"right_children":[2,4,6,8,10,12,14,-1,-1,-1,-1,-1,-1,-1,-1],"split_conditions":[-2.3834229E-2,3.2180175E-4,-1.965332E-2,3.6636186E-1,3.0424225E-1,3.6636186E-1,4.6450414E-2,-7.1850945E-3,3.0425316E-2,-1.9576991E-2,7.856806E-3,1.9552244E-2,-2.7730795E-2,-8.463859E-3,-3.147645E-2],"split_indices":[1110,3000,260,114,5,62,226,0,0,0,0,0,0,0,0],"split_type":[0,0,0,0,0,0,0,0,0,0,0,0,0,0,0],"sum_hessian":[7.825875E1,5.1885925E1,2.6372824E1,1.837607E1,3.3509857E1,4.245062E0,2.2127762E1,1.4004047E0,1.6975666E1,1.3265591E1,2.0244267E1,3.2644572E0,9.8060477E-1,5.517537E0,1.6610224E1],"tree_param":{"num_deleted":"0","num_feature":"3072","num_nodes":"15","size_leaf_vector":"0"}},{"base_weights":[9.718323E-2,-7.7668685E-1,5.1487315E-1,-1.0620247E0,7.2570753E-1,5.9959892E-2,1.0855801E0,-1.0366864E-2,-3.3483014E-2,-1.1880405E-2,2.9865514E-2,-2.071219E-2,1.3395381E-2,-8.194153E-3,3.0880198E-2],"categories":[],"categories_nodes":[],"categories_segments":[],"categories_sizes":[],"default_left":[false,false,false,false,false,false,false,false,false,false,false,false,false,false,false],"id":29,"left_children":[1,3,5,7,9,11,13,-1,-1,-1,-1,-1,-1,-1,-1],"loss_changes":[2.9099352E1,1.184234E1,1.3902722E1,3.0799046E0,3.035772E0,1.2965518E1,4.5233097E0,0E0,0E0,0E0,0E0,0E0,0E0,0E0,0E0],"parents":[2147483647,0,0,1,1,2,2,3,3,4,4,5,5,6,6],"right_children":[2,4,6,8,10,12,14,-1,-1,-1,-1,-1,-1,-1,-1],"split_conditions":[6.99234E-3,3.5514454E-3,1.8096376E-2,1.7052412E-1,2.1351613E-2,6.9575775E-1,1.9967379E-1,-1.0366864E-2,-3.3483014E-2,-1.1880405E-2,2.9865514E-2,-2.071219E-2,1.3395381E-2,-8.194153E-3,3.0880198E-2],"split_indices":[486,2710,2549,7,2356,225,176,0,0,0,0,0,0,0,0],"split_type":[0,0,0,0,0,0,0,0,0,0,0,0,0,0,0],"sum_hessian":[7.76272E1,2.4826645E1,5.2800552E1,2.1110422E1,3.7162223E0,2.9995808E1,2.2804743E1,6.5309E0,1.4579522E1,9.955338E-1,2.7206883E0,1.0174356E1,1.9821451E1,1.7121786E0,2.1092566E1],"tree_param":{"num_deleted":"0","num_feature":"3072","num_nodes":"15","size_leaf_vector":"0"}},{"base_weights":[1.4017739E-2,-9.3828607E-1,3.1299442E-1,-3.8163744E-2,-1.2752372E0,7.6689166E-1,-2.3785266E-1,-1.982165E-2,1.39463395E-2,-3.4226883E-2,1.0727717E-2,2.781582E-3,3.2337535E-2,1.3902328E-2,-1.6533447E-2],"categories":[],"categories_nodes":[],"categories_segments":[],"categories_sizes":[],"default_left":[false,false,false,false,false,false,false,false,false,false,false,false,false,false,false],"id":30,"left_children":[1,3,5,7,9,11,13,-1,-1,-1,-1,-1,-1,-1,-1],"loss_changes":[2.1721523E1,5.4812183E0,1.469095E1,3.0092654E0,2.0191536E0,1.0390894E1,8.993635E0,0E0,0E0,0E0,0E0,0E0,0E0,0E0,0E0],"parents":[2147483647,0,0,1,1,2,2,3,3,4,4,5,5,6,6],"right_children":[2,4,6,8,10,12,14,-1,-1,-1,-1,-1,-1,-1,-1],"split_conditions":[1.1482239E-2,2.1482404E-1,2.3304109E-2,3.6636186E-1,5.4540236E-2,-2.4734497E-2,1.9967379E-1,-1.982165E-2,1.39463395E-2,-3.4226883E-2,1.0727717E-2,2.781582E-3,3.2337535E-2,1.3902328E-2,-1.6533447E-2],"split_indices":[1105,98,2979,151,2304,279,159,0,0,0,0,0,0,0,0],"split_type":[0,0,0,0,0,0,0,0,0,0,0,0,0,0,0],"sum_hessian":[7.426025E1,1.7232565E1,5.7027683E1,4.996993E0,1.2235573E1,3.1050177E1,2.5977507E1,2.0628912E0,2.9341018E0,1.1986187E1,2.4938545E-1,1.3921454E1,1.7128721E1,8.813583E0,1.7163923E1],"tree_param":{"num_deleted":"0","num_feature":"3072","num_nodes":"15","size_leaf_vector":"0"}},{"base_weights":[5.5856667E-2,-7.3968077E-1,5.081937E-1,-1.270311E0,3.2207063E-1,8.6101454E-1,-2.7850828E-1,8.423359E-3,-3.50997E-2,-2.6279397E-2,1.7596588E-2,1.3101337E-2,3.3223517E-2,1.9072868E-2,-2.0081256E-2],"categories":[],"categories_nodes":[],"categories_segments":[],"categories_sizes":[],"default_left":[false,false,false,false,false,false,false,false,false,false,false,false,false,false,false],"id":31,"left_children":[1,3,5,7,9,11,13,-1,-1,-1,-1,-1,-1,-1,-1],"loss_changes":[2.8031178E1,1.6333572E1,1.4003404E1,3.6232452E0,5.7734046E0,4.610613E0,8.973572E0,0E0,0E0,0E0,0E0,0E0,0E0,0E0,0E0],"parents":[2147483647,0,0,1,1,2,2,3,3,4,4,5,5,6,6],"right_children":[2,4,6,8,10,12,14,-1,-1,-1,-1,-1,-1,-1,-1],"split_conditions":[1.0428174E-2,1.3114929E-2,4.4773873E-3,-1.4303355E-3,6.118529E-1,-8.926392E-3,1.834045E-1,8.423359E-3,-3.50997E-2,-2.6279397E-2,1.7596588E-2,1.3101337E-2,3.3223517E-2,1.9072868E-2,-2.0081256E-2],"split_indices":[2361,1021,2982,2310,137,296,102,0,0,0,0,0,0,0,0],"split_type":[0,0,0,0,0,0,0,0,0,0,0,0,0,0,0],"sum_hessian":[7.585201E1,2.7265026E1,4.8586987E1,1.8048513E1,9.216514E0,3.3478195E1,1.5108792E1,9.6898365E-1,1.7079529E1,1.5830796E0,7.633434E0,1.9898811E1,1.3579382E1,4.848257E0,1.0260535E1],"tree_param":{"num_deleted":"0","num_feature":"3072","num_nodes":"15","size_leaf_vector":"0"}},{"base_weights":[-9.409711E-2,-5.426122E-1,5.156576E-1,-8.06991E-1,5.340225E-1,-5.937062E-1,8.634069E-1,-5.182219E-3,-2.85233E-2,-1.5389027E-2,2.2431107E-2,1.8259523E-2,-2.1296617E-2,3.252566E-2,8.614495E-3],"categories":[],"categories_nodes":[],"categories_segments":[],"categories_sizes":[],"default_left":[false,false,false,false,false,false,false,false,false,false,false,false,false,false,false],"id":32,"left_children":[1,3,5,7,9,11,13,-1,-1,-1,-1,-1,-1,-1,-1],"loss_changes":[2.2017645E1,1.3605455E1,1.3706276E1,6.8027973E0,4.335038E0,3.3475196E0,5.2765217E0,0E0,0E0,0E0,0E0,0E0,0E0,0E0,0E0],"parents":[2147483647,0,0,1,1,2,2,3,3,4,4,5,5,6,6],"right_children":[2,4,6,8,10,12,14,-1,-1,-1,-1,-1,-1,-1,-1],"split_conditions":[1.2939453E-2,3.8565464E-2,-3.1177616E-2,2.1233912E-1,3.0424225E-1,4.6450414E-2,-3.699272E-2,-5.182219E-3,-2.85233E-2,-1.5389027E-2,2.2431107E-2,1.8259523E-2,-2.1296617E-2,3.252566E-2,8.614495E-3],"split_indices":[486,2718,3064,140,5,0,2409,0,0,0,0,0,0,0,0],"split_type":[0,0,0,0,0,0,0,0,0,0,0,0,0,0,0],"sum_hessian":[7.8484825E1,4.5284893E1,3.319993E1,3.655812E1,8.726774E0,7.7545767E0,2.5445353E1,1.2954664E1,2.3603455E1,1.8543404E0,6.872434E0,8.9585114E-1,6.8587255E0,1.3500564E1,1.194479E1],"tree_param":{"num_deleted":"0","num_feature":"3072","num_nodes":"15","size_leaf_vector":"0"}},{"base_weights":[1.2411304E-1,-8.1990886E-1,4.7877166E-1,-1.072412E0,8.42811E-1,-1.3638504E-1,8.229947E-1,-7.1068853E-3,-3.2769557E-2,-7.038381E-3,2.836419E-2,1.4228884E-2,-2.9020611E-2,-2.7224624E-3,2.6228152E-2],"categories":[],"categories_nodes":[],"categories_segments":[],"categories_sizes":[],"default_left":[false,false,false,false,false,false,false,false,false,false,false,false,false,false,false],"id":33,"left_children":[1,3,5,7,9,11,13,-1,-1,-1,-1,-1,-1,-1,-1],"loss_changes":[2.4669674E1,9.372401E0,1.1407111E1,2.6462383E0,1.2701652E0,1.4499303E1,6.6209908E0,0E0,0E0,0E0,0E0,0E0,0E0,0E0,0E0],"parents":[2147483647,0,0,1,1,2,2,3,3,4,4,5,5,6,6],"right_children":[2,4,6,8,10,12,14,-1,-1,-1,-1,-1,-1,-1,-1],"split_conditions":[7.045746E-3,3.3236563E-2,1E0,2.1482404E-1,1.7052412E-1,4.6450414E-2,-2.5885731E-2,-7.1068853E-3,-3.2769557E-2,-7.038381E-3,2.836419E-2,1.4228884E-2,-2.9020611E-2,-2.7224624E-3,2.6228152E-2],"split_indices":[453,3054,5,98,49,0,2923,0,0,0,0,0,0,0,0],"split_type":[0,0,0,0,0,0,0,0,0,0,0,0,0,0,0],"sum_hessian":[7.151113E1,1.9170834E1,5.2340294E1,1.6951569E1,2.2192647E0,1.8996206E1,3.334409E1,4.040602E0,1.2910966E1,4.2307723E-1,1.7961875E0,1.1478086E1,7.518119E0,6.0854177E0,2.7258673E1],"tree_param":{"num_deleted":"0","num_feature":"3072","num_nodes":"15","size_leaf_vector":"0"}},{"base_weights":[-1.03375256E-1,3.7515804E-1,-9.814032E-1,-2.4879918E-1,8.7517047E-1,3.162328E-1,-1.1507915E0,1.8693108E-2,-1.3925015E-2,1.4459301E-4,2.7181217E-2,2.3012966E-2,-2.5270024E-2,-3.074453E-2,1.2648998E-2],"categories":[],"categories_nodes":[],"categories_segments":[],"categories_sizes":[],"default_left":[false,false,false,false,false,false,false,false,false,false,false,false,false,false,false],"id":34,"left_children":[1,3,5,7,9,11,13,-1,-1,-1,-1,-1,-1,-1,-1],"loss_changes":[3.2174988E1,1.5729811E1,6.294306E0,7.055634E0,4.5686893E0,3.8693233E0,2.6968842E0,0E0,0E0,0E0,0E0,0E0,0E0,0E0,0E0],"parents":[2147483647,0,0,1,1,2,2,3,3,4,4,5,5,6,6],"right_children":[2,4,6,8,10,12,14,-1,-1,-1,-1,-1,-1,-1,-1],"split_conditions":[-2.3834229E-2,-2.6482722E-2,-5.2682113E-2,1.9967379E-1,6.118529E-1,5.142344E-1,5.7608802E-2,1.8693108E-2,-1.3925015E-2,1.4459301E-4,2.7181217E-2,2.3012966E-2,-2.5270024E-2,-3.074453E-2,1.2648998E-2],"split_indices":[1110,2892,2560,28,187,23,2348,0,0,0,0,0,0,0,0],"split_type":[0,0,0,0,0,0,0,0,0,0,0,0,0,0,0],"sum_hessian":[7.470065E1,4.8720345E1,2.5980307E1,2.189738E1,2.6822962E1,2.8996897E0,2.3080618E1,4.741437E0,1.7155943E1,4.975336E0,2.1847626E1,2.2166862E0,6.830035E-1,2.2620993E1,4.5962584E-1],"tree_param":{"num_deleted":"0","num_feature":"3072","num_nodes":"15","size_leaf_vector":"0"}},{"base_weights":[7.721854E-2,-7.957455E-1,3.860595E-1,-1.0148165E0,2.5069779E-2,5.148144E-1,-2.9284412E-2,1.3754968E-2,-2.8400725E-2,2.0017197E-2,-9.375471E-5],"categories":[],"categories_nodes":[],"categories_segments":[],"categories_sizes":[],"default_left":[false,false,false,false,false,false,false,false,false,false,false],"id":35,"left_children":[1,3,5,7,-1,9,-1,-1,-1,-1,-1],"loss_changes":[1.934981E1,8.310207E0,1.10189705E1,3.1982098E0,0E0,6.8972654E0,0E0,0E0,0E0,0E0,0E0],"parents":[2147483647,0,0,1,1,2,2,3,3,5,5],"right_children":[2,4,6,8,-1,10,-1,-1,-1,-1,-1],"split_conditions":[1.21154785E-2,3.8565464E-2,1.9060452E-2,1E0,2.5069779E-2,-5.9661865E-3,-2.9284412E-2,1.3754968E-2,-2.8400725E-2,2.0017197E-2,-9.375471E-5],"split_indices":[580,2718,2685,64,0,869,0,0,0,0,0],"split_type":[0,0,0,0,0,0,0,0,0,0,0],"sum_hessian":[6.963097E1,1.778465E1,5.1846313E1,1.6215046E1,1.5696039E0,4.844106E1,3.4052556E0,6.874832E-1,1.5527563E1,3.1559034E1,1.6882027E1],"tree_param":{"num_deleted":"0","num_feature":"3072","num_nodes":"11","size_leaf_vector":"0"}},{"base_weights":[-2.9512784E-2,-8.9822936E-1,2.469556E-1,-1.1947961E0,8.055046E-1,4.9111304E-1,-5.281061E-1,-3.157308E-2,-3.18641E-3,-7.169064E-3,2.6984526E-2,-6.238054E-3,1.9440679E-2,4.0491773E-3,-2.5237E-2],"categories":[],"categories_nodes":[],"categories_segments":[],"categories_sizes":[],"default_left":[false,false,false,false,false,false,false,false,false,false,false,false,false,false,false],"id":36,"left_children":[1,3,5,7,9,11,13,-1,-1,-1,-1,-1,-1,-1,-1],"loss_changes":[1.8529766E1,1.0369815E1,1.1350493E1,5.6669617E-1,1.2122462E0,9.140561E0,4.7439437E0,0E0,0E0,0E0,0E0,0E0,0E0,0E0,0E0],"parents":[2147483647,0,0,1,1,2,2,3,3,4,4,5,5,6,6],"right_children":[2,4,6,8,10,12,14,-1,-1,-1,-1,-1,-1,-1,-1],"split_conditions":[7.045746E-3,2.2385359E-2,1.4485051E-3,2.6342534E-3,6.505159E-2,7.0785534E-1,1.7052412E-1,-3.157308E-2,-3.18641E-3,-7.169064E-3,2.6984526E-2,-6.238054E-3,1.9440679E-2,4.0491773E-3,-2.5237E-2],"split_indices":[453,2304,2791,2305,66,180,7,0,0,0,0,0,0,0,0],"split_type":[0,0,0,0,0,0,0,0,0,0,0,0,0,0,0],"sum_hessian":[7.522826E1,1.7618528E1,5.760973E1,1.5260817E1,2.3577118E0,4.4087715E1,1.3522014E1,1.454239E1,7.1842676E-1,4.2047924E-1,1.9372326E0,1.1868396E1,3.221932E1,5.6877975E0,7.8342166E0],"tree_param":{"num_deleted":"0","num_feature":"3072","num_nodes":"15","size_leaf_vector":"0"}},{"base_weights":[-1.3774309E-2,2.098293E-1,-1.0687965E0,-6.2585956E-1,4.910041E-1,1.6130067E-1,-1.1650568E0,5.988149E-3,-2.2860708E-2,-2.1355135E-2,1.648306E-2,-9.846503E-3,1.4417926E-2,-3.136186E-2,1.0311057E-2],"categories":[],"categories_nodes":[],"categories_segments":[],"categories_sizes":[],"default_left":[false,false,false,false,false,false,false,false,false,false,false,false,false,false,false],"id":37,"left_children":[1,3,5,7,9,11,13,-1,-1,-1,-1,-1,-1,-1,-1],"loss_changes":[1.8593395E1,1.5600599E1,1.819747E0,4.1071157E0,1.0632486E1,6.318648E-1,1.7689972E0,0E0,0E0,0E0,0E0,0E0,0E0,0E0,0E0],"parents":[2147483647,0,0,1,1,2,2,3,3,4,4,5,5,6,6],"right_children":[2,4,6,8,10,12,14,-1,-1,-1,-1,-1,-1,-1,-1],"split_conditions":[2.2613525E-2,-2.289458E-2,4.6450414E-2,1.7052412E-1,7.087709E-1,1.7052412E-1,4.4813663E-2,5.988149E-3,-2.2860708E-2,-2.1355135E-2,1.648306E-2,-9.846503E-3,1.4417926E-2,-3.136186E-2,1.0311057E-2],"split_indices":[385,2604,231,7,176,7,2304,0,0,0,0,0,0,0,0],"split_type":[0,0,0,0,0,0,0,0,0,0,0,0,0,0,0],"sum_hessian":[7.6866066E1,6.408489E1,1.2781173E1,1.5825005E1,4.825989E1,8.7855566E-1,1.1902617E1,3.8028128E0,1.2022192E1,4.568715E0,4.3691174E1,3.9149877E-1,4.8705685E-1,1.1652638E1,2.499784E-1],"tree_param":{"num_deleted":"0","num_feature":"3072","num_nodes":"15","size_leaf_vector":"0"}},{"base_weights":[1.7848497E-2,2.7723077E-1,-8.9491695E-1,-6.063786E-1,4.994301E-1,-1.1891096E0,4.6523154E-2,1.1544205E-2,-3.0826917E-2,-1.3012177E-2,1.886828E-2,-7.2084498E-3,-3.1531055E-2,-1.8926466E-2,3.2017875E-2],"categories":[],"categories_nodes":[],"categories_segments":[],"categories_sizes":[],"default_left":[false,false,false,false,false,false,false,false,false,false,false,false,false,false,false],"id":38,"left_children":[1,3,5,7,9,11,13,-1,-1,-1,-1,-1,-1,-1,-1],"loss_changes":[1.7762318E1,1.1762969E1,4.654748E0,8.288666E0,1.1771795E1,1.7488861E-1,5.6028943E0,0E0,0E0,0E0,0E0,0E0,0E0,0E0,0E0],"parents":[2147483647,0,0,1,1,2,2,3,3,4,4,5,5,6,6],"right_children":[2,4,6,8,10,12,14,-1,-1,-1,-1,-1,-1,-1,-1],"split_conditions":[-2.9683232E-2,3.0424225E-1,6.616642E-3,1.8182497E-1,1.9967379E-1,4.6450414E-2,5.142344E-1,1.1544205E-2,-3.0826917E-2,-1.3012177E-2,1.886828E-2,-7.2084498E-3,-3.1531055E-2,-1.8926466E-2,3.2017875E-2],"split_indices":[498,10,2792,44,38,231,11,0,0,0,0,0,0,0,0],"split_type":[0,0,0,0,0,0,0,0,0,0,0,0,0,0,0],"sum_hessian":[7.297608E1,5.7369545E1,1.5606538E1,1.1180319E1,4.6189228E1,1.1690327E1,3.9162114E0,4.1373305E0,7.042989E0,8.640159E0,3.754907E1,9.02338E-1,1.0787989E1,2.6036015E0,1.3126098E0],"tree_param":{"num_deleted":"0","num_feature":"3072","num_nodes":"15","size_leaf_vector":"0"}},{"base_weights":[-3.9473098E-2,-7.645363E-1,2.8477827E-1,7.5284636E-1,-9.922753E-1,6.386232E-1,-4.6815065E-1,-1.3875918E-2,2.6001967E-2,8.661151E-3,-2.8361566E-2,-5.9631653E-3,2.1859499E-2,1.0873675E-2,-2.5782753E-2],"categories":[],"categories_nodes":[],"categories_segments":[],"categories_sizes":[],"default_left":[false,false,false,false,false,false,false,false,false,false,false,false,false,false,false],"id":39,"left_children":[1,3,5,7,9,11,13,-1,-1,-1,-1,-1,-1,-1,-1],"loss_changes":[1.6289503E1,8.14068E0,1.3077803E1,1.7085706E0,3.3723793E0,6.463011E0,8.129936E0,0E0,0E0,0E0,0E0,0E0,0E0,0E0,0E0],"parents":[2147483647,0,0,1,1,2,2,3,3,4,4,5,5,6,6],"right_children":[2,4,6,8,10,12,14,-1,-1,-1,-1,-1,-1,-1,-1],"split_conditions":[-1.1594703E-2,-1.1776308E-2,1.5372301E-2,2.9214466E-1,1.8182497E-1,6.0754484E-1,1.9967379E-1,-1.3875918E-2,2.6001967E-2,8.661151E-3,-2.8361566E-2,-5.9631653E-3,2.1859499E-2,1.0873675E-2,-2.5782753E-2],"split_indices":[810,2457,2460,59,45,91,159,0,0,0,0,0,0,0,0],"split_type":[0,0,0,0,0,0,0,0,0,0,0,0,0,0,0],"sum_hessian":[6.7360664E1,2.0395697E1,4.6964966E1,2.360745E0,1.8034952E1,3.205315E1,1.4911818E1,2.2295937E-1,2.1377857E0,1.318275E0,1.6716677E1,6.378063E0,2.5675087E1,5.705068E0,9.20675E0],"tree_param":{"num_deleted":"0","num_feature":"3072","num_nodes":"15","size_leaf_vector":"0"}},{"base_weights":[4.6247255E-2,-7.253449E-1,4.2172408E-1,-9.022771E-1,7.453224E-1,-8.3000827E-1,5.6826735E-1,-3.99261E-3,-2.8214509E-2,-1.1670266E-2,2.546987E-2,1.399928E-2,-2.6903324E-2,-1.4654501E-2,1.8125152E-2],"categories":[],"categories_nodes":[],"categories_segments":[],"categories_sizes":[],"default_left":[false,false,false,false,false,false,false,false,false,false,false,false,false,false,false],"id":40,"left_children":[1,3,5,7,9,11,13,-1,-1,-1,-1,-1,-1,-1,-1],"loss_changes":[2.2081785E1,7.1702166E0,9.861947E0,3.2617226E0,1.4338217E0,2.3541362E0,7.904293E0,0E0,0E0,0E0,0E0,0E0,0E0,0E0,0E0],"parents":[2147483647,0,0,1,1,2,2,3,3,4,4,5,5,6,6],"right_children":[2,4,6,8,10,12,14,-1,-1,-1,-1,-1,-1,-1,-1],"split_conditions":[6.99234E-3,3.3817813E-2,-2.6672421E-2,-3.9027869E-3,6.505159E-2,6.3363814E-1,1E0,-3.99261E-3,-2.8214509E-2,-1.1670266E-2,2.546987E-2,1.399928E-2,-2.6903324E-2,-1.4654501E-2,1.8125152E-2],"split_indices":[486,2803,2919,2441,24,201,116,0,0,0,0,0,0,0,0],"split_type":[0,0,0,0,0,0,0,0,0,0,0,0,0,0,0],"sum_hessian":[7.416315E1,2.3971249E1,5.01919E1,2.1742008E1,2.22924E0,4.7714624E0,4.5420437E1,5.0194488E0,1.6722559E1,2.4523841E-1,1.9840016E0,4.6274024E-1,4.308722E0,4.6676097E0,4.0752827E1],"tree_param":{"num_deleted":"0","num_feature":"3072","num_nodes":"15","size_leaf_vector":"0"}},{"base_weights":[-2.7421018E-2,-9.694732E-1,2.3495777E-1,2.152983E-2,-1.115125E0,-6.9249654E-1,4.532727E-1,2.444611E-4,-3.0932683E-2,2.112388E-2,-3.1185089E-2,-2.226782E-2,1.6522575E-2],"categories":[],"categories_nodes":[],"categories_segments":[],"categories_sizes":[],"default_left":[false,false,false,false,false,false,false,false,false,false,false,false,false],"id":41,"left_children":[1,3,5,-1,7,9,11,-1,-1,-1,-1,-1,-1],"loss_changes":[1.8007313E1,5.1281853E0,1.1868491E1,0E0,1.6441231E0,1.0060818E1,1.2573715E1,0E0,0E0,0E0,0E0,0E0,0E0],"parents":[2147483647,0,0,1,1,2,2,4,4,5,5,6,6],"right_children":[2,4,6,-1,8,10,12,-1,-1,-1,-1,-1,-1],"split_conditions":[1.1482239E-2,-8.8115744E-2,1.9967379E-1,2.152983E-2,4.3194503E-1,1E0,-2.630093E-2,2.444611E-4,-3.0932683E-2,2.112388E-2,-3.1185089E-2,-2.226782E-2,1.6522575E-2],"split_indices":[1105,2467,38,0,36,241,2919,0,0,0,0,0,0],"split_type":[0,0,0,0,0,0,0,0,0,0,0,0,0],"sum_hessian":[7.0931076E1,1.4864876E1,5.6066204E1,7.495758E-1,1.4115299E1,1.0269004E1,4.57972E1,1.1812274E0,1.29340725E1,2.5042508E0,7.764753E0,5.3929486E0,4.040425E1],"tree_param":{"num_deleted":"0","num_feature":"3072","num_nodes":"13","size_leaf_vector":"0"}},{"base_weights":[9.15831E-4,-7.200805E-1,3.21573E-1,1.888511E-1,-1.0256629E0,-4.1884652E-1,6.512078E-1,-2.2224596E-2,2.8948175E-2,1.1889213E-3,-2.9952345E-2,1.981778E-2,-2.2802496E-2,-6.681987E-3,2.4694134E-2],"categories":[],"categories_nodes":[],"categories_segments":[],"categories_sizes":[],"default_left":[false,false,false,false,false,false,false,false,false,false,false,false,false,false,false],"id":42,"left_children":[1,3,5,7,9,11,13,-1,-1,-1,-1,-1,-1,-1,-1],"loss_changes":[1.6954098E1,6.463956E0,1.266085E1,7.513324E0,2.7439651E0,9.892102E0,1.04863615E1,0E0,0E0,0E0,0E0,0E0,0E0,0E0,0E0],"parents":[2147483647,0,0,1,1,2,2,3,3,4,4,5,5,6,6],"right_children":[2,4,6,8,10,12,14,-1,-1,-1,-1,-1,-1,-1,-1],"split_conditions":[6.99234E-3,1.7052412E-1,6.9575775E-1,2.0042252E-2,1.9967379E-1,6.3448413E-3,5.142344E-1,-2.2224596E-2,2.8948175E-2,1.1889213E-3,-2.9952345E-2,1.981778E-2,-2.2802496E-2,-6.681987E-3,2.4694134E-2],"split_indices":[486,72,225,2625,117,2991,220,0,0,0,0,0,0,0,0],"split_type":[0,0,0,0,0,0,0,0,0,0,0,0,0,0,0],"sum_hessian":[7.133163E1,2.1574903E1,4.975672E1,5.524548E0,1.6050354E1,1.52444E1,3.451232E1,2.6416357E0,2.8829126E0,2.0188982E0,1.4031456E1,4.1488347E0,1.1095566E1,8.91228E0,2.5600042E1],"tree_param":{"num_deleted":"0","num_feature":"3072","num_nodes":"15","size_leaf_vector":"0"}},{"base_weights":[-8.689888E-2,3.1653792E-1,-5.4194456E-1,6.4826065E-1,-6.424025E-1,-1.0958993E0,2.3202653E-1,3.0848783E-2,8.472129E-3,1.5249735E-2,-2.5773946E-2,-3.314116E-2,-2.8986175E-5,-1.9484375E-2,1.7176043E-2],"categories":[],"categories_nodes":[],"categories_segments":[],"categories_sizes":[],"default_left":[false,false,false,false,false,false,false,false,false,false,false,false,false,false,false],"id":43,"left_children":[1,3,5,7,9,11,13,-1,-1,-1,-1,-1,-1,-1,-1],"loss_changes":[1.2624908E1,1.2055163E1,1.4080187E1,4.5028467E0,5.1058893E0,4.1879177E0,6.7703333E0,0E0,0E0,0E0,0E0,0E0,0E0,0E0,0E0],"parents":[2147483647,0,0,1,1,2,2,3,3,4,4,5,5,6,6],"right_children":[2,4,6,8,10,12,14,-1,-1,-1,-1,-1,-1,-1,-1],"split_conditions":[-1.325434E-2,4.4773873E-3,2.671814E-2,4.5444716E-2,1.834045E-1,1.3699815E-2,6.9575775E-1,3.0848783E-2,8.472129E-3,1.5249735E-2,-2.5773946E-2,-3.314116E-2,-2.8986175E-5,-1.9484375E-2,1.7176043E-2],"split_indices":[2808,2982,785,995,102,2775,225,0,0,0,0,0,0,0,0],"split_type":[0,0,0,0,0,0,0,0,0,0,0,0,0,0,0],"sum_hessian":[6.6835365E1,3.5587975E1,3.124739E1,2.6681963E1,8.906011E0,1.7969864E1,1.3277526E1,8.6224375E0,1.8059526E1,1.8901501E0,7.0158606E0,1.501737E1,2.9524934E0,3.8499188E0,9.427608E0],"tree_param":{"num_deleted":"0","num_feature":"3072","num_nodes":"15","size_leaf_vector":"0"}},{"base_weights":[-9.318997E-2,-7.589027E-1,2.3852727E-1,2.2729571E-1,-9.231084E-1,9.3175656E-1,-3.502857E-2,2.233576E-2,-1.9896526E-2,-2.7897162E-2,-2.0026949E-3,2.9632063E-3,3.2369744E-2,-2.2156054E-2,8.247896E-3],"categories":[],"categories_nodes":[],"categories_segments":[],"categories_sizes":[],"default_left":[false,false,false,false,false,false,false,false,false,false,false,false,false,false,false],"id":44,"left_children":[1,3,5,7,9,11,13,-1,-1,-1,-1,-1,-1,-1,-1],"loss_changes":[1.6303041E1,4.1804447E0,9.41735E0,3.4835703E0,2.9465942E0,3.697029E0,1.114206E1,0E0,0E0,0E0,0E0,0E0,0E0,0E0,0E0],"parents":[2147483647,0,0,1,1,2,2,3,3,4,4,5,5,6,6],"right_children":[2,4,6,8,10,12,14,-1,-1,-1,-1,-1,-1,-1,-1],"split_conditions":[6.99234E-3,1.8182497E-1,-2.0599365E-2,1.7052412E-1,2.1495735E-2,1.7052412E-1,6.9575775E-1,2.233576E-2,-1.9896526E-2,-2.7897162E-2,-2.0026949E-3,2.9632063E-3,3.2369744E-2,-2.2156054E-2,8.247896E-3],"split_indices":[486,192,436,72,2314,53,225,0,0,0,0,0,0,0,0],"split_type":[0,0,0,0,0,0,0,0,0,0,0,0,0,0,0],"sum_hessian":[7.200702E1,2.3519228E1,4.848779E1,3.3022306E0,2.0216997E1,1.3039005E1,3.5448784E1,2.0893617E0,1.2128688E0,1.6599064E1,3.6179318E0,4.193542E0,8.845464E0,1.0231487E1,2.5217295E1],"tree_param":{"num_deleted":"0","num_feature":"3072","num_nodes":"15","size_leaf_vector":"0"}},{"base_weights":[-4.032743E-2,-4.7393334E-1,3.8603696E-1,-9.563381E-2,-1.1585413E0,-5.1685524E-1,5.8317107E-1,-2.9061835E-2,1.1432803E-2,-3.2617085E-2,-6.051883E-3,2.2394266E-2,-2.369924E-2,-1.8152721E-2,1.7838368E-2],"categories":[],"categories_nodes":[],"categories_segments":[],"categories_sizes":[],"default_left":[false,false,false,false,false,false,false,false,false,false,false,false,false,false,false],"id":45,"left_children":[1,3,5,7,9,11,13,-1,-1,-1,-1,-1,-1,-1,-1],"loss_changes":[1.3844933E1,9.494293E0,7.0315413E0,1.4652706E1,1.1298561E0,4.9995522E0,5.196007E0,0E0,0E0,0E0,0E0,0E0,0E0,0E0,0E0],"parents":[2147483647,0,0,1,1,2,2,3,3,4,4,5,5,6,6],"right_children":[2,4,6,8,10,12,14,-1,-1,-1,-1,-1,-1,-1,-1],"split_conditions":[7.633209E-3,-3.5508342E-2,-5.9469283E-2,5.4393E-1,3.9693482E-2,4.3194503E-1,1E0,-2.9061835E-2,1.1432803E-2,-3.2617085E-2,-6.051883E-3,2.2394266E-2,-2.369924E-2,-1.8152721E-2,1.7838368E-2],"split_indices":[486,2446,2958,5,2318,36,105,0,0,0,0,0,0,0,0],"split_type":[0,0,0,0,0,0,0,0,0,0,0,0,0,0,0],"sum_hessian":[7.289881E1,3.6087162E1,3.681165E1,2.397744E1,1.2109722E1,6.3063126E0,3.0505335E1,7.840716E0,1.6136723E1,1.0387538E1,1.7221841E0,1.1783361E0,5.1279764E0,2.0729592E0,2.8432375E1],"tree_param":{"num_deleted":"0","num_feature":"3072","num_nodes":"15","size_leaf_vector":"0"}},{"base_weights":[-1.211707E-1,3.8599974E-1,-5.971942E-1,1.0535563E0,-6.0617793E-2,7.7001345E-1,-8.5790676E-1,-1.8982355E-2,2.995068E-2,1.4289891E-2,-1.8515162E-2,-2.788151E-2,3.0092238E-2,-2.9270431E-2,-5.362877E-3],"categories":[],"categories_nodes":[],"categories_segments":[],"categories_sizes":[],"default_left":[false,false,false,false,false,false,false,false,false,false,false,false,false,false,false],"id":46,"left_children":[1,3,5,7,9,11,13,-1,-1,-1,-1,-1,-1,-1,-1],"loss_changes":[1.7497463E1,1.0568916E1,1.3951104E1,3.9070196E0,9.49241E0,6.225107E0,5.6943645E0,0E0,0E0,0E0,0E0,0E0,0E0,0E0,0E0],"parents":[2147483647,0,0,1,1,2,2,3,3,4,4,5,5,6,6],"right_children":[2,4,6,8,10,12,14,-1,-1,-1,-1,-1,-1,-1,-1],"split_conditions":[-2.1481164E-2,4.2236328E-2,1E0,1E0,-3.0991718E-2,1.7052412E-1,8.733486E-2,-1.8982355E-2,2.995068E-2,1.4289891E-2,-1.8515162E-2,-2.788151E-2,3.0092238E-2,-2.9270431E-2,-5.362877E-3],"split_indices":[2720,722,64,116,2336,75,2817,0,0,0,0,0,0,0,0],"split_type":[0,0,0,0,0,0,0,0,0,0,0,0,0,0,0],"sum_hessian":[7.052094E1,3.4235004E1,3.6285934E1,1.3178383E1,2.1056622E1,5.4983644E0,3.078757E1,4.9379936E-1,1.2684584E1,1.0972233E1,1.0084388E1,6.87759E-1,4.8106055E0,2.0777836E1,1.0009736E1],"tree_param":{"num_deleted":"0","num_feature":"3072","num_nodes":"15","size_leaf_vector":"0"}},{"base_weights":[-3.1707387E-2,-6.746235E-1,2.4564925E-1,-9.785499E-1,4.6459112E-1,6.449838E-1,-1.295277E-1,4.2752684E-3,-2.8339501E-2,-9.753195E-3,3.1484924E-2,2.1169046E-2,-6.73854E-3,9.357272E-3,-1.7830597E-2],"categories":[],"categories_nodes":[],"categories_segments":[],"categories_sizes":[],"default_left":[false,false,false,false,false,false,false,false,false,false,false,false,false,false,false],"id":47,"left_children":[1,3,5,7,9,11,13,-1,-1,-1,-1,-1,-1,-1,-1],"loss_changes":[1.3513528E1,8.358164E0,8.028173E0,2.9406319E0,4.037678E0,4.539299E0,8.200239E0,0E0,0E0,0E0,0E0,0E0,0E0,0E0,0E0],"parents":[2147483647,0,0,1,1,2,2,3,3,4,4,5,5,6,6],"right_children":[2,4,6,8,10,12,14,-1,-1,-1,-1,-1,-1,-1,-1],"split_conditions":[2.8476715E-3,5.841097E-4,-6.4468384E-3,4.6450414E-2,3.9245516E-1,7.388009E-2,1.8182497E-1,4.2752684E-3,-2.8339501E-2,-9.753195E-3,3.1484924E-2,2.1169046E-2,-6.73854E-3,9.357272E-3,-1.7830597E-2],"split_indices":[1243,2710,312,130,26,2960,188,0,0,0,0,0,0,0,0],"split_type":[0,0,0,0,0,0,0,0,0,0,0,0,0,0,0],"sum_hessian":[7.3854355E1,2.182693E1,5.2027424E1,1.7341494E1,4.4854355E0,2.4853966E1,2.7173458E1,1.7514511E0,1.5590042E1,2.3732293E0,2.1122065E0,2.074473E1,4.1092353E0,1.4704768E1,1.246869E1],"tree_param":{"num_deleted":"0","num_feature":"3072","num_nodes":"15","size_leaf_vector":"0"}},{"base_weights":[-1.425744E-1,-8.2641053E-1,1.7998229E-1,-9.3445176E-1,5.555326E-1,-5.140019E-1,5.2692944E-1,-1.1082441E-2,-3.0584538E-2,-9.182584E-3,2.1280298E-2,-2.6477063E-2,1.6050192E-2,1.9328568E-2,-1.6260235E-2],"categories":[],"categories_nodes":[],"categories_segments":[],"categories_sizes":[],"default_left":[false,false,false,false,false,false,false,false,false,false,false,false,false,false,false],"id":48,"left_children":[1,3,5,7,9,11,13,-1,-1,-1,-1,-1,-1,-1,-1],"loss_changes":[1.6445398E1,4.0813847E0,1.2556098E1,2.4432201E0,8.9854854E-1,1.1109129E1,9.712731E0,0E0,0E0,0E0,0E0,0E0,0E0,0E0,0E0],"parents":[2147483647,0,0,1,1,2,2,3,3,4,4,5,5,6,6],"right_children":[2,4,6,8,10,12,14,-1,-1,-1,-1,-1,-1,-1,-1],"split_conditions":[2.8476715E-3,3.272686E-2,1E0,1.7052412E-1,2.9214466E-1,-4.9725585E-3,7.1972595E-3,-1.1082441E-2,-3.0584538E-2,-9.182584E-3,2.1280298E-2,-2.6477063E-2,1.6050192E-2,1.9328568E-2,-1.6260235E-2],"split_indices":[1243,2675,5,7,59,2594,3068,0,0,0,0,0,0,0,0],"split_type":[0,0,0,0,0,0,0,0,0,0,0,0,0,0,0],"sum_hessian":[7.2882324E1,2.2858694E1,5.002363E1,2.1501505E1,1.357189E0,1.6512615E1,3.3511013E1,8.320429E0,1.3181077E1,2.4734467E-1,1.1098444E0,1.13927145E1,5.1199007E0,2.8274813E1,5.2361984E0],"tree_param":{"num_deleted":"0","num_feature":"3072","num_nodes":"15","size_leaf_vector":"0"}},{"base_weights":[5.0529446E-2,-3.3921254E-1,5.3072727E-1,6.5097123E-1,-5.40295E-1,-9.936418E-1,7.105673E-1,-1.4332582E-2,2.5640262E-2,3.4107664E-3,-2.2539405E-2,7.916213E-3,-2.9898416E-2,-2.2768108E-3,2.2811946E-2],"categories":[],"categories_nodes":[],"categories_segments":[],"categories_sizes":[],"default_left":[false,false,false,false,false,false,false,false,false,false,false,false,false,false,false],"id":49,"left_children":[1,3,5,7,9,11,13,-1,-1,-1,-1,-1,-1,-1,-1],"loss_changes":[1.3124314E1,8.074729E0,9.30759E0,3.5586693E0,7.678751E0,1.2231183E0,4.2636127E0,0E0,0E0,0E0,0E0,0E0,0E0,0E0,0E0],"parents":[2147483647,0,0,1,1,2,2,3,3,4,4,5,5,6,6],"right_children":[2,4,6,8,10,12,14,-1,-1,-1,-1,-1,-1,-1,-1],"split_conditions":[1.2939453E-2,1E0,-1.6091734E-3,6.118529E-1,1.8182497E-1,2.9214466E-1,1.8182497E-1,-1.4332582E-2,2.5640262E-2,3.4107664E-3,-2.2539405E-2,7.916213E-3,-2.9898416E-2,-2.2768108E-3,2.2811946E-2],"split_indices":[486,64,2471,137,34,16,204,0,0,0,0,0,0,0,0],"split_type":[0,0,0,0,0,0,0,0,0,0,0,0,0,0,0],"sum_hessian":[6.816409E1,3.778794E1,3.0376154E1,6.0008445E0,3.1787096E1,2.7279794E0,2.7648174E1,1.2202551E0,4.7805896E0,1.0911705E1,2.0875391E1,2.3636185E-1,2.4916177E0,5.2351594E0,2.2413015E1],"tree_param":{"num_deleted":"0","num_feature":"3072","num_nodes":"15","size_leaf_vector":"0"}}]},"name":"gbtree"},"learner_model_param":{"base_score":"5E-1","num_class":"0","num_feature":"3072"},"objective":{"name":"binary:logistic","reg_loss_param":{"scale_pos_weight":"1"}}},"version":[1,5,1]}