{"learner":{"attributes":{"best_iteration":"39","best_ntree_limit":"40","best_score":"0.999995"},"feature_names":[],"feature_types":[],"gradient_booster":{"model":{"gbtree_model_param":{"num_trees":"50","size_leaf_vector":"0"},"tree_info":[0,0,0,0,0,0,0,0,0,0,0,0,0,0,0,0,0,0,0,0,0,0,0,0,0,0,0,0,0,0,0,0,0,0,0,0,0,0,0,0,0,0,0,0,0,0,0,0,0,0],"trees":[{"base_weights":[-1.1131725E-2,7.654321E-1,-1.1598173E0,-6.2068963E-1,1.0518519E0,-1.4920635E0,8.235294E-1,-1.1794872E0,4.347826E-1,3.75E-1,1.3932585E0,6E-1,-1.699422E0,-1.0997202E-1,1.3103448E0,-1.5714285E0,-1.3333334E-1,1.3704206E-1,-5.714286E-1,9.508197E-1,-5.641026E-1,-9.897482E-2,1.4712644E0,-8E-1,1.413926E-1,8.483556E-2,-1.7647059E0,-5E-1,1.6627769E-1,3.9589927E-2,-1.6862376E-1,9.897482E-2,-9.0909094E-1,6.598321E-2,-1E0,-2.5E-1,1.2653061E0,3.1578946E-1,-1.1666666E0,1.5878788E0,-4.6153846E-1,-0E0,-9.897482E-2,-0E0,-1.8072289E0,3.9589927E-2,-8.483556E-2,3.9589927E-2,-1.1876979E-1,3.9589927E-2,-1.2596795E-1,-1.0997202E-1,5.4545456E-1,-4E-1,1.5348837E0,1.2596795E-1,-6.666667E-1,2.2222222E-1,-1.5627603E-1,-0E0,1.6903226E0,6.598321E-2,-9.0909094E-1,-6.598321E-2,6.598321E-2,-2.857143E-1,-1.8282208E0,9.897482E-2,-2.857143E-1,6.598321E-2,-9.897482E-2,-0E0,1.6923077E0,6.598321E-2,-1.1876979E-1,8.483556E-2,-6.598321E-2,8E-1,-9.897482E-2,-2.857143E-1,1.7368422E0,3.9589927E-2,-1.1876979E-1,-6.598321E-2,3.9589927E-2,-2.857143E-1,-1.8310341E-1,3.9589927E-2,-6.598321E-2,-6.598321E-2,6.598321E-2,-0E0,1.7654967E-1,-0E0,9.897482E-2,3.9589927E-2,-6.598321E-2,1.76E0,-0E0,-6.598321E-2,3.9589927E-2,3.9589927E-2,-3.9589927E-2,3.9589927E-2,-3.9589927E-2,4.948741E-2,1.7625652E-1,-3.9589927E-2,3.9589927E-2],"categories":[],"categories_nodes":[],"categories_segments":[],"categories_sizes":[],"default_left":[false,false,false,false,false,false,false,false,false,false,false,false,false,false,false,false,false,false,false,false,false,false,false,false,false,false,false,false,false,false,false,false,false,false,false,false,false,false,false,false,false,false,false,false,false,false,false,false,false,false,false,false,false,false,false,false,false,false,false,false,false,false,false,false,false,false,false,false,false,false,false,false,false,false,false,false,false,false,false,false,false,false,false,false,false,false,false,false,false,false,false,false,false,false,false,false,false,false,false,false,false,false,false,false,false,false,false,false,false],"id":0,"left_children":[1,3,5,7,9,11,13,15,17,19,21,23,25,-1,27,29,31,-1,33,35,37,-1,39,41,-1,-1,43,45,-1,-1,-1,-1,47,-1,49,51,53,55,57,59,61,-1,-1,63,65,-1,-1,-1,-1,-1,-1,-1,67,69,71,-1,73,75,-1,77,79,-1,81,-1,-1,83,85,-1,87,-1,-1,89,91,-1,-1,-1,-1,93,-1,95,97,-1,-1,-1,-1,99,-1,-1,-1,-1,-1,101,-1,103,-1,-1,-1,105,107,-1,-1,-1,-1,-1,-1,-1,-1,-1,-1],"loss_changes":[1.2108849E2,3.2810894E1,3.7306786E1,9.064852E0,1.5075539E1,2.1517044E1,9.461348E0,3.7882805E0,6.2866697E0,1.351445E1,9.7789E0,6.942857E0,8.73114E0,0E0,5.691724E0,2.506878E0,4.2060604E0,0E0,2.5238094E0,6.0753603E0,5.5377874E0,0E0,1.0537445E1,3.9999998E-1,0E0,0E0,3.1892395E0,9.857143E-1,0E0,0E0,0E0,0E0,1.5272727E0,0E0,1.6545453E0,3.3459594E0,6.1133347E0,5.3141947E0,3.7865486E0,6.7100677E0,2.2470863E0,0E0,0E0,1.3333334E0,8.031311E-1,0E0,0E0,0E0,0E0,0E0,0E0,0E0,1.3246753E0,2.2666667E0,2.597496E0,0E0,2.933333E0,1.8412697E0,0E0,3.6E0,4.0583115E0,0E0,1.5272727E0,0E0,0E0,7.2380954E-1,8.4039307E-1,0E0,7.2380954E-1,0E0,0E0,1.3333334E0,1.5093555E0,0E0,0E0,0E0,0E0,3.9999998E-1,0E0,7.2380954E-1,1.5284271E0,0E0,0E0,0E0,0E0,7.2380954E-1,0E0,0E0,0E0,0E0,0E0,4E-1,0E0,4E-1,0E0,0E0,0E0,9.3421936E-2,4E-1,0E0,0E0,0E0,0E0,0E0,0E0,0E0,0E0,0E0,0E0],"parents":[2147483647,0,0,1,1,2,2,3,3,4,4,5,5,6,6,7,7,8,8,9,9,10,10,11,11,12,12,14,14,15,15,16,16,18,18,19,19,20,20,22,22,23,23,26,26,27,27,32,32,34,34,35,35,36,36,37,37,38,38,39,39,40,40,43,43,44,44,52,52,53,53,54,54,56,56,57,57,59,59,60,60,62,62,65,65,66,66,68,68,71,71,72,72,77,77,79,79,80,80,85,85,91,91,93,93,97,97,98,98],"right_children":[2,4,6,8,10,12,14,16,18,20,22,24,26,-1,28,30,32,-1,34,36,38,-1,40,42,-1,-1,44,46,-1,-1,-1,-1,48,-1,50,52,54,56,58,60,62,-1,-1,64,66,-1,-1,-1,-1,-1,-1,-1,68,70,72,-1,74,76,-1,78,80,-1,82,-1,-1,84,86,-1,88,-1,-1,90,92,-1,-1,-1,-1,94,-1,96,98,-1,-1,-1,-1,100,-1,-1,-1,-1,-1,102,-1,104,-1,-1,-1,106,108,-1,-1,-1,-1,-1,-1,-1,-1,-1,-1],"split_conditions":[-2.5619507E-2,-1.4890474E-2,4.1625977E-2,2.8381348E-3,-3.265381E-2,-5.4624017E-2,7.0663053E-3,2.1934468E-2,2.3062425E-2,2.7800122E-1,-2.697599E-2,9.0606436E-2,-4.2131294E-2,-1.0997202E-1,9.0606436E-2,7.0663053E-3,2.7800122E-1,1.3704206E-1,2.3062425E-2,1.4005959E-1,2.3062425E-2,-9.897482E-2,-9.216309E-3,6.00139E-1,1.413926E-1,8.483556E-2,6.174815E-1,6.1165315E-1,1.6627769E-1,3.9589927E-2,-1.6862376E-1,9.897482E-2,1.4005959E-1,6.598321E-2,9.7375554E-1,9.0606436E-2,9.922116E-1,2.3062425E-2,8.599404E-1,-5.0806727E-2,7.6722866E-1,-0E0,-9.897482E-2,2.3062425E-2,-1.4144897E-2,3.9589927E-2,-8.483556E-2,3.9589927E-2,-1.1876979E-1,3.9589927E-2,-1.2596795E-1,-1.0997202E-1,-7.4585155E-4,1.4005959E-1,7.0663053E-3,1.2596795E-1,2.4639782E-2,7.7884407E-3,-1.5627603E-1,7.0663053E-3,-2.142334E-2,6.598321E-2,2.3062425E-2,-6.598321E-2,6.598321E-2,2.3277134E-1,-2.2021003E-2,9.897482E-2,6.1165315E-1,6.598321E-2,-9.897482E-2,6.1165315E-1,8.599404E-1,6.598321E-2,-1.1876979E-1,8.483556E-2,-6.598321E-2,2.3062425E-2,-9.897482E-2,9.7375554E-1,5.5227544E-2,3.9589927E-2,-1.1876979E-1,-6.598321E-2,3.9589927E-2,9.0606436E-2,-1.8310341E-1,3.9589927E-2,-6.598321E-2,-6.598321E-2,6.598321E-2,9.7375554E-1,1.7654967E-1,6.1165315E-1,9.897482E-2,3.9589927E-2,-6.598321E-2,-7.3319614E-2,6.1165315E-1,-6.598321E-2,3.9589927E-2,3.9589927E-2,-3.9589927E-2,3.9589927E-2,-3.9589927E-2,4.948741E-2,1.7625652E-1,-3.9589927E-2,3.9589927E-2],"split_indices":[1110,2576,315,814,840,2662,238,2602,189,148,2334,11,2764,0,38,172,68,0,28,137,101,0,1297,27,0,0,64,1,0,0,0,0,53,0,21,94,61,28,171,2516,72,0,0,2,258,0,0,0,0,0,0,0,2311,53,152,0,2309,43,0,242,330,0,78,0,0,5,2334,0,1,0,0,1,111,0,0,0,0,40,0,21,2365,0,0,0,0,11,0,0,0,0,0,21,0,1,0,0,0,2324,1,0,0,0,0,0,0,0,0,0,0],"split_type":[0,0,0,0,0,0,0,0,0,0,0,0,0,0,0,0,0,0,0,0,0,0,0,0,0,0,0,0,0,0,0,0,0,0,0,0,0,0,0,0,0,0,0,0,0,0,0,0,0,0,0,0,0,0,0,0,0,0,0,0,0,0,0,0,0,0,0,0,0,0,0,0,0,0,0,0,0,0,0,0,0,0,0,0,0,0,0,0,0,0,0,0,0,0,0,0,0,0,0,0,0,0,0,0,0,0,0,0,0],"sum_hessian":[1.3375E2,8E1,5.375E1,1.35E1,6.65E1,4.625E1,7.5E0,8.75E0,4.75E0,2.3E1,4.35E1,4E0,4.225E1,1.25E0,6.25E0,6E0,2.75E0,2.25E0,2.5E0,1.425E1,8.75E0,1E0,4.25E1,1.5E0,2.5E0,7.5E-1,4.15E1,1E0,5.25E0,2.5E-1,5.75E0,1E0,1.75E0,5E-1,2E0,3E0,1.125E1,3.75E0,5E0,4.025E1,2.25E0,5E-1,1E0,1E0,4.05E1,2.5E-1,7.5E-1,2.5E-1,1.5E0,2.5E-1,1.75E0,1.25E0,1.75E0,1.5E0,9.75E0,1.75E0,2E0,1.25E0,3.75E0,2.5E0,3.775E1,5E-1,1.75E0,5E-1,5E-1,7.5E-1,3.975E1,1E0,7.5E-1,5E-1,1E0,1E0,8.75E0,5E-1,1.5E0,7.5E-1,5E-1,1.5E0,1E0,7.5E-1,3.7E1,2.5E-1,1.5E0,5E-1,2.5E-1,7.5E-1,3.9E1,2.5E-1,5E-1,5E-1,5E-1,5E-1,8.25E0,5E-1,1E0,2.5E-1,5E-1,3.65E1,5E-1,5E-1,2.5E-1,2.5E-1,2.5E-1,2.5E-1,2.5E-1,1E0,3.55E1,2.5E-1,2.5E-1],"tree_param":{"num_deleted":"0","num_feature":"3072","num_nodes":"109","size_leaf_vector":"0"}},{"base_weights":[-4.8321937E-3,4.6937114E-1,-1.3473988E0,-8.106257E-1,7.4722874E-1,4.675018E-1,-1.6539681E0,2.9629254E-1,-1.5352733E0,-9.814951E-1,8.740037E-1,-7.618528E-1,1.0481161E0,6.2326524E-2,-1.7119045E0,-8.769373E-1,1.0416969E0,3.765073E-2,-1.6119848E0,-1.3750831E0,8.059863E-2,4.2575762E-1,1.3781013E0,3.8809393E-2,-1.05369955E-1,-6.127487E-2,1.3969335E-1,-1.7538673E-1,-8.043479E-1,6.103879E-2,-1.2832426E-1,-6.352711E-2,1.3391503E0,-1.1184313E-2,-1.66819E-1,3.8809393E-2,-1.5187712E-1,-3.4958073E-1,8.2547224E-1,-6.291965E-1,1.5111265E0,-1.2058839E-1,3.652735E-1,3.2926342E-3,1.4716482E-1,3.6356054E-2,-3.765073E-2,9.721991E-1,-9.350639E-1,-5.9854144E-1,1.0771489E0,6.0952175E-2,-1.11284986E-1,1.5556678E0,2.4691185E-3,-3.6035568E-2,7.220788E-2,3.765073E-2,-3.7267867E-2,1.2406981E0,-2.7355453E-1,6.474983E-1,-1.3478822E0,-1.3433623E-1,7.042989E-1,1.476486E-1,1.3024619E0,-8.349603E-3,1.5792924E0,-6.341465E-2,6.372902E-2,-3.6547177E-2,1.4079571E-1,3.616025E-2,-6.1691843E-2,-2.7338496E-1,1.0638166E-1,-1.5364854E0,6.395497E-2,1.01438E-1,-4.3136574E-2,-4.2989483E-1,1.1161011E-1,-2.5680365E-2,1.4519103E0,3.6165826E-2,-3.7129067E-2,6.9373995E-1,1.6343519E-1,3.616025E-2,-6.1674718E-2,-4.0620614E-2,-1.61134E-1,6.033863E-2,-7.045577E-2,6.315899E-2,-8.557709E-2,1.4794295E-1,-1.3061312E-3,1.2098968E-1,-3.1685133E-2],"categories":[],"categories_nodes":[],"categories_segments":[],"categories_sizes":[],"default_left":[false,false,false,false,false,false,false,false,false,false,false,false,false,false,false,false,false,false,false,false,false,false,false,false,false,false,false,false,false,false,false,false,false,false,false,false,false,false,false,false,false,false,false,false,false,false,false,false,false,false,false,false,false,false,false,false,false,false,false,false,false,false,false,false,false,false,false,false,false,false,false,false,false,false,false,false,false,false,false,false,false,false,false,false,false,false,false,false,false,false,false,false,false,false,false,false,false,false,false,false,false],"id":1,"left_children":[1,3,5,7,9,11,13,15,17,19,21,23,25,-1,27,29,31,-1,33,35,-1,37,39,-1,-1,-1,-1,-1,41,-1,-1,-1,43,45,-1,-1,-1,47,49,51,53,-1,55,57,-1,-1,-1,59,61,63,65,-1,-1,67,69,-1,-1,-1,-1,71,73,75,77,-1,79,81,83,85,87,-1,-1,-1,-1,-1,-1,89,-1,91,-1,-1,-1,93,-1,95,97,-1,-1,99,-1,-1,-1,-1,-1,-1,-1,-1,-1,-1,-1,-1,-1],"loss_changes":[8.778601E1,3.6848724E1,2.0797653E1,1.5418738E1,1.9321785E1,5.0672293E0,5.1808167E0,8.101323E0,2.2938137E0,5.521318E0,1.726904E1,1.2900251E0,3.5889845E0,0E0,2.3968506E-1,3.1411161E0,3.6052737E0,0E0,1.2970943E0,2.1454859E0,0E0,1.3700161E1,1.0762955E1,0E0,0E0,0E0,0E0,0E0,2.249894E0,0E0,0E0,0E0,9.786892E-1,3.4903997E-1,0E0,0E0,0E0,1.2844854E1,1.0984976E1,2.5357542E0,2.331726E0,0E0,7.2892934E-1,3.5788456E-1,0E0,0E0,0E0,2.0870233E0,8.188823E0,5.874914E0,5.0173836E0,0E0,0E0,1.2605438E0,1.2369602E0,0E0,0E0,0E0,0E0,1.836565E0,6.178358E-1,1.4714041E0,4.4551373E0,0E0,1.3567257E0,3.8701935E0,3.986103E0,3.4230816E-1,9.74823E-1,0E0,0E0,0E0,0E0,0E0,0E0,6.176416E-1,0E0,2.2937393E-1,0E0,0E0,0E0,1.7492673E0,0E0,2.2195845E0,1.14328E0,0E0,0E0,2.6560938E0,0E0,0E0,0E0,0E0,0E0,0E0,0E0,0E0,0E0,0E0,0E0,0E0,0E0],"parents":[2147483647,0,0,1,1,2,2,3,3,4,4,5,5,6,6,7,7,8,8,9,9,10,10,11,11,12,12,14,14,15,15,16,16,18,18,19,19,21,21,22,22,28,28,32,32,33,33,37,37,38,38,39,39,40,40,42,42,43,43,47,47,48,48,49,49,50,50,53,53,54,54,59,59,60,60,61,61,62,62,64,64,65,65,66,66,67,67,68,68,75,75,77,77,81,81,83,83,84,84,87,87],"right_children":[2,4,6,8,10,12,14,16,18,20,22,24,26,-1,28,30,32,-1,34,36,-1,38,40,-1,-1,-1,-1,-1,42,-1,-1,-1,44,46,-1,-1,-1,48,50,52,54,-1,56,58,-1,-1,-1,60,62,64,66,-1,-1,68,70,-1,-1,-1,-1,72,74,76,78,-1,80,82,84,86,88,-1,-1,-1,-1,-1,-1,90,-1,92,-1,-1,-1,94,-1,96,98,-1,-1,100,-1,-1,-1,-1,-1,-1,-1,-1,-1,-1,-1,-1,-1],"split_conditions":[-1.4541626E-2,-4.626164E-2,-3.800172E-2,-3.0155182E-3,3.6346436E-2,6.1447293E-2,-2.6056789E-2,2.3062425E-2,3.82462E-1,-4.217091E-3,4.1137695E-2,2.6244482E-2,7.0663053E-3,6.2326524E-2,1.826477E-2,2.7800122E-1,7.0663053E-3,3.765073E-2,2.3062425E-2,4.6665665E-2,8.059863E-2,9.769376E-1,-1.3918752E-2,3.8809393E-2,-1.05369955E-1,-6.127487E-2,1.3969335E-1,-1.7538673E-1,2.3062425E-2,6.103879E-2,-1.2832426E-1,-6.352711E-2,7.0663053E-3,6.1165315E-1,-1.66819E-1,3.8809393E-2,-1.5187712E-1,9.0606436E-2,2.3277134E-1,6.1447293E-2,8.163649E-3,-1.2058839E-1,7.0663053E-3,4.6665665E-2,1.4716482E-1,3.6356054E-2,-3.765073E-2,3.825185E-1,2.6244482E-2,1.0226389E-2,-4.755071E-2,6.0952175E-2,-1.11284986E-1,7.0663053E-3,2.7800122E-1,-3.6035568E-2,7.220788E-2,3.765073E-2,-3.7267867E-2,2.3062425E-2,6.1165315E-1,-2.0287246E-2,3.5957225E-2,-1.3433623E-1,4.6665665E-2,7.7884407E-3,1E0,2.3062425E-2,3.825185E-1,-6.341465E-2,6.372902E-2,-3.6547177E-2,1.4079571E-1,3.616025E-2,-6.1691843E-2,6.1447293E-2,1.0638166E-1,4.667629E-1,6.395497E-2,1.01438E-1,-4.3136574E-2,1.1385426E-2,1.1161011E-1,-9.080039E-3,8.5632324E-2,3.6165826E-2,-3.7129067E-2,6.1447293E-2,1.6343519E-1,3.616025E-2,-6.1674718E-2,-4.0620614E-2,-1.61134E-1,6.033863E-2,-7.045577E-2,6.315899E-2,-8.557709E-2,1.4794295E-1,-1.3061312E-3,1.2098968E-1,-3.1685133E-2],"split_indices":[1110,2706,2643,875,1281,51,2347,3,178,2307,780,6,238,0,266,35,66,0,3,7,0,215,2948,0,0,0,0,0,101,0,0,0,201,1,0,0,0,127,176,0,2347,0,20,7,0,0,0,159,209,2644,2307,0,0,172,35,0,0,0,0,22,1,2308,2360,0,7,52,10,3,226,0,0,0,0,0,0,0,0,36,0,0,0,256,0,2308,261,0,0,51,0,0,0,0,0,0,0,0,0,0,0,0,0],"split_type":[0,0,0,0,0,0,0,0,0,0,0,0,0,0,0,0,0,0,0,0,0,0,0,0,0,0,0,0,0,0,0,0,0,0,0,0,0,0,0,0,0,0,0,0,0,0,0,0,0,0,0,0,0,0,0,0,0,0,0,0,0,0,0,0,0,0,0,0,0,0,0,0,0,0,0,0,0,0,0,0,0,0,0,0,0,0,0,0,0,0,0,0,0,0,0,0,0,0,0,0,0],"sum_hessian":[1.3589413E2,1.0090442E2,3.498971E1,1.7655241E1,8.324918E1,4.980434E0,3.0009277E1,7.21906E0,1.043618E1,5.227269E0,7.802191E1,1.4975245E0,3.4829094E0,4.9830538E-1,2.9510971E1,2.7361054E0,4.4829545E0,2.4938875E-1,1.0186791E1,4.4797444E0,7.475245E-1,4.2275192E1,3.574672E1,2.4990207E-1,1.2476225E0,4.971619E-1,2.9857476E0,2.6783894E1,2.7270784E0,4.9703455E-1,2.239071E0,4.992788E-1,3.9836757E0,4.9766868E-1,9.689123E0,2.4990207E-1,4.2298427E0,1.4423305E1,2.7851889E1,1.9899079E0,3.375681E1,1.9833298E0,7.4374866E-1,4.985092E-1,3.4851665E0,2.4827991E-1,2.4938875E-1,4.2248425E0,1.0198462E1,3.976156E0,2.3875732E1,4.9689823E-1,1.4930096E0,3.2758495E1,9.983133E-1,2.4791622E-1,4.9583244E-1,2.4938875E-1,2.4912044E-1,3.4790552E0,7.4578744E-1,1.992317E0,8.206144E0,2.4863796E0,1.4897764E0,4.9813023E0,1.889443E1,4.9707922E-1,3.2261417E1,4.9902248E-1,4.9929082E-1,2.4847978E-1,3.2305756E0,2.4806197E-1,4.9772546E-1,7.45682E-1,1.246635E0,7.7066917E0,4.9945277E-1,1.241708E0,2.4806836E-1,3.4874237E0,1.4938785E0,1.9948076E0,1.6899624E1,2.4806836E-1,2.4901086E-1,3.2251003E0,2.9036318E1,2.4806197E-1,4.9762E-1,9.916649E-1,6.715027E0,4.9613672E-1,2.9912868E0,1.2472831E0,7.475245E-1,1.6399818E1,4.9980414E-1,1.9845469E0,1.2405534E0],"tree_param":{"num_deleted":"0","num_feature":"3072","num_nodes":"101","size_leaf_vector":"0"}},{"base_weights":[-3.631964E-2,4.3215907E-1,-1.30342E0,-7.847789E-1,7.0168525E-1,3.7102038E-1,-1.5654806E0,-1.4830302E-1,2.2347394E-1,1.3572972E-1,1.1160256E0,8.333504E-1,-8.966305E-2,-1.576567E-1,3.6721725E-2,-1.0542245E-1,6.526772E-1,-8.171969E-1,5.648781E-1,-7.1375245E-1,1.1926076E0,1.099839E0,-2.4836436E-1,-5.5659425E-1,1.2486565E0,-1.2525291E0,-5.859114E-2,1.2520487E0,-7.237434E-3,3.8835037E-2,-1.0027298E-1,-6.307881E-2,1.3249497E0,-3.626127E-2,1.2837885E-1,3.6865044E-2,-5.9470423E-2,-9.638918E-2,2.940699E-1,-3.888111E-2,1.4052622E-1,-1.7035316E-1,-1.350361E0,-9.674568E-2,4.7542515E-1,-2.958928E-1,1.4734237E0,-1.0241165E0,4.0197065E-1,4.8909318E-1,-1.0092182E-1,5.6306046E-1,1.4706817E0,-3.6551736E-2,6.437912E-2,-5.7440925E-2,4.526976E-2,-3.8595304E-1,-1.4390546E-1,-8.428217E-2,1.1852559E-1,-9.109444E-2,6.2297877E-2,-1.851286E-2,1.5360492E-1,5.8151476E-2,-1.358945E-1,-5.7651156E-1,1.0235589E0,-3.5846174E-1,1.1297798E-1,1.1747279E0,-1.3369909E-1,1.550585E-1,6.8199176E-1,4.0288344E-2,-7.277895E-2,3.311712E-2,-3.5203394E-2,2.601082E-1,-1.20519854E-1,2.4506485E-1,1.3664846E-1,-7.9784885E-2,2.9341525E-1,-3.3525117E-2,1.3299109E-1,9.104937E-2,-6.639191E-1,-9.338916E-2,1.143466E0,-4.5434583E-2,8.4526375E-2,8.728386E-2,-3.598911E-2,-3.7436392E-2,6.5046795E-2,3.9181467E-2,-1.1776097E-1,-4.2258482E-2,1.3154438E-1],"categories":[],"categories_nodes":[],"categories_segments":[],"categories_sizes":[],"default_left":[false,false,false,false,false,false,false,false,false,false,false,false,false,false,false,false,false,false,false,false,false,false,false,false,false,false,false,false,false,false,false,false,false,false,false,false,false,false,false,false,false,false,false,false,false,false,false,false,false,false,false,false,false,false,false,false,false,false,false,false,false,false,false,false,false,false,false,false,false,false,false,false,false,false,false,false,false,false,false,false,false,false,false,false,false,false,false,false,false,false,false,false,false,false,false,false,false,false,false,false,false],"id":2,"left_children":[1,3,5,7,9,11,13,-1,15,17,19,21,-1,-1,-1,-1,23,25,27,29,31,33,35,37,39,41,43,45,47,-1,-1,49,51,-1,-1,-1,-1,-1,53,-1,-1,55,57,-1,59,61,63,65,67,69,-1,71,73,-1,-1,-1,-1,75,-1,-1,-1,-1,-1,77,-1,-1,-1,79,81,83,-1,85,87,-1,89,-1,-1,-1,-1,91,-1,93,-1,-1,95,-1,-1,-1,97,-1,99,-1,-1,-1,-1,-1,-1,-1,-1,-1,-1],"loss_changes":[7.924785E1,3.2538292E1,1.6390308E1,1.3397537E1,1.8694923E1,4.1106105E0,2.255127E0,0E0,5.3380036E0,1.48189E1,7.3337135E0,1.6262665E0,0E0,0E0,0E0,0E0,5.680185E0,3.6617203E0,9.758112E0,1.2200524E0,7.5246468E0,1.6176782E0,6.0537916E-1,1.3425131E0,1.9462276E0,5.255804E-1,3.0030844E0,4.298561E0,6.4561567E0,0E0,0E0,3.2579708E0,3.674614E0,0E0,0E0,0E0,0E0,0E0,6.5329856E-1,0E0,0E0,7.122782E-1,7.838249E-2,0E0,4.799363E0,1.8754903E0,1.2038078E0,3.3090148E0,7.326647E0,2.6142154E0,0E0,3.6227112E0,1.4611053E0,0E0,0E0,0E0,0E0,8.485302E-1,0E0,0E0,0E0,0E0,0E0,2.9637617E-1,0E0,0E0,0E0,2.9679341E0,1.6446667E0,9.647502E-1,0E0,1.5885739E0,3.2360277E0,0E0,5.127032E0,0E0,0E0,0E0,0E0,1.659881E0,0E0,1.6614174E0,0E0,0E0,6.75972E-1,0E0,0E0,0E0,2.5370097E0,0E0,1.9243598E0,0E0,0E0,0E0,0E0,0E0,0E0,0E0,0E0,0E0,0E0],"parents":[2147483647,0,0,1,1,2,2,3,3,4,4,5,5,6,6,8,8,9,9,10,10,11,11,16,16,17,17,18,18,19,19,20,20,21,21,22,22,23,23,24,24,25,25,26,26,27,27,28,28,31,31,32,32,38,38,41,41,42,42,44,44,45,45,46,46,47,47,48,48,49,49,51,51,52,52,57,57,63,63,67,67,68,68,69,69,71,71,72,72,74,74,79,79,81,81,84,84,88,88,90,90],"right_children":[2,4,6,8,10,12,14,-1,16,18,20,22,-1,-1,-1,-1,24,26,28,30,32,34,36,38,40,42,44,46,48,-1,-1,50,52,-1,-1,-1,-1,-1,54,-1,-1,56,58,-1,60,62,64,66,68,70,-1,72,74,-1,-1,-1,-1,76,-1,-1,-1,-1,-1,78,-1,-1,-1,80,82,84,-1,86,88,-1,90,-1,-1,-1,-1,92,-1,94,-1,-1,96,-1,-1,-1,98,-1,100,-1,-1,-1,-1,-1,-1,-1,-1,-1,-1],"split_conditions":[-1.4541626E-2,-4.626164E-2,-3.800172E-2,2.1377563E-2,-2.4002075E-2,2.3062425E-2,2.6342534E-3,-1.4830302E-1,9.0606436E-2,-3.8561836E-2,-4.814148E-3,2.7800122E-1,-8.966305E-2,-1.576567E-1,3.6721725E-2,-1.0542245E-1,6.1838603E-1,9.769376E-1,7.7884407E-3,3.825185E-1,-2.6672421E-2,7.7884407E-3,2.6244482E-2,7.0663053E-3,6.0455322E-2,3.81614E-1,3.1717878E-2,3.82462E-1,7.7884407E-3,3.8835037E-2,-1.0027298E-1,3.8834685E-1,-1.2933221E-2,-3.626127E-2,1.2837885E-1,3.6865044E-2,-5.9470423E-2,-9.638918E-2,7.7884407E-3,-3.888111E-2,1.4052622E-1,9.0606436E-2,7.0663053E-3,-9.674568E-2,7.7884407E-3,4.6665665E-2,6.1165315E-1,2.6244482E-2,9.3855274E-1,2.3277134E-1,-1.0092182E-1,2.3062425E-2,2.9672125E-2,-3.6551736E-2,6.437912E-2,-5.7440925E-2,4.526976E-2,2.3062425E-2,-1.4390546E-1,-8.428217E-2,1.1852559E-1,-9.109444E-2,6.2297877E-2,9.0606436E-2,1.5360492E-1,5.8151476E-2,-1.358945E-1,7.7884407E-3,9.0606436E-2,6.174815E-1,1.1297798E-1,9.0606436E-2,7.7884407E-3,1.550585E-1,8.599404E-1,4.0288344E-2,-7.277895E-2,3.311712E-2,-3.5203394E-2,9.0606436E-2,-1.20519854E-1,2.7800122E-1,1.3664846E-1,-7.9784885E-2,7.6722866E-1,-3.3525117E-2,1.3299109E-1,9.104937E-2,2.6244482E-2,-9.338916E-2,7.0663053E-3,-4.5434583E-2,8.4526375E-2,8.728386E-2,-3.598911E-2,-3.7436392E-2,6.5046795E-2,3.9181467E-2,-1.1776097E-1,-4.2258482E-2,1.3154438E-1],"split_indices":[1110,2706,2643,638,279,99,2305,0,38,2643,765,196,0,0,0,0,161,35,164,130,2919,174,6,20,257,255,1281,153,225,0,0,252,2995,0,0,0,0,0,76,0,0,11,201,0,215,56,106,83,67,190,0,28,2460,0,0,0,0,2,0,0,0,0,0,11,0,0,0,131,38,13,0,133,131,0,149,0,0,0,0,38,0,68,0,0,72,0,0,0,4,0,37,0,0,0,0,0,0,0,0,0,0],"split_type":[0,0,0,0,0,0,0,0,0,0,0,0,0,0,0,0,0,0,0,0,0,0,0,0,0,0,0,0,0,0,0,0,0,0,0,0,0,0,0,0,0,0,0,0,0,0,0,0,0,0,0,0,0,0,0,0,0,0,0,0,0,0,0,0,0,0,0,0,0,0,0,0,0,0,0,0,0,0,0,0,0,0,0,0,0,0,0,0,0,0,0,0,0,0,0,0,0,0,0,0,0],"sum_hessian":[1.3155273E2,9.652424E1,3.502849E1,1.7155178E1,7.9369064E1,4.6840305E0,3.034446E1,9.760704E0,7.3944745E0,3.410794E1,4.5261124E1,3.6939702E0,9.900602E-1,3.0095808E1,2.4865133E-1,1.4773316E0,5.917143E0,1.0310091E1,2.379785E1,1.4839901E0,4.3777134E1,2.9503694E0,7.4360085E-1,1.9752822E0,3.9418607E0,6.137145E0,4.172946E0,1.027184E1,1.3526009E1,2.4990842E-1,1.2340816E0,4.223848E0,3.9553284E1,2.481761E-1,2.7021933E0,2.4878432E-1,4.948165E-1,1.2280415E0,7.4724066E-1,2.4991931E-1,3.6919415E0,7.3609066E-1,5.4010544E0,1.2285472E0,2.944399E0,1.2430855E0,9.028755E0,3.45003E0,1.0075979E1,2.987876E0,1.2359718E0,7.1317973E0,3.2421486E1,2.484844E-1,4.987563E-1,4.909241E-1,2.4516658E-1,9.822957E-1,4.418759E0,9.744493E-1,1.9699497E0,7.453821E-1,4.9770343E-1,4.8972818E-1,8.539027E0,4.9225622E-1,2.957774E0,3.9424427E0,6.133536E0,1.4955121E0,1.4923637E0,3.432503E0,3.6992943E0,2.8025122E1,4.3963647E0,2.4992274E-1,7.3237294E-1,2.4292456E-1,2.4680363E-1,1.9683715E0,1.9740711E0,2.4589393E0,3.6745968E0,7.463692E-1,7.49143E-1,2.438074E-1,3.1886957E0,9.923549E-1,2.7069395E0,7.411096E-1,3.6552553E0,9.930125E-1,9.75359E-1,9.8235416E-1,1.476585E0,2.4924463E-1,4.9989834E-1,9.7974527E-1,1.7271942E0,2.488957E-1,3.4063597E0],"tree_param":{"num_deleted":"0","num_feature":"3072","num_nodes":"101","size_leaf_vector":"0"}},{"base_weights":[2.7030017E-2,4.2803785E-1,-1.1680166E0,5.5571926E-1,-1.3592659E-1,-1.3420575E0,6.020665E-1,-7.502142E-1,6.901685E-1,6.987717E-2,-1.4148861E0,1.0558488E-1,-1.9088103E-1,2.9686136E-2,-1.3226119E-1,-2.3157342E-1,8.790126E-1,-1.4789832E0,-5.5485946E-1,5.487699E-2,-7.1349025E-2,9.843097E-2,-5.5769664E-1,9.1532424E-2,-3.9590907E-1,4.3283466E-1,1.2477291E0,-6.5205765E-1,-1.5248182E-1,2.1863195E-1,-1.01660214E-1,6.231578E-2,-9.377629E-1,5.225413E-1,-6.313426E-1,5.706177E-1,-9.498742E-1,3.1558786E-2,1.3205113E0,-1.05673395E-1,4.1939768E-1,6.505783E-2,-2.7926747E-2,6.0408857E-2,-1.1280558E-1,-4.3113667E-1,1.0573483E-1,4.5775406E-2,-1.0113657E0,1.7829534E-2,7.912493E-1,3.7149172E-2,-1.15961455E-1,7.878025E-2,-6.4690703E-1,1.3589488E0,-2.3200074E-1,-3.2443248E-2,7.52371E-2,-3.195574E-2,3.883174E-2,3.0348148E-2,-7.023529E-2,9.191823E-2,-4.5746875E-1,-8.936476E-2,-1.3606437E-1,-5.2772397E-1,7.600296E-1,-1.7506354E-1,9.303233E-1,3.8075425E-2,-9.5909856E-2,1.39893E0,-2.4307637E-2,-5.508474E-2,3.3815365E-2,1.8202733E-2,-8.035239E-2,-8.526056E-2,6.286146E-2,6.245191E-2,-9.191492E-2,-5.9804235E-2,1.0591341E-1,-9.9461466E-2,6.4606756E-2,-1.5894864E-2,1.0637784E-1,8.127202E-2,1.4606275E-1,-2.7942939E-2,3.5030734E-2],"categories":[],"categories_nodes":[],"categories_segments":[],"categories_sizes":[],"default_left":[false,false,false,false,false,false,false,false,false,false,false,false,false,false,false,false,false,false,false,false,false,false,false,false,false,false,false,false,false,false,false,false,false,false,false,false,false,false,false,false,false,false,false,false,false,false,false,false,false,false,false,false,false,false,false,false,false,false,false,false,false,false,false,false,false,false,false,false,false,false,false,false,false,false,false,false,false,false,false,false,false,false,false,false,false,false,false,false,false,false,false,false,false],"id":3,"left_children":[1,3,5,7,-1,9,11,13,15,-1,17,-1,19,21,-1,23,25,27,29,-1,-1,-1,31,-1,33,35,37,39,-1,41,-1,-1,43,45,47,49,51,53,55,-1,57,-1,-1,59,-1,61,-1,63,65,67,69,-1,-1,-1,71,73,75,-1,-1,-1,-1,-1,-1,-1,77,79,-1,81,83,85,87,-1,-1,89,91,-1,-1,-1,-1,-1,-1,-1,-1,-1,-1,-1,-1,-1,-1,-1,-1,-1,-1],"loss_changes":[6.373371E1,2.3655378E1,1.1103825E1,1.6961727E1,0E0,5.5838127E0,1.5605069E0,4.254605E0,1.5074493E1,0E0,8.3400345E-1,0E0,1.2722422E0,3.3512058E0,0E0,3.2771811E0,1.1159206E1,3.8842773E-1,1.5697082E0,0E0,0E0,0E0,2.26369E0,0E0,3.3815424E0,6.9639373E0,3.3578682E0,2.0641475E0,0E0,6.732847E-1,0E0,0E0,7.161269E-1,2.244073E0,3.0533519E0,3.8007069E0,1.4476836E0,2.1709406E0,2.4762611E0,0E0,6.9028205E-1,0E0,0E0,3.1623113E-1,0E0,6.202258E-1,0E0,2.7165277E0,2.3993855E0,4.428245E0,3.1641436E0,0E0,0E0,0E0,1.1182522E0,1.9964142E0,5.120731E-1,0E0,0E0,0E0,0E0,0E0,0E0,0E0,1.0482793E0,2.3358335E0,0E0,3.5232887E0,2.6023767E0,3.1643906E0,3.2745628E0,0E0,0E0,3.1983185E-1,2.9313147E-1,0E0,0E0,0E0,0E0,0E0,0E0,0E0,0E0,0E0,0E0,0E0,0E0,0E0,0E0,0E0,0E0,0E0,0E0],"parents":[2147483647,0,0,1,1,2,2,3,3,5,5,6,6,7,7,8,8,10,10,12,12,13,13,15,15,16,16,17,17,18,18,22,22,24,24,25,25,26,26,27,27,29,29,32,32,33,33,34,34,35,35,36,36,37,37,38,38,40,40,43,43,45,45,47,47,48,48,49,49,50,50,54,54,55,55,56,56,64,64,65,65,67,67,68,68,69,69,70,70,73,73,74,74],"right_children":[2,4,6,8,-1,10,12,14,16,-1,18,-1,20,22,-1,24,26,28,30,-1,-1,-1,32,-1,34,36,38,40,-1,42,-1,-1,44,46,48,50,52,54,56,-1,58,-1,-1,60,-1,62,-1,64,66,68,70,-1,-1,-1,72,74,76,-1,-1,-1,-1,-1,-1,-1,78,80,-1,82,84,86,88,-1,-1,90,92,-1,-1,-1,-1,-1,-1,-1,-1,-1,-1,-1,-1,-1,-1,-1,-1,-1,-1],"split_conditions":[-3.2348633E-2,4.1648775E-2,6.9298698E-3,1.5007019E-2,-1.3592659E-1,-2.0808263E-2,2.3277134E-1,7.7552795E-3,-2.289458E-2,6.987717E-2,5.2719126E-3,1.0558488E-1,7.0663053E-3,2.6244482E-2,-1.3226119E-1,9.74681E-3,-4.864502E-2,-5.982044E-2,9.769376E-1,5.487699E-2,-7.1349025E-2,9.843097E-2,7.7884407E-3,9.1532424E-2,7.7884407E-3,5.931793E-3,-4.7058105E-2,3.82462E-1,-1.5248182E-1,2.3277134E-1,-1.01660214E-1,6.231578E-2,4.6665665E-2,7.7884407E-3,-1.550293E-2,1E0,1.4005959E-1,2.3062425E-2,-9.216309E-3,-1.05673395E-1,2.3062425E-2,6.505783E-2,-2.7926747E-2,2.3062425E-2,-1.1280558E-1,1.4005959E-1,1.0573483E-1,3.9986098E-1,7.0663053E-3,3.2865754E-3,4.6665665E-2,3.7149172E-2,-1.15961455E-1,7.878025E-2,9.0606436E-2,2.2166202E-2,6.174815E-1,-3.2443248E-2,7.52371E-2,-3.195574E-2,3.883174E-2,3.0348148E-2,-7.023529E-2,9.191823E-2,2.3062425E-2,2.3062425E-2,-1.3606437E-1,4.6665665E-2,7.7884407E-3,2.3277134E-1,1.4005959E-1,3.8075425E-2,-9.5909856E-2,-4.8277523E-2,6.1447293E-2,-5.508474E-2,3.3815365E-2,1.8202733E-2,-8.035239E-2,-8.526056E-2,6.286146E-2,6.245191E-2,-9.191492E-2,-5.9804235E-2,1.0591341E-1,-9.9461466E-2,6.4606756E-2,-1.5894864E-2,1.0637784E-1,8.127202E-2,1.4606275E-1,-2.7942939E-2,3.5030734E-2],"split_indices":[498,2521,2660,261,0,2429,224,346,2604,0,2385,0,65,118,0,2956,1201,326,103,0,0,0,52,0,247,2558,716,178,0,30,0,0,7,93,819,77,88,132,1297,0,40,0,0,3,0,12,0,253,37,2583,113,0,0,0,54,2726,13,0,0,0,0,0,0,0,132,2,0,48,93,224,102,0,0,2719,18,0,0,0,0,0,0,0,0,0,0,0,0,0,0,0,0,0,0],"split_type":[0,0,0,0,0,0,0,0,0,0,0,0,0,0,0,0,0,0,0,0,0,0,0,0,0,0,0,0,0,0,0,0,0,0,0,0,0,0,0,0,0,0,0,0,0,0,0,0,0,0,0,0,0,0,0,0,0,0,0,0,0,0,0,0,0,0,0,0,0,0,0,0,0,0,0,0,0,0,0,0,0,0,0,0,0,0,0,0,0,0,0,0,0],"sum_hessian":[1.3095058E2,9.852988E1,3.24207E1,9.265409E1,5.875786E0,2.9738512E1,2.6821878E0,8.221084E0,8.443301E1,7.226348E-1,2.9015877E1,1.4733609E0,1.208827E0,3.9346821E0,4.2864017E0,1.4318515E1,7.0114494E1,2.6333565E1,2.6823123E0,4.8318553E-1,7.256415E-1,1.2266718E0,2.7080102E0,1.2058421E0,1.3112673E1,3.270843E1,3.740606E1,2.6296678E0,2.3703897E1,1.2204746E0,1.4618376E0,4.9744117E-1,2.2105691E0,2.426635E0,1.0686037E1,3.0278576E1,2.4298558E0,2.19313E0,3.521293E1,1.8972431E0,7.324246E-1,4.8397043E-1,7.365042E-1,4.899835E-1,1.7205856E0,9.5968056E-1,1.4669545E0,4.157617E0,6.52842E0,8.945817E0,2.133276E1,2.4902715E-1,2.1808286E0,9.4982046E-1,1.2433096E0,3.448385E1,7.290808E-1,2.4133238E-1,4.910922E-1,2.4007587E-1,2.4990761E-1,2.3530455E-1,7.24376E-1,1.2024752E0,2.955142E0,2.1977904E0,4.33063E0,5.322495E0,3.6233215E0,2.6514184E0,1.8681341E1,2.4962866E-1,9.9368095E-1,3.3504124E1,9.797238E-1,4.8468238E-1,2.4439846E-1,1.2228884E0,1.7322538E0,9.7244966E-1,1.2253406E0,1.2207745E0,4.1017203E0,4.9532276E-1,3.1279988E0,1.2172531E0,1.4341654E0,2.171652E0,1.650969E1,5.3038177E0,2.8200306E1,7.331817E-1,2.4654208E-1],"tree_param":{"num_deleted":"0","num_feature":"3072","num_nodes":"93","size_leaf_vector":"0"}},{"base_weights":[5.7265535E-3,-8.8608044E-1,5.195849E-1,2.058974E-1,-1.1908591E0,-8.278666E-1,7.070215E-1,-4.1742107E-1,9.779973E-1,-1.3556157E0,1.6996491E-1,6.6735E-2,-1.0084075E0,1.0834427E0,2.9204997E-1,-1.013393E0,4.8153013E-1,-2.903072E-1,1.23518415E-1,7.0460774E-2,-1.4246564E0,-9.011482E-2,7.767741E-1,2.4219388E-1,-1.1344595E0,-6.77919E-1,1.2232966E0,-4.3887076E-1,6.5710604E-1,1.7397815E-1,-1.2836698E-1,-4.1485956E-1,9.9105135E-2,3.0288229E-2,-5.8326684E-2,-1.4588033E-1,-6.7499256E-1,-4.1356046E-2,1.07033506E-1,-2.905092E-2,5.197048E-2,-9.608448E-2,-1.2824875E0,5.4754604E-2,-1.0638944E-1,-6.8282895E-2,1.2838664E0,-8.2155657E-1,8.365956E-1,-7.8656167E-1,8.008691E-1,3.010269E-2,-4.903582E-3,3.0163763E-2,-6.838494E-2,-1.0512471E-1,4.0183997E-1,-5.5348203E-2,5.0436668E-2,5.982849E-2,-6.482538E-2,-1.9600192E-1,-1.3470113E-1,6.4167136E-1,1.3835115E0,5.2316606E-1,-1.0609354E0,-5.1675834E-2,1.0923898E-1,3.0838668E-2,-1.0103335E-1,-5.63775E-1,9.582151E-1,-3.1859767E-2,7.256578E-2,-4.76971E-2,2.9728241E-2,-9.033088E-2,1.004399E0,1.3885236E-1,2.6269224E-1,-3.2716285E-2,7.913645E-2,1.7769167E-1,-1.2723011E0,-9.066605E-2,2.081026E-1,-4.9301106E-2,1.1413046E0,-3.3490264E-1,1.2559451E-1,-2.9682651E-2,5.475118E-2,-4.976768E-2,6.525675E-2,1.3067052E-1,-1.4204034E-1,-5.6017734E-2,3.5279397E-2,-8.607345E-1,7.180111E-1,-3.3932146E-2,1.1827236E0,2.965828E-2,-6.272197E-2,4.969506E-2,-4.0505406E-2,3.1479295E-2,-3.7812896E-2,-6.3081402E-3,-1.0095821E-1,8.9581795E-2,-4.696555E-3,2.4033792E-2,1.2734239E-1],"categories":[],"categories_nodes":[],"categories_segments":[],"categories_sizes":[],"default_left":[false,false,false,false,false,false,false,false,false,false,false,false,false,false,false,false,false,false,false,false,false,false,false,false,false,false,false,false,false,false,false,false,false,false,false,false,false,false,false,false,false,false,false,false,false,false,false,false,false,false,false,false,false,false,false,false,false,false,false,false,false,false,false,false,false,false,false,false,false,false,false,false,false,false,false,false,false,false,false,false,false,false,false,false,false,false,false,false,false,false,false,false,false,false,false,false,false,false,false,false,false,false,false,false,false,false,false,false,false,false,false,false,false,false,false],"id":4,"left_children":[1,3,5,7,9,11,13,15,17,19,21,-1,23,25,27,29,31,33,-1,-1,35,-1,37,39,41,43,45,47,49,51,-1,53,-1,-1,-1,-1,55,57,-1,-1,-1,59,61,-1,-1,-1,63,65,67,69,71,-1,-1,-1,-1,-1,73,-1,-1,-1,-1,75,-1,77,79,81,83,-1,-1,-1,-1,85,87,-1,-1,-1,-1,-1,89,-1,91,-1,-1,93,95,-1,97,99,101,103,-1,-1,-1,-1,-1,105,-1,107,-1,109,111,-1,113,-1,-1,-1,-1,-1,-1,-1,-1,-1,-1,-1,-1],"loss_changes":[5.8391113E1,1.5748146E1,2.1000404E1,5.710297E0,8.428417E0,3.4818273E0,1.0852238E1,4.129286E0,2.149818E0,5.685829E0,3.878791E0,0E0,1.7918653E0,9.973843E0,9.728134E0,1.7102451E0,1.9937351E0,4.883535E-1,0E0,0E0,1.8687439E-1,0E0,9.51293E-1,4.125557E-1,1.2476311E0,2.2438104E0,4.912464E0,6.7317104E0,5.6098604E0,6.545365E-2,0E0,5.980481E-1,0E0,0E0,0E0,0E0,2.0184956E0,8.413575E-1,0E0,0E0,0E0,1.2548512E0,3.9188957E-1,0E0,0E0,0E0,1.2899857E0,3.7836847E0,1.7933006E0,1.006786E0,5.3321114E0,0E0,0E0,0E0,0E0,0E0,6.5210056E-1,0E0,0E0,0E0,0E0,3.8438827E-1,0E0,4.5453935E0,2.530594E-1,7.799729E-1,2.541623E0,0E0,0E0,0E0,0E0,9.8917246E-1,3.815691E0,0E0,0E0,0E0,0E0,0E0,2.4426284E0,0E0,4.464703E-1,0E0,0E0,1.0417075E0,1.9413414E0,0E0,8.795313E-2,3.166168E0,1.4681702E0,5.1802135E-1,0E0,0E0,0E0,0E0,0E0,5.493941E-1,0E0,3.030145E-1,0E0,2.4528193E-1,4.22261E-1,0E0,1.3517456E0,0E0,0E0,0E0,0E0,0E0,0E0,0E0,0E0,0E0,0E0,0E0,0E0],"parents":[2147483647,0,0,1,1,2,2,3,3,4,4,5,5,6,6,7,7,8,8,9,9,10,10,12,12,13,13,14,14,15,15,16,16,17,17,20,20,22,22,23,23,24,24,25,25,26,26,27,27,28,28,29,29,31,31,36,36,37,37,41,41,42,42,46,46,47,47,48,48,49,49,50,50,56,56,61,61,63,63,64,64,65,65,66,66,71,71,72,72,78,78,80,80,83,83,84,84,86,86,87,87,88,88,89,89,95,95,97,97,99,99,100,100,102,102],"right_children":[2,4,6,8,10,12,14,16,18,20,22,-1,24,26,28,30,32,34,-1,-1,36,-1,38,40,42,44,46,48,50,52,-1,54,-1,-1,-1,-1,56,58,-1,-1,-1,60,62,-1,-1,-1,64,66,68,70,72,-1,-1,-1,-1,-1,74,-1,-1,-1,-1,76,-1,78,80,82,84,-1,-1,-1,-1,86,88,-1,-1,-1,-1,-1,90,-1,92,-1,-1,94,96,-1,98,100,102,104,-1,-1,-1,-1,-1,106,-1,108,-1,110,112,-1,114,-1,-1,-1,-1,-1,-1,-1,-1,-1,-1,-1,-1],"split_conditions":[3.616333E-3,-1.15030585E-2,-4.626164E-2,2.6244482E-2,2.313614E-3,-1.4830438E-2,5.6625035E-2,7.0663053E-3,1.4005959E-1,-2.9062418E-2,2.3062425E-2,6.6735E-2,2.3062425E-2,-2.0961761E-3,6.1447293E-2,4.6665665E-2,7.7884407E-3,7.0663053E-3,1.23518415E-1,7.0460774E-2,2.1152496E-3,-9.011482E-2,9.0606436E-2,6.1447293E-2,6.1165315E-1,7.7884407E-3,-2.697599E-2,1.4291115E-2,9.929337E-1,6.1165315E-1,-1.2836698E-1,2.3062425E-2,9.9105135E-2,3.0288229E-2,-5.8326684E-2,-1.4588033E-1,2.3062425E-2,9.109497E-3,1.07033506E-1,-2.905092E-2,5.197048E-2,4.6665665E-2,6.1447293E-2,5.4754604E-2,-1.0638944E-1,-6.8282895E-2,-8.724172E-3,7.7797584E-3,6.174815E-1,2.6244482E-2,1.4005959E-1,3.010269E-2,-4.903582E-3,3.0163763E-2,-6.838494E-2,-1.0512471E-1,7.0663053E-3,-5.5348203E-2,5.0436668E-2,5.982849E-2,-6.482538E-2,2.3062425E-2,-1.3470113E-1,8.599404E-1,-1.1212853E-3,7.7884407E-3,4.6665665E-2,-5.1675834E-2,1.0923898E-1,3.0838668E-2,-1.0103335E-1,7.7884407E-3,2.3277134E-1,-3.1859767E-2,7.256578E-2,-4.76971E-2,2.9728241E-2,-9.033088E-2,9.0606436E-2,1.3885236E-1,2.6244482E-2,-3.2716285E-2,7.913645E-2,3.825185E-1,6.00139E-1,-9.066605E-2,4.8481517E-2,6.1165315E-1,9.929337E-1,6.1447293E-2,1.2559451E-1,-2.9682651E-2,5.475118E-2,-4.976768E-2,6.525675E-2,2.3062425E-2,-1.4204034E-1,6.1165315E-1,3.5279397E-2,1.4005959E-1,2.6244482E-2,-3.3932146E-2,3.82462E-1,2.965828E-2,-6.272197E-2,4.969506E-2,-4.0505406E-2,3.1479295E-2,-3.7812896E-2,-6.3081402E-3,-1.0095821E-1,8.9581795E-2,-4.696555E-3,2.4033792E-2,1.2734239E-1],"split_indices":[796,2572,2706,23,277,431,939,95,12,2983,28,0,28,1283,195,48,76,29,0,0,277,0,109,0,1,44,2334,2628,233,1,0,3,0,0,0,0,101,261,0,0,0,7,0,0,0,0,3031,472,59,23,137,0,0,0,0,0,20,0,0,0,0,2,0,149,262,34,48,0,0,0,0,215,190,0,0,0,0,0,133,0,6,0,0,8,27,0,2304,1,230,0,0,0,0,0,0,3,0,1,0,12,6,0,153,0,0,0,0,0,0,0,0,0,0,0,0],"split_type":[0,0,0,0,0,0,0,0,0,0,0,0,0,0,0,0,0,0,0,0,0,0,0,0,0,0,0,0,0,0,0,0,0,0,0,0,0,0,0,0,0,0,0,0,0,0,0,0,0,0,0,0,0,0,0,0,0,0,0,0,0,0,0,0,0,0,0,0,0,0,0,0,0,0,0,0,0,0,0,0,0,0,0,0,0,0,0,0,0,0,0,0,0,0,0,0,0,0,0,0,0,0,0,0,0,0,0,0,0,0,0,0,0,0,0],"sum_hessian":[1.2541384E2,4.558178E1,7.983206E1,1.0016946E1,3.5564835E1,9.331637E0,7.050043E1,5.796657E0,4.2202888E0,3.1727386E1,3.837446E0,7.078159E-1,8.623821E0,3.6122646E1,3.4377777E1,3.4091852E0,2.3874717E0,7.274795E-1,3.4928095E0,7.2434783E-1,3.100304E1,1.2001283E0,2.6373174E0,7.0526654E-1,7.9185553E0,2.3741808E0,3.3748466E1,1.1383455E1,2.2994322E1,7.317395E-1,2.6774457E0,9.5037806E-1,1.4370937E0,2.3510799E-1,4.923715E-1,2.8185024E1,2.8180156E0,9.5009345E-1,1.687224E0,2.307476E-1,4.7451892E-1,1.1937602E0,6.724795E0,4.8295617E-1,1.8912246E0,7.168044E-1,3.3031662E1,9.030005E0,2.3534496E0,1.6775128E0,2.131681E1,2.3449083E-1,4.972487E-1,2.346954E-1,7.156826E-1,2.08284E0,7.3517567E-1,4.820174E-1,4.6807605E-1,4.9352914E-1,7.00231E-1,6.88619E-1,6.0361757E0,5.4361615E0,2.7595499E1,1.1854067E0,7.8445992E0,2.2980858E-1,2.123641E0,2.3686293E-1,1.4406499E0,1.9367311E0,1.938008E1,2.3981811E-1,4.9535757E-1,4.5541316E-1,2.3320585E-1,7.417114E-1,4.69445E0,2.687872E1,7.1678025E-1,2.4199767E-1,9.4340897E-1,1.1667325E0,6.6778665E0,1.2015657E0,7.3516536E-1,3.0926087E0,1.628747E1,7.304851E-1,3.963965E0,2.3304579E-1,4.8373446E-1,4.652918E-1,7.014408E-1,7.1491283E-1,5.9629536E0,4.8825E-1,2.469154E-1,1.4439147E0,1.648694E0,2.4462758E-1,1.6042843E1,2.3295993E-1,4.9752516E-1,4.6504527E-1,2.4986757E-1,2.3876248E-1,2.494875E-1,4.7376364E-1,9.70151E-1,1.1782918E0,4.7040224E-1,1.9289526E0,1.411389E1],"tree_param":{"num_deleted":"0","num_feature":"3072","num_nodes":"115","size_leaf_vector":"0"}},{"base_weights":[-2.292152E-3,5.3686064E-1,-8.3091515E-1,6.594128E-1,-9.359527E-1,-1.0597348E0,6.173176E-1,7.959875E-1,-4.872952E-1,6.469351E-2,-1.2428946E-1,4.603034E-1,-1.161084E0,-4.4717485E-1,9.871803E-1,-7.944679E-2,9.623574E-1,4.9586192E-1,-1.0919452E0,9.658739E-2,-4.134374E-1,-1.3102264E0,-1.8994772E-1,-8.23597E-2,4.3736152E-2,-2.7529907E-1,1.2082347E-1,8.7993073E-1,-6.361965E-1,3.8915393E-1,1.1757815E0,-5.7124406E-2,9.039753E-1,-2.5608465E-1,-1.1913835E-1,3.2054722E-2,-6.974258E-2,9.073831E-2,-1.331559E0,-9.979851E-1,7.691992E-1,2.939763E-2,-5.5940546E-2,-5.277151E-2,1.1702102E-1,-1.1144255E0,4.2819473E-1,1.2026916E0,-1.8794766E-1,-3.0162463E-1,1.2424581E0,-2.980623E-2,1.0942203E-1,3.6936253E-2,-5.7124406E-2,-2.504971E-2,3.4888178E-2,-4.8031482E-1,-1.3720003E-1,2.9971728E-2,-1.1477865E-1,-4.662204E-2,1.0886671E-1,-3.4037E-1,-1.2816028E-1,-7.406458E-2,9.28923E-2,-1.0648842E-1,1.3067123E-1,4.1905242E-1,-7.2878134E-1,2.7721676E-1,-7.038679E-2,1.3666448E-1,7.7278733E-1,6.4267635E-2,-8.574355E-1,-7.824904E-2,4.8580617E-2,2.9251778E-2,-4.1321874E-2,-7.715601E-2,8.426664E-1,6.486842E-2,-1.050638E0,-3.3258215E-2,5.957421E-2,-3.3997104E-1,1.0406928E0,-4.741812E-3,-9.818186E-2,-5.0579328E-2,1.02601245E-1,-4.093184E-3,-1.2631501E-1,2.559903E-2,-4.8384495E-2,1.0785846E-2,1.2638272E-1],"categories":[],"categories_nodes":[],"categories_segments":[],"categories_sizes":[],"default_left":[false,false,false,false,false,false,false,false,false,false,false,false,false,false,false,false,false,false,false,false,false,false,false,false,false,false,false,false,false,false,false,false,false,false,false,false,false,false,false,false,false,false,false,false,false,false,false,false,false,false,false,false,false,false,false,false,false,false,false,false,false,false,false,false,false,false,false,false,false,false,false,false,false,false,false,false,false,false,false,false,false,false,false,false,false,false,false,false,false,false,false,false,false,false,false,false,false,false,false],"id":5,"left_children":[1,3,5,7,9,11,13,15,17,-1,-1,19,21,23,25,27,29,31,33,-1,35,37,39,-1,-1,41,-1,43,45,47,49,-1,51,53,-1,-1,-1,55,57,59,61,-1,-1,-1,-1,63,65,67,69,71,73,-1,-1,-1,-1,-1,-1,75,-1,-1,-1,-1,-1,77,-1,-1,-1,79,-1,81,83,85,-1,-1,87,-1,89,-1,-1,-1,-1,-1,91,-1,93,-1,-1,95,97,-1,-1,-1,-1,-1,-1,-1,-1,-1,-1],"loss_changes":[5.5690304E1,1.4248455E1,1.6937016E1,1.1398642E1,3.980204E0,7.1279526E0,3.3297703E0,9.281807E0,5.3582296E0,0E0,0E0,1.9312279E0,5.603771E0,1.2506844E0,2.0334253E0,6.444345E0,6.049053E0,2.1741152E0,1.896801E-1,0E0,6.4925796E-1,1.1626282E0,5.843379E0,0E0,0E0,4.5236558E-1,0E0,2.5385168E0,4.3211913E0,7.702762E0,4.143841E0,0E0,1.0916643E0,5.9904546E-1,0E0,0E0,0E0,2.2052749E-1,9.345703E-1,1.1903455E0,1.9781635E0,0E0,0E0,0E0,0E0,3.2585192E-1,2.5417805E0,1.1784868E0,3.6477325E0,7.795588E-1,1.324337E0,0E0,0E0,0E0,0E0,0E0,0E0,2.092781E0,0E0,0E0,0E0,0E0,0E0,1.2840189E0,0E0,0E0,0E0,3.0857435E-1,0E0,3.4150052E0,3.249871E0,5.482318E-1,0E0,0E0,3.5273051E0,0E0,2.9385233E-1,0E0,0E0,0E0,0E0,0E0,1.7098293E0,0E0,1.0967503E0,0E0,0E0,3.777155E-1,1.803379E0,0E0,0E0,0E0,0E0,0E0,0E0,0E0,0E0,0E0,0E0],"parents":[2147483647,0,0,1,1,2,2,3,3,4,4,5,5,6,6,7,7,8,8,11,11,12,12,13,13,14,14,15,15,16,16,17,17,18,18,20,20,21,21,22,22,25,25,27,27,28,28,29,29,30,30,32,32,33,33,37,37,38,38,39,39,40,40,45,45,46,46,47,47,48,48,49,49,50,50,57,57,63,63,67,67,69,69,70,70,71,71,74,74,76,76,82,82,84,84,87,87,88,88],"right_children":[2,4,6,8,10,12,14,16,18,-1,-1,20,22,24,26,28,30,32,34,-1,36,38,40,-1,-1,42,-1,44,46,48,50,-1,52,54,-1,-1,-1,56,58,60,62,-1,-1,-1,-1,64,66,68,70,72,74,-1,-1,-1,-1,-1,-1,76,-1,-1,-1,-1,-1,78,-1,-1,-1,80,-1,82,84,86,-1,-1,88,-1,90,-1,-1,-1,-1,-1,92,-1,94,-1,-1,96,98,-1,-1,-1,-1,-1,-1,-1,-1,-1,-1],"split_conditions":[-2.5619507E-2,-1.4694214E-2,1.4045715E-2,4.8955906E-2,5.0744256E-3,-6.1717857E-2,6.402977E-3,3.8834685E-1,6.1447293E-2,6.469351E-2,-1.2428946E-1,2.3062425E-2,9.303093E-4,7.7884407E-3,6.174815E-1,4.6665665E-2,4.91333E-2,7.0663053E-3,1.4005959E-1,9.658739E-2,7.0663053E-3,3.825185E-1,9.5333433E-1,-8.23597E-2,4.3736152E-2,9.0606436E-2,1.2082347E-1,7.7884407E-3,6.5404266E-2,9.0606436E-2,-5.9010886E-2,-5.7124406E-2,4.6665665E-2,6.1165315E-1,-1.1913835E-1,3.2054722E-2,-6.974258E-2,6.1165315E-1,-8.363487E-3,6.1165315E-1,6.1447293E-2,2.939763E-2,-5.5940546E-2,-5.277151E-2,1.1702102E-1,4.6665665E-2,2.3277134E-1,7.7884407E-3,9.769376E-1,3.8834685E-1,-1.8947725E-3,-2.980623E-2,1.0942203E-1,3.6936253E-2,-5.7124406E-2,-2.504971E-2,3.4888178E-2,8.599404E-1,-1.3720003E-1,2.9971728E-2,-1.1477865E-1,-4.662204E-2,1.0886671E-1,2.6244482E-2,-1.2816028E-1,-7.406458E-2,9.28923E-2,1E0,1.3067123E-1,2.6244482E-2,1.4005959E-1,1.4005959E-1,-7.038679E-2,1.3666448E-1,7.0663053E-3,6.4267635E-2,6.00139E-1,-7.824904E-2,4.8580617E-2,2.9251778E-2,-4.1321874E-2,-7.715601E-2,7.0663053E-3,6.486842E-2,6.1447293E-2,-3.3258215E-2,5.957421E-2,7.7884407E-3,9.7375554E-1,-4.741812E-3,-9.818186E-2,-5.0579328E-2,1.02601245E-1,-4.093184E-3,-1.2631501E-1,2.559903E-2,-4.8384495E-2,1.0785846E-2,1.2638272E-1],"split_indices":[1110,1324,765,2540,2306,2836,2471,56,123,0,0,99,588,34,59,19,870,212,53,0,29,86,222,0,0,15,0,76,2449,216,2974,0,7,1,0,0,0,1,2393,1,123,0,0,0,0,48,191,151,103,24,2562,0,0,0,0,0,0,171,0,0,0,0,0,85,0,0,0,10,0,168,53,16,0,0,87,0,27,0,0,0,0,0,194,0,123,0,0,43,21,0,0,0,0,0,0,0,0,0,0],"split_type":[0,0,0,0,0,0,0,0,0,0,0,0,0,0,0,0,0,0,0,0,0,0,0,0,0,0,0,0,0,0,0,0,0,0,0,0,0,0,0,0,0,0,0,0,0,0,0,0,0,0,0,0,0,0,0,0,0,0,0,0,0,0,0,0,0,0,0,0,0,0,0,0,0,0,0,0,0,0,0,0,0,0,0,0,0,0,0,0,0,0,0,0,0,0,0,0,0,0,0],"sum_hessian":[1.2265679E2,7.452099E1,4.8135807E1,6.930631E1,5.214673E0,4.1799736E1,6.336069E0,6.2203617E1,7.1026955E0,6.986025E-1,4.5160704E0,2.39142E0,3.9408318E1,1.5799179E0,4.7561517E0,1.0016983E1,5.2186634E1,2.7732792E0,4.329416E0,1.4304477E0,9.609722E-1,3.3859215E1,5.5491037E0,1.1472279E0,4.3268993E-1,7.1465707E-1,4.0414944E0,3.4652574E0,6.551725E0,1.4925061E1,3.7261574E1,6.500177E-1,2.1232617E0,8.9886546E-1,3.4305506E0,2.4033812E-1,7.2063404E-1,4.5904228E-1,3.340017E1,2.9898224E0,2.5592813E0,2.320275E-1,4.8262954E-1,4.763096E-1,2.9889479E0,4.488185E0,2.0635405E0,5.743895E0,9.181166E0,1.4568692E0,3.5804707E1,2.3347785E-1,1.8897837E0,2.4884777E-1,6.500177E-1,2.1272416E-1,2.4631812E-1,2.6055646E0,3.0794607E1,2.340474E-1,2.755775E0,4.4950065E-1,2.1097806E0,1.394148E0,3.0940368E0,4.8324072E-1,1.5802997E0,4.8102468E-1,5.2628703E0,4.4320574E0,4.7491083E0,7.375281E-1,7.193411E-1,2.6159452E1,9.645253E0,4.7147244E-1,2.1340923E0,9.360142E-1,4.5813382E-1,2.3149459E-1,2.4953009E-1,9.3793994E-1,3.4941173E0,7.004434E-1,4.048665E0,2.4323677E-1,4.9429137E-1,1.8193789E0,7.825875E0,4.9742663E-1,1.6366656E0,2.3306467E-1,3.2610526E0,9.5581394E-1,3.0928512E0,2.1554968E-1,1.6038291E0,1.8784062E0,5.9474683E0],"tree_param":{"num_deleted":"0","num_feature":"3072","num_nodes":"99","size_leaf_vector":"0"}},{"base_weights":[-7.984161E-3,3.3871374E-1,-1.0270114E0,-5.228344E-1,5.306098E-1,-1.2409885E0,6.150649E-1,2.1597496E-1,-1.0528246E0,2.5973064E-1,1.0181378E0,2.9454572E-2,-1.265217E0,-4.18945E-1,1.03775606E-1,-8.679464E-2,5.7837653E-1,-6.262453E-3,-1.183525E0,5.0804365E-1,-5.693407E-1,-6.289137E-2,1.0883332E0,-1.306181E-1,-5.537784E-1,-6.8830326E-2,3.0116422E-2,-4.7437114E-1,8.9277637E-1,5.856877E-2,-5.4321997E-2,-2.6616445E-1,-1.2412621E-1,-5.2678746E-1,6.697332E-1,-9.9328035E-1,-1.3660048E-1,2.4571517E-1,1.1795555E0,-9.054345E-2,2.3818038E-1,-7.3582165E-2,3.1885E-2,-2.416998E-1,1.1092855E0,3.622932E-2,-5.76477E-2,-8.9229596E-1,-5.680688E-2,-2.7515227E-1,8.731113E-1,1.3485762E-1,-1.1214526E0,5.5895627E-1,-9.1610867E-1,7.3792845E-1,-5.80335E-1,1.24953456E-1,4.0189323E-1,-2.8908914E-2,4.8109815E-1,2.6561309E-2,-4.9759716E-2,-2.7294952E-2,1.22817345E-1,-1.0263715E-1,-2.6349755E-2,-4.881041E-1,6.9050215E-2,7.486561E-2,-6.0882735E-1,-2.9227504E-1,1.0401604E0,4.6117906E-2,-3.0439561E-2,-1.7722431E-1,-1.2039705E-1,-3.0972192E-1,1.0741575E-1,2.0424414E-2,-1.03784695E-1,-2.722693E-2,9.244396E-2,2.9295398E-2,-8.6117655E-2,-7.7755734E-2,9.479203E-2,-2.5130652E-2,7.485701E-2,-3.2652564E-2,2.9759068E-2,-8.0751866E-2,9.653954E-2,1.3954245E-1,-1.320625E-1,7.2820164E-2,-7.889147E-1,2.2196141E-1,1.189578E0,2.7004946E-2,-4.3349E-2,-6.692205E-2,2.4520771E-1,2.7004946E-2,-2.4849096E-2,-4.923383E-2,6.1991148E-2,-8.375479E-2,9.155763E-2,-1.1073096E-1,4.3197125E-2,-6.292759E-2,5.684069E-2,1.2165158E-1,-3.9564237E-2,5.017601E-2,-2.6722966E-2],"categories":[],"categories_nodes":[],"categories_segments":[],"categories_sizes":[],"default_left":[false,false,false,false,false,false,false,false,false,false,false,false,false,false,false,false,false,false,false,false,false,false,false,false,false,false,false,false,false,false,false,false,false,false,false,false,false,false,false,false,false,false,false,false,false,false,false,false,false,false,false,false,false,false,false,false,false,false,false,false,false,false,false,false,false,false,false,false,false,false,false,false,false,false,false,false,false,false,false,false,false,false,false,false,false,false,false,false,false,false,false,false,false,false,false,false,false,false,false,false,false,false,false,false,false,false,false,false,false,false,false,false,false,false,false,false,false],"id":6,"left_children":[1,3,5,7,9,11,13,15,17,19,21,-1,23,25,-1,-1,27,29,31,33,35,-1,37,-1,39,-1,-1,41,43,-1,-1,45,-1,47,49,51,53,55,57,-1,59,-1,-1,61,63,-1,-1,65,67,69,71,73,75,77,79,81,83,-1,85,-1,87,-1,-1,-1,-1,-1,89,91,-1,-1,93,95,97,-1,-1,99,-1,101,-1,103,-1,-1,-1,-1,-1,-1,-1,-1,-1,-1,-1,-1,105,107,-1,-1,109,111,113,-1,-1,-1,115,-1,-1,-1,-1,-1,-1,-1,-1,-1,-1,-1,-1,-1,-1],"loss_changes":[4.2367363E1,1.50735E1,1.1459141E1,6.808063E0,9.467045E0,1.3928108E0,2.311771E0,3.616337E0,1.354476E0,1.0317595E1,3.7067776E0,0E0,3.1711197E-1,6.012513E-1,0E0,0E0,2.5741422E0,1.0096431E0,2.3904514E-1,6.713297E0,2.0104983E0,0E0,1.653923E0,0E0,1.2604102E0,0E0,0E0,6.9971335E-1,1.5823088E0,0E0,0E0,5.9341747E-1,0E0,9.2788935E-1,6.642726E0,9.82656E-1,4.2795844E0,1.9462037E0,9.4704247E-1,0E0,3.8978618E-1,0E0,0E0,3.584249E-1,1.1938319E0,0E0,0E0,3.6570287E-1,1.4989889E0,2.7534256E0,5.687908E0,3.5998917E-1,2.5714922E-1,2.298999E0,4.7499514E-1,8.090799E-1,7.536406E-1,0E0,3.1552188E0,0E0,5.369315E-1,0E0,0E0,0E0,0E0,0E0,2.4563405E-1,6.2560564E-1,0E0,0E0,3.2197063E0,2.749206E0,2.7198792E0,0E0,0E0,3.134128E-1,0E0,6.533646E-1,0E0,1.6677003E-1,0E0,0E0,0E0,0E0,0E0,0E0,0E0,0E0,0E0,0E0,0E0,0E0,9.155404E-1,3.613474E0,0E0,0E0,1.8410451E0,1.8757216E0,1.7738361E0,0E0,0E0,0E0,3.6443996E-1,0E0,0E0,0E0,0E0,0E0,0E0,0E0,0E0,0E0,0E0,0E0,0E0,0E0,0E0],"parents":[2147483647,0,0,1,1,2,2,3,3,4,4,5,5,6,6,7,7,8,8,9,9,10,10,12,12,13,13,16,16,17,17,18,18,19,19,20,20,22,22,24,24,27,27,28,28,31,31,33,33,34,34,35,35,36,36,37,37,38,38,40,40,43,43,44,44,47,47,48,48,49,49,50,50,51,51,52,52,53,53,54,54,55,55,56,56,58,58,60,60,66,66,67,67,70,70,71,71,72,72,75,75,77,77,79,79,92,92,93,93,96,96,97,97,98,98,102,102],"right_children":[2,4,6,8,10,12,14,16,18,20,22,-1,24,26,-1,-1,28,30,32,34,36,-1,38,-1,40,-1,-1,42,44,-1,-1,46,-1,48,50,52,54,56,58,-1,60,-1,-1,62,64,-1,-1,66,68,70,72,74,76,78,80,82,84,-1,86,-1,88,-1,-1,-1,-1,-1,90,92,-1,-1,94,96,98,-1,-1,100,-1,102,-1,104,-1,-1,-1,-1,-1,-1,-1,-1,-1,-1,-1,-1,106,108,-1,-1,110,112,114,-1,-1,-1,116,-1,-1,-1,-1,-1,-1,-1,-1,-1,-1,-1,-1,-1,-1],"split_conditions":[-1.4541626E-2,-4.626164E-2,1.740882E-2,-3.0155182E-3,-9.07135E-3,1E0,6.174815E-1,9.0606436E-2,7.7884407E-3,-9.178162E-3,-2.697599E-2,2.9454572E-2,3.0776978E-2,9.0606436E-2,1.03775606E-1,-8.679464E-2,1E0,2.6244482E-2,6.1447293E-2,-6.4956956E-2,1E0,-6.289137E-2,3.825185E-1,-1.306181E-1,2.3062425E-2,-6.8830326E-2,3.0116422E-2,4.2816162E-2,3.8834685E-1,5.856877E-2,-5.4321997E-2,6.1165315E-1,-1.2412621E-1,6.1447293E-2,1E0,6.174815E-1,8.093675E-3,2.3277134E-1,1.9182416E-2,-9.054345E-2,9.0606436E-2,-7.3582165E-2,3.1885E-2,6.1447293E-2,2.3277134E-1,3.622932E-2,-5.76477E-2,3.8834685E-1,8.634702E-3,1.4005959E-1,6.1165315E-1,6.1447293E-2,7.6722866E-1,6.1447293E-2,7.6722866E-1,1.4005959E-1,1.4005959E-1,1.24953456E-1,9.0606436E-2,-2.8908914E-2,9.0606436E-2,2.6561309E-2,-4.9759716E-2,-2.7294952E-2,1.22817345E-1,-1.0263715E-1,6.1165315E-1,2.3062425E-2,6.9050215E-2,7.486561E-2,-1.4487011E-3,2.3062425E-2,2.3062425E-2,4.6117906E-2,-3.0439561E-2,2.3277134E-1,-1.2039705E-1,2.3062425E-2,1.0741575E-1,2.3277134E-1,-1.03784695E-1,-2.722693E-2,9.244396E-2,2.9295398E-2,-8.6117655E-2,-7.7755734E-2,9.479203E-2,-2.5130652E-2,7.485701E-2,-3.2652564E-2,2.9759068E-2,-8.0751866E-2,3.82462E-1,3.81614E-1,-1.320625E-1,7.2820164E-2,-6.4656343E-3,7.0663053E-3,4.346171E-2,2.7004946E-2,-4.3349E-2,-6.692205E-2,7.0663053E-3,2.7004946E-2,-2.4849096E-2,-4.923383E-2,6.1991148E-2,-8.375479E-2,9.155763E-2,-1.1073096E-1,4.3197125E-2,-6.292759E-2,5.684069E-2,1.2165158E-1,-3.9564237E-2,5.017601E-2,-2.6722966E-2],"split_indices":[1110,2706,2515,875,953,125,59,245,84,675,2334,0,259,11,0,0,10,209,25,2619,225,0,226,0,208,0,0,259,24,0,0,1,0,51,10,13,2458,30,2685,0,38,0,0,0,190,0,0,166,259,53,106,0,72,25,72,53,53,0,54,0,11,0,0,0,0,0,1,210,0,0,2460,99,208,0,0,5,0,26,0,5,0,0,0,0,0,0,0,0,0,0,0,0,139,142,0,0,2312,49,2306,0,0,0,29,0,0,0,0,0,0,0,0,0,0,0,0,0,0],"split_type":[0,0,0,0,0,0,0,0,0,0,0,0,0,0,0,0,0,0,0,0,0,0,0,0,0,0,0,0,0,0,0,0,0,0,0,0,0,0,0,0,0,0,0,0,0,0,0,0,0,0,0,0,0,0,0,0,0,0,0,0,0,0,0,0,0,0,0,0,0,0,0,0,0,0,0,0,0,0,0,0,0,0,0,0,0,0,0,0,0,0,0,0,0,0,0,0,0,0,0,0,0,0,0,0,0,0,0,0,0,0,0,0,0,0,0,0,0],"sum_hessian":[1.17936165E2,8.849546E1,2.9440704E1,1.580624E1,7.2689224E1,2.6262697E1,3.1780062E0,6.8499136E0,8.9563265E0,4.7712223E1,2.4977E1,2.3223338E-1,2.6030464E1,9.485643E-1,2.229442E0,1.3522068E0,5.497707E0,1.110677E0,7.8456492E0,3.701359E1,1.069863E1,6.892131E-1,2.4287786E1,2.3384327E1,2.6461363E0,7.1402735E-1,2.3453695E-1,1.1472843E0,4.3504224E0,4.8524052E-1,6.254365E-1,9.014748E-1,6.944175E0,4.6966305E0,3.2316963E1,4.749951E0,5.9486794E0,2.733361E0,2.1554424E1,1.7110044E0,9.3513185E-1,9.073981E-1,2.3988621E-1,6.785533E-1,3.6718693E0,2.4814036E-1,6.533344E-1,2.1364849E0,2.5601456E0,5.6614065E0,2.6655556E1,4.7928157E-1,4.2706695E0,3.2931406E0,2.6555388E0,1.7796254E0,9.537356E-1,1.8914188E1,2.6402369E0,2.302103E-1,7.0492154E-1,2.202323E-1,4.58321E-1,2.2357187E-1,3.4482973E0,1.6613263E0,4.7515854E-1,1.8535712E0,7.0657444E-1,1.0740504E0,4.587356E0,3.2478592E0,2.3407698E1,2.4367976E-1,2.3560181E-1,6.522974E-1,3.618372E0,1.3977544E0,1.8953862E0,4.339406E-1,2.2215981E0,2.2327065E-1,1.5563548E0,2.316548E-1,7.220808E-1,7.1001136E-1,1.9302254E0,2.131474E-1,4.9177414E-1,2.418449E-1,2.3331363E-1,9.342595E-1,9.1931176E-1,2.6556048E0,1.931751E0,9.011267E-1,2.3467326E0,3.9983807E0,1.9409317E1,2.2227569E-1,4.300217E-1,7.1028984E-1,6.874647E-1,2.2227569E-1,2.1166489E-1,4.621939E-1,4.571178E-1,1.1434187E0,1.5121863E0,1.9175196E0,4.29213E-1,9.2993295E-1,3.0684476E0,1.9159317E1,2.4999988E-1,4.6647936E-1,2.2098534E-1],"tree_param":{"num_deleted":"0","num_feature":"3072","num_nodes":"117","size_leaf_vector":"0"}},{"base_weights":[3.8588334E-2,3.738692E-1,-9.422386E-1,5.1127577E-1,-6.432826E-1,6.9097036E-1,-1.1268764E0,1.4345378E-1,8.781088E-1,7.8030825E-1,-1.0417155E0,-5.1719632E-2,1.0220203E-1,2.783624E-1,-1.211084E0,4.6164E-1,-4.3516347E-1,-1.1842771E-1,1.0222493E0,-2.5713379E-2,9.481772E-2,-4.668132E-2,-1.1722296E0,7.119996E-2,-4.8141286E-2,-1.2552044E-1,-3.4071982E-1,-5.1050776E-1,7.718901E-1,-9.5928425E-1,1.8306316E-1,-9.572537E-1,9.3699336E-2,9.180229E-2,1.1197438E0,5.1426765E-2,-5.2582856E-2,-1.2060972E-1,-1.3758112E-1,-7.728612E-2,4.2838585E-1,2.8796196E-1,-9.463979E-1,9.130921E-1,-3.2250452E-1,-1.19976625E-1,-2.1776108E-1,1.03535414E-1,-3.6512947E-1,3.8136784E-2,-1.0902501E-1,8.652113E-2,-7.181127E-1,1.1395851E0,-2.8059062E-2,-4.0313546E-2,2.511564E-2,-2.841978E-2,7.2207496E-2,-4.4280425E-1,8.428592E-2,5.2065235E-2,-1.19474284E-1,2.9525843E-1,1.1783437E0,5.3544957E-2,-6.9289833E-1,5.7401687E-2,-5.4609835E-1,2.1907654E-1,-8.1959033E-1,-2.4519982E-2,2.8560845E-2,4.5046113E-2,-1.1372311E-1,-2.6884617E-2,1.1589992E0,2.5921565E-2,-6.610447E-2,-5.1111147E-2,5.6648027E-2,-6.053358E-1,7.007034E-1,-2.3607142E-2,1.2468736E0,2.6249964E-2,-8.849477E-2,4.61377E-2,-9.206224E-2,-4.8600778E-1,8.8959716E-2,-1.0052071E-1,3.1316634E-2,1.1935306E0,1.3694014E-1,-9.306371E-2,1.6161367E-2,1.024655E-1,4.5191622E-3,4.225779E-2,-5.2087918E-2,2.0203978E-2,1.3000986E-1,-7.79419E-2,3.6816142E-2,5.4066774E-2,1.2226301E-1,5.8556817E-2,-4.72174E-2],"categories":[],"categories_nodes":[],"categories_segments":[],"categories_sizes":[],"default_left":[false,false,false,false,false,false,false,false,false,false,false,false,false,false,false,false,false,false,false,false,false,false,false,false,false,false,false,false,false,false,false,false,false,false,false,false,false,false,false,false,false,false,false,false,false,false,false,false,false,false,false,false,false,false,false,false,false,false,false,false,false,false,false,false,false,false,false,false,false,false,false,false,false,false,false,false,false,false,false,false,false,false,false,false,false,false,false,false,false,false,false,false,false,false,false,false,false,false,false,false,false,false,false,false,false,false,false,false,false],"id":7,"left_children":[1,3,5,7,9,11,13,15,17,19,21,-1,-1,23,25,27,29,31,33,-1,-1,35,37,-1,-1,-1,39,41,43,45,47,49,-1,51,53,-1,-1,-1,55,-1,57,59,61,63,65,-1,67,-1,69,71,-1,-1,73,75,-1,-1,-1,-1,-1,77,-1,79,-1,81,83,-1,85,-1,87,89,91,-1,-1,-1,-1,-1,93,-1,-1,-1,-1,95,97,99,101,-1,-1,-1,-1,103,-1,-1,-1,105,107,-1,-1,-1,-1,-1,-1,-1,-1,-1,-1,-1,-1,-1,-1],"loss_changes":[3.8604893E1,1.2544813E1,9.800224E0,1.0339052E1,6.964209E0,2.056374E0,3.562687E0,7.550981E0,5.6708755E0,7.928523E-1,1.1013126E0,0E0,0E0,1.1439059E0,8.5578156E-1,8.309287E0,4.9320946E0,6.0690246E0,2.9685898E0,0E0,0E0,8.4509516E-1,2.0782948E-1,0E0,0E0,0E0,1.3374624E0,2.6917734E0,3.430274E0,1.2559452E0,3.9655762E0,5.7770777E-1,0E0,3.3528204E0,1.1738625E0,0E0,0E0,0E0,2.577852E-1,0E0,5.8102643E-1,1.7038794E0,1.2940688E0,2.6403675E0,1.3529017E0,0E0,1.1758682E0,0E0,1.6062315E0,1.7449294E-1,0E0,0E0,1.8687551E0,1.1458054E0,0E0,0E0,0E0,0E0,0E0,5.017716E-1,0E0,8.6874217E-1,0E0,2.9112878E0,1.0527153E0,0E0,7.342336E-1,0E0,1.5372198E0,1.9418577E0,1.0413785E0,0E0,0E0,0E0,0E0,0E0,8.991966E-1,0E0,0E0,0E0,0E0,8.360271E-1,1.0836504E0,5.9873605E-1,5.5047035E-1,0E0,0E0,0E0,0E0,8.595222E-1,0E0,0E0,0E0,1.0900116E-1,8.7233776E-1,0E0,0E0,0E0,0E0,0E0,0E0,0E0,0E0,0E0,0E0,0E0,0E0,0E0,0E0],"parents":[2147483647,0,0,1,1,2,2,3,3,4,4,5,5,6,6,7,7,8,8,9,9,10,10,13,13,14,14,15,15,16,16,17,17,18,18,21,21,22,22,26,26,27,27,28,28,29,29,30,30,31,31,33,33,34,34,38,38,40,40,41,41,42,42,43,43,44,44,46,46,48,48,49,49,52,52,53,53,59,59,61,61,63,63,64,64,66,66,68,68,69,69,70,70,76,76,81,81,82,82,83,83,84,84,89,89,93,93,94,94],"right_children":[2,4,6,8,10,12,14,16,18,20,22,-1,-1,24,26,28,30,32,34,-1,-1,36,38,-1,-1,-1,40,42,44,46,48,50,-1,52,54,-1,-1,-1,56,-1,58,60,62,64,66,-1,68,-1,70,72,-1,-1,74,76,-1,-1,-1,-1,-1,78,-1,80,-1,82,84,-1,86,-1,88,90,92,-1,-1,-1,-1,-1,94,-1,-1,-1,-1,96,98,100,102,-1,-1,-1,-1,104,-1,-1,-1,106,108,-1,-1,-1,-1,-1,-1,-1,-1,-1,-1,-1,-1,-1,-1],"split_conditions":[-1.4541626E-2,3.268022E-2,-5.058848E-2,-3.289795E-2,2.3062425E-2,7.0663053E-3,-1.88299E-2,-1.2060274E-2,8.599404E-1,1E0,7.0663053E-3,-5.1719632E-2,1.0220203E-1,2.3277134E-1,3.0776978E-2,3.81614E-1,2.3062425E-2,1.1141313E-2,-4.1122902E-2,-2.5713379E-2,9.481772E-2,7.0663053E-3,6.286621E-2,7.119996E-2,-4.8141286E-2,-1.2552044E-1,2.3062425E-2,-2.3989463E-2,-9.29838E-3,2.2888184E-2,3.9986098E-1,1.4005959E-1,9.3699336E-2,3.8834685E-1,5.010727E-2,5.1426765E-2,-5.2582856E-2,-1.2060972E-1,3.825185E-1,-7.728612E-2,9.0606436E-2,7.7884407E-3,8.599404E-1,2.3277134E-1,4.6665665E-2,-1.19976625E-1,7.0663053E-3,1.03535414E-1,9.0606436E-2,6.1447293E-2,-1.0902501E-1,8.652113E-2,2.7800122E-1,9.0606436E-2,-2.8059062E-2,-4.0313546E-2,2.511564E-2,-2.841978E-2,7.2207496E-2,6.1838603E-1,8.428592E-2,5.0300196E-2,-1.19474284E-1,6.1447293E-2,7.0663053E-3,5.3544957E-2,6.174815E-1,5.7401687E-2,2.6244482E-2,7.0663053E-3,3.4991972E-2,-2.4519982E-2,2.8560845E-2,4.5046113E-2,-1.1372311E-1,-2.6884617E-2,4.2785645E-2,2.5921565E-2,-6.610447E-2,-5.1111147E-2,5.6648027E-2,2.3277134E-1,8.599404E-1,2.3277134E-1,9.7375554E-1,2.6249964E-2,-8.849477E-2,4.61377E-2,-9.206224E-2,2.6244482E-2,8.8959716E-2,-1.0052071E-1,3.1316634E-2,-4.3835465E-2,6.1447293E-2,-9.306371E-2,1.6161367E-2,1.024655E-1,4.5191622E-3,4.225779E-2,-5.2087918E-2,2.0203978E-2,1.3000986E-1,-7.79419E-2,3.6816142E-2,5.4066774E-2,1.2226301E-1,5.8556817E-2,-4.72174E-2],"split_indices":[1110,2590,2888,665,28,238,2394,2624,176,58,242,0,0,30,259,110,78,2451,2622,0,0,49,261,0,0,0,101,274,340,381,253,102,0,227,2500,0,0,0,8,0,38,225,116,56,48,0,49,0,140,0,0,0,196,33,0,0,0,0,0,17,0,2304,0,193,194,0,64,0,118,69,256,0,0,0,0,0,273,0,0,0,0,30,171,5,45,0,0,0,0,57,0,0,0,2750,0,0,0,0,0,0,0,0,0,0,0,0,0,0,0],"split_type":[0,0,0,0,0,0,0,0,0,0,0,0,0,0,0,0,0,0,0,0,0,0,0,0,0,0,0,0,0,0,0,0,0,0,0,0,0,0,0,0,0,0,0,0,0,0,0,0,0,0,0,0,0,0,0,0,0,0,0,0,0,0,0,0,0,0,0,0,0,0,0,0,0,0,0,0,0,0,0,0,0,0,0,0,0,0,0,0,0,0,0,0,0,0,0,0,0,0,0,0,0,0,0,0,0,0,0,0,0],"sum_hessian":[1.153215E2,8.640432E1,2.8917189E1,7.65593E1,9.845015E0,2.6585689E0,2.625862E1,3.8922714E1,3.763659E1,1.9432797E0,7.9017353E0,4.6769834E-1,2.1908705E0,1.3542099E0,2.490441E1,2.5243357E1,1.3679356E1,4.778455E0,3.2858135E1,2.1612397E-1,1.7271558E0,1.073685E0,6.82805E0,8.9654887E-1,4.576611E-1,2.2941652E1,1.9627562E0,5.9509583E0,1.9292398E1,7.104568E0,6.574788E0,2.729864E0,2.0485907E0,3.3005588E0,2.9557577E1,4.618085E-1,6.1187655E-1,6.3650637E0,4.6298617E-1,1.2386215E0,7.241346E-1,2.2213068E0,3.7296515E0,1.7234428E1,2.0579715E0,4.824392E0,2.280176E0,2.20121E0,4.373578E0,4.3875688E-1,2.291107E0,1.6384709E0,1.6620879E0,2.933074E1,2.268365E-1,2.4991709E-1,2.130691E-1,2.2830166E-1,4.9583295E-1,1.060584E0,1.160723E0,9.379493E-1,2.791702E0,5.811409E0,1.1423018E1,4.7950464E-1,1.5784668E0,4.413984E-1,1.8387775E0,2.1402478E0,2.2333305E0,2.0989555E-1,2.2886135E-1,4.3136013E-1,1.2307278E0,2.217287E-1,2.910901E1,2.1715721E-1,8.434267E-1,4.5177892E-1,4.861704E-1,1.6510344E0,4.1603746E0,6.5151864E-1,1.0771501E1,2.1875463E-1,1.3597121E0,4.469657E-1,1.3918118E0,1.1904287E0,9.49819E-1,1.9950358E0,2.382947E-1,2.7995386E1,1.1136253E0,9.943874E-1,6.5664697E-1,2.3696256E0,1.7907488E0,4.2299306E-1,2.2852556E-1,8.916185E-1,9.879882E0,9.41689E-1,2.4873973E-1,2.5502918E0,2.5445093E1,6.6075045E-1,4.5287484E-1],"tree_param":{"num_deleted":"0","num_feature":"3072","num_nodes":"109","size_leaf_vector":"0"}},{"base_weights":[-8.182825E-3,2.8859738E-1,-9.0332663E-1,-1.0239159E0,3.9188567E-1,1.6005582E-1,-1.1640288E0,-1.18394494E-1,4.1569814E-2,4.934628E-1,-7.811845E-1,-4.174704E-1,8.5418755E-1,-1.2093348E-1,4.9181335E-2,-4.5468533E-1,5.919618E-1,4.2288774E-1,-1.0883907E-1,3.4992826E-1,-9.267299E-2,1.4211978E-1,9.670903E-2,-9.984751E-1,2.5642267E-1,-1.6768914E-1,6.8863505E-1,-3.2124024E-2,6.86523E-2,6.295136E-2,-1.3778268E-1,4.096425E-2,-2.8338844E-2,2.4795093E-2,-1.11024685E-1,9.644385E-2,-7.623091E-2,7.678085E-1,-5.303707E-1,2.613306E-1,8.9241594E-1,3.8650315E-3,-2.4061445E-2,-2.2303855E-2,9.253944E-2,5.79398E-2,-7.532438E-1,6.878162E-1,-2.6375258E-1,-3.0869773E-1,9.7136575E-1,2.3075012E-2,-9.747108E-1,-1.7079175E-2,9.610436E-1,6.141367E-1,-7.3094946E-1,3.8562042E-1,-8.313184E-2,-2.2580367E-1,1.0079856E0,-5.6155898E-2,5.8507632E-2,3.457683E-2,-1.1179173E-1,-7.562971E-2,4.124713E-2,-3.4245573E-2,1.0328438E-1,-4.940163E-2,8.9260325E-2,6.0086E-4,-1.0052012E-1,-3.1744454E-2,6.470238E-2,4.391803E-2,-7.12255E-2,1.5052154E-2,1.0449914E-1],"categories":[],"categories_nodes":[],"categories_segments":[],"categories_sizes":[],"default_left":[false,false,false,false,false,false,false,false,false,false,false,false,false,false,false,false,false,false,false,false,false,false,false,false,false,false,false,false,false,false,false,false,false,false,false,false,false,false,false,false,false,false,false,false,false,false,false,false,false,false,false,false,false,false,false,false,false,false,false,false,false,false,false,false,false,false,false,false,false,false,false,false,false,false,false,false,false,false,false],"id":8,"left_children":[1,3,5,7,9,11,13,-1,-1,15,17,19,21,-1,-1,23,25,27,-1,29,-1,31,-1,33,35,37,39,-1,-1,-1,41,-1,-1,-1,-1,-1,-1,43,45,47,49,-1,-1,-1,-1,-1,51,53,55,57,59,61,63,65,67,69,71,73,-1,75,77,-1,-1,-1,-1,-1,-1,-1,-1,-1,-1,-1,-1,-1,-1,-1,-1,-1,-1],"loss_changes":[2.9477034E1,1.1700879E1,7.8447723E0,2.0840206E0,9.678924E0,2.8894882E0,2.7498703E0,0E0,0E0,7.0298405E0,2.99689E0,1.9683379E0,1.4102626E-1,0E0,0E0,3.1091318E0,4.963299E0,6.507809E-1,0E0,4.211456E-1,0E0,3.0957207E-1,0E0,9.562068E-1,3.6937637E0,3.2085671E0,4.883047E0,0E0,0E0,0E0,4.1260943E-2,0E0,0E0,0E0,0E0,0E0,0E0,6.615E-1,2.067608E0,4.7468224E0,4.0331497E0,0E0,0E0,0E0,0E0,0E0,1.0350742E0,2.236423E0,4.492948E0,1.4993975E0,1.8576851E0,1.1015141E0,1.3384538E0,1.6803936E0,1.2586746E0,1.7211467E0,1.4520922E0,6.01075E-1,0E0,9.54333E-1,1.323906E0,0E0,0E0,0E0,0E0,0E0,0E0,0E0,0E0,0E0,0E0,0E0,0E0,0E0,0E0,0E0,0E0,0E0,0E0],"parents":[2147483647,0,0,1,1,2,2,3,3,4,4,5,5,6,6,9,9,10,10,11,11,12,12,15,15,16,16,17,17,19,19,21,21,23,23,24,24,25,25,26,26,30,30,37,37,38,38,39,39,40,40,46,46,47,47,48,48,49,49,50,50,51,51,52,52,53,53,54,54,55,55,56,56,57,57,59,59,60,60],"right_children":[2,4,6,8,10,12,14,-1,-1,16,18,20,22,-1,-1,24,26,28,-1,30,-1,32,-1,34,36,38,40,-1,-1,-1,42,-1,-1,-1,-1,-1,-1,44,46,48,50,-1,-1,-1,-1,-1,52,54,56,58,60,62,64,66,68,70,72,74,-1,76,78,-1,-1,-1,-1,-1,-1,-1,-1,-1,-1,-1,-1,-1,-1,-1,-1,-1,-1],"split_conditions":[-3.2348633E-2,3.8482666E-2,-1.0414031E-2,-4.217091E-3,8.854907E-3,6.174815E-1,2.71477E-2,-1.18394494E-1,4.1569814E-2,-4.9957275E-2,3.730774E-3,2.3277134E-1,7.7884407E-3,-1.2093348E-1,4.9181335E-2,6.1447293E-2,-2.8495843E-2,1E0,-1.0883907E-1,9.7375554E-1,-9.267299E-2,3.825185E-1,9.670903E-2,1.7477788E-2,3.82462E-1,4.6665665E-2,0E0,-3.2124024E-2,6.86523E-2,6.295136E-2,2.6244482E-2,4.096425E-2,-2.8338844E-2,2.4795093E-2,-1.11024685E-1,9.644385E-2,-7.623091E-2,1E0,9.0606436E-2,2.3062425E-2,6.1447293E-2,3.8650315E-3,-2.4061445E-2,-2.2303855E-2,9.253944E-2,5.79398E-2,7.7884407E-3,2.3062425E-2,9.0606436E-2,2.2412231E-2,0E0,2.6244482E-2,1.4005959E-1,7.0663053E-3,4.667629E-1,6.1165315E-1,7.0663053E-3,7.0663053E-3,-8.313184E-2,9.0606436E-2,-1.247943E-2,-5.6155898E-2,5.8507632E-2,3.457683E-2,-1.1179173E-1,-7.562971E-2,4.124713E-2,-3.4245573E-2,1.0328438E-1,-4.940163E-2,8.9260325E-2,6.0086E-4,-1.0052012E-1,-3.1744454E-2,6.470238E-2,4.391803E-2,-7.12255E-2,1.5052154E-2,1.0449914E-1],"split_indices":[498,1289,2572,2307,2722,211,2457,0,0,571,305,224,67,0,0,195,2788,10,0,21,0,8,0,2304,178,229,1263,0,0,0,6,0,0,0,0,0,0,10,133,40,97,0,0,0,0,0,174,220,15,2304,2740,6,53,184,36,157,201,37,0,54,2306,0,0,0,0,0,0,0,0,0,0,0,0,0,0,0,0,0,0],"split_type":[0,0,0,0,0,0,0,0,0,0,0,0,0,0,0,0,0,0,0,0,0,0,0,0,0,0,0,0,0,0,0,0,0,0,0,0,0,0,0,0,0,0,0,0,0,0,0,0,0,0,0,0,0,0,0,0,0,0,0,0,0,0,0,0,0,0,0,0,0,0,0,0,0,0,0,0,0,0,0],"sum_hessian":[1.0897602E2,8.2350685E1,2.6625338E1,5.357554E0,7.6993126E1,5.3183365E0,2.1307001E1,4.9396915E0,4.1786212E-1,7.1390686E1,5.6024404E0,3.120562E0,2.1977744E0,2.0845531E1,4.614696E-1,6.3782E0,6.501249E1,1.1033163E0,4.499124E0,1.3901268E0,1.7304353E0,6.4095527E-1,1.5568192E0,3.3853133E0,2.9928868E0,7.2565427E0,5.7755947E1,2.4051958E-1,8.627967E-1,6.844731E-1,7.056538E-1,4.129781E-1,2.2797716E-1,2.1137725E-1,3.1739361E0,1.7910817E0,1.2018051E0,1.7152389E0,5.541304E0,1.9386711E1,3.8369236E1,4.982883E-1,2.0736548E-1,1.9697934E-1,1.5182596E0,6.517651E-1,4.889539E0,1.0526725E1,8.859986E0,2.1869967E0,3.618224E1,1.284107E0,3.6054318E0,3.2023969E0,7.324328E0,2.9681504E0,5.8918357E0,1.066797E0,1.1201997E0,9.2058146E-1,3.5261658E1,6.3023746E-1,6.5386945E-1,2.4580371E-1,3.3596282E0,8.967633E-1,2.3056335E0,2.4521814E-1,7.0791097E0,4.5864394E-1,2.5095065E0,1.914275E0,3.9775608E0,2.3950386E-1,8.272931E-1,4.3383688E-1,4.8674458E-1,2.087419E0,3.3174236E1],"tree_param":{"num_deleted":"0","num_feature":"3072","num_nodes":"79","size_leaf_vector":"0"}},{"base_weights":[-2.0141268E-2,-7.550528E-1,3.204793E-1,4.778173E-1,-9.3046576E-1,5.0601673E-1,-6.1467177E-1,-6.4813055E-2,8.785651E-1,2.4677259E-1,-1.0405929E0,2.0666933E-1,9.310273E-1,7.9971075E-1,-9.9780387E-1,-3.285936E-2,1.0339467E-1,7.271546E-2,-2.9318833E-1,-1.0808587E0,4.3914147E-2,-8.1324005E-1,3.6559972E-1,1.0787456E0,1.8714656E-1,-2.3580877E-2,9.398049E-2,1.0902676E-1,-1.1593344E0,-6.9279194E-2,4.3854114E-2,-2.176259E-1,-1.1417993E0,4.3438185E-2,-1.0120397E0,4.635529E-1,-6.0733354E-1,4.0171647E-1,1.1899542E0,-8.668145E-2,6.74797E-1,-4.7893737E-2,5.985684E-2,-1.310635E-1,-1.1858303E-1,-5.6179345E-1,5.179545E-2,-5.8456015E-2,-1.1781936E0,2.3415856E-2,-1.0959116E-1,-7.056698E-2,7.307107E-1,-9.0732224E-2,2.2452028E-1,-4.966026E-1,7.716902E-1,4.5489505E-1,1.22655444E-1,-3.9080888E-2,8.411831E-1,2.3131143E-2,-3.7327502E-2,3.7375276E-3,-7.191618E-2,4.116366E-2,-4.7678564E-2,-1.2273797E-1,-4.810678E-1,2.3333404E-2,-2.0917127E-2,7.3582983E-1,-5.2002925E-1,-1.15159675E-1,8.9309967E-1,-4.1352153E-2,6.074951E-2,2.522315E-2,-7.35653E-2,-3.215161E-2,9.413562E-2,-2.9678246E-1,7.170121E-2,-1.576475E-1,9.9254265E-2,-8.6606234E-2,4.652999E-1,1.00971974E-1,-5.144956E-2,4.0043017E-1,-8.071834E-1,-7.534112E-2,3.533968E-1,-1.5767105E-2,1.1008955E0,2.2804491E-2,-5.6806948E-2,1.8597206E-2,-3.5227958E-2,-2.5967136E-2,7.3925324E-2,-3.4221455E-2,6.9355786E-2,-1.7012216E-2,-1.10162266E-1,-2.1623977E-2,6.1230294E-2,6.195483E-2,-5.7648275E-2,-2.8456027E-2,1.13307096E-1],"categories":[],"categories_nodes":[],"categories_segments":[],"categories_sizes":[],"default_left":[false,false,false,false,false,false,false,false,false,false,false,false,false,false,false,false,false,false,false,false,false,false,false,false,false,false,false,false,false,false,false,false,false,false,false,false,false,false,false,false,false,false,false,false,false,false,false,false,false,false,false,false,false,false,false,false,false,false,false,false,false,false,false,false,false,false,false,false,false,false,false,false,false,false,false,false,false,false,false,false,false,false,false,false,false,false,false,false,false,false,false,false,false,false,false,false,false,false,false,false,false,false,false,false,false,false,false,false,false,false,false],"id":9,"left_children":[1,3,5,7,9,11,13,-1,15,17,19,21,23,25,27,-1,-1,-1,29,31,-1,33,35,37,39,-1,-1,41,43,-1,-1,45,47,-1,49,51,53,55,57,-1,59,-1,-1,61,-1,63,-1,65,67,69,-1,71,73,-1,75,77,79,81,-1,-1,83,-1,-1,-1,-1,-1,-1,-1,85,-1,-1,87,89,91,93,-1,-1,-1,-1,-1,-1,95,-1,97,-1,-1,99,-1,-1,101,103,-1,105,107,109,-1,-1,-1,-1,-1,-1,-1,-1,-1,-1,-1,-1,-1,-1,-1,-1],"loss_changes":[2.6573338E1,7.7133636E0,1.2903583E1,2.7755392E0,4.115547E0,7.582361E0,7.553852E0,0E0,1.1525841E0,1.0991452E0,2.11771E0,6.317691E0,2.5418243E0,7.258134E-1,1.9598131E0,0E0,0E0,0E0,1.001109E0,1.170641E0,0E0,1.7677965E0,3.4096851E0,1.0746555E0,3.3624096E0,0E0,0E0,9.45194E-1,2.0323181E-1,0E0,0E0,1.0626801E0,9.1531754E-1,0E0,5.082154E-1,4.3878145E0,1.0899261E0,1.8519416E0,5.974388E-2,0E0,1.084986E0,0E0,0E0,2.1840057E-1,0E0,2.784878E-1,0E0,5.7451E-1,4.4332504E-1,1.19171076E-1,0E0,4.3854485E0,2.897375E0,0E0,6.901419E-1,5.411484E-1,1.0017877E0,7.5421476E-1,0E0,0E0,8.0067825E-1,0E0,0E0,0E0,0E0,0E0,0E0,0E0,1.7490134E0,0E0,0E0,2.0893807E0,2.352429E0,1.52904E0,3.2623444E0,0E0,0E0,0E0,0E0,0E0,0E0,3.3854127E-1,0E0,1.6406916E-1,0E0,0E0,5.465165E-1,0E0,0E0,8.011585E-1,1.0101418E0,0E0,6.0473007E-1,1.8858773E0,1.1826115E0,0E0,0E0,0E0,0E0,0E0,0E0,0E0,0E0,0E0,0E0,0E0,0E0,0E0,0E0,0E0,0E0],"parents":[2147483647,0,0,1,1,2,2,3,3,4,4,5,5,6,6,8,8,9,9,10,10,11,11,12,12,13,13,14,14,18,18,19,19,21,21,22,22,23,23,24,24,27,27,28,28,31,31,32,32,34,34,35,35,36,36,37,37,38,38,40,40,43,43,45,45,47,47,48,48,49,49,51,51,52,52,54,54,55,55,56,56,57,57,60,60,68,68,71,71,72,72,73,73,74,74,81,81,83,83,86,86,89,89,90,90,92,92,93,93,94,94],"right_children":[2,4,6,8,10,12,14,-1,16,18,20,22,24,26,28,-1,-1,-1,30,32,-1,34,36,38,40,-1,-1,42,44,-1,-1,46,48,-1,50,52,54,56,58,-1,60,-1,-1,62,-1,64,-1,66,68,70,-1,72,74,-1,76,78,80,82,-1,-1,84,-1,-1,-1,-1,-1,-1,-1,86,-1,-1,88,90,92,94,-1,-1,-1,-1,-1,-1,96,-1,98,-1,-1,100,-1,-1,102,104,-1,106,108,110,-1,-1,-1,-1,-1,-1,-1,-1,-1,-1,-1,-1,-1,-1,-1,-1],"split_conditions":[3.8890839E-3,0E0,3.1997997E-2,9.0606436E-2,-7.6746196E-3,1.0444641E-2,2.3062425E-2,-6.4813055E-2,3.8834685E-1,4.6665665E-2,4.948755E-2,-1.9345456E-3,3.0335281E-2,7.0663053E-3,7.0663053E-3,-3.285936E-2,1.0339467E-1,7.271546E-2,1E0,-5.5595376E-2,4.3914147E-2,3.82462E-1,2.5190809E-3,2.3277134E-1,3.81614E-1,-2.3580877E-2,9.398049E-2,9.0606436E-2,-1.2672424E-2,-6.9279194E-2,4.3854114E-2,4.6665665E-2,6.174815E-1,4.3438185E-2,6.1447293E-2,3.81614E-1,5.332371E-1,7.7884407E-3,1E0,-8.668145E-2,4.667629E-1,-4.7893737E-2,5.985684E-2,2.6244482E-2,-1.1858303E-1,2.3277134E-1,5.179545E-2,6.1447293E-2,3.0776978E-2,2.3062425E-2,-1.0959116E-1,9.0606436E-2,-4.7226407E-2,-9.0732224E-2,2.3062425E-2,4.6665665E-2,6.1447293E-2,3.2265708E-3,1.22655444E-1,-3.9080888E-2,6.1165315E-1,2.3131143E-2,-3.7327502E-2,3.7375276E-3,-7.191618E-2,4.116366E-2,-4.7678564E-2,-1.2273797E-1,2.3062425E-2,2.3333404E-2,-2.0917127E-2,-3.5527886E-3,3.3691406E-2,7.0663053E-3,7.7884407E-3,-4.1352153E-2,6.074951E-2,2.522315E-2,-7.35653E-2,-3.215161E-2,9.413562E-2,6.1447293E-2,7.170121E-2,-3.666503E-3,9.9254265E-2,-8.6606234E-2,2.3062425E-2,1.00971974E-1,-5.144956E-2,2.6244482E-2,5.332371E-1,-7.534112E-2,6.1447293E-2,7.0663053E-3,8.599404E-1,2.2804491E-2,-5.6806948E-2,1.8597206E-2,-3.5227958E-2,-2.5967136E-2,7.3925324E-2,-3.4221455E-2,6.9355786E-2,-1.7012216E-2,-1.10162266E-1,-2.1623977E-2,6.1230294E-2,6.195483E-2,-5.7648275E-2,-2.8456027E-2,1.13307096E-1],"split_indices":[486,944,2590,245,2784,1145,28,0,24,229,2589,3003,3055,201,242,0,0,0,10,2662,0,236,943,235,199,0,0,54,257,0,0,19,64,0,0,110,87,34,10,0,73,0,0,6,0,5,0,0,259,3,0,207,2368,0,26,7,18,2309,0,0,1,0,0,0,0,0,0,0,101,0,0,260,257,49,165,0,0,0,0,0,0,0,0,2304,0,0,22,0,0,23,202,0,197,29,90,0,0,0,0,0,0,0,0,0,0,0,0,0,0,0,0],"split_type":[0,0,0,0,0,0,0,0,0,0,0,0,0,0,0,0,0,0,0,0,0,0,0,0,0,0,0,0,0,0,0,0,0,0,0,0,0,0,0,0,0,0,0,0,0,0,0,0,0,0,0,0,0,0,0,0,0,0,0,0,0,0,0,0,0,0,0,0,0,0,0,0,0,0,0,0,0,0,0,0,0,0,0,0,0,0,0,0,0,0,0,0,0,0,0,0,0,0,0,0,0,0,0,0,0,0,0,0,0,0,0],"sum_hessian":[1.0418826E2,3.2611053E1,7.157722E1,3.8472352E0,2.8763817E1,6.011005E1,1.1467163E1,8.397466E-1,3.0074887E0,2.3544455E0,2.6409372E1,3.614109E1,2.396896E1,2.2124212E0,9.254742E0,2.4233532E-1,2.7651534E0,1.0473872E0,1.3070582E0,2.5976477E1,4.3289497E-1,4.3174725E0,3.182362E1,1.9622253E1,4.3467054E0,2.0463331E-1,2.007788E0,1.220021E0,8.03472E0,8.736739E-1,4.333843E-1,2.0143313E0,2.3962145E1,4.2609495E-1,3.8913774E0,2.93884E1,2.4352202E0,3.4191318E0,1.6203123E1,1.1166914E0,3.230014E0,5.6643474E-1,6.5358627E-1,4.511681E-1,7.5835524E0,1.5405414E0,4.7378993E-1,8.635364E-1,2.309861E1,3.91232E-1,3.5001454E0,1.0043871E1,1.9344528E1,1.7006763E0,7.3454404E-1,8.9755315E-1,2.5215788E0,1.6613381E0,1.4541784E1,2.4995846E-1,2.9800558E0,2.0200258E-1,2.491655E-1,4.9839917E-1,1.0421423E0,4.154023E-1,4.4813412E-1,2.0499544E1,2.599064E0,2.031945E-1,1.8803751E-1,3.3665988E0,6.677273E0,3.1624482E0,1.618208E1,2.4951367E-1,4.8503035E-1,2.1362817E-1,6.83925E-1,2.405913E-1,2.2809875E0,4.1182548E-1,1.2495126E0,4.1852865E-1,2.561527E0,1.8883406E0,7.107235E-1,2.8978908E0,4.6870798E-1,1.4939634E0,5.183309E0,1.0668528E0,2.0955951E0,3.1832337E0,1.2998846E1,2.0004745E-1,2.1177804E-1,1.7168868E-1,2.4683997E-1,2.1738127E-1,4.9334228E-1,3.8529053E-1,1.1086729E0,2.192053E0,2.991256E0,7.198713E-1,1.3757238E0,1.4437188E0,1.7395151E0,2.2844616E-1,1.2770399E1],"tree_param":{"num_deleted":"0","num_feature":"3072","num_nodes":"111","size_leaf_vector":"0"}},{"base_weights":[-8.712978E-3,-6.543674E-1,3.1909633E-1,6.8072325E-1,-8.3128595E-1,-7.333639E-1,4.0861475E-1,-4.1572973E-2,8.9122665E-1,4.7346926E-1,-9.2880946E-1,-9.88926E-1,5.2460372E-2,6.351069E-1,3.0748371E-2,-5.179759E-2,1.0074829E-1,7.652728E-2,-2.3550017E-1,-6.0869347E-2,-1.0647271E0,-1.06760494E-1,2.1060906E-2,7.6828825E-1,-1.5437838E-1,-8.787898E-1,2.223762E-1,2.4802132E-2,-3.0327886E-2,-4.2524423E-2,1.9663848E-2,-5.656063E-1,6.655384E-1,-1.11711E0,5.000394E-2,8.247888E-1,-2.2479385E-1,4.0893102E-1,-5.9027356E-1,5.7806347E-2,-1.0511026E-1,-4.6338746E-1,5.502681E-1,3.283996E-2,-7.6976365E-1,-1.7260097E-2,7.891646E-2,-1.1743469E-1,-4.8613408E-1,5.3674955E-2,-5.1915992E-2,9.86433E-1,3.679038E-1,5.2639727E-2,-7.130785E-2,7.850423E-1,-5.1692635E-2,2.0348082E-1,-9.39078E-2,-4.5606516E-2,4.6001658E-2,-1.04416244E-1,5.3720754E-2,-7.6050884E-1,7.7168906E-1,3.6142194E-3,-9.2550285E-2,3.7460497E-1,-7.7205634E-1,-2.027435E-1,1.0629969E0,-2.8331292E-1,7.3993164E-1,9.286799E-2,1.089617E-2,-3.700648E-2,5.4460693E-2,6.1240995E-1,-3.7057623E-1,1.9771481E-2,-9.0189785E-2,-1.6435343E-1,9.453149E-1,6.1533086E-2,-2.3789048E-2,-5.2433167E-2,-8.973415E-2,-6.25904E-2,4.7225066E-2,1.1366324E0,2.3459527E-1,4.6743003E-1,-8.2452536E-1,-2.3748226E-1,1.02153346E-1,3.3313196E-2,-3.2100976E-2,-2.6713403E-2,8.0795266E-2,-6.7694885E-1,3.1363472E-1,4.9752235E-1,-7.052006E-2,-2.6727958E-2,9.8332113E-1,-3.412132E-2,3.0792193E-2,4.996803E-2,1.2018344E-1,7.2492525E-2,-4.4530727E-2,7.067293E-2,-3.456826E-2,2.9797785E-2,-1.02448985E-1,3.8516257E-2,-5.5706035E-2,2.4594048E-2,-8.477077E-2,6.671952E-2,-3.6476187E-2,-2.1348787E-2,6.947636E-2,-2.4134714E-2,2.1367503E-2,1.2283317E-2,1.0326896E-1],"categories":[],"categories_nodes":[],"categories_segments":[],"categories_sizes":[],"default_left":[false,false,false,false,false,false,false,false,false,false,false,false,false,false,false,false,false,false,false,false,false,false,false,false,false,false,false,false,false,false,false,false,false,false,false,false,false,false,false,false,false,false,false,false,false,false,false,false,false,false,false,false,false,false,false,false,false,false,false,false,false,false,false,false,false,false,false,false,false,false,false,false,false,false,false,false,false,false,false,false,false,false,false,false,false,false,false,false,false,false,false,false,false,false,false,false,false,false,false,false,false,false,false,false,false,false,false,false,false,false,false,false,false,false,false,false,false,false,false,false,false,false,false,false,false,false,false],"id":10,"left_children":[1,3,5,7,9,11,13,-1,15,17,19,21,-1,23,25,27,-1,-1,29,31,33,-1,-1,35,37,39,41,-1,-1,-1,-1,43,45,47,49,51,53,55,57,59,-1,61,63,-1,65,-1,-1,-1,67,-1,-1,69,71,-1,-1,73,-1,75,-1,-1,-1,-1,77,79,81,-1,-1,83,85,87,89,91,93,-1,95,-1,-1,97,99,-1,-1,101,103,-1,-1,105,-1,-1,-1,107,109,111,113,115,-1,-1,-1,-1,-1,117,119,121,-1,123,125,-1,-1,-1,-1,-1,-1,-1,-1,-1,-1,-1,-1,-1,-1,-1,-1,-1,-1,-1,-1,-1,-1],"loss_changes":[2.1747688E1,8.737753E0,6.7221622E0,1.4397521E0,4.3842106E0,2.365051E0,5.4122458E0,0E0,5.5214167E-1,7.809609E-1,3.377596E0,7.785549E-1,0E0,4.285612E0,4.524191E0,1.8817073E-1,0E0,0E0,2.2056529E-1,2.2138999E0,1.5255642E0,0E0,0E0,2.0975113E0,1.8504788E0,8.376396E-1,5.047168E0,0E0,0E0,0E0,0E0,8.9620197E-1,4.1735673E-1,4.7776794E-1,8.747156E-1,2.0341778E0,1.3659086E0,1.6181715E0,1.3609114E0,5.7053566E-1,0E0,2.3317146E0,4.9042087E0,0E0,4.541093E-1,0E0,0E0,0E0,1.293431E0,0E0,0E0,2.3442612E0,2.651037E0,0E0,0E0,3.2869446E-1,0E0,6.2624246E-1,0E0,0E0,0E0,0E0,1.3931723E0,5.6608E-1,2.3042297E0,0E0,0E0,4.0635315E-1,2.8074074E-1,9.6017885E-1,1.0830593E0,2.1678753E0,2.1557283E0,0E0,2.7116868E-1,0E0,0E0,6.702094E-1,9.290585E-1,0E0,0E0,1.4141403E0,4.4379616E-1,0E0,0E0,2.7679956E-1,0E0,0E0,0E0,3.7106514E-1,1.3744664E0,7.480755E-1,1.0016074E0,6.986663E-1,0E0,0E0,0E0,0E0,0E0,6.578337E-1,6.765275E-1,4.3018976E-1,0E0,1.2632707E-1,4.331789E-1,0E0,0E0,0E0,0E0,0E0,0E0,0E0,0E0,0E0,0E0,0E0,0E0,0E0,0E0,0E0,0E0,0E0,0E0,0E0,0E0,0E0,0E0],"parents":[2147483647,0,0,1,1,2,2,3,3,4,4,5,5,6,6,8,8,9,9,10,10,11,11,13,13,14,14,15,15,18,18,19,19,20,20,23,23,24,24,25,25,26,26,31,31,32,32,33,33,34,34,35,35,36,36,37,37,38,38,39,39,41,41,42,42,44,44,48,48,51,51,52,52,55,55,57,57,62,62,63,63,64,64,67,67,68,68,69,69,70,70,71,71,72,72,74,74,77,77,78,78,81,81,82,82,85,85,89,89,90,90,91,91,92,92,93,93,99,99,100,100,101,101,103,103,104,104],"right_children":[2,4,6,8,10,12,14,-1,16,18,20,22,-1,24,26,28,-1,-1,30,32,34,-1,-1,36,38,40,42,-1,-1,-1,-1,44,46,48,50,52,54,56,58,60,-1,62,64,-1,66,-1,-1,-1,68,-1,-1,70,72,-1,-1,74,-1,76,-1,-1,-1,-1,78,80,82,-1,-1,84,86,88,90,92,94,-1,96,-1,-1,98,100,-1,-1,102,104,-1,-1,106,-1,-1,-1,108,110,112,114,116,-1,-1,-1,-1,-1,118,120,122,-1,124,126,-1,-1,-1,-1,-1,-1,-1,-1,-1,-1,-1,-1,-1,-1,-1,-1,-1,-1,-1,-1,-1,-1],"split_conditions":[3.4103394E-3,-2.0337397E-2,-1.0089874E-3,2.3277134E-1,-5.508423E-3,2.1837788E-2,3.681422E-3,-4.1572973E-2,-1.4672705E-2,2.6244482E-2,-1.14580706E-1,3.942871E-2,5.2460372E-2,2.6559938E-2,2.7034625E-2,6.174815E-1,1.0074829E-1,7.652728E-2,2.3277134E-1,7.0663053E-3,3.1907253E-2,-1.06760494E-1,2.1060906E-2,-6.957054E-4,7.0663053E-3,2.3277134E-1,3.81614E-1,2.4802132E-2,-3.0327886E-2,-4.2524423E-2,1.9663848E-2,7.0663053E-3,6.1165315E-1,8.234978E-4,2.6244482E-2,-9.606364E-3,6.1447293E-2,6.1447293E-2,5.247747E-1,6.1447293E-2,-1.0511026E-1,3.81614E-1,1E0,3.283996E-2,6.00139E-1,-1.7260097E-2,7.891646E-2,-1.1743469E-1,9.0606436E-2,5.3674955E-2,-5.1915992E-2,4.131317E-3,7.0663053E-3,5.2639727E-2,-7.130785E-2,3.81614E-1,-5.1692635E-2,7.2199875E-1,-9.39078E-2,-4.5606516E-2,4.6001658E-2,-1.04416244E-1,2.4032593E-2,6.174815E-1,1.9607212E-2,3.6142194E-3,-9.2550285E-2,2.6244482E-2,7.0663053E-3,4.6665665E-2,8.528544E-2,6.1838603E-1,2.7800122E-1,9.286799E-2,6.1838603E-1,-3.700648E-2,5.4460693E-2,8.599404E-1,7.0663053E-3,1.9771481E-2,-9.0189785E-2,7.0663053E-3,1.4005959E-1,6.1533086E-2,-2.3789048E-2,6.1447293E-2,-8.973415E-2,-6.25904E-2,4.7225066E-2,7.0663053E-3,3.825185E-1,2.9710807E-2,-6.0560226E-2,6.174815E-1,1.02153346E-1,3.3313196E-2,-3.2100976E-2,-2.6713403E-2,8.0795266E-2,2.3062425E-2,-7.9886705E-2,9.0606436E-2,-7.052006E-2,2.3277134E-1,7.0663053E-3,-3.412132E-2,3.0792193E-2,4.996803E-2,1.2018344E-1,7.2492525E-2,-4.4530727E-2,7.067293E-2,-3.456826E-2,2.9797785E-2,-1.02448985E-1,3.8516257E-2,-5.5706035E-2,2.4594048E-2,-8.477077E-2,6.671952E-2,-3.6476187E-2,-2.1348787E-2,6.947636E-2,-2.4134714E-2,2.1367503E-2,1.2283317E-2,1.0326896E-1],"split_indices":[796,2767,422,176,493,2326,1257,0,2304,168,2853,256,0,2457,2804,13,0,0,5,95,2399,0,0,869,242,235,110,0,0,0,0,29,1,277,57,2864,0,18,14,0,0,123,237,0,27,0,0,0,94,0,0,1280,87,0,0,89,0,47,0,0,0,0,265,13,2829,0,0,6,212,19,2804,17,68,0,17,0,0,90,221,0,0,194,137,0,0,0,0,0,0,232,8,2306,2307,64,0,0,0,0,0,40,2305,15,0,5,194,0,0,0,0,0,0,0,0,0,0,0,0,0,0,0,0,0,0,0,0,0,0],"split_type":[0,0,0,0,0,0,0,0,0,0,0,0,0,0,0,0,0,0,0,0,0,0,0,0,0,0,0,0,0,0,0,0,0,0,0,0,0,0,0,0,0,0,0,0,0,0,0,0,0,0,0,0,0,0,0,0,0,0,0,0,0,0,0,0,0,0,0,0,0,0,0,0,0,0,0,0,0,0,0,0,0,0,0,0,0,0,0,0,0,0,0,0,0,0,0,0,0,0,0,0,0,0,0,0,0,0,0,0,0,0,0,0,0,0,0,0,0,0,0,0,0,0,0,0,0,0,0],"sum_hessian":[1.0076577E2,3.359694E1,6.716884E1,3.5979395E0,2.9998999E1,4.7014914E0,6.2467342E1,4.1780037E-1,3.180139E0,1.8182279E0,2.818077E1,4.091176E0,6.1031574E-1,3.8631157E1,2.383619E1,4.46653E-1,2.733486E0,1.2142739E0,6.039539E-1,4.011573E0,2.4169197E1,3.9021814E0,1.8899433E-1,3.3077957E1,5.553199E0,3.5240057E0,2.0312183E1,2.114148E-1,2.3523822E-1,4.2453954E-1,1.7941438E-1,2.4975448E0,1.5140281E0,2.3082386E1,1.0868119E0,3.1457666E1,1.6202908E0,2.449525E0,3.1036737E0,6.8851113E-1,2.8354945E0,6.436807E0,1.3875376E1,3.470049E-1,2.1505399E0,1.6152792E-1,1.3525002E0,2.0001944E1,3.0804422E0,6.15506E-1,4.7130585E-1,2.238049E1,9.077176E0,6.1242753E-1,1.0078633E0,1.8566153E0,5.9290975E-1,1.1002611E0,2.0034125E0,2.4459815E-1,4.4391298E-1,2.5170557E0,3.9197514E0,1.6533184E0,1.2222057E1,4.9850285E-1,1.6520371E0,6.907744E-1,2.3896677E0,1.2540942E0,2.1126396E1,3.3869486E0,5.6902275E0,1.3727994E0,4.8381588E-1,3.834932E-1,7.167679E-1,1.500556E0,2.4191954E0,1.8017453E-1,1.4731438E0,1.9206976E0,1.030136E1,4.849475E-1,2.0582688E-1,5.954255E-1,1.7942421E0,8.1128037E-1,4.428138E-1,1.906009E1,2.0663059E0,1.4759341E0,1.9110146E0,1.3526245E0,4.3376026E0,2.4335645E-1,2.4045943E-1,2.209411E-1,1.2796149E0,1.6783056E0,7.4088967E-1,9.11932E-1,1.0087656E0,3.9878678E-1,9.902573E0,3.5870636E-1,2.3671915E-1,2.907322E0,1.6152767E1,1.1557442E0,9.105616E-1,1.2301451E0,2.4578907E-1,2.3344849E-1,1.677566E0,3.952487E-1,9.573758E-1,2.1029714E-1,1.4680085E0,4.9248263E-1,2.4840704E-1,1.9088972E-1,7.210423E-1,2.0777479E-1,1.9101201E-1,8.473676E-1,9.055205E0],"tree_param":{"num_deleted":"0","num_feature":"3072","num_nodes":"127","size_leaf_vector":"0"}},{"base_weights":[-3.1457867E-2,-6.83902E-1,2.6901388E-1,-8.369549E-1,6.9754887E-1,-8.434522E-1,3.796711E-1,-1.4922402E-2,-9.4548905E-1,-3.275834E-2,8.985285E-2,1.4979066E-1,-1.0768311E-1,1.15564846E-1,7.601028E-1,6.7832345E-1,-8.223023E-2,-1.0551006E0,-9.852276E-2,-4.9695726E-2,6.2485058E-2,-7.117449E-1,3.156971E-1,-4.7290272E-1,8.926555E-1,8.207173E-2,-3.6951557E-2,-1.1292969E0,-3.9334857E-1,6.381959E-2,-4.5567045E-1,4.277954E-1,-9.284443E-1,-4.4309726E-1,4.9540874E-1,4.4976674E-2,-8.368137E-2,9.4578826E-1,-3.413342E-1,-3.0704215E-2,2.6727004E-2,-3.425393E-1,-1.14494875E-1,-8.42618E-2,3.7737644E-1,5.2309826E-2,-8.734957E-2,-1.596032E-2,5.6521047E-2,1.5271907E-2,-1.1053668E0,5.433844E-2,-6.429285E-1,6.9535464E-2,7.386615E-1,4.0733144E-1,1.0960518E0,-5.568286E-2,2.1787096E-2,3.494977E-3,-4.802544E-2,-2.6539752E-2,5.9725606E-1,-5.106259E-2,5.744979E-2,-4.8035234E-2,-1.15845375E-1,3.06356E-1,-8.3426476E-1,6.7027533E-1,-4.7705472E-1,-2.6516408E-1,8.4139454E-1,8.3916E-1,-4.9343607E-1,2.7307507E-1,1.1391566E0,-1.9433836E-2,7.8898735E-2,-2.3119176E-2,1.8200302E-2,-1.7127296E-2,4.6325773E-2,-8.998529E-1,1.661482E-2,-5.3246226E-2,9.4199E-1,-1.0515558E0,5.234926E-1,3.7003696E-2,-5.936379E-1,-3.54319E-2,8.96635E-1,-3.97942E-2,9.8817885E-2,5.0516102E-2,-1.00318335E-1,-5.3274125E-2,6.4057834E-2,3.311765E-1,1.1659112E-1,-9.8740555E-2,-1.4873307E-2,2.492061E-3,1.0551602E-1,1.893717E-2,-1.1425279E-1,-3.501849E-2,7.8482024E-2,1.6354635E-2,-7.501433E-2,1.6481584E-2,9.623213E-2,6.700505E-2,-4.4662047E-2],"categories":[],"categories_nodes":[],"categories_segments":[],"categories_sizes":[],"default_left":[false,false,false,false,false,false,false,false,false,false,false,false,false,false,false,false,false,false,false,false,false,false,false,false,false,false,false,false,false,false,false,false,false,false,false,false,false,false,false,false,false,false,false,false,false,false,false,false,false,false,false,false,false,false,false,false,false,false,false,false,false,false,false,false,false,false,false,false,false,false,false,false,false,false,false,false,false,false,false,false,false,false,false,false,false,false,false,false,false,false,false,false,false,false,false,false,false,false,false,false,false,false,false,false,false,false,false,false,false,false,false,false,false,false,false],"id":11,"left_children":[1,3,5,7,9,11,13,15,17,-1,-1,19,-1,21,23,25,-1,27,29,-1,-1,31,33,35,37,-1,39,41,43,-1,45,47,49,51,53,-1,-1,55,57,-1,-1,59,-1,-1,61,-1,-1,-1,-1,63,65,-1,67,69,71,73,75,-1,-1,-1,-1,-1,77,-1,-1,79,-1,81,83,85,87,89,91,93,95,97,99,-1,-1,-1,-1,-1,-1,101,-1,-1,103,105,107,-1,109,-1,111,-1,-1,-1,-1,-1,-1,113,-1,-1,-1,-1,-1,-1,-1,-1,-1,-1,-1,-1,-1,-1,-1],"loss_changes":[1.9090118E1,7.0730743E0,8.537094E0,2.4915848E0,1.0805309E0,1.7050633E0,6.0811872E0,2.9909916E0,2.1977844E0,0E0,0E0,9.86657E-1,0E0,6.42028E0,4.50476E0,3.4048367E-1,0E0,6.28582E-1,1.3408604E0,0E0,0E0,2.2729428E0,4.422713E0,1.447812E0,1.8243504E0,0E0,2.0603949E-1,1.7419815E-2,1.6404933E0,0E0,1.8318121E0,2.5228903E-1,1.1351786E0,1.6277794E0,2.5792422E0,0E0,0E0,1.3514538E0,3.325715E-1,0E0,0E0,1.2854491E-1,0E0,0E0,4.562203E-1,0E0,0E0,0E0,0E0,9.1304E-1,3.3287334E-1,0E0,1.3113604E0,3.7134466E0,1.8790932E0,2.918914E0,2.84235E-1,0E0,0E0,0E0,0E0,0E0,4.525196E-1,0E0,0E0,1.0193825E-1,0E0,2.1328136E-1,4.8668027E-1,2.2597468E0,3.9969351E0,6.944806E-1,1.3019962E0,1.335043E0,1.9356688E0,1.0011585E0,1.0029411E-1,0E0,0E0,0E0,0E0,0E0,0E0,2.128725E-1,0E0,0E0,5.1049185E-1,7.500129E-1,9.5536906E-1,0E0,3.5877573E-1,0E0,6.357031E-1,0E0,0E0,0E0,0E0,0E0,0E0,8.758184E-1,0E0,0E0,0E0,0E0,0E0,0E0,0E0,0E0,0E0,0E0,0E0,0E0,0E0,0E0,0E0],"parents":[2147483647,0,0,1,1,2,2,3,3,4,4,5,5,6,6,7,7,8,8,11,11,13,13,14,14,15,15,17,17,18,18,21,21,22,22,23,23,24,24,26,26,27,27,28,28,30,30,31,31,32,32,33,33,34,34,37,37,38,38,41,41,44,44,49,49,50,50,52,52,53,53,54,54,55,55,56,56,62,62,65,65,67,67,68,68,69,69,70,70,71,71,72,72,73,73,74,74,75,75,76,76,83,83,86,86,87,87,88,88,90,90,92,92,99,99],"right_children":[2,4,6,8,10,12,14,16,18,-1,-1,20,-1,22,24,26,-1,28,30,-1,-1,32,34,36,38,-1,40,42,44,-1,46,48,50,52,54,-1,-1,56,58,-1,-1,60,-1,-1,62,-1,-1,-1,-1,64,66,-1,68,70,72,74,76,-1,-1,-1,-1,-1,78,-1,-1,80,-1,82,84,86,88,90,92,94,96,98,100,-1,-1,-1,-1,-1,-1,102,-1,-1,104,106,108,-1,110,-1,112,-1,-1,-1,-1,-1,-1,114,-1,-1,-1,-1,-1,-1,-1,-1,-1,-1,-1,-1,-1,-1,-1],"split_conditions":[3.8890839E-3,7.828355E-3,-2.6645074E-2,-3.189087E-2,6.1165315E-1,7.0663053E-3,-5.7373047E-3,7.7884407E-3,5.3159585E-3,-3.275834E-2,8.985285E-2,7.7884407E-3,-1.0768311E-1,1E0,2.3277134E-1,7.0663053E-3,-8.223023E-2,1.2504578E-2,2.6244482E-2,-4.9695726E-2,6.2485058E-2,1.9643395E-3,-2.2891056E-2,2.3062425E-2,4.346171E-2,8.207173E-2,3.4991972E-2,-5.3844E-3,3.82462E-1,6.381959E-2,9.7375554E-1,1E0,7.0663053E-3,3.82462E-1,2.3277134E-1,4.4976674E-2,-8.368137E-2,1E0,2.6244482E-2,-3.0704215E-2,2.6727004E-2,2.3277134E-1,-1.14494875E-1,-8.42618E-2,7.0663053E-3,5.2309826E-2,-8.734957E-2,-1.596032E-2,5.6521047E-2,2.6244482E-2,3.82462E-1,5.433844E-2,6.1447293E-2,4.6665665E-2,6.1165315E-1,-4.217091E-3,4.6665665E-2,-5.568286E-2,2.1787096E-2,3.494977E-3,-4.802544E-2,-2.6539752E-2,2.3062425E-2,-5.106259E-2,5.744979E-2,6.1447293E-2,-1.15845375E-1,9.7375554E-1,2.7197178E-2,2.6244482E-2,5.2201282E-2,6.1447293E-2,-2.003479E-2,7.0663053E-3,2.3277134E-1,7.0663053E-3,-7.3319614E-2,-1.9433836E-2,7.8898735E-2,-2.3119176E-2,1.8200302E-2,-1.7127296E-2,4.6325773E-2,1.9424438E-2,1.661482E-2,-5.3246226E-2,3.82462E-1,-4.5156896E-2,6.1447293E-2,3.7003696E-2,2.3062425E-2,-3.54319E-2,1E0,-3.97942E-2,9.8817885E-2,5.0516102E-2,-1.00318335E-1,-5.3274125E-2,6.4057834E-2,2.3062425E-2,1.1659112E-1,-9.8740555E-2,-1.4873307E-2,2.492061E-3,1.0551602E-1,1.893717E-2,-1.1425279E-1,-3.501849E-2,7.8482024E-2,1.6354635E-2,-7.501433E-2,1.6481584E-2,9.623213E-2,6.700505E-2,-4.4662047E-2],"split_indices":[486,2660,2919,436,1,242,616,174,2496,0,0,76,0,225,176,98,0,324,118,0,0,2422,2375,28,2306,0,256,2365,178,0,21,10,74,156,5,0,0,10,4,0,0,5,0,0,20,0,0,0,0,85,236,0,187,48,106,2307,56,0,0,0,0,0,28,0,0,0,0,21,2306,118,2364,55,311,155,79,219,2324,0,0,0,0,0,0,260,0,0,139,2307,193,0,2,0,231,0,0,0,0,0,0,78,0,0,0,0,0,0,0,0,0,0,0,0,0,0,0],"split_type":[0,0,0,0,0,0,0,0,0,0,0,0,0,0,0,0,0,0,0,0,0,0,0,0,0,0,0,0,0,0,0,0,0,0,0,0,0,0,0,0,0,0,0,0,0,0,0,0,0,0,0,0,0,0,0,0,0,0,0,0,0,0,0,0,0,0,0,0,0,0,0,0,0,0,0,0,0,0,0,0,0,0,0,0,0,0,0,0,0,0,0,0,0,0,0,0,0,0,0,0,0,0,0,0,0,0,0,0,0,0,0,0,0,0,0],"sum_hessian":[9.543969E1,2.9691498E1,6.574819E1,2.7084875E1,2.6066232E0,5.349187E0,6.0399006E1,3.2916405E0,2.3793236E1,3.4504655E-1,2.2615767E0,1.133318E0,4.215869E0,3.6419415E1,2.3979591E1,1.87074E0,1.4209005E0,2.0849255E1,2.9439807E0,4.633347E-1,6.6998327E-1,6.596078E0,2.9823336E1,2.0784242E0,2.1901167E1,1.4132912E0,4.5744878E-1,1.8111994E1,2.7372606E0,6.9404215E-1,2.2499385E0,8.982708E-1,5.6978073E0,5.4301353E0,2.4393202E1,5.3275335E-1,1.5456709E0,2.1220993E1,6.801749E-1,2.3644476E-1,2.2100404E-1,1.0663965E0,1.7045597E1,1.6513531E0,1.0859075E0,6.086165E-1,1.6413221E0,1.5117413E-1,7.4709666E-1,1.0437987E0,4.6540084E0,6.174203E-1,4.812715E0,9.335315E0,1.5057886E1,5.4395614E0,1.5781431E1,4.8645234E-1,1.9372258E-1,4.985998E-1,5.677966E-1,2.2013113E-1,8.6577636E-1,5.8301127E-1,4.6078736E-1,3.7065816E-1,4.2833505E0,7.0648134E-1,4.1062336E0,4.339559E0,4.995756E0,1.2511865E0,1.38067E1,3.7230995E0,1.7164621E0,1.1505089E0,1.4630922E1,1.7777786E-1,6.8799853E-1,2.019316E-1,1.6872656E-1,1.6049102E-1,5.459903E-1,3.949789E0,1.5644439E-1,6.168103E-1,3.7227488E0,3.1411617E0,1.8545942E0,3.778636E-1,8.7332284E-1,3.665955E-1,1.34401045E1,2.4999335E-1,3.4731061E0,5.92232E-1,1.1242301E0,2.2466019E-1,9.258487E-1,1.1078532E0,1.3523069E1,3.2012691E0,7.485199E-1,5.872449E-1,3.1355038E0,1.741886E-1,2.966973E0,3.6221808E-1,1.4923762E0,1.5436278E-1,7.189601E-1,1.5624576E0,1.1877646E1,8.617352E-1,2.461179E-1],"tree_param":{"num_deleted":"0","num_feature":"3072","num_nodes":"115","size_leaf_vector":"0"}},{"base_weights":[-2.3320409E-2,2.1988405E-1,-7.8407353E-1,-5.2347552E-2,5.6491154E-1,7.102806E-2,-8.954374E-1,4.2632422E-1,-3.4403145E-1,7.660825E-1,-3.6424115E-1,-9.848021E-1,6.2395625E-2,-3.553247E-1,7.083961E-1,9.5330454E-2,-7.263491E-1,9.207591E-1,3.031932E-1,2.462043E-1,-8.165129E-1,-1.0347973E0,-9.212462E-2,-8.5199225E-1,2.8139323E-1,-2.4123855E-1,8.523075E-1,3.4715143E-1,-7.371693E-1,7.4071385E-2,-9.0221995E-1,-2.3046982E-2,9.4514936E-1,-6.659831E-1,6.173884E-1,-6.0033634E-2,7.1902066E-1,5.6175634E-2,-9.419504E-2,-3.6742E-1,-1.0871539E-1,-5.7591382E-2,5.555658E-2,-1.6592475E-2,-9.4863616E-2,-4.2715304E-2,5.772958E-1,-6.129955E-1,4.294658E-2,-1.3311598E-1,9.6515447E-1,-5.638539E-1,5.273612E-1,3.0880919E-2,-9.086321E-2,6.101296E-1,-6.271867E-2,3.9892767E-2,-9.9429536E-1,-1.8205428E-2,9.649542E-1,2.135265E-2,-8.264293E-2,-1.13116026E-1,9.281295E-2,-1.7252369E-2,8.367468E-2,3.2666907E-2,-2.65818E-2,-7.5441934E-2,4.2247277E-1,1.8689506E-2,-2.038079E-2,-2.3032356E-2,7.436184E-2,-8.367987E-2,2.3104712E-2,4.1058358E-2,-5.864979E-2,-1.3879117E-1,1.0922937E0,2.4119858E-2,-7.5819544E-2,8.369524E-1,-2.422982E-1,-2.604258E-2,8.027868E-2,-2.3018096E-1,-1.1458597E0,1.0611484E0,3.8670468E-1,-8.717455E-2,6.609597E-2,-2.6111774E-2,6.9130465E-2,3.340985E-2,-4.600013E-2,1.2606521E-1,1.1223871E-1,-8.0343485E-2,1.0015413E0,-7.262994E-2,3.5224095E-1,3.3484414E-1,-6.9800355E-2,-1.1757685E-1,1.6585778E-2,1.1256272E-1,4.782186E-1,-3.819883E-1,8.389536E-2,-1.8204773E-2,3.0168684E-2,4.4699263E-2,-5.788839E-2,-2.1867827E-2,1.07003994E-1,-3.6322758E-2,6.864186E-2,5.830027E-2,-3.1239182E-2,6.6756874E-2,-2.9719118E-2,-5.64033E-2,2.5178142E-2],"categories":[],"categories_nodes":[],"categories_segments":[],"categories_sizes":[],"default_left":[false,false,false,false,false,false,false,false,false,false,false,false,false,false,false,false,false,false,false,false,false,false,false,false,false,false,false,false,false,false,false,false,false,false,false,false,false,false,false,false,false,false,false,false,false,false,false,false,false,false,false,false,false,false,false,false,false,false,false,false,false,false,false,false,false,false,false,false,false,false,false,false,false,false,false,false,false,false,false,false,false,false,false,false,false,false,false,false,false,false,false,false,false,false,false,false,false,false,false,false,false,false,false,false,false,false,false,false,false,false,false,false,false,false,false,false,false,false,false,false,false,false,false,false,false],"id":12,"left_children":[1,3,5,7,9,-1,11,13,15,17,19,21,-1,23,25,27,29,31,33,35,37,39,41,43,45,47,49,51,53,55,57,-1,59,61,63,-1,65,67,-1,69,-1,-1,-1,71,-1,-1,73,75,-1,77,79,81,83,-1,-1,85,-1,-1,87,-1,89,-1,-1,91,-1,-1,-1,-1,-1,-1,93,-1,-1,-1,-1,-1,-1,-1,-1,95,97,-1,-1,99,101,-1,-1,103,105,107,109,-1,-1,-1,-1,-1,-1,111,-1,113,115,-1,117,119,-1,-1,-1,-1,121,123,-1,-1,-1,-1,-1,-1,-1,-1,-1,-1,-1,-1,-1,-1,-1],"loss_changes":[1.7482128E1,6.7617207E0,4.469426E0,5.8681335E0,6.203496E0,0E0,3.5863247E0,3.7711475E0,4.4393106E0,1.6093454E0,1.945565E0,8.3898544E-1,0E0,1.7889338E0,1.8542757E0,2.9789221E0,2.0414348E0,7.6254654E-1,2.876876E0,1.8301747E0,5.090296E-1,4.3395805E-1,1.0332487E0,2.509632E-1,8.6063635E-1,8.6008483E-1,1.3179746E0,2.046157E0,9.196378E-1,1.6959296E0,1.7920265E0,0E0,6.041012E-1,5.472331E-1,1.6585262E0,0E0,4.5017123E-1,2.1869254E-1,0E0,1.3260357E0,0E0,0E0,0E0,9.165186E-2,0E0,0E0,5.2387685E-1,5.792887E-1,0E0,7.437727E-1,1.515687E0,5.528377E-1,2.4449565E0,0E0,0E0,6.474583E-1,0E0,0E0,1.0219688E0,0E0,6.414509E-1,0E0,0E0,2.3354867E0,0E0,0E0,0E0,0E0,0E0,0E0,5.093585E-1,0E0,0E0,0E0,0E0,0E0,0E0,0E0,0E0,4.505118E-1,2.1289349E-1,0E0,0E0,1.1274948E0,1.2739145E0,0E0,0E0,1.065271E0,6.972923E-1,1.502266E-1,1.8368514E0,0E0,0E0,0E0,0E0,0E0,0E0,1.3865304E-1,0E0,7.957776E-1,8.181453E-1,0E0,8.063862E-1,5.3131866E-1,0E0,0E0,0E0,0E0,7.422181E-1,4.1879275E-1,0E0,0E0,0E0,0E0,0E0,0E0,0E0,0E0,0E0,0E0,0E0,0E0,0E0,0E0,0E0],"parents":[2147483647,0,0,1,1,2,2,3,3,4,4,6,6,7,7,8,8,9,9,10,10,11,11,13,13,14,14,15,15,16,16,17,17,18,18,19,19,20,20,21,21,22,22,23,23,24,24,25,25,26,26,27,27,28,28,29,29,30,30,32,32,33,33,34,34,36,36,37,37,39,39,43,43,46,46,47,47,49,49,50,50,51,51,52,52,55,55,58,58,60,60,63,63,70,70,79,79,80,80,83,83,84,84,87,87,88,88,89,89,90,90,97,97,99,99,100,100,102,102,103,103,108,108,109,109],"right_children":[2,4,6,8,10,-1,12,14,16,18,20,22,-1,24,26,28,30,32,34,36,38,40,42,44,46,48,50,52,54,56,58,-1,60,62,64,-1,66,68,-1,70,-1,-1,-1,72,-1,-1,74,76,-1,78,80,82,84,-1,-1,86,-1,-1,88,-1,90,-1,-1,92,-1,-1,-1,-1,-1,-1,94,-1,-1,-1,-1,-1,-1,-1,-1,96,98,-1,-1,100,102,-1,-1,104,106,108,110,-1,-1,-1,-1,-1,-1,112,-1,114,116,-1,118,120,-1,-1,-1,-1,122,124,-1,-1,-1,-1,-1,-1,-1,-1,-1,-1,-1,-1,-1,-1,-1],"split_conditions":[-3.2348633E-2,1.7333984E-2,-4.19588E-2,9.933314E-4,2.6559938E-2,7.102806E-2,3.548497E-2,1E0,9.0606436E-2,3.665519E-2,2.3062425E-2,1.5124559E-2,6.2395625E-2,9.0606436E-2,-3.501213E-2,1.0063171E-2,5.247747E-1,9.0606436E-2,9.0606436E-2,6.1838603E-1,8.599404E-1,-5.982044E-2,2.3062425E-2,6.1447293E-2,7.0663053E-3,2.7800122E-1,9.0606436E-2,7.2199875E-1,3.82462E-1,2.6058273E-2,-3.173828E-2,-2.3046982E-2,9.0606436E-2,2.6244482E-2,2.2476196E-2,-6.0033634E-2,7.7884407E-3,6.1165315E-1,-9.419504E-2,2.3062425E-2,-1.0871539E-1,-5.7591382E-2,5.555658E-2,2.6244482E-2,-9.4863616E-2,-4.2715304E-2,6.174815E-1,6.1447293E-2,4.294658E-2,4.6665665E-2,2.6244482E-2,1.4005959E-1,3.1158447E-2,3.0880919E-2,-9.086321E-2,6.1447293E-2,-6.271867E-2,3.9892767E-2,6.174815E-1,-1.8205428E-2,-2.5141107E-2,2.135265E-2,-8.264293E-2,7.7884407E-3,9.281295E-2,-1.7252369E-2,8.367468E-2,3.2666907E-2,-2.65818E-2,-7.5441934E-2,7.0663053E-3,1.8689506E-2,-2.038079E-2,-2.3032356E-2,7.436184E-2,-8.367987E-2,2.3104712E-2,4.1058358E-2,-5.864979E-2,3.825185E-1,-3.463745E-2,2.4119858E-2,-7.5819544E-2,9.0606436E-2,8.599404E-1,-2.604258E-2,8.027868E-2,9.0606436E-2,1.6163989E-3,4.244995E-2,7.0663053E-3,-8.717455E-2,6.609597E-2,-2.6111774E-2,6.9130465E-2,3.340985E-2,-4.600013E-2,2.3277134E-1,1.1223871E-1,4.6665665E-2,3.825185E-1,-7.262994E-2,6.1447293E-2,7.0663053E-3,-6.9800355E-2,-1.1757685E-1,1.6585778E-2,1.1256272E-1,6.174815E-1,7.7884407E-3,8.389536E-2,-1.8204773E-2,3.0168684E-2,4.4699263E-2,-5.788839E-2,-2.1867827E-2,1.07003994E-1,-3.6322758E-2,6.864186E-2,5.830027E-2,-3.1239182E-2,6.6756874E-2,-2.9719118E-2,-5.64033E-2,2.5178142E-2],"split_indices":[498,1084,2431,2651,2457,0,2938,142,188,2557,132,2412,0,11,2322,972,204,33,133,17,50,326,26,187,248,35,133,237,156,2342,266,0,15,4,1280,0,165,1,0,101,0,0,0,4,0,0,59,25,0,7,118,46,903,0,0,55,0,0,64,0,2408,0,0,93,0,0,0,0,0,0,20,0,0,0,0,0,0,0,0,8,260,0,0,228,170,0,0,109,2382,451,87,0,0,0,0,0,0,5,0,7,70,0,25,20,0,0,0,0,59,34,0,0,0,0,0,0,0,0,0,0,0,0,0,0,0],"split_type":[0,0,0,0,0,0,0,0,0,0,0,0,0,0,0,0,0,0,0,0,0,0,0,0,0,0,0,0,0,0,0,0,0,0,0,0,0,0,0,0,0,0,0,0,0,0,0,0,0,0,0,0,0,0,0,0,0,0,0,0,0,0,0,0,0,0,0,0,0,0,0,0,0,0,0,0,0,0,0,0,0,0,0,0,0,0,0,0,0,0,0,0,0,0,0,0,0,0,0,0,0,0,0,0,0,0,0,0,0,0,0,0,0,0,0,0,0,0,0,0,0,0,0,0,0],"sum_hessian":[9.25567E1,7.0673965E1,2.188273E1,3.997858E1,3.0695387E1,1.1348957E0,2.0747835E1,1.4962528E1,2.5016052E1,2.5376602E1,5.318786E0,1.99349E1,8.12935E-1,3.89882E0,1.1063708E1,1.1988938E1,1.3027115E1,1.8279325E1,7.097276E0,2.4574778E0,2.8613083E0,1.872688E1,1.2080216E0,2.0003557E0,1.8984641E0,1.3669902E0,9.696718E0,9.652251E0,2.3366868E0,2.4509993E0,1.0576116E1,2.015024E-1,1.8077824E1,1.463444E0,5.633832E0,7.756612E-1,1.6818166E0,4.6220767E-1,2.3991008E0,2.2194297E0,1.6507448E1,7.530982E-1,4.549234E-1,3.5677963E-1,1.6435761E0,4.223378E-1,1.4761263E0,9.40945E-1,4.2604515E-1,9.7787964E-1,8.718839E0,1.242455E0,8.409797E0,2.3699294E-1,2.0996938E0,1.4731565E0,9.7784287E-1,4.7433582E-1,1.0101779E1,1.6876513E-1,1.7909058E1,1.9091497E-1,1.272529E0,1.9146839E0,3.7191482E0,1.6146772E-1,1.5203489E0,2.418794E-1,2.2032829E-1,1.5031325E0,7.162973E-1,1.7237082E-1,1.844088E-1,2.0141521E-1,1.2747111E0,7.3909926E-1,2.0184575E-1,4.9028134E-1,4.875983E-1,8.909664E-1,7.8278723E0,2.0769195E-1,1.0347631E0,5.935031E0,2.4747653E0,2.177505E-1,1.2554059E0,2.0889587E0,8.012821E0,1.4638739E1,3.2703195E0,9.010608E-1,1.0136231E0,2.180873E-1,4.9821E-1,3.4755036E-1,5.434161E-1,4.9045768E-1,7.3374147E0,9.8077464E-1,4.954256E0,1.2265044E0,1.248261E0,1.0889316E0,1.0000271E0,7.856608E0,1.5621293E-1,1.2106491E1,2.532247E0,1.2901161E0,1.9802034E0,1.6876018E-1,3.216975E-1,5.284603E-1,4.5231438E-1,1.9423734E-1,4.760019E0,3.7746963E-1,8.707913E-1,8.5086304E-1,2.380685E-1,2.129082E0,4.0316504E-1,1.0767214E0,2.1339463E-1],"tree_param":{"num_deleted":"0","num_feature":"3072","num_nodes":"125","size_leaf_vector":"0"}},{"base_weights":[-3.263787E-2,-5.8846486E-1,2.280883E-1,1.3698262E-1,-8.262887E-1,3.7448868E-1,-6.39253E-1,6.6760266E-1,-5.650621E-1,1.0738389E-1,-9.491552E-1,6.86408E-1,4.4546362E-2,4.408713E-1,-9.350185E-1,-2.7642798E-1,9.1505617E-1,-9.301095E-2,2.9892927E-1,7.948604E-2,-7.487133E-2,-1.0319599E0,-1.8980071E-1,7.550843E-1,-3.384019E-1,6.4248973E-1,-2.0513466E-1,-3.4141827E-2,7.0644364E-2,-1.02301E0,3.9204605E-2,2.4999527E-2,-5.01149E-2,-1.8701993E-2,9.996279E-2,-1.349208E-1,4.8584864E-2,-1.02232456E-1,-1.09237105E-1,-7.3465504E-2,7.2818585E-2,3.5443053E-1,9.426969E-1,4.31312E-2,-7.212778E-2,-4.5621318E-1,8.3327335E-1,-6.033067E-1,5.9352275E-2,1.965774E-2,-1.07358865E-1,-3.1143595E-2,3.3125352E-2,-2.9767893E-2,1.5854094E-2,2.865767E-2,-4.590108E-2,-6.6490275E-1,5.550255E-1,1.0290043E0,1.9437777E-1,2.2676889E-2,-6.709106E-2,-3.1498504E-1,9.429426E-1,3.340662E-1,-9.61834E-1,-5.105113E-1,4.654205E-1,1.756845E-2,-8.2213745E-2,-1.5927595E-1,7.635931E-1,3.7568235E-1,1.075515E0,5.6688786E-1,-3.4336996E-1,-4.9372192E-2,1.5576792E-2,7.931055E-2,1.0464148E-1,-5.6694966E-2,7.3759496E-2,1.810165E-1,-1.119918E0,4.7807065E-1,-8.666731E-1,-2.9775563E-1,7.73194E-1,4.6216894E-2,-5.4646254E-1,-4.7467005E-2,9.2428946E-1,6.2785044E-2,-2.7786875E-1,3.2046264E-1,1.10461645E-1,-2.5172815E-2,7.818152E-2,2.3752172E-2,-5.57351E-2,4.0825352E-2,-3.522492E-2,3.9416242E-2,-2.2121083E-2,-1.7759548E-1,-1.1842807E-1,-1.7026166E-2,6.0882606E-2,2.6063439E-2,-9.908231E-2,-6.1743265E-1,5.0813932E-2,9.938221E-1,-3.016517E-1,2.741533E-2,-8.114438E-2,1.7718982E-2,1.020517E-1,1.9508546E-2,-5.0096415E-2,6.459895E-2,-4.2036887E-2,-3.8039207E-2,2.1134604E-2,-1.6337264E-3,-7.329135E-2,-2.578262E-3,1.059964E-1,-6.267641E-2,2.9452112E-2],"categories":[],"categories_nodes":[],"categories_segments":[],"categories_sizes":[],"default_left":[false,false,false,false,false,false,false,false,false,false,false,false,false,false,false,false,false,false,false,false,false,false,false,false,false,false,false,false,false,false,false,false,false,false,false,false,false,false,false,false,false,false,false,false,false,false,false,false,false,false,false,false,false,false,false,false,false,false,false,false,false,false,false,false,false,false,false,false,false,false,false,false,false,false,false,false,false,false,false,false,false,false,false,false,false,false,false,false,false,false,false,false,false,false,false,false,false,false,false,false,false,false,false,false,false,false,false,false,false,false,false,false,false,false,false,false,false,false,false,false,false,false,false,false,false,false,false,false,false,false,false],"id":13,"left_children":[1,3,5,7,9,11,13,15,17,19,21,23,25,27,29,31,33,-1,35,-1,-1,37,39,41,43,45,47,-1,-1,49,51,-1,-1,-1,-1,53,-1,55,-1,-1,-1,57,59,-1,-1,61,63,65,67,-1,-1,-1,-1,-1,-1,-1,-1,69,71,73,75,-1,-1,77,79,81,83,85,87,-1,-1,89,91,93,95,97,99,-1,-1,101,-1,-1,-1,103,105,107,109,111,113,-1,115,-1,117,-1,119,121,-1,-1,-1,-1,-1,-1,-1,-1,-1,123,-1,-1,-1,-1,-1,125,-1,127,129,-1,-1,-1,-1,-1,-1,-1,-1,-1,-1,-1,-1,-1,-1,-1,-1],"loss_changes":[1.2988765E1,5.0478344E0,7.9978037E0,3.3273523E0,2.5892782E0,5.4143343E0,3.3491158E0,1.4136674E0,1.5598147E0,2.662815E0,1.0153351E0,2.1647062E0,4.1299133E0,8.157295E-1,6.8624115E-1,3.4681308E-1,6.2773395E-1,0E0,2.2892877E-1,0E0,0E0,1.0303783E0,2.1411016E0,1.600133E0,1.0411057E0,2.0844135E0,2.105121E0,0E0,0E0,7.39275E-1,2.712997E-1,0E0,0E0,0E0,0E0,1.1589365E-1,0E0,4.6429178E-1,0E0,0E0,0E0,2.374763E0,8.9298344E-1,0E0,0E0,4.3619573E-1,1.2139406E0,2.9871411E0,3.1804123E0,0E0,0E0,0E0,0E0,0E0,0E0,0E0,0E0,4.3618613E-1,1.4239047E0,4.9933434E-2,7.921764E-1,0E0,0E0,1.9873606E-1,5.970316E-1,1.5219636E0,1.2859063E0,2.4453268E0,2.0973058E0,0E0,0E0,9.3479955E-1,1.8293867E0,6.039342E-1,5.287361E-2,5.927446E-1,3.714636E-1,0E0,0E0,4.2045474E-1,0E0,0E0,0E0,2.286743E-1,1.7787075E-1,2.9937315E-1,9.617045E-1,