{"learner":{"attributes":{"best_iteration":"48","best_ntree_limit":"49","best_score":"0.934779"},"feature_names":[],"feature_types":[],"gradient_booster":{"model":{"gbtree_model_param":{"num_trees":"50","size_leaf_vector":"0"},"tree_info":[0,0,0,0,0,0,0,0,0,0,0,0,0,0,0,0,0,0,0,0,0,0,0,0,0,0,0,0,0,0,0,0,0,0,0,0,0,0,0,0,0,0,0,0,0,0,0,0,0,0],"trees":[{"base_weights":[-5.221932E-3,-1.3333334E0,6.360153E-1,-1.6981132E0,5E-1,-9.166667E-1,9.677419E-1,-4.6909865E-2,-0E0,2.5539815E-2,-8.513272E-3,1.45941805E-2,-3.494922E-2,-2.4195615E-2,2.882712E-2],"categories":[],"categories_nodes":[],"categories_segments":[],"categories_sizes":[],"default_left":[false,false,false,false,false,false,false,false,false,false,false,false,false,false,false],"id":0,"left_children":[1,3,5,7,9,11,13,-1,-1,-1,-1,-1,-1,-1,-1],"loss_changes":[8.239203E1,2.1915092E1,3.4495148E1,6.2379684E0,2.8333335E0,8.848998E0,1.7793343E1,0E0,0E0,0E0,0E0,0E0,0E0,0E0,0E0],"parents":[2147483647,0,0,1,1,2,2,3,3,4,4,5,5,6,6],"right_children":[2,4,6,8,10,12,14,-1,-1,-1,-1,-1,-1,-1,-1],"split_conditions":[4.3754578E-3,2.0341002E-3,-2.289458E-2,3.2714844E-2,1E0,5.8083612E-2,3.8482666E-2,-4.6909865E-2,-0E0,2.5539815E-2,-8.513272E-3,1.45941805E-2,-3.494922E-2,-2.4195615E-2,2.882712E-2],"split_indices":[486,2710,2604,259,193,159,1289,0,0,0,0,0,0,0,0],"split_type":[0,0,0,0,0,0,0,0,0,0,0,0,0,0,0],"sum_hessian":[9.475E1,3.05E1,6.425E1,2.55E1,5E0,1.1E1,5.325E1,2.35E1,2E0,3E0,2E0,2.5E0,8.5E0,3.75E0,4.95E1],"tree_param":{"num_deleted":"0","num_feature":"3072","num_nodes":"15","size_leaf_vector":"0"}},{"base_weights":[2.9682761E-2,6.48248E-1,-1.6686965E0,8.204708E-1,-9.466231E-1,1.7105646E-2,-1.737461E0,-5.9842053E-3,2.7583705E-2,2.5530165E-2,-3.5325367E-2,1.375346E-4,-4.5227688E-2],"categories":[],"categories_nodes":[],"categories_segments":[],"categories_sizes":[],"default_left":[false,false,false,false,false,false,false,false,false,false,false,false,false],"id":1,"left_children":[1,3,5,7,9,-1,11,-1,-1,-1,-1,-1,-1],"loss_changes":[1.071587E2,2.1304447E1,5.543442E0,1.8866268E1,7.965289E0,0E0,1.56633E0,0E0,0E0,0E0,0E0,0E0,0E0],"parents":[2147483647,0,0,1,1,2,2,3,3,4,4,6,6],"right_children":[2,4,6,8,10,-1,12,-1,-1,-1,-1,-1,-1],"split_conditions":[-3.2348633E-2,9.797104E-3,-1.4188332E-2,-2.289458E-2,9.6990985E-1,1.7105646E-2,7.080726E-1,-5.9842053E-3,2.7583705E-2,2.5530165E-2,-3.5325367E-2,1.375346E-4,-4.5227688E-2],"split_indices":[498,2863,2328,2604,110,0,64,0,0,0,0,0,0],"split_type":[0,0,0,0,0,0,0,0,0,0,0,0,0],"sum_hessian":[9.9972E1,7.373526E1,2.623674E1,6.6987175E1,6.748081E0,4.9981058E-1,2.5736929E1,1.3247921E1,5.3739254E1,9.9993455E-1,5.7481465E0,4.998492E-1,2.523708E1],"tree_param":{"num_deleted":"0","num_feature":"3072","num_nodes":"13","size_leaf_vector":"0"}},{"base_weights":[-3.873066E-2,-1.2219864E0,5.7484436E-1,1.0680424E0,-1.4903238E0,-1.0051831E0,9.523154E-1,3.2026306E-2,-9.749755E-3,-4.2108577E-2,3.3281043E-3,-4.2717654E-2,-6.345187E-3,-1.4193988E-2,2.9776974E-2],"categories":[],"categories_nodes":[],"categories_segments":[],"categories_sizes":[],"default_left":[false,false,false,false,false,false,false,false,false,false,false,false,false,false,false],"id":2,"left_children":[1,3,5,7,9,11,13,-1,-1,-1,-1,-1,-1,-1,-1],"loss_changes":[7.432009E1,2.30657E1,4.1187813E1,1.6237621E0,8.352852E0,6.399597E0,1.8351051E1,0E0,0E0,0E0,0E0,0E0,0E0,0E0,0E0],"parents":[2147483647,0,0,1,1,2,2,3,3,4,4,5,5,6,6],"right_children":[2,4,6,8,10,12,14,-1,-1,-1,-1,-1,-1,-1,-1],"split_conditions":[4.3754578E-3,7.080726E-1,-2.289458E-2,-2.486984E-2,5.3130277E-3,3.0090148E-2,-2.1129784E-3,3.2026306E-2,-9.749755E-3,-4.2108577E-2,3.3281043E-3,-4.2717654E-2,-6.345187E-3,-1.4193988E-2,2.9776974E-2],"split_indices":[486,231,2604,2305,2496,62,2993,0,0,0,0,0,0,0,0],"split_type":[0,0,0,0,0,0,0,0,0,0,0,0,0,0,0],"sum_hessian":[1.0039945E2,3.3945427E1,6.6454025E1,3.2478235E0,3.0697603E1,1.2493882E1,5.3960144E1,2.9983535E0,2.4947016E-1,2.7948286E1,2.7493174E0,5.9957075E0,6.498175E0,6.4955235E0,4.7464622E1],"tree_param":{"num_deleted":"0","num_feature":"3072","num_nodes":"15","size_leaf_vector":"0"}},{"base_weights":[-6.344521E-2,-1.3031119E0,5.826876E-1,6.444469E-2,-1.5617727E0,-1.3468448E0,8.357379E-1,2.7013306E-2,-1.703761E-2,1.2920051E-2,-4.21054E-2,1.700727E-2,-3.9746065E-2,3.6158845E-2,8.273442E-3],"categories":[],"categories_nodes":[],"categories_segments":[],"categories_sizes":[],"default_left":[false,false,false,false,false,false,false,false,false,false,false,false,false,false,false],"id":3,"left_children":[1,3,5,7,9,11,13,-1,-1,-1,-1,-1,-1,-1,-1],"loss_changes":[8.507979E1,1.2968708E1,3.5251953E1,5.6076455E0,6.334343E0,4.612959E0,1.8067554E1,0E0,0E0,0E0,0E0,0E0,0E0,0E0,0E0],"parents":[2147483647,0,0,1,1,2,2,3,3,4,4,5,5,6,6],"right_children":[2,4,6,8,10,12,14,-1,-1,-1,-1,-1,-1,-1,-1],"split_conditions":[4.3754578E-3,-4.763794E-2,-3.4105416E-2,2.9192743E-1,-2.0935554E-2,1.5599452E-1,-1.499176E-2,2.7013306E-2,-1.703761E-2,1.2920051E-2,-4.21054E-2,1.700727E-2,-3.9746065E-2,3.6158845E-2,8.273442E-3],"split_indices":[486,397,2887,174,2334,28,1208,0,0,0,0,0,0,0,0],"split_type":[0,0,0,0,0,0,0,0,0,0,0,0,0,0,0],"sum_hessian":[1.0427041E2,3.537786E1,6.889255E1,5.7465134E0,2.9631348E1,7.4863076E0,6.1406242E1,2.2482002E0,3.498313E0,9.999132E-1,2.8631435E1,4.9999934E-1,6.986308E0,2.7955935E1,3.3450306E1],"tree_param":{"num_deleted":"0","num_feature":"3072","num_nodes":"15","size_leaf_vector":"0"}},{"base_weights":[-2.552356E-2,-1.3384527E0,5.990019E-1,-1.5353717E0,5.0076836E-1,8.18454E-1,-4.1035153E-2,-4.055743E-2,2.728328E-4,-1.2802074E-2,2.5591591E-2,2.9895503E-2,-2.4252194E-3],"categories":[],"categories_nodes":[],"categories_segments":[],"categories_sizes":[],"default_left":[false,false,false,false,false,false,false,false,false,false,false,false,false],"id":4,"left_children":[1,3,5,7,9,11,-1,-1,-1,-1,-1,-1,-1],"loss_changes":[8.536455E1,1.2920876E1,3.5478237E1,2.5033798E0,2.5108747E0,2.0968472E1,0E0,0E0,0E0,0E0,0E0,0E0,0E0],"parents":[2147483647,0,0,1,1,2,2,3,3,4,4,5,5],"right_children":[2,4,6,8,10,12,-1,-1,-1,-1,-1,-1,-1],"split_conditions":[4.3754578E-3,4.6032947E-4,6.7625605E-2,4.3738283E-2,7.876609E-1,-3.1223297E-3,-4.1035153E-2,-4.055743E-2,2.728328E-4,-1.2802074E-2,2.5591591E-2,2.9895503E-2,-2.4252194E-3],"split_indices":[486,3024,2783,2344,93,1276,0,0,0,0,0,0,0],"split_type":[0,0,0,0,0,0,0,0,0,0,0,0,0],"sum_hessian":[1.0213071E2,3.2552658E1,6.957805E1,2.9553658E1,2.9990005E0,6.3853992E1,5.7240543E0,2.8554373E1,9.992851E-1,9.999923E-1,1.9990082E0,4.5885212E1,1.7968779E1],"tree_param":{"num_deleted":"0","num_feature":"3072","num_nodes":"13","size_leaf_vector":"0"}},{"base_weights":[4.2250015E-2,-1.2798613E0,7.038723E-1,9.967116E-2,-1.5247633E0,9.940538E-1,-7.5525916E-1,-3.0921485E-2,2.2408301E-2,-4.0493164E-2,1.748856E-2,4.8261783E-3,3.518332E-2,2.9807763E-2,-2.8924208E-2],"categories":[],"categories_nodes":[],"categories_segments":[],"categories_sizes":[],"default_left":[false,false,false,false,false,false,false,false,false,false,false,false,false,false,false],"id":5,"left_children":[1,3,5,7,9,11,13,-1,-1,-1,-1,-1,-1,-1,-1],"loss_changes":[9.225281E1,1.2039532E1,3.0494503E1,7.4248867E0,5.1033783E0,1.796574E1,1.0184829E1,0E0,0E0,0E0,0E0,0E0,0E0,0E0,0E0],"parents":[2147483647,0,0,1,1,2,2,3,3,4,4,5,5,6,6],"right_children":[2,4,6,8,10,12,14,-1,-1,-1,-1,-1,-1,-1,-1],"split_conditions":[4.3754578E-3,-1.8066406E-2,2.827472E-2,1E0,4.3738283E-2,-5.2736286E-2,8.18175E-1,-3.0921485E-2,2.2408301E-2,-4.0493164E-2,1.748856E-2,4.8261783E-3,3.518332E-2,2.9807763E-2,-2.8924208E-2],"split_indices":[486,260,2716,245,2344,2749,117,0,0,0,0,0,0,0,0],"split_type":[0,0,0,0,0,0,0,0,0,0,0,0,0,0,0],"sum_hessian":[1.0343345E2,3.4185856E1,6.924759E1,5.2433124E0,2.8942545E1,5.8026447E1,1.1221141E1,1.74551E0,3.4978025E0,2.8443216E1,4.993294E-1,1.920511E1,3.8821335E1,1.4973663E0,9.723775E0],"tree_param":{"num_deleted":"0","num_feature":"3072","num_nodes":"15","size_leaf_vector":"0"}},{"base_weights":[-2.8066019E-2,6.1915493E-1,-1.0644412E0,-1.4813495E0,8.7720615E-1,6.262526E-1,-1.356842E0,1.03025865E-2,-4.1163713E-2,1.5374259E-2,3.9135758E-2,-1.2926011E-2,2.7820984E-2,2.8791366E-2,-3.812205E-2],"categories":[],"categories_nodes":[],"categories_segments":[],"categories_sizes":[],"default_left":[false,false,false,false,false,false,false,false,false,false,false,false,false,false,false],"id":6,"left_children":[1,3,5,7,9,11,13,-1,-1,-1,-1,-1,-1,-1,-1],"loss_changes":[6.555075E1,3.3921745E1,1.941713E1,2.3598967E0,8.855701E0,3.8139188E0,1.2592079E1,0E0,0E0,0E0,0E0,0E0,0E0,0E0,0E0],"parents":[2147483647,0,0,1,1,2,2,3,3,4,4,5,5,6,6],"right_children":[2,4,6,8,10,12,14,-1,-1,-1,-1,-1,-1,-1,-1],"split_conditions":[-2.3834229E-2,-5.8602974E-2,-1.965332E-2,3.0090148E-2,-1.3888341E-3,6.7426986E-4,-5.4624017E-2,1.03025865E-2,-4.1163713E-2,1.5374259E-2,3.9135758E-2,-1.2926011E-2,2.7820984E-2,2.8791366E-2,-3.812205E-2],"split_indices":[1110,2706,260,45,2954,2310,2662,0,0,0,0,0,0,0,0],"split_type":[0,0,0,0,0,0,0,0,0,0,0,0,0,0,0],"sum_hessian":[9.5743E1,5.9184555E1,3.6558445E1,5.9567585E0,5.32278E1,5.222074E0,3.133637E1,2.4998209E-1,5.7067766E0,3.8832478E1,1.4395318E1,1.4886994E0,3.7333746E0,1.2459242E0,3.0090446E1],"tree_param":{"num_deleted":"0","num_feature":"3072","num_nodes":"15","size_leaf_vector":"0"}},{"base_weights":[3.50789E-2,6.1453134E-1,-9.1622335E-1,-1.2711185E0,7.8554547E-1,-1.3644258E0,3.9769349E-1,9.202363E-3,-3.5881307E-2,2.9118847E-2,4.6432097E-3,-3.695739E-2,2.1269526E-2,2.7675046E-2,-2.8616535E-2],"categories":[],"categories_nodes":[],"categories_segments":[],"categories_sizes":[],"default_left":[false,false,false,false,false,false,false,false,false,false,false,false,false,false,false],"id":7,"left_children":[1,3,5,7,9,11,13,-1,-1,-1,-1,-1,-1,-1,-1],"loss_changes":[5.950939E1,2.262175E1,2.4617313E1,1.806653E0,1.3086475E1,6.78001E0,1.2848315E1,0E0,0E0,0E0,0E0,0E0,0E0,0E0,0E0],"parents":[2147483647,0,0,1,1,2,2,3,3,4,4,5,5,6,6],"right_children":[2,4,6,8,10,12,14,-1,-1,-1,-1,-1,-1,-1,-1],"split_conditions":[-2.3834229E-2,-4.4121604E-2,3.57666E-2,1.5599452E-1,1.5472412E-2,3.2083467E-2,8.4400547E-1,9.202363E-3,-3.5881307E-2,2.9118847E-2,4.6432097E-3,-3.695739E-2,2.1269526E-2,2.7675046E-2,-2.8616535E-2],"split_indices":[1110,2884,315,0,1050,2518,61,0,0,0,0,0,0,0,0],"split_type":[0,0,0,0,0,0,0,0,0,0,0,0,0,0,0],"sum_hessian":[1.05935165E2,6.605443E1,3.9880733E1,4.957609E0,6.109682E1,2.9708237E1,1.0172495E1,2.4744704E-1,4.710162E0,3.7930843E1,2.3165977E1,2.8960623E1,7.476155E-1,7.2039595E0,2.9685354E0],"tree_param":{"num_deleted":"0","num_feature":"3072","num_nodes":"15","size_leaf_vector":"0"}},{"base_weights":[-1.9950555E-3,6.128626E-1,-1.0748112E0,8.24708E-1,-8.17379E-1,-1.2828403E0,6.4269185E-1,-8.135321E-3,2.5075749E-2,2.7844787E-2,-3.237246E-2,4.9344217E-3,-3.559874E-2,-1.8004527E-2,3.391835E-2],"categories":[],"categories_nodes":[],"categories_segments":[],"categories_sizes":[],"default_left":[false,false,false,false,false,false,false,false,false,false,false,false,false,false,false],"id":8,"left_children":[1,3,5,7,9,11,13,-1,-1,-1,-1,-1,-1,-1,-1],"loss_changes":[6.7911385E1,2.0504053E1,1.4225632E1,1.0641712E1,9.063689E0,5.805996E0,5.294354E0,0E0,0E0,0E0,0E0,0E0,0E0,0E0,0E0],"parents":[2147483647,0,0,1,1,2,2,3,3,4,4,5,5,6,6],"right_children":[2,4,6,8,10,12,14,-1,-1,-1,-1,-1,-1,-1,-1],"split_conditions":[-2.3834229E-2,4.105487E-2,6.418347E-3,1E0,2.0584494E-2,-8.363487E-3,1E0,-8.135321E-3,2.5075749E-2,2.7844787E-2,-3.237246E-2,4.9344217E-3,-3.559874E-2,-1.8004527E-2,3.391835E-2],"split_indices":[1110,2342,2777,176,18,2393,59,0,0,0,0,0,0,0,0],"split_type":[0,0,0,0,0,0,0,0,0,0,0,0,0,0,0],"sum_hessian":[1.0095527E2,6.4447525E1,3.6507748E1,5.650192E1,7.945607E0,3.2789288E1,3.718457E0,6.702938E0,4.979898E1,1.2455007E0,6.7001066E0,2.2417758E0,3.0547514E1,1.24392E0,2.474537E0],"tree_param":{"num_deleted":"0","num_feature":"3072","num_nodes":"15","size_leaf_vector":"0"}},{"base_weights":[-1.1636734E-1,5.411871E-1,-1.1511039E0,9.1551894E-1,-4.8226696E-1,-1.3478943E0,8.1433946E-1,2.9401166E-2,-2.1904055E-3,-2.4235796E-2,1.831129E-2,2.71849E-3,-3.8149014E-2,3.4922842E-2,-1.9487118E-2],"categories":[],"categories_nodes":[],"categories_segments":[],"categories_sizes":[],"default_left":[false,false,false,false,false,false,false,false,false,false,false,false,false,false,false],"id":9,"left_children":[1,3,5,7,9,11,13,-1,-1,-1,-1,-1,-1,-1,-1],"loss_changes":[6.926391E1,2.433418E1,1.6382874E1,1.0955444E1,1.0393981E1,7.8566055E0,4.724753E0,0E0,0E0,0E0,0E0,0E0,0E0,0E0,0E0],"parents":[2147483647,0,0,1,1,2,2,3,3,4,4,5,5,6,6],"right_children":[2,4,6,8,10,12,14,-1,-1,-1,-1,-1,-1,-1,-1],"split_conditions":[-2.5222778E-2,1.2025133E-2,3.5918728E-2,5.3692624E-2,4.571251E-2,-3.5461426E-2,3.0090148E-2,2.9401166E-2,-2.1904055E-3,-2.4235796E-2,1.831129E-2,2.71849E-3,-3.8149014E-2,3.4922842E-2,-1.9487118E-2],"split_indices":[1110,2822,2844,2348,2309,348,99,0,0,0,0,0,0,0,0],"split_type":[0,0,0,0,0,0,0,0,0,0,0,0,0,0,0],"sum_hessian":[9.988389E1,6.1364777E1,3.851911E1,4.5008297E1,1.6356478E1,3.5298996E1,3.220117E0,3.631191E1,8.696389E0,1.1924756E1,4.4317226E0,3.2412183E0,3.2057777E1,2.482733E0,7.373841E-1],"tree_param":{"num_deleted":"0","num_feature":"3072","num_nodes":"15","size_leaf_vector":"0"}},{"base_weights":[6.625433E-2,4.6988904E-1,-1.3043498E0,-1.154107E0,7.050804E-1,-1.451068E0,4.2126146E-1,-3.7828233E-2,2.2534138E-2,-1.5707813E-2,2.3734577E-2,-3.910937E-2,-1.6827151E-2,2.5633194E-2,-1.6254885E-2],"categories":[],"categories_nodes":[],"categories_segments":[],"categories_sizes":[],"default_left":[false,false,false,false,false,false,false,false,false,false,false,false,false,false,false],"id":10,"left_children":[1,3,5,7,9,11,13,-1,-1,-1,-1,-1,-1,-1,-1],"loss_changes":[5.3435665E1,2.9267134E1,6.177841E0,7.8355846E0,2.0017536E1,2.9351425E-1,2.1775122E0,0E0,0E0,0E0,0E0,0E0,0E0,0E0,0E0],"parents":[2147483647,0,0,1,1,2,2,3,3,4,4,5,5,6,6],"right_children":[2,4,6,8,10,12,14,-1,-1,-1,-1,-1,-1,-1,-1],"split_conditions":[-3.2348633E-2,-2.1772817E-2,3.3236563E-2,3.1488703E-3,1E0,3.0776978E-2,2.0584494E-2,-3.7828233E-2,2.2534138E-2,-1.5707813E-2,2.3734577E-2,-3.910937E-2,-1.6827151E-2,2.5633194E-2,-1.6254885E-2],"split_indices":[498,2726,3054,2363,176,259,42,0,0,0,0,0,0,0,0],"split_type":[0,0,0,0,0,0,0,0,0,0,0,0,0,0,0],"sum_hessian":[9.4481804E1,7.34951E1,2.09867E1,8.803039E0,6.469206E1,1.9488787E1,1.4979134E0,7.8198714E0,9.8316693E-1,9.140104E0,5.555196E1,1.6849192E1,2.639596E0,9.989717E-1,4.9894166E-1],"tree_param":{"num_deleted":"0","num_feature":"3072","num_nodes":"15","size_leaf_vector":"0"}},{"base_weights":[-7.3036976E-2,4.000869E-1,-1.3173887E0,-4.2757532E-1,7.843941E-1,9.865637E-1,-4.0202867E-2,-3.2152776E-2,4.305688E-3,1.1612254E-3,3.1779237E-2,-1.1552261E-2,3.1600453E-2],"categories":[],"categories_nodes":[],"categories_segments":[],"categories_sizes":[],"default_left":[false,false,false,false,false,false,false,false,false,false,false,false,false],"id":11,"left_children":[1,3,5,7,9,11,-1,-1,-1,-1,-1,-1,-1],"loss_changes":[6.0708157E1,2.4136707E1,1.834742E1,1.2292972E1,1.7429447E1,1.8084714E0,0E0,0E0,0E0,0E0,0E0,0E0,0E0],"parents":[2147483647,0,0,1,1,2,2,3,3,4,4,5,5],"right_children":[2,4,6,8,10,12,-1,-1,-1,-1,-1,-1,-1],"split_conditions":[0E0,-2.9610258E-2,-7.9625205E-4,-3.5014063E-2,-1.7929077E-2,2.9192743E-1,-4.0202867E-2,-3.2152776E-2,4.305688E-3,1.1612254E-3,3.1779237E-2,-1.1552261E-2,3.1600453E-2],"split_indices":[1125,3064,2424,2591,808,174,0,0,0,0,0,0,0],"split_type":[0,0,0,0,0,0,0,0,0,0,0,0,0],"sum_hessian":[1.0122145E2,7.382891E1,2.7392544E1,2.3374939E1,5.0453968E1,2.4613848E0,2.4931158E1,9.297627E0,1.40773115E1,1.977716E1,3.067681E1,2.4595806E-1,2.2154267E0],"tree_param":{"num_deleted":"0","num_feature":"3072","num_nodes":"13","size_leaf_vector":"0"}},{"base_weights":[-1.0133565E-2,-1.0882298E0,5.6747013E-1,-1.3768469E0,7.536958E-3,-1.4153204E0,7.2066504E-1,6.848602E-3,-3.6524728E-2,-2.6954034E-2,1.861689E-2,9.428394E-3,-4.032025E-2,-1.7668353E-2,2.1897923E-2],"categories":[],"categories_nodes":[],"categories_segments":[],"categories_sizes":[],"default_left":[false,false,false,false,false,false,false,false,false,false,false,false,false,false,false],"id":12,"left_children":[1,3,5,7,9,11,13,-1,-1,-1,-1,-1,-1,-1,-1],"loss_changes":[6.5111115E1,1.154538E1,2.170415E1,2.9134178E0,7.3625336E0,2.1052532E0,1.2929626E1,0E0,0E0,0E0,0E0,0E0,0E0,0E0,0E0],"parents":[2147483647,0,0,1,1,2,2,3,3,4,4,5,5,6,6],"right_children":[2,4,6,8,10,12,14,-1,-1,-1,-1,-1,-1,-1,-1],"split_conditions":[6.9298577E-3,2.0804256E-2,3.6346436E-2,-4.026228E-2,-4.736328E-2,3.6927336E-3,-2.6672421E-2,6.848602E-3,-3.6524728E-2,-2.6954034E-2,1.861689E-2,9.428394E-3,-4.032025E-2,-1.7668353E-2,2.1897923E-2],"split_indices":[486,2698,1281,2857,313,2306,2919,0,0,0,0,0,0,0,0],"split_type":[0,0,0,0,0,0,0,0,0,0,0,0,0,0,0],"sum_hessian":[1.025688E2,3.5473515E1,6.709529E1,2.787494E1,7.5985737E0,4.2212515E0,6.287404E1,7.477015E-1,2.712724E1,2.8849425E0,4.713631E0,2.4847049E-1,3.972781E0,5.1912165E0,5.768282E1],"tree_param":{"num_deleted":"0","num_feature":"3072","num_nodes":"15","size_leaf_vector":"0"}},{"base_weights":[1.9079942E-1,-1.029679E0,6.0352635E-1,-1.3235902E0,5.065639E-1,-1.0387858E0,7.597639E-1,1.5933147E-2,-3.5762742E-2,3.402121E-2,-1.9667223E-2,1.5736178E-2,-3.6341332E-2,-2.9735302E-4,2.7317468E-2],"categories":[],"categories_nodes":[],"categories_segments":[],"categories_sizes":[],"default_left":[false,false,false,false,false,false,false,false,false,false,false,false,false,false,false],"id":13,"left_children":[1,3,5,7,9,11,13,-1,-1,-1,-1,-1,-1,-1,-1],"loss_changes":[4.9751812E1,1.1966309E1,1.9652977E1,4.0509644E0,6.0220785E0,5.205237E0,1.6195515E1,0E0,0E0,0E0,0E0,0E0,0E0,0E0,0E0],"parents":[2147483647,0,0,1,1,2,2,3,3,4,4,5,5,6,6],"right_children":[2,4,6,8,10,12,14,-1,-1,-1,-1,-1,-1,-1,-1],"split_conditions":[2.33078E-3,5.508952E-2,-4.70727E-2,7.080726E-1,2.0584494E-2,1.8182497E-1,1E0,1.5933147E-2,-3.5762742E-2,3.402121E-2,-1.9667223E-2,1.5736178E-2,-3.6341332E-2,-2.9735302E-4,2.7317468E-2],"split_indices":[486,2374,2604,64,42,240,225,0,0,0,0,0,0,0,0],"split_type":[0,0,0,0,0,0,0,0,0,0,0,0,0,0,0],"sum_hessian":[9.653425E1,2.4017393E1,7.251685E1,2.0276545E1,3.740848E0,5.8087387E0,6.6708115E1,4.9785107E-1,1.9778694E1,2.2454193E0,1.4954286E0,9.805364E-1,4.8282022E0,1.9391514E1,4.7316605E1],"tree_param":{"num_deleted":"0","num_feature":"3072","num_nodes":"15","size_leaf_vector":"0"}},{"base_weights":[-1.7585099E-2,-9.792332E-1,5.4263896E-1,-1.2168784E0,-5.379864E-2,-6.5419626E-1,7.532358E-1,-3.3224776E-2,2.221722E-2,-2.970102E-2,1.4820151E-2,-2.8888853E-2,2.7530516E-2,2.2553181E-2,-7.1096197E-3],"categories":[],"categories_nodes":[],"categories_segments":[],"categories_sizes":[],"default_left":[false,false,false,false,false,false,false,false,false,false,false,false,false,false,false],"id":14,"left_children":[1,3,5,7,9,11,13,-1,-1,-1,-1,-1,-1,-1,-1],"loss_changes":[5.4678997E1,8.149864E0,1.6662525E1,6.3350334E0,6.778389E0,9.591604E0,7.614317E0,0E0,0E0,0E0,0E0,0E0,0E0,0E0,0E0],"parents":[2147483647,0,0,1,1,2,2,3,3,4,4,5,5,6,6],"right_children":[2,4,6,8,10,12,14,-1,-1,-1,-1,-1,-1,-1,-1],"split_conditions":[6.99234E-3,2.9129028E-2,1E0,1.3699815E-2,1E0,-9.120329E-3,3.9008863E-2,-3.3224776E-2,2.221722E-2,-2.970102E-2,1.4820151E-2,-2.8888853E-2,2.7530516E-2,2.2553181E-2,-7.1096197E-3],"split_indices":[486,785,144,2775,8,2379,2342,0,0,0,0,0,0,0,0],"split_type":[0,0,0,0,0,0,0,0,0,0,0,0,0,0,0],"sum_hessian":[9.95082E1,3.635514E1,6.3153057E1,2.8676332E1,7.6788096E0,9.134534E0,5.4018524E1,2.7928413E1,7.479175E-1,2.4897141E0,5.1890955E0,7.4344754E0,1.7000585E0,4.810829E1,5.910232E0],"tree_param":{"num_deleted":"0","num_feature":"3072","num_nodes":"15","size_leaf_vector":"0"}},{"base_weights":[2.3198515E-2,4.334742E-1,-1.2627946E0,-1.620783E-1,8.9955854E-1,2.790252E-2,-1.4360256E0,-1.3139281E-2,2.1654509E-2,2.62569E-2,-2.7146298E-2,-1.2330161E-2,-3.764643E-2],"categories":[],"categories_nodes":[],"categories_segments":[],"categories_sizes":[],"default_left":[false,false,false,false,false,false,false,false,false,false,false,false,false],"id":15,"left_children":[1,3,5,7,9,-1,11,-1,-1,-1,-1,-1,-1],"loss_changes":[5.3470097E1,2.1460884E1,1.1571915E1,1.2735727E1,1.1995838E1,0E0,1.3132095E-1,0E0,0E0,0E0,0E0,0E0,0E0],"parents":[2147483647,0,0,1,1,2,2,3,3,4,4,6,6],"right_children":[2,4,6,8,10,-1,12,-1,-1,-1,-1,-1,-1],"split_conditions":[-3.2348633E-2,-9.945761E-4,-6.1717857E-2,-6.1113294E-4,5.3253174E-2,2.790252E-2,1E0,-1.3139281E-2,2.1654509E-2,2.62569E-2,-2.7146298E-2,-1.2330161E-2,-3.764643E-2],"split_indices":[498,2788,2836,2781,295,0,116,0,0,0,0,0,0],"split_type":[0,0,0,0,0,0,0,0,0,0,0,0,0],"sum_hessian":[9.930616E1,7.578961E1,2.3516546E1,3.3559834E1,4.222978E1,1.2475659E0,2.2268982E1,2.5242887E1,8.316948E0,4.0081055E1,2.1487215E0,1.379155E0,2.0889826E1],"tree_param":{"num_deleted":"0","num_feature":"3072","num_nodes":"13","size_leaf_vector":"0"}},{"base_weights":[2.520516E-3,5.037153E-1,-8.9553106E-1,8.6366713E-1,-4.9585932E-1,-1.1661378E0,7.9730296E-1,6.026862E-3,3.0676734E-2,3.06678E-2,-2.5794765E-2,-3.243322E-2,7.0126946E-3,-2.3899628E-2,3.1890634E-2],"categories":[],"categories_nodes":[],"categories_segments":[],"categories_sizes":[],"default_left":[false,false,false,false,false,false,false,false,false,false,false,false,false,false,false],"id":16,"left_children":[1,3,5,7,9,11,13,-1,-1,-1,-1,-1,-1,-1,-1],"loss_changes":[4.6116344E1,2.408705E1,1.7741959E1,1.0034645E1,1.6953049E1,5.1400375E0,5.5897846E0,0E0,0E0,0E0,0E0,0E0,0E0,0E0,0E0],"parents":[2147483647,0,0,1,1,2,2,3,3,4,4,5,5,6,6],"right_children":[2,4,6,8,10,12,14,-1,-1,-1,-1,-1,-1,-1,-1],"split_conditions":[-2.3834229E-2,4.861643E-2,2.0341002E-3,-4.355845E-3,2.0584494E-2,2.8945923E-2,2.9192743E-1,6.026862E-3,3.0676734E-2,3.06678E-2,-2.5794765E-2,-3.243322E-2,7.0126946E-3,-2.3899628E-2,3.1890634E-2],"split_indices":[1110,2897,2710,2700,18,400,174,0,0,0,0,0,0,0,0],"split_type":[0,0,0,0,0,0,0,0,0,0,0,0,0,0,0],"sum_hessian":[1.0045608E2,6.475563E1,3.570045E1,4.7710724E1,1.7044909E1,3.1048368E1,4.6520815E0,1.7276215E1,3.0434507E1,3.6532674E0,1.3391641E1,2.9072897E1,1.9754719E0,7.39478E-1,3.9126036E0],"tree_param":{"num_deleted":"0","num_feature":"3072","num_nodes":"15","size_leaf_vector":"0"}},{"base_weights":[-1.22368395E-1,-1.123826E0,4.489961E-1,-1.3278465E0,4.2757803E-1,-7.6961696E-1,6.348692E-1,-3.631549E-2,-1.0969007E-2,-2.0378506E-2,2.6784958E-2,1.504215E-2,-2.7282644E-2,4.2256447E-3,2.6819792E-2],"categories":[],"categories_nodes":[],"categories_segments":[],"categories_sizes":[],"default_left":[false,false,false,false,false,false,false,false,false,false,false,false,false,false,false],"id":17,"left_children":[1,3,5,7,9,11,13,-1,-1,-1,-1,-1,-1,-1,-1],"loss_changes":[5.6503033E1,1.1910965E1,1.4764954E1,2.0864792E0,4.583313E0,4.196654E0,1.0592842E1,0E0,0E0,0E0,0E0,0E0,0E0,0E0,0E0],"parents":[2147483647,0,0,1,1,2,2,3,3,4,4,5,5,6,6],"right_children":[2,4,6,8,10,12,14,-1,-1,-1,-1,-1,-1,-1,-1],"split_conditions":[6.99234E-3,2.8215703E-2,-4.164513E-2,2.0222211E-2,8.3244264E-1,1E0,-1.2458801E-2,-3.631549E-2,-1.0969007E-2,-2.0378506E-2,2.6784958E-2,1.504215E-2,-2.7282644E-2,4.2256447E-3,2.6819792E-2],"split_indices":[486,2388,2586,2875,228,47,299,0,0,0,0,0,0,0,0],"split_type":[0,0,0,0,0,0,0,0,0,0,0,0,0,0,0],"sum_hessian":[9.686561E1,3.483745E1,6.2028164E1,3.091589E1,3.9215558E0,7.79333E0,5.4234833E1,2.7457893E1,3.4579966E0,1.2234147E0,2.698141E0,1.2291272E0,6.5642033E0,2.6113415E1,2.8121418E1],"tree_param":{"num_deleted":"0","num_feature":"3072","num_nodes":"15","size_leaf_vector":"0"}},{"base_weights":[-2.685456E-2,-5.385306E-1,8.7783414E-1,-1.3325332E0,-1.3879684E-1,-3.4979033E-1,1.2727922E0,1.3421849E-2,-3.5249278E-2,-3.8385633E-2,2.402256E-3,2.5861874E-2,-1.760109E-2,-1.0055428E-2,3.499076E-2],"categories":[],"categories_nodes":[],"categories_segments":[],"categories_sizes":[],"default_left":[false,false,false,false,false,false,false,false,false,false,false,false,false,false,false],"id":18,"left_children":[1,3,5,7,9,11,13,-1,-1,-1,-1,-1,-1,-1,-1],"loss_changes":[4.3957497E1,1.9055824E1,1.7083858E1,2.5117874E0,1.3304543E1,4.9226727E0,4.782402E0,0E0,0E0,0E0,0E0,0E0,0E0,0E0,0E0],"parents":[2147483647,0,0,1,1,2,2,3,3,4,4,5,5,6,6],"right_children":[2,4,6,8,10,12,14,-1,-1,-1,-1,-1,-1,-1,-1],"split_conditions":[1.9821167E-2,3.366089E-2,-3.0639425E-2,7.080726E-1,8.3244264E-1,1.5599452E-1,1E0,1.3421849E-2,-3.5249278E-2,-3.8385633E-2,2.402256E-3,2.5861874E-2,-1.760109E-2,-1.0055428E-2,3.499076E-2],"split_indices":[1084,537,3064,64,137,28,90,0,0,0,0,0,0,0,0],"split_type":[0,0,0,0,0,0,0,0,0,0,0,0,0,0,0],"sum_hessian":[9.293832E1,5.9621933E1,3.3316383E1,1.9183548E1,4.0438385E1,8.137486E0,2.5178898E1,2.2875841E-1,1.895479E1,5.1008434E0,3.533754E1,1.2271917E0,6.910295E0,1.2203004E0,2.3958597E1],"tree_param":{"num_deleted":"0","num_feature":"3072","num_nodes":"15","size_leaf_vector":"0"}},{"base_weights":[-6.829424E-4,-8.6849207E-1,5.15591E-1,-1.2878574E0,3.4425527E-2,-8.2152796E-1,7.4873215E-1,2.1331128E-2,-3.570291E-2,1.5954398E-2,-2.3900028E-2,-2.9376207E-2,2.2681223E-2,-1.8156538E-2,2.5255607E-2],"categories":[],"categories_nodes":[],"categories_segments":[],"categories_sizes":[],"default_left":[false,false,false,false,false,false,false,false,false,false,false,false,false,false,false],"id":19,"left_children":[1,3,5,7,9,11,13,-1,-1,-1,-1,-1,-1,-1,-1],"loss_changes":[4.0026833E1,1.2662661E1,1.8077513E1,6.4914703E0,7.1949854E0,5.9628415E0,1.7605938E1,0E0,0E0,0E0,0E0,0E0,0E0,0E0,0E0],"parents":[2147483647,0,0,1,1,2,2,3,3,4,4,5,5,6,6],"right_children":[2,4,6,8,10,12,14,-1,-1,-1,-1,-1,-1,-1,-1],"split_conditions":[6.99234E-3,3.006861E-2,-2.289458E-2,-3.7400406E-2,8.4400547E-1,-9.120329E-3,1E0,2.1331128E-2,-3.570291E-2,1.5954398E-2,-2.3900028E-2,-2.9376207E-2,2.2681223E-2,-1.8156538E-2,2.5255607E-2],"split_indices":[486,315,2604,2367,61,2379,176,0,0,0,0,0,0,0,0],"split_type":[0,0,0,0,0,0,0,0,0,0,0,0,0,0,0],"sum_hessian":[8.7340706E1,3.23243E1,5.5016407E1,2.1781448E1,1.0542851E1,7.79374E0,4.7222668E1,7.489155E-1,2.1032534E1,6.776382E0,3.7664695E0,6.811399E0,9.823409E-1,6.3945055E0,4.0828163E1],"tree_param":{"num_deleted":"0","num_feature":"3072","num_nodes":"15","size_leaf_vector":"0"}},{"base_weights":[-1.515221E-2,-8.764287E-1,4.6594015E-1,7.869281E-2,-1.1354884E0,5.874728E-1,-1.2624122E0,-2.2750838E-2,2.1379948E-2,3.4657076E-3,-3.1205185E-2,-1.5839E-2,1.9408088E-2,9.644937E-3,-3.6826864E-2],"categories":[],"categories_nodes":[],"categories_segments":[],"categories_sizes":[],"default_left":[false,false,false,false,false,false,false,false,false,false,false,false,false,false,false],"id":20,"left_children":[1,3,5,7,9,11,13,-1,-1,-1,-1,-1,-1,-1,-1],"loss_changes":[4.2370983E1,9.155865E0,1.4527354E1,7.181879E0,3.336357E0,1.3382877E1,1.9075665E0,0E0,0E0,0E0,0E0,0E0,0E0,0E0,0E0],"parents":[2147483647,0,0,1,1,2,2,3,3,4,4,5,5,6,6],"right_children":[2,4,6,8,10,12,14,-1,-1,-1,-1,-1,-1,-1,-1],"split_conditions":[6.9298577E-3,-8.711748E-3,1.2849404E-4,5.8083612E-2,-4.4652283E-2,1E0,3.0090148E-2,-2.2750838E-2,2.1379948E-2,3.4657076E-3,-3.1205185E-2,-1.5839E-2,1.9408088E-2,9.644937E-3,-3.6826864E-2],"split_indices":[486,2487,2341,159,2965,129,63,0,0,0,0,0,0,0,0],"split_type":[0,0,0,0,0,0,0,0,0,0,0,0,0,0,0],"sum_hessian":[1.002725E2,3.5642212E1,6.463029E1,7.753231E0,2.788898E1,6.1000977E1,3.6293118E0,3.3264883E0,4.4267426E0,1.7373384E0,2.6151642E1,7.297684E0,5.3703293E1,2.4920209E-1,3.3801098E0],"tree_param":{"num_deleted":"0","num_feature":"3072","num_nodes":"15","size_leaf_vector":"0"}},{"base_weights":[-1.5791224E-3,-8.8981795E-1,4.7345784E-1,3.687843E-1,-1.0558645E0,-3.5023388E-1,8.836543E-1,-1.6862284E-2,2.4797624E-2,-5.9877755E-3,-3.272455E-2,-3.3404198E-2,2.9545184E-3,3.3691023E-2,8.205273E-3],"categories":[],"categories_nodes":[],"categories_segments":[],"categories_sizes":[],"default_left":[false,false,false,false,false,false,false,false,false,false,false,false,false,false,false],"id":21,"left_children":[1,3,5,7,9,11,13,-1,-1,-1,-1,-1,-1,-1,-1],"loss_changes":[3.8744446E1,7.0759926E0,2.0524342E1,3.4109707E0,4.9821243E0,9.345779E0,9.427624E0,0E0,0E0,0E0,0E0,0E0,0E0,0E0,0E0],"parents":[2147483647,0,0,1,1,2,2,3,3,4,4,5,5,6,6],"right_children":[2,4,6,8,10,12,14,-1,-1,-1,-1,-1,-1,-1,-1],"split_conditions":[4.3754578E-3,-2.1786258E-2,-4.355845E-3,1.5599452E-1,-4.654806E-2,1.3382386E-1,1.26953125E-2,-1.6862284E-2,2.4797624E-2,-5.9877755E-3,-3.272455E-2,-3.3404198E-2,2.9545184E-3,3.3691023E-2,8.205273E-3],"split_indices":[486,2767,2700,70,397,225,1050,0,0,0,0,0,0,0,0],"split_type":[0,0,0,0,0,0,0,0,0,0,0,0,0,0,0],"sum_hessian":[8.982472E1,3.0995401E1,5.882932E1,3.4702864E0,2.7525116E1,1.9605942E1,3.9223377E1,1.2454656E0,2.2248209E0,6.3670526E0,2.1158062E1,5.825142E0,1.37808E1,2.1346876E1,1.78765E1],"tree_param":{"num_deleted":"0","num_feature":"3072","num_nodes":"15","size_leaf_vector":"0"}},{"base_weights":[2.8595932E-2,-8.4374666E-1,5.2843106E-1,-1.2441851E0,-7.5131613E-3,-7.866629E-1,7.3906493E-1,-3.347806E-2,1.5986407E-2,-2.377444E-2,1.2892105E-2,6.461827E-3,-3.5335995E-2,-1.2624E-2,2.4134424E-2],"categories":[],"categories_nodes":[],"categories_segments":[],"categories_sizes":[],"default_left":[false,false,false,false,false,false,false,false,false,false,false,false,false,false,false],"id":22,"left_children":[1,3,5,7,9,11,13,-1,-1,-1,-1,-1,-1,-1,-1],"loss_changes":[4.225003E1,1.1814211E1,1.7635416E1,3.79496E0,6.354116E0,5.925308E0,1.4074644E1,0E0,0E0,0E0,0E0,0E0,0E0,0E0,0E0],"parents":[2147483647,0,0,1,1,2,2,3,3,4,4,5,5,6,6],"right_children":[2,4,6,8,10,12,14,-1,-1,-1,-1,-1,-1,-1,-1],"split_conditions":[6.9298577E-3,5.521308E-3,-2.1129784E-3,5.2372277E-2,1.3382386E-1,5.8083612E-2,1E0,-3.347806E-2,1.5986407E-2,-2.377444E-2,1.2892105E-2,6.461827E-3,-3.5335995E-2,-1.2624E-2,2.4134424E-2],"split_indices":[486,2412,2993,2309,247,126,176,0,0,0,0,0,0,0,0],"split_type":[0,0,0,0,0,0,0,0,0,0,0,0,0,0,0],"sum_hessian":[9.4875084E1,3.430896E1,6.0566124E1,2.2869726E1,1.1439233E1,7.983894E0,5.2582233E1,2.2371689E1,4.9803585E-1,3.7903862E0,7.648847E0,3.1220667E0,4.861827E0,7.3223066E0,4.5259926E1],"tree_param":{"num_deleted":"0","num_feature":"3072","num_nodes":"15","size_leaf_vector":"0"}},{"base_weights":[4.3274157E-2,-6.372185E-1,6.0610044E-1,-1.2890012E0,2.1631723E-2,-1.9022128E-1,1.0727156E0,-2.0211437E-3,-3.3761803E-2,-7.756346E-3,3.6776803E-2,-3.8014423E-2,9.058995E-3,-1.4564387E-3,3.1874895E-2],"categories":[],"categories_nodes":[],"categories_segments":[],"categories_sizes":[],"default_left":[false,false,false,false,false,false,false,false,false,false,false,false,false,false,false],"id":23,"left_children":[1,3,5,7,9,11,13,-1,-1,-1,-1,-1,-1,-1,-1],"loss_changes":[3.8927372E1,1.9799E1,2.0859653E1,8.180542E-1,1.14560795E1,1.5658277E1,7.0438385E0,0E0,0E0,0E0,0E0,0E0,0E0,0E0,0E0],"parents":[2147483647,0,0,1,1,2,2,3,3,4,4,5,5,6,6],"right_children":[2,4,6,8,10,12,14,-1,-1,-1,-1,-1,-1,-1,-1],"split_conditions":[1.6708374E-2,3.587397E-2,-9.716502E-3,1E0,-2.7704686E-2,1E0,4.91333E-2,-2.0211437E-3,-3.3761803E-2,-7.756346E-3,3.6776803E-2,-3.8014423E-2,9.058995E-3,-1.4564387E-3,3.1874895E-2],"split_indices":[785,2692,2788,119,2982,87,870,0,0,0,0,0,0,0,0],"split_type":[0,0,0,0,0,0,0,0,0,0,0,0,0,0,0],"sum_hessian":[9.962987E1,4.504067E1,5.45892E1,2.2160975E1,2.2879696E1,2.0387829E1,3.420137E1,6.77312E-1,2.1483662E1,1.9250147E1,3.6295478E0,5.5157347E0,1.4872093E1,4.6854734E0,2.9515896E1],"tree_param":{"num_deleted":"0","num_feature":"3072","num_nodes":"15","size_leaf_vector":"0"}},{"base_weights":[-5.4557264E-2,2.2068018E-1,-1.0621632E0,-2.1242534E-1,7.423422E-1,3.008217E-1,-1.1995953E0,9.286322E-3,-2.0859314E-2,-1.469502E-2,2.3728E-2,-1.4103826E-2,1.8718319E-2,-1.0338132E-2,-3.5166442E-2],"categories":[],"categories_nodes":[],"categories_segments":[],"categories_sizes":[],"default_left":[false,false,false,false,false,false,false,false,false,false,false,false,false,false,false],"id":24,"left_children":[1,3,5,7,9,11,13,-1,-1,-1,-1,-1,-1,-1,-1],"loss_changes":[2.6953852E1,1.744213E1,4.265148E0,1.5117781E1,9.127676E0,1.4031171E0,2.1395378E0,0E0,0E0,0E0,0E0,0E0,0E0,0E0,0E0],"parents":[2147483647,0,0,1,1,2,2,3,3,4,4,5,5,6,6],"right_children":[2,4,6,8,10,12,14,-1,-1,-1,-1,-1,-1,-1,-1],"split_conditions":[-3.2348633E-2,2.1405425E-2,-5.7089496E-3,4.915073E-3,-4.4220176E-2,2.9192743E-1,1E0,9.286322E-3,-2.0859314E-2,-1.469502E-2,2.3728E-2,-1.4103826E-2,1.8718319E-2,-1.0338132E-2,-3.5166442E-2],"split_indices":[498,2549,2473,2521,2586,32,107,0,0,0,0,0,0,0,0],"split_type":[0,0,0,0,0,0,0,0,0,0,0,0,0,0,0],"sum_hessian":[9.534503E1,7.550192E1,1.9843105E1,4.157632E1,3.3925602E1,1.708651E0,1.8134455E1,2.1490244E1,2.0086079E1,3.9521966E0,2.9973406E1,4.8099196E-1,1.227659E0,3.9067535E0,1.42277E1],"tree_param":{"num_deleted":"0","num_feature":"3072","num_nodes":"15","size_leaf_vector":"0"}},{"base_weights":[5.102224E-3,3.258998E-1,-9.520965E-1,5.207847E-1,-5.7169634E-1,-1.1056526E0,2.614981E-2,-1.4270641E-2,1.8553613E-2,-2.4124263E-2,2.3632366E-2,-2.7824517E-3,-3.049233E-2],"categories":[],"categories_nodes":[],"categories_segments":[],"categories_sizes":[],"default_left":[false,false,false,false,false,false,false,false,false,false,false,false,false],"id":25,"left_children":[1,3,5,7,9,11,-1,-1,-1,-1,-1,-1,-1],"loss_changes":[2.9030426E1,1.2682249E1,8.333118E0,1.3437474E1,8.1899185E0,1.8494492E0,0E0,0E0,0E0,0E0,0E0,0E0,0E0],"parents":[2147483647,0,0,1,1,2,2,3,3,4,4,5,5],"right_children":[2,4,6,8,10,12,-1,-1,-1,-1,-1,-1,-1],"split_conditions":[0E0,3.0822754E-2,6.142729E-2,1E0,2.6827656E-2,2.9192743E-1,2.614981E-2,-1.4270641E-2,1.8553613E-2,-2.4124263E-2,2.3632366E-2,-2.7824517E-3,-3.049233E-2],"split_indices":[1125,844,2427,165,2452,175,0,0,0,0,0,0,0],"split_type":[0,0,0,0,0,0,0,0,0,0,0,0,0],"sum_hessian":[9.253052E1,6.979785E1,2.2732668E1,5.7691704E1,1.2106144E1,2.1502161E1,1.230508E0,8.95768E0,4.8734024E1,9.987472E0,2.1186724E0,1.9309382E0,1.9571222E1],"tree_param":{"num_deleted":"0","num_feature":"3072","num_nodes":"13","size_leaf_vector":"0"}},{"base_weights":[-1.344653E-2,3.0605042E-1,-1.0901886E0,4.5274782E-1,-8.869397E-1,6.632986E-1,-1.2270496E0,5.842597E-3,2.7099863E-2,1.1643086E-2,-2.8598897E-2,-8.591657E-3,2.436855E-2,6.6107046E-3,-3.2473143E-2],"categories":[],"categories_nodes":[],"categories_segments":[],"categories_sizes":[],"default_left":[false,false,false,false,false,false,false,false,false,false,false,false,false,false,false],"id":26,"left_children":[1,3,5,7,9,11,13,-1,-1,-1,-1,-1,-1,-1,-1],"loss_changes":[3.2962654E1,1.3338991E1,6.0750237E0,8.81724E0,3.1470637E0,9.7119474E-1,1.6945419E0,0E0,0E0,0E0,0E0,0E0,0E0,0E0,0E0],"parents":[2147483647,0,0,1,1,2,2,3,3,4,4,5,5,6,6],"right_children":[2,4,6,8,10,12,14,-1,-1,-1,-1,-1,-1,-1,-1],"split_conditions":[-3.2348633E-2,2.4292147E-2,-5.1932957E-2,4.441686E-2,1E0,6.01115E-1,7.080726E-1,5.842597E-3,2.7099863E-2,1.1643086E-2,-2.8598897E-2,-8.591657E-3,2.436855E-2,6.6107046E-3,-3.2473143E-2],"split_indices":[498,2521,2888,2677,249,1,64,0,0,0,0,0,0,0,0],"split_type":[0,0,0,0,0,0,0,0,0,0,0,0,0,0,0],"sum_hessian":[9.384739E1,7.292457E1,2.0922825E1,6.549179E1,7.4327793E0,1.2363222E0,1.9686502E1,4.8873173E1,1.6618616E1,9.567982E-1,6.475981E0,2.4331778E-1,9.930043E-1,4.3134683E-1,1.9255156E1],"tree_param":{"num_deleted":"0","num_feature":"3072","num_nodes":"15","size_leaf_vector":"0"}},{"base_weights":[-1.2830178E-1,3.9572537E-1,-7.717568E-1,-5.341796E-1,6.409745E-1,4.9954522E-1,-1.0793722E0,1.9759202E-2,-3.745109E-2,-4.5278203E-3,2.4281092E-2,3.3705246E-2,-1.7297938E-2,8.8510575E-4,-2.997531E-2],"categories":[],"categories_nodes":[],"categories_segments":[],"categories_sizes":[],"default_left":[false,false,false,false,false,false,false,false,false,false,false,false,false,false,false],"id":27,"left_children":[1,3,5,7,9,11,13,-1,-1,-1,-1,-1,-1,-1,-1],"loss_changes":[3.2152008E1,1.2364641E1,1.7250486E1,1.5212195E1,1.0856131E1,9.589325E0,3.6883392E0,0E0,0E0,0E0,0E0,0E0,0E0,0E0,0E0],"parents":[2147483647,0,0,1,1,2,2,3,3,4,4,5,5,6,6],"right_children":[2,4,6,8,10,12,14,-1,-1,-1,-1,-1,-1,-1,-1],"split_conditions":[-2.3162842E-2,1E0,-1.0995053E-2,-2.9889703E-2,-5.3306777E-2,-6.4849416E-3,-6.843567E-3,1.9759202E-2,-3.745109E-2,-4.5278203E-3,2.4281092E-2,3.3705246E-2,-1.7297938E-2,8.8510575E-4,-2.997531E-2],"split_indices":[674,165,2334,2825,2999,2687,495,0,0,0,0,0,0,0,0],"split_type":[0,0,0,0,0,0,0,0,0,0,0,0,0,0,0],"sum_hessian":[9.344765E1,5.1715645E1,4.1732006E1,1.0546946E1,4.1168697E1,8.008952E0,3.3723053E1,4.459919E0,6.087027E0,1.1422055E1,2.9746641E1,4.6481395E0,3.3608127E0,2.6811037E0,3.104195E1],"tree_param":{"num_deleted":"0","num_feature":"3072","num_nodes":"15","size_leaf_vector":"0"}},{"base_weights":[-7.8011975E-2,-9.726234E-1,2.3977666E-1,3.9967763E-1,-1.122437E0,-1.0860181E0,4.1977963E-1,-1.5683604E-2,2.0666054E-2,8.850772E-3,-3.024777E-2,8.302692E-3,-3.1974304E-2,-1.0274531E-2,1.608403E-2],"categories":[],"categories_nodes":[],"categories_segments":[],"categories_sizes":[],"default_left":[false,false,false,false,false,false,false,false,false,false,false,false,false,false,false],"id":28,"left_children":[1,3,5,7,9,11,13,-1,-1,-1,-1,-1,-1,-1,-1],"loss_changes":[2.7441393E1,5.6465397E0,1.7500101E1,1.8360578E0,2.5070534E0,2.4711866E0,1.1232769E1,0E0,0E0,0E0,0E0,0E0,0E0,0E0,0E0],"parents":[2147483647,0,0,1,1,2,2,3,3,4,4,5,5,6,6],"right_children":[2,4,6,8,10,12,14,-1,-1,-1,-1,-1,-1,-1,-1],"split_conditions":[2.33078E-3,-1.1990441E-2,-2.6850432E-2,7.876609E-1,7.080726E-1,9.6990985E-1,8.4400547E-1,-1.5683604E-2,2.0666054E-2,8.850772E-3,-3.024777E-2,8.302692E-3,-3.1974304E-2,-1.0274531E-2,1.608403E-2],"split_indices":[486,2316,2788,5,64,57,10,0,0,0,0,0,0,0,0],"split_type":[0,0,0,0,0,0,0,0,0,0,0,0,0,0,0],"sum_hessian":[9.4703255E1,2.428306E1,7.04202E1,2.225895E0,2.2057165E1,7.8163414E0,6.2603855E1,4.9667507E-1,1.7292198E0,7.059386E-1,2.1351227E1,7.2144115E-1,7.0949006E0,1.2551097E1,5.0052757E1],"tree_param":{"num_deleted":"0","num_feature":"3072","num_nodes":"15","size_leaf_vector":"0"}},{"base_weights":[2.6456276E-2,3.4157294E-1,-1.0778159E0,6.210342E-1,-3.3085957E-1,1.687769E-2,-1.1509409E0,2.6750218E-3,2.5875855E-2,6.565267E-3,-2.4795296E-2,-3.1447507E-2,-8.192714E-3],"categories":[],"categories_nodes":[],"categories_segments":[],"categories_sizes":[],"default_left":[false,false,false,false,false,false,false,false,false,false,false,false,false],"id":29,"left_children":[1,3,5,7,9,-1,11,-1,-1,-1,-1,-1,-1],"loss_changes":[3.3441017E1,1.4243516E1,3.4738884E0,1.0647833E1,8.74706E0,0E0,9.9580383E-1,0E0,0E0,0E0,0E0,0E0,0E0],"parents":[2147483647,0,0,1,1,2,2,3,3,4,4,6,6],"right_children":[2,4,6,8,10,-1,12,-1,-1,-1,-1,-1,-1],"split_conditions":[-3.2348633E-2,1.2961969E-2,-4.310644E-3,-3.289795E-2,7.7180103E-3,1.687769E-2,8.81958E-2,2.6750218E-3,2.5875855E-2,6.565267E-3,-2.4795296E-2,-3.1447507E-2,-8.192714E-3],"split_indices":[498,2822,2310,665,2434,0,256,0,0,0,0,0,0],"split_type":[0,0,0,0,0,0,0,0,0,0,0,0,0],"sum_hessian":[9.4043915E1,7.370269E1,2.0341223E1,5.211872E1,2.1583971E1,4.9660528E-1,1.9844618E1,2.304426E1,2.907446E1,1.1561474E1,1.0022496E1,1.7652374E1,2.1922448E0],"tree_param":{"num_deleted":"0","num_feature":"3072","num_nodes":"13","size_leaf_vector":"0"}},{"base_weights":[4.7581214E-2,-6.795329E-1,4.573383E-1,-1.1578586E0,3.0655932E-1,-7.5883245E-1,6.118086E-1,5.3575425E-3,-3.3125285E-2,-1.0444978E-2,2.4723288E-2,5.2607395E-3,-3.1457458E-2,1.6089758E-3,2.6924044E-2],"categories":[],"categories_nodes":[],"categories_segments":[],"categories_sizes":[],"default_left":[false,false,false,false,false,false,false,false,false,false,false,false,false,false,false],"id":30,"left_children":[1,3,5,7,9,11,13,-1,-1,-1,-1,-1,-1,-1,-1],"loss_changes":[2.749729E1,1.6057167E1,1.1540203E1,4.577854E0,5.9166484E0,3.4887886E0,1.2769047E1,0E0,0E0,0E0,0E0,0E0,0E0,0E0,0E0],"parents":[2147483647,0,0,1,1,2,2,3,3,4,4,5,5,6,6],"right_children":[2,4,6,8,10,12,14,-1,-1,-1,-1,-1,-1,-1,-1],"split_conditions":[2.1146864E-3,1.6708374E-2,-1.7711913E-2,2.9192743E-1,-3.1177616E-2,6.01115E-1,1.0650635E-2,5.3575425E-3,-3.3125285E-2,-1.0444978E-2,2.4723288E-2,5.2607395E-3,-3.1457458E-2,1.6089758E-3,2.6924044E-2],"split_indices":[2797,785,2412,175,3064,206,634,0,0,0,0,0,0,0,0],"split_type":[0,0,0,0,0,0,0,0,0,0,0,0,0,0,0],"sum_hessian":[9.024824E1,3.2290447E1,5.795779E1,2.162606E1,1.0664386E1,6.090869E0,5.1866924E1,1.9502392E0,1.9675821E1,5.3062344E0,5.358152E0,2.1889906E0,3.901878E0,2.365901E1,2.8207914E1],"tree_param":{"num_deleted":"0","num_feature":"3072","num_nodes":"15","size_leaf_vector":"0"}},{"base_weights":[9.186952E-2,3.8462543E-1,-9.125363E-1,-1.0871769E0,5.0046414E-1,-2.785592E-1,-1.2348841E0,8.504014E-3,-3.719374E-2,1.7655564E-2,-8.471963E-3,2.7754819E-2,-1.525249E-2,-6.8259793E-3,-3.2994885E-2],"categories":[],"categories_nodes":[],"categories_segments":[],"categories_sizes":[],"default_left":[false,false,false,false,false,false,false,false,false,false,false,false,false,false,false],"id":31,"left_children":[1,3,5,7,9,11,13,-1,-1,-1,-1,-1,-1,-1,-1],"loss_changes":[2.7600267E1,1.2897746E1,3.990759E0,3.421579E0,1.1005423E1,4.3211575E0,4.1441536E-1,0E0,0E0,0E0,0E0,0E0,0E0,0E0,0E0],"parents":[2147483647,0,0,1,1,2,2,3,3,4,4,5,5,6,6],"right_children":[2,4,6,8,10,12,14,-1,-1,-1,-1,-1,-1,-1,-1],"split_conditions":[-3.2348633E-2,3.6346436E-2,1.5599452E-1,1E0,4.4955336E-2,2.0584494E-2,2.9192743E-1,8.504014E-3,-3.719374E-2,1.7655564E-2,-8.471963E-3,2.7754819E-2,-1.525249E-2,-6.8259793E-3,-3.2994885E-2],"split_indices":[498,1281,74,129,2751,192,144,0,0,0,0,0,0,0,0],"split_type":[0,0,0,0,0,0,0,0,0,0,0,0,0,0,0],"sum_hessian":[9.167021E1,7.145899E1,2.0211214E1,4.6020336E0,6.6856964E1,7.44093E0,1.2770285E1,9.696066E-1,3.6324272E0,5.4523243E1,1.2333717E1,9.518994E-1,6.489031E0,1.0270939E0,1.1743191E1],"tree_param":{"num_deleted":"0","num_feature":"3072","num_nodes":"15","size_leaf_vector":"0"}},{"base_weights":[1.6951032E-2,-6.4546204E-1,3.4345627E-1,-9.248823E-1,4.7360402E-1,-2.0980799E-1,6.756737E-1,-2.4244403E-3,-2.941237E-2,-1.4266806E-2,2.6962256E-2,-1.708848E-2,9.789656E-3,-7.829196E-3,2.3638383E-2],"categories":[],"categories_nodes":[],"categories_segments":[],"categories_sizes":[],"default_left":[false,false,false,false,false,false,false,false,false,false,false,false,false,false,false],"id":32,"left_children":[1,3,5,7,9,11,13,-1,-1,-1,-1,-1,-1,-1,-1],"loss_changes":[2.1079435E1,1.0502783E1,1.213504E1,4.8014946E0,4.8512015E0,7.1331334E0,1.0348127E1,0E0,0E0,0E0,0E0,0E0,0E0,0E0,0E0],"parents":[2147483647,0,0,1,1,2,2,3,3,4,4,5,5,6,6],"right_children":[2,4,6,8,10,12,14,-1,-1,-1,-1,-1,-1,-1,-1],"split_conditions":[6.9298577E-3,2.0341002E-3,-4.581274E-3,-4.6374886E-3,9.6990985E-1,-1.603228E-2,1.5599452E-1,-2.4244403E-3,-2.941237E-2,-1.4266806E-2,2.6962256E-2,-1.708848E-2,9.789656E-3,-7.829196E-3,2.3638383E-2],"split_indices":[486,2710,2700,1189,83,2643,73,0,0,0,0,0,0,0,0],"split_type":[0,0,0,0,0,0,0,0,0,0,0,0,0,0,0],"sum_hessian":[9.5438034E1,3.1187672E1,6.425036E1,2.5095167E1,6.0925035E0,2.4243868E1,4.0006496E1,5.6893125E0,1.9405855E1,2.2113984E0,3.8811054E0,1.3591288E1,1.0652579E1,8.067543E0,3.1938951E1],"tree_param":{"num_deleted":"0","num_feature":"3072","num_nodes":"15","size_leaf_vector":"0"}},{"base_weights":[-2.0069422E-1,-7.049452E-1,3.881767E-1,1.8527722E-2,-1.0098261E0,1.0248325E0,1.17500825E-2,-3.408226E-2,1.0006232E-2,-9.044881E-3,-3.2112572E-2,-1.9115692E-2,3.3418395E-2,1.3237113E-2,-1.4599879E-2],"categories":[],"categories_nodes":[],"categories_segments":[],"categories_sizes":[],"default_left":[false,false,false,false,false,false,false,false,false,false,false,false,false,false,false],"id":33,"left_children":[1,3,5,7,9,11,13,-1,-1,-1,-1,-1,-1,-1,-1],"loss_changes":[2.5846842E1,1.033049E1,9.663483E0,8.018486E0,4.8955803E0,8.519042E0,8.093023E0,0E0,0E0,0E0,0E0,0E0,0E0,0E0,0E0],"parents":[2147483647,0,0,1,1,2,2,3,3,4,4,5,5,6,6],"right_children":[2,4,6,8,10,12,14,-1,-1,-1,-1,-1,-1,-1,-1],"split_conditions":[1.2939453E-2,-1.6554678E-2,-4.4005785E-2,3.0090148E-2,1E0,1E0,-8.94165E-3,-3.408226E-2,1.0006232E-2,-9.044881E-3,-3.2112572E-2,-1.9115692E-2,3.3418395E-2,1.3237113E-2,-1.4599879E-2],"split_indices":[486,2809,2409,168,193,176,280,0,0,0,0,0,0,0,0],"split_type":[0,0,0,0,0,0,0,0,0,0,0,0,0,0,0],"sum_hessian":[8.5122795E1,4.5749943E1,3.9372852E1,1.3842157E1,3.1907787E1,1.3989568E1,2.5383286E1,2.4362044E0,1.1405952E1,9.410623E0,2.2497164E1,1.7031635E0,1.2286405E1,1.3646344E1,1.1736942E1],"tree_param":{"num_deleted":"0","num_feature":"3072","num_nodes":"15","size_leaf_vector":"0"}},{"base_weights":[2.8764656E-2,-6.790623E-1,3.3385992E-1,2.9784665E-1,-8.582178E-1,-2.3673578E-1,7.805135E-1,2.5742816E-2,-9.846302E-3,1.2235436E-2,-2.5333557E-2,1.4903269E-2,-1.9132549E-2,-1.757794E-3,2.3755781E-2],"categories":[],"categories_nodes":[],"categories_segments":[],"categories_sizes":[],"default_left":[false,false,false,false,false,false,false,false,false,false,false,false,false,false,false],"id":34,"left_children":[1,3,5,7,9,11,13,-1,-1,-1,-1,-1,-1,-1,-1],"loss_changes":[1.9365427E1,4.9852066E0,1.6139032E1,2.781034E0,4.6043606E0,1.2312148E1,4.5561943E0,0E0,0E0,0E0,0E0,0E0,0E0,0E0,0E0],"parents":[2147483647,0,0,1,1,2,2,3,3,4,4,5,5,6,6],"right_children":[2,4,6,8,10,12,14,-1,-1,-1,-1,-1,-1,-1,-1],"split_conditions":[4.3754578E-3,7.080726E-1,-9.945761E-4,2.0584494E-2,-2.6892298E-3,5.8083612E-2,1E0,2.5742816E-2,-9.846302E-3,1.2235436E-2,-2.5333557E-2,1.4903269E-2,-1.9132549E-2,-1.757794E-3,2.3755781E-2],"split_indices":[486,231,2788,215,2529,159,56,0,0,0,0,0,0,0,0],"split_type":[0,0,0,0,0,0,0,0,0,0,0,0,0,0,0],"sum_hessian":[8.762377E1,2.6023352E1,6.160042E1,3.9301744E0,2.2093178E1,2.725386E1,3.434656E1,1.6944716E0,2.2357028E0,1.7733755E0,2.0319801E1,1.0425398E1,1.6828463E1,5.225569E0,2.9120995E1],"tree_param":{"num_deleted":"0","num_feature":"3072","num_nodes":"15","size_leaf_vector":"0"}},{"base_weights":[-1.1642556E-1,-1.2482117E0,1.4892712E-1,8.8276975E-3,-1.2957344E0,-6.6212493E-1,4.8828852E-1,-2.7291048E-3,-3.428877E-2,1.7537879E-2,-2.5258986E-2,-4.1852193E-3,1.8024268E-2],"categories":[],"categories_nodes":[],"categories_segments":[],"categories_sizes":[],"default_left":[false,false,false,false,false,false,false,false,false,false,false,false,false],"id":35,"left_children":[1,3,5,-1,7,9,11,-1,-1,-1,-1,-1,-1],"loss_changes":[2.4907305E1,1.6401196E0,1.8922815E1,0E0,7.191944E-1,9.655243E0,6.9531956E0,0E0,0E0,0E0,0E0,0E0,0E0],"parents":[2147483647,0,0,1,1,2,2,4,4,5,5,6,6],"right_children":[2,4,6,-1,8,10,12,-1,-1,-1,-1,-1,-1],"split_conditions":[1.0665894E-2,-1.2764414E-1,-3.7213117E-2,8.8276975E-3,1E0,-1.1765036E-2,1E0,-2.7291048E-3,-3.428877E-2,1.7537879E-2,-2.5258986E-2,-4.1852193E-3,1.8024268E-2],"split_indices":[1105,2305,2534,0,86,3068,10,0,0,0,0,0,0],"split_type":[0,0,0,0,0,0,0,0,0,0,0,0,0],"sum_hessian":[8.131622E1,1.4740567E1,6.657565E1,2.451531E-1,1.4495415E1,1.9358643E1,4.721701E1,6.736741E-1,1.382174E1,3.5615919E0,1.5797051E1,1.1868192E1,3.534882E1],"tree_param":{"num_deleted":"0","num_feature":"3072","num_nodes":"13","size_leaf_vector":"0"}},{"base_weights":[7.0534565E-2,8.730229E-1,-2.9311877E-1,-8.522443E-1,1.0549387E0,-7.898534E-1,2.5416428E-1,1.4598678E-2,-3.3591162E-2,2.9361906E-2,-9.223781E-3,4.8657223E-3,-2.6910048E-2,-4.7742147E-3,2.2690868E-2],"categories":[],"categories_nodes":[],"categories_segments":[],"categories_sizes":[],"default_left":[false,false,false,false,false,false,false,false,false,false,false,false,false,false,false],"id":36,"left_children":[1,3,5,7,9,11,13,-1,-1,-1,-1,-1,-1,-1,-1],"loss_changes":[2.620078E1,9.679337E0,1.7036457E1,2.8756208E0,3.8694267E0,8.659439E0,8.621608E0,0E0,0E0,0E0,0E0,0E0,0E0,0E0,0E0],"parents":[2147483647,0,0,1,1,2,2,3,3,4,4,5,5,6,6],"right_children":[2,4,6,8,10,12,14,-1,-1,-1,-1,-1,-1,-1,-1],"split_conditions":[-7.007599E-3,-3.360873E-2,1.3448209E-2,1.5599452E-1,3.8969103E-2,-7.5852033E-3,5.508423E-3,1.4598678E-2,-3.3591162E-2,2.9361906E-2,-9.223781E-3,4.8657223E-3,-2.6910048E-2,-4.7742147E-3,2.2690868E-2],"split_indices":[307,2577,2875,28,2565,2572,765,0,0,0,0,0,0,0,0],"split_type":[0,0,0,0,0,0,0,0,0,0,0,0,0,0,0],"sum_hessian":[8.790483E1,2.6975723E1,6.0929108E1,2.2215905E0,2.4754133E1,3.170722E1,2.922189E1,4.8758468E-1,1.7340057E0,2.3378632E1,1.3755012E0,6.7817054E0,2.4925514E1,1.765176E1,1.1570128E1],"tree_param":{"num_deleted":"0","num_feature":"3072","num_nodes":"15","size_leaf_vector":"0"}},{"base_weights":[1.5799627E-2,-5.72137E-1,5.022865E-1,-1.0715582E0,2.1979652E-1,-6.7791843E-1,6.941565E-1,-2.1444044E-4,-3.0732952E-2,2.3828957E-2,-1.5089909E-2,9.244694E-3,-2.6299622E-2,2.168934E-2,-9.259404E-3],"categories":[],"categories_nodes":[],"categories_segments":[],"categories_sizes":[],"default_left":[false,false,false,false,false,false,false,false,false,false,false,false,false,false,false],"id":37,"left_children":[1,3,5,7,9,11,13,-1,-1,-1,-1,-1,-1,-1,-1],"loss_changes":[2.6523169E1,1.6846878E1,1.1957284E1,3.6222706E0,1.0422122E1,3.1531065E0,7.539072E0,0E0,0E0,0E0,0E0,0E0,0E0,0E0,0E0],"parents":[2147483647,0,0,1,1,2,2,3,3,4,4,5,5,6,6],"right_children":[2,4,6,8,10,12,14,-1,-1,-1,-1,-1,-1,-1,-1],"split_conditions":[1.6708374E-2,1.4533596E-2,-2.630093E-2,-6.0418086E-5,8.18175E-1,9.419164E-1,5.2759662E-2,-2.1444044E-4,-3.0732952E-2,2.3828957E-2,-1.5089909E-2,9.244694E-3,-2.6299622E-2,2.168934E-2,-9.259404E-3],"split_indices":[785,2971,2919,2637,188,191,2962,0,0,0,0,0,0,0,0],"split_type":[0,0,0,0,0,0,0,0,0,0,0,0,0,0,0],"sum_hessian":[9.072602E1,4.1E1,4.9726017E1,2.492704E1,1.6072962E1,6.5994096E0,4.3126606E1,2.8662357E0,2.2060804E1,8.469943E0,7.6030173E0,1.6610641E0,4.9383454E0,3.7778625E1,5.347982E0],"tree_param":{"num_deleted":"0","num_feature":"3072","num_nodes":"15","size_leaf_vector":"0"}},{"base_weights":[-2.699376E-2,3.5188797E-1,-8.118783E-1,7.5087535E-1,-1.9578409E-1,-1.260032E-1,-1.0988691E0,2.3217475E-2,-1.2907975E-2,2.1697354E-2,-1.4629016E-2,-1.47860935E-2,1.9959891E-2,-1.0468821E-2,-3.0728657E-2],"categories":[],"categories_nodes":[],"categories_segments":[],"categories_sizes":[],"default_left":[false,false,false,false,false,false,false,false,false,false,false,false,false,false,false],"id":38,"left_children":[1,3,5,7,9,11,13,-1,-1,-1,-1,-1,-1,-1,-1],"loss_changes":[2.5656923E1,1.2872825E1,5.388485E0,7.1964817E0,1.0472573E1,4.321499E0,9.199619E-1,0E0,0E0,0E0,0E0,0E0,0E0,0E0,0E0],"parents":[2147483647,0,0,1,1,2,2,3,3,4,4,5,5,6,6],"right_children":[2,4,6,8,10,12,14,-1,-1,-1,-1,-1,-1,-1,-1],"split_conditions":[-2.3834229E-2,-1.9749312E-2,-1.6677283E-2,7.6179504E-3,9.419164E-1,3.0090148E-2,-7.5059105E-3,2.3217475E-2,-1.2907975E-2,2.1697354E-2,-1.4629016E-2,-1.47860935E-2,1.9959891E-2,-1.0468821E-2,-3.0728657E-2],"split_indices":[1110,2508,2808,488,164,55,2393,0,0,0,0,0,0,0,0],"split_type":[0,0,0,0,0,0,0,0,0,0,0,0,0,0,0],"sum_hessian":[8.431631E1,5.7237923E1,2.7078386E1,3.2899273E1,2.433865E1,8.412506E0,1.866588E1,2.9465302E1,3.4339728E0,6.119014E0,1.8219635E1,5.8532486E0,2.559258E0,3.1023762E0,1.5563503E1],"tree_param":{"num_deleted":"0","num_feature":"3072","num_nodes":"15","size_leaf_vector":"0"}},{"base_weights":[-6.7351215E-2,6.7185247E-1,-3.706241E-1,1.070531E0,-9.3710774E-1,-1.1692894E0,-5.952831E-2,5.860372E-3,3.1071719E-2,1.9384356E-2,-3.7173178E-2,3.4660948E-4,-3.2227032E-2,-5.434954E-3,3.1443376E-2],"categories":[],"categories_nodes":[],"categories_segments":[],"categories_sizes":[],"default_left":[false,false,false,false,false,false,false,false,false,false,false,false,false,false,false],"id":39,"left_children":[1,3,5,7,9,11,13,-1,-1,-1,-1,-1,-1,-1,-1],"loss_changes":[1.8631891E1,1.6533367E1,1.4537357E1,2.161909E0,5.8007383E0,1.8153305E0,8.840439E0,0E0,0E0,0E0,0E0,0E0,0E0,0E0,0E0],"parents":[2147483647,0,0,1,1,2,2,3,3,4,4,5,5,6,6],"right_children":[2,4,6,8,10,12,14,-1,-1,-1,-1,-1,-1,-1,-1],"split_conditions":[-7.007599E-3,4.5636367E-2,2.17958E-2,1.6755736E-1,2.0584494E-2,6.01115E-1,4.6264257E-2,5.860372E-3,3.1071719E-2,1.9384356E-2,-3.7173178E-2,3.4660948E-4,-3.2227032E-2,-5.434954E-3,3.1443376E-2],"split_indices":[307,2962,2922,223,43,53,2614,0,0,0,0,0,0,0,0],"split_type":[0,0,0,0,0,0,0,0,0,0,0,0,0,0,0],"sum_hessian":[8.1000404E1,2.3210733E1,5.778967E1,1.8869717E1,4.341016E0,1.542668E1,4.2362988E1,3.1725981E0,1.5697119E1,9.0754753E-1,3.4334683E0,1.181306E0,1.4245374E1,3.861266E1,3.7503297E0],"tree_param":{"num_deleted":"0","num_feature":"3072","num_nodes":"15","size_leaf_vector":"0"}},{"base_weights":[-1.1690905E-1,-8.717924E-1,2.36412E-1,2.1050484E-1,-9.832676E-1,-2.8611856E-2,9.7554713E-1,-1.9394245E-2,2.1013832E-2,7.501534E-3,-2.702434E-2,-1.872964E-2,6.7250323E-3,2.2296383E-5,3.0126799E-2],"categories":[],"categories_nodes":[],"categories_segments":[],"categories_sizes":[],"default_left":[false,false,false,false,false,false,false,false,false,false,false,false,false,false,false],"id":40,"left_children":[1,3,5,7,9,11,13,-1,-1,-1,-1,-1,-1,-1,-1],"loss_changes":[2.3999884E1,3.664259E0,1.2085737E1,2.7029653E0,2.811123E0,9.714448E0,3.2357168E0,0E0,0E0,0E0,0E0,0E0,0E0,0E0,0E0],"parents":[2147483647,0,0,1,1,2,2,3,3,4,4,5,5,6,6],"right_children":[2,4,6,8,10,12,14,-1,-1,-1,-1,-1,-1,-1,-1],"split_conditions":[6.99234E-3,7.080726E-1,8.4481845E-3,1.3382386E-1,-7.662546E-2,1.3382386E-1,1.5599452E-1,-1.9394245E-2,2.1013832E-2,7.501534E-3,-2.702434E-2,-1.872964E-2,6.7250323E-3,2.2296383E-5,3.0126799E-2],"split_indices":[486,64,2425,76,2682,225,73,0,0,0,0,0,0,0,0],"split_type":[0,0,0,0,0,0,0,0,0,0,0,0,0,0,0],"sum_hessian":[8.821011E1,2.7655567E1,6.055455E1,2.4995396E0,2.5156027E1,4.5280197E1,1.5274351E1,8.7433195E-1,1.6252075E0,1.2311137E0,2.3924913E1,1.2819848E1,3.246035E1,2.8180556E0,1.2456295E1],"tree_param":{"num_deleted":"0","num_feature":"3072","num_nodes":"15","size_leaf_vector":"0"}},{"base_weights":[-1.25437E-1,-8.75715E-1,1.9993685E-1,-8.411082E-2,-1.0502862E0,6.419864E-1,-1.3656619E-1,2.1647144E-2,-2.0126136E-2,8.67022E-3,-2.843253E-2,-1.1159344E-2,2.3831654E-2,2.1203794E-2,-1.049694E-2],"categories":[],"categories_nodes":[],"categories_segments":[],"categories_sizes":[],"default_left":[false,false,false,false,false,false,false,false,false,false,false,false,false,false,false],"id":41,"left_children":[1,3,5,7,9,11,13,-1,-1,-1,-1,-1,-1,-1,-1],"loss_changes":[2.0895294E1,3.4853249E0,9.015203E0,4.445258E0,2.224722E0,8.610843E0,9.6012745E0,0E0,0E0,0E0,0E0,0E0,0E0,0E0,0E0],"parents":[2147483647,0,0,1,1,2,2,3,3,4,4,5,5,6,6],"right_children":[2,4,6,8,10,12,14,-1,-1,-1,-1,-1,-1,-1,-1],"split_conditions":[4.3754578E-3,-1.8536935E-2,1.6471853E-2,1.5599452E-1,7.080726E-1,-3.2024436E-2,1.5599452E-1,2.1647144E-2,-2.0126136E-2,8.67022E-3,-2.843253E-2,-1.1159344E-2,2.3831654E-2,2.1203794E-2,-1.049694E-2],"split_indices":[486,2607,3029,140,64,852,28,0,0,0,0,0,0,0,0],"split_type":[0,0,0,0,0,0,0,0,0,0,0,0,0,0,0],"sum_hessian":[8.387685E1,2.4860268E1,5.9016582E1,4.759559E0,2.0100708E1,2.5115547E1,3.3901035E1,1.9605353E0,2.7990236E0,6.8103975E-1,1.9419668E1,5.2305226E0,1.9885025E1,7.0477815E0,2.6853252E1],"tree_param":{"num_deleted":"0","num_feature":"3072","num_nodes":"15","size_leaf_vector":"0"}},{"base_weights":[4.62611E-2,6.893037E-1,-3.6858103E-1,-1.7305994E-1,8.669109E-1,4.7467974E-1,-6.5361726E-1,1.1489578E-2,-2.223501E-2,2.8279481E-2,4.6479767E-3,-1.7199421E-2,2.4310254E-2,-4.939706E-3,-2.9908543E-2],"categories":[],"categories_nodes":[],"categories_segments":[],"categories_sizes":[],"default_left":[false,false,false,false,false,false,false,false,false,false,false,false,false,false,false],"id":42,"left_children":[1,3,5,7,9,11,13,-1,-1,-1,-1,-1,-1,-1,-1],"loss_changes":[2.3059046E1,5.337942E0,1.2957108E1,3.2674344E0,4.449835E0,8.24058E0,9.237846E0,0E0,0E0,0E0,0E0,0E0,0E0,0E0,0E0],"parents":[2147483647,0,0,1,1,2,2,3,3,4,4,5,5,6,6],"right_children":[2,4,6,8,10,12,14,-1,-1,-1,-1,-1,-1,-1,-1],"split_conditions":[-2.9337797E-2,-3.2848503E-2,-1.2207031E-2,5.8083612E-2,1.4511108E-2,-4.187943E-2,1.5599452E-1,1.1489578E-2,-2.223501E-2,2.8279481E-2,4.6479767E-3,-1.7199421E-2,2.4310254E-2,-4.939706E-3,-2.9908543E-2],"split_indices":[2324,2654,307,159,1065,2320,148,0,0,0,0,0,0,0,0],"split_type":[0,0,0,0,0,0,0,0,0,0,0,0,0,0,0],"sum_hessian":[8.448839E1,3.287209E1,5.16163E1,5.6182976E0,2.725379E1,1.2871498E1,3.87448E1,3.1554425E0,2.4628549E0,1.9717642E1,7.5361495E0,3.6582515E0,9.213247E0,2.12336E1,1.75112E1],"tree_param":{"num_deleted":"0","num_feature":"3072","num_nodes":"15","size_leaf_vector":"0"}},{"base_weights":[-5.6023363E-2,3.5858572E-1,-5.908942E-1,6.70879E-2,1.1617181E0,-1.0149429E0,1.8863598E-2,-2.3122719E-2,7.92401E-3,-4.3808767E-3,3.1360947E-2,1.0581527E-2,-2.8466318E-2,-1.0638165E-2,2.8853428E-2],"categories":[],"categories_nodes":[],"categories_segments":[],"categories_sizes":[],"default_left":[false,false,false,false,false,false,false,false,false,false,false,false,false,false,false],"id":43,"left_children":[1,3,5,7,9,11,13,-1,-1,-1,-1,-1,-1,-1,-1],"loss_changes":[1.8517649E1,1.0954193E1,9.437018E0,8.707819E0,1.3128891E0,3.523922E0,8.171584E0,0E0,0E0,0E0,0E0,0E0,0E0,0E0,0E0],"parents":[2147483647,0,0,1,1,2,2,3,3,4,4,5,5,6,6],"right_children":[2,4,6,8,10,12,14,-1,-1,-1,-1,-1,-1,-1,-1],"split_conditions":[-2.3162842E-2,-4.5122067E-3,2.7494803E-2,-1.5379173E-2,1E0,-3.7500113E-2,3.9711E-3,-2.3122719E-2,7.92401E-3,-4.3808767E-3,3.1360947E-2,1.0581527E-2,-2.8466318E-2,-1.0638165E-2,2.8853428E-2],"split_indices":[674,2927,2571,2531,186,2770,682,0,0,0,0,0,0,0,0],"split_type":[0,0,0,0,0,0,0,0,0,0,0,0,0,0,0],"sum_hessian":[8.1546776E1,4.6123436E1,3.5423336E1,3.463585E1,1.1487587E1,2.050139E1,1.4921947E1,6.3838344E0,2.8252016E1,4.6819448E-1,1.1019393E1,1.1303198E0,1.937107E1,1.116931E1,3.7526374E0],"tree_param":{"num_deleted":"0","num_feature":"3072","num_nodes":"15","size_leaf_vector":"0"}},{"base_weights":[4.92121E-2,-7.156954E-1,2.8841573E-1,4.159308E-1,-9.6856797E-1,-5.5264777E-1,4.7507197E-1,3.070398E-2,-1.1965262E-2,-2.232867E-3,-2.9826326E-2,-2.8971272E-2,1.2789392E-3,-3.8902494E-4,1.955959E-2],"categories":[],"categories_nodes":[],"categories_segments":[],"categories_sizes":[],"default_left":[false,false,false,false,false,false,false,false,false,false,false,false,false,false,false],"id":44,"left_children":[1,3,5,7,9,11,13,-1,-1,-1,-1,-1,-1,-1,-1],"loss_changes":[1.6116373E1,6.4127054E0,1.0773422E1,3.717187E0,2.9647179E0,4.482315E0,7.900008E0,0E0,0E0,0E0,0E0,0E0,0E0,0E0,0E0],"parents":[2147483647,0,0,1,1,2,2,3,3,4,4,5,5,6,6],"right_children":[2,4,6,8,10,12,14,-1,-1,-1,-1,-1,-1,-1,-1],"split_conditions":[2.33078E-3,1E0,-2.289458E-2,1.8182497E-1,1.5599452E-1,4.1809082E-2,2.8636858E-2,3.070398E-2,-1.1965262E-2,-2.232867E-3,-2.9826326E-2,-2.8971272E-2,1.2789392E-3,-3.8902494E-4,1.955959E-2],"split_indices":[486,193,2604,253,226,332,2840,0,0,0,0,0,0,0,0],"split_type":[0,0,0,0,0,0,0,0,0,0,0,0,0,0,0],"sum_hessian":[8.5954544E1,2.0001915E1,6.595263E1,3.535487E0,1.6466429E1,1.162231E1,5.4330315E1,1.6813953E0,1.8540916E0,3.3023915E0,1.3164037E1,5.4654093E0,6.156901E0,2.0578506E1,3.375181E1],"tree_param":{"num_deleted":"0","num_feature":"3072","num_nodes":"15","size_leaf_vector":"0"}},{"base_weights":[9.843216E-2,-3.3245867E-1,7.7979565E-1,1.18275896E-1,-8.262966E-1,-1.2866502E-1,9.9638754E-1,-3.186807E-2,9.825187E-3,-2.4651183E-2,4.451766E-3,2.5147129E-2,-1.3809245E-2,8.498082E-3,3.204381E-2],"categories":[],"categories_nodes":[],"categories_segments":[],"categories_sizes":[],"default_left":[false,false,false,false,false,false,false,false,false,false,false,false,false,false,false],"id":45,"left_children":[1,3,5,7,9,11,13,-1,-1,-1,-1,-1,-1,-1,-1],"loss_changes":[2.583951E1,1.2134403E1,6.828581E0,1.1087882E1,3.7722244E0,3.945795E0,4.3151855E0,0E0,0E0,0E0,0E0,0E0,0E0,0E0,0E0],"parents":[2147483647,0,0,1,1,2,2,3,3,4,4,5,5,6,6],"right_children":[2,4,6,8,10,12,14,-1,-1,-1,-1,-1,-1,-1,-1],"split_conditions":[1.9821167E-2,-2.6558295E-2,-3.502001E-2,8.3244264E-1,3.7994385E-2,1.5599452E-1,1.3382386E-1,-3.186807E-2,9.825187E-3,-2.4651183E-2,4.451766E-3,2.5147129E-2,-1.3809245E-2,8.498082E-3,3.204381E-2],"split_indices":[1084,2916,3064,137,1056,141,87,0,0,0,0,0,0,0,0],"split_type":[0,0,0,0,0,0,0,0,0,0,0,0,0,0,0],"sum_hessian":[8.612823E1,5.307557E1,3.3052654E1,2.8146374E1,2.4929195E1,6.4413576E0,2.6611298E1,3.992414E0,2.415396E1,2.192133E1,3.007865E0,1.3645904E0,5.076767E0,8.096132E0,1.8515165E1],"tree_param":{"num_deleted":"0","num_feature":"3072","num_nodes":"15","size_leaf_vector":"0"}},{"base_weights":[6.5770326E-3,2.848438E-1,-7.019787E-1,-5.5287105E-1,4.8648316E-1,-9.202059E-1,6.756248E-1,2.7880792E-2,-2.6448442E-2,-2.8838707E-2,1.5789455E-2,-2.7003394E-2,1.4385634E-2,-1.167942E-2,2.6890313E-2],"categories":[],"categories_nodes":[],"categories_segments":[],"categories_sizes":[],"default_left":[false,false,false,false,false,false,false,false,false,false,false,false,false,false,false],"id":46,"left_children":[1,3,5,7,9,11,13,-1,-1,-1,-1,-1,-1,-1,-1],"loss_changes":[1.717287E1,1.0829773E1,8.006032E0,1.1130631E1,1.1537428E1,4.994158E0,2.16354E0,0E0,0E0,0E0,0E0,0E0,0E0,0E0,0E0],"parents":[2147483647,0,0,1,1,2,2,3,3,4,4,5,5,6,6],"right_children":[2,4,6,8,10,12,14,-1,-1,-1,-1,-1,-1,-1,-1],"split_conditions":[-2.3834229E-2,1E0,1.2719168E-3,-1.8096682E-2,3.8482666E-2,1.7089844E-2,8.4400547E-1,2.7880792E-2,-2.6448442E-2,-2.8838707E-2,1.5789455E-2,-2.7003394E-2,1.4385634E-2,-1.167942E-2,2.6890313E-2],"split_indices":[1110,165,2520,2896,1289,274,26,0,0,0,0,0,0,0,0],"split_type":[0,0,0,0,0,0,0,0,0,0,0,0,0,0,0],"sum_hessian":[8.508373E1,6.152097E1,2.3562763E1,1.1597409E1,4.9923557E1,2.0627214E1,2.935549E0,2.345382E0,9.2520275E0,3.1932106E0,4.6730347E1,1.9145126E1,1.4820882E0,6.803137E-1,2.2552352E0],"tree_param":{"num_deleted":"0","num_feature":"3072","num_nodes":"15","size_leaf_vector":"0"}},{"base_weights":[7.8118388E-3,-4.812601E-1,4.9073344E-1,-9.698477E-1,2.3772635E-1,-1.0103412E-1,8.4013325E-1,3.1804286E-3,-2.7131125E-2,-2.4475968E-2,1.5327322E-2,-2.13915E-2,8.957823E-3,-1.3319619E-2,2.5365984E-2],"categories":[],"categories_nodes":[],"categories_segments":[],"categories_sizes":[],"default_left":[false,false,false,false,false,false,false,false,false,false,false,false,false,false,false],"id":47,"left_children":[1,3,5,7,9,11,13,-1,-1,-1,-1,-1,-1,-1,-1],"loss_changes":[2.089608E1,1.56749735E1,9.287694E0,2.8009071E0,8.633941E0,6.0889926E0,6.37294E0,0E0,0E0,0E0,0E0,0E0,0E0,0E0,0E0],"parents":[2147483647,0,0,1,1,2,2,3,3,4,4,5,5,6,6],"right_children":[2,4,6,8,10,12,14,-1,-1,-1,-1,-1,-1,-1,-1],"split_conditions":[1.6708374E-2,1.4533596E-2,-1.0581993E-2,-5.5843685E-2,8.4400547E-1,1.3382386E-1,1E0,3.1804286E-3,-2.7131125E-2,-2.4475968E-2,1.5327322E-2,-2.13915E-2,8.957823E-3,-1.3319619E-2,2.5365984E-2],"split_indices":[785,2971,2788,2723,61,225,186,0,0,0,0,0,0,0,0],"split_type":[0,0,0,0,0,0,0,0,0,0,0,0,0,0,0],"sum_hessian":[8.6474014E1,4.2965134E1,4.350888E1,2.5373589E1,1.7591543E1,1.6416168E1,2.7092714E1,1.9496862E0,2.3423903E1,3.7083445E0,1.38832E1,5.916442E0,1.0499726E1,2.4944324E0,2.4598282E1],"tree_param":{"num_deleted":"0","num_feature":"3072","num_nodes":"15","size_leaf_vector":"0"}},{"base_weights":[3.6888414E-3,-4.2995134E-1,3.8421965E-1,-1.0712541E0,5.571101E-2,-2.3346739E-1,8.345929E-1,-1.8847358E-3,-2.9719852E-2,1.4370085E-2,-1.2343526E-2,-3.4197435E-2,3.9434847E-3,-9.868148E-3,2.4354408E-2],"categories":[],"categories_nodes":[],"categories_segments":[],"categories_sizes":[],"default_left":[false,false,false,false,false,false,false,false,false,false,false,false,false,false,false],"id":48,"left_children":[1,3,5,7,9,11,13,-1,-1,-1,-1,-1,-1,-1,-1],"loss_changes":[1.46529E1,1.2987286E1,1.3350496E1,1.5675049E0,6.9857545E0,9.092541E0,4.373701E0,0E0,0E0,0E0,0E0,0E0,0E0,0E0,0E0],"parents":[2147483647,0,0,1,1,2,2,3,3,4,4,5,5,6,6],"right_children":[2,4,6,8,10,12,14,-1,-1,-1,-1,-1,-1,-1,-1],"split_conditions":[1.6708374E-2,3.1138638E-2,-9.716502E-3,-3.5646796E-2,8.18175E-1,1E0,1E0,-1.8847358E-3,-2.9719852E-2,1.4370085E-2,-1.2343526E-2,-3.4197435E-2,3.9434847E-3,-9.868148E-3,2.4354408E-2],"split_indices":[785,3044,2788,321,188,87,97,0,0,0,0,0,0,0,0],"split_type":[0,0,0,0,0,0,0,0,0,0,0,0,0,0,0],"sum_hessian":[8.679712E1,4.0506916E1,4.62902E1,1.6936718E1,2.3570198E1,1.9722458E1,2.6567741E1,1.5886161E0,1.5348103E1,1.2123876E1,1.1446323E1,4.485559E0,1.5236898E1,2.1597412E0,2.4408E1],"tree_param":{"num_deleted":"0","num_feature":"3072","num_nodes":"15","size_leaf_vector":"0"}},{"base_weights":[6.1501015E-2,-1.0495269E0,2.777178E-1,2.757856E-1,-1.1631982E0,5.153378E-1,-5.1513857E-1,-1.0765445E-2,1.945693E-2,-5.633047E-3,-3.0497828E-2,2.076467E-2,7.688619E-4,-2.20807E-2,1.5321415E-2],"categories":[],"categories_nodes":[],"categories_segments":[],"categories_sizes":[],"default_left":[false,false,false,false,false,false,false,false,false,false,false,false,false,false,false],"id":49,"left_children":[1,3,5,7,9,11,13,-1,-1,-1,-1,-1,-1,-1,-1],"loss_changes":[2.0138931E1,2.3799896E0,1.3444374E1,9.610325E-1,1.0926056E-1,7.822341E0,6.99824E0,0E0,0E0,0E0,0E0,0E0,0E0,0E0,0E0],"parents":[2147483647,0,0,1,1,2,2,3,3,4,4,5,5,6,6],"right_children":[2,4,6,8,10,12,14,-1,-1,-1,-1,-1,-1,-1,-1],"split_conditions":[2.7130127E-2,-4.6426496E-3,3.6202602E-2,3.0090148E-2,3.0090148E-2,1.3523463E-2,-6.2279566E-4,-1.0765445E-2,1.945693E-2,-5.633047E-3,-3.0497828E-2,2.076467E-2,7.688619E-4,-2.20807E-2,1.5321415E-2],"split_indices":[867,2323,2714,11,45,2734,2520,0,0,0,0,0,0,0,0],"split_type":[0,0,0,0,0,0,0,0,0,0,0,0,0,0,0],"sum_hessian":[8.162101E1,1.2668743E1,6.895226E1,8.8809794E-1,1.1780645E1,5.332171E1,1.5630556E1,4.19302E-1,4.6879596E-1,6.325916E-1,1.1148054E1,3.262843E1,2.069328E1,1.207214E1,3.5584161E0],"tree_param":{"num_deleted":"0","num_feature":"3072","num_nodes":"15","size_leaf_vector":"0"}}]},"name":"gbtree"},"learner_model_param":{"base_score":"5E-1","num_class":"0","num_feature":"3072"},"objective":{"name":"binary:logistic","reg_loss_param":{"scale_pos_weight":"1"}}},"version":[1,5,1]}